{
  "generation": 13,
  "brains": [
    {
      "biases": [
        {
          "array": [
            [-0.4965916872024536],
            [0.06821095943450928],
            [0.4974179267883301],
            [-0.19279348850250244],
            [-0.45926904678344727],
            [0.9746463298797607],
            [0.178183913230896],
            [0.6995060443878174],
            [0.07320984452962875],
            [0.6641504764556885],
            [0.5499144792556763],
            [0.7887217998504639],
            [0.596725344657898],
            [0.9674561023712158],
            [0.908186674118042],
            [-0.4886833429336548]
          ],
          "column": 1,
          "row": 16
        },
        {
          "array": [
            [0.875206708908081],
            [-0.5283230543136597],
            [0.07579433917999268],
            [-0.26331984996795654],
            [-0.6270663738250732],
            [-0.010453343391418457],
            [-0.4270906448364258]
          ],
          "column": 1,
          "row": 7
        }
      ],
      "weights": [
        {
          "array": [
            [
              -0.5302799940109253,
              -0.15698575973510742,
              0.675756573677063,
              0.761757493019104,
              -0.37560105323791504,
              -0.1978015899658203,
              0.5075620412826538,
              -0.6291025876998901,
              0.37066566944122314
            ],
            [
              0.9486041069030762,
              0.9775537252426147,
              -0.5308569669723511,
              -0.5315585136413574,
              -0.25744616985321045,
              0.7576333284378052,
              -0.3045034408569336,
              -0.9651694297790527,
              -0.28105151653289795
            ],
            [
              0.9502372741699219,
              -0.811586856842041,
              -0.08938074111938477,
              -0.44587910175323486,
              0.7261241674423218,
              -0.18760526180267334,
              0.749313235282898,
              -0.9092979431152344,
              0.21413075923919678
            ],
            [
              0.4196552038192749,
              0.7933089733123779,
              0.2649562358856201,
              0.29196298122406006,
              -0.8661986589431763,
              0.09166038036346436,
              -0.8558521270751953,
              -0.08645939826965332,
              -0.19690406322479248
            ],
            [
              -0.17599833011627197,
              -0.6618219614028931,
              -0.967501163482666,
              -0.18020260334014893,
              0.5681109428405762,
              0.44100236892700195,
              -0.9861481189727783,
              0.24594223499298096,
              -0.2918379306793213
            ],
            [
              0.5804779529571533,
              0.007899712771177292,
              -0.1623523235321045,
              0.9320036172866821,
              0.9637935161590576,
              -0.7685017585754395,
              -0.7612978219985962,
              -0.10485708713531494,
              -0.9907083511352539
            ],
            [
              -0.7011501789093018,
              0.8452631235122681,
              0.9040871858596802,
              -0.5797010660171509,
              0.03583347797393799,
              0.05855214595794678,
              -0.05888080596923828,
              -0.2951892614364624,
              -0.0024334192276000977
            ],
            [
              -0.32060492038726807,
              -0.15344750881195068,
              -0.8449503183364868,
              -0.679865837097168,
              0.8014668226242065,
              -0.8956594467163086,
              0.30778777599334717,
              0.5357321500778198,
              -0.12047111988067627
            ],
            [
              0.8351837396621704,
              -0.7990809679031372,
              0.059662818908691406,
              -0.2585411071777344,
              -0.5381759405136108,
              -0.7286527156829834,
              0.742232084274292,
              -0.3586629629135132,
              -0.47089600563049316
            ],
            [
              0.10733211040496826,
              0.5579314231872559,
              0.38442540168762207,
              0.9932622313499451,
              0.23478686809539795,
              -0.6678265333175659,
              0.8689429759979248,
              0.25516772270202637,
              0.09764766693115234
            ],
            [
              -0.27200114727020264,
              -0.2342684268951416,
              0.5141626596450806,
              0.9596112966537476,
              0.908544659614563,
              0.5831362009048462,
              0.8041318655014038,
              -0.16322088241577148,
              -0.7361534833908081
            ],
            [
              -0.9651936292648315,
              -0.029381155967712402,
              -0.8471848964691162,
              0.2822040319442749,
              0.8430694341659546,
              0.5783154964447021,
              -0.36886298656463623,
              -0.4724229574203491,
              0.17666566371917725
            ],
            [
              0.9938286542892456,
              -0.8003107309341431,
              0.257235050201416,
              0.5518624782562256,
              -0.06446552276611328,
              -0.7635092735290527,
              -0.48861801624298096,
              0.8394162654876709,
              0.02144336700439453
            ],
            [
              -0.6618030071258545,
              0.5931509733200073,
              0.041924118995666504,
              -0.15832149982452393,
              -0.38463544845581055,
              -0.6710695028305054,
              0.6684383153915405,
              -0.19645023345947266,
              0.1292259693145752
            ],
            [
              0.9823919534683228,
              -0.8263047933578491,
              0.27437257766723633,
              -0.03590428829193115,
              0.3490332365036011,
              -0.7079187631607056,
              0.9914673566818237,
              0.21179354190826416,
              -0.428993821144104
            ],
            [
              -0.1680905818939209,
              -0.7872542142868042,
              0.12070095539093018,
              -0.694861888885498,
              0.16035115718841553,
              -0.6812121868133545,
              0.2795443534851074,
              0.8023608922958374,
              0.16635358333587646
            ]
          ],
          "column": 9,
          "row": 16
        },
        {
          "array": [
            [
              0.23625922203063965,
              0.9553543329238892,
              -0.9065964221954346,
              0.5435160398483276,
              0.8224426507949829,
              -0.12490701675415039,
              0.3589761257171631,
              -0.8882131576538086,
              0.04637336730957031,
              -0.5216720104217529,
              0.21535301208496094,
              -0.27151215076446533,
              -0.5386497974395752,
              0.8693215847015381,
              0.714911937713623,
              -0.6751036643981934
            ],
            [
              0.22897779941558838,
              -0.201124906539917,
              -0.448455810546875,
              0.20203566551208496,
              -0.7878315448760986,
              -0.16608619689941406,
              0.32802271842956543,
              0.5328143835067749,
              -0.6031595468521118,
              0.21073222160339355,
              0.48963463306427,
              0.7585848569869995,
              0.09745180606842041,
              -0.2460765838623047,
              -0.1389545202255249,
              -0.032774925231933594
            ],
            [
              0.9618717432022095,
              -0.008537530899047852,
              0.11313951015472412,
              -0.03761768341064453,
              -0.45016181468963623,
              0.6540728807449341,
              0.5171056985855103,
              0.38498449325561523,
              0.6089178323745728,
              -0.09511911869049072,
              -0.7649850845336914,
              -0.014838337898254395,
              -0.713659405708313,
              0.850717306137085,
              0.4015113115310669,
              -0.5717787742614746
            ],
            [
              -0.1506253480911255,
              0.7427959442138672,
              -0.8467718362808228,
              -0.7785792350769043,
              0.2773820161819458,
              0.541617751121521,
              -0.6244184970855713,
              -0.7556208372116089,
              0.8529250621795654,
              0.6148674488067627,
              0.6064021587371826,
              0.6366950273513794,
              0.9161043167114258,
              -0.16998052597045898,
              0.6393917798995972,
              -0.47040534019470215
            ],
            [
              -0.16421794891357422,
              -0.5760996341705322,
              -0.1841716766357422,
              -0.7016487121582031,
              0.3548084497451782,
              0.1642972230911255,
              0.719762921333313,
              -0.9408100843429565,
              0.4263956546783447,
              -0.4950960874557495,
              0.4708385467529297,
              0.34506547451019287,
              0.8992117643356323,
              0.8716964721679688,
              0.5417778491973877,
              0.9819542169570923
            ],
            [
              0.6346633434295654,
              0.7597669363021851,
              -0.9522619247436523,
              -0.22970962524414062,
              0.33753788471221924,
              0.9744625091552734,
              0.8265650272369385,
              -0.3197239637374878,
              -0.6817429065704346,
              0.7854112386703491,
              -0.051802754402160645,
              0.9944002032279968,
              -0.8697209358215332,
              0.7989178895950317,
              -0.8149633407592773,
              -0.16391897201538086
            ],
            [
              0.3697636127471924,
              -0.5281964540481567,
              0.6012072563171387,
              0.602407693862915,
              0.4978039264678955,
              0.022812485694885254,
              -0.03327512741088867,
              -0.5070821046829224,
              -0.7590930461883545,
              0.05827764421701431,
              0.8934077024459839,
              0.37755322456359863,
              -0.3831918239593506,
              0.753535270690918,
              -0.8251873254776001,
              0.3674290180206299
            ]
          ],
          "column": 16,
          "row": 7
        }
      ]
    },
    {
      "biases": [
        {
          "array": [
            [-0.4965916872024536],
            [0.06821095943450928],
            [0.4974179267883301],
            [-0.19279348850250244],
            [-0.45926904678344727],
            [0.9746463298797607],
            [0.178183913230896],
            [0.6995060443878174],
            [0.07320984452962875],
            [0.6641504764556885],
            [0.5499144792556763],
            [0.7887217998504639],
            [0.596725344657898],
            [0.9674561023712158],
            [0.908186674118042],
            [-0.4886833429336548]
          ],
          "column": 1,
          "row": 16
        },
        {
          "array": [
            [0.875206708908081],
            [-0.5283230543136597],
            [0.07579433917999268],
            [-0.26331984996795654],
            [-0.6270663738250732],
            [-0.010453343391418457],
            [-0.4270906448364258]
          ],
          "column": 1,
          "row": 7
        }
      ],
      "weights": [
        {
          "array": [
            [
              0.8953677415847778,
              -0.15698575973510742,
              0.675756573677063,
              0.761757493019104,
              -0.37560105323791504,
              -0.1978015899658203,
              0.5075620412826538,
              -0.6291025876998901,
              0.37066566944122314
            ],
            [
              0.9486041069030762,
              0.9775537252426147,
              -0.5308569669723511,
              -0.5315585136413574,
              -0.25744616985321045,
              0.7576333284378052,
              -0.3045034408569336,
              -0.9651694297790527,
              -0.28105151653289795
            ],
            [
              0.9502372741699219,
              -0.811586856842041,
              -0.08938074111938477,
              -0.44587910175323486,
              0.7261241674423218,
              -0.18760526180267334,
              0.749313235282898,
              -0.9092979431152344,
              0.21413075923919678
            ],
            [
              0.4196552038192749,
              0.7933089733123779,
              0.2649562358856201,
              0.29196298122406006,
              -0.8661986589431763,
              0.09166038036346436,
              -0.8558521270751953,
              -0.08645939826965332,
              0.02545776404440403
            ],
            [
              -0.17599833011627197,
              -0.6618219614028931,
              -0.967501163482666,
              -0.18020260334014893,
              0.5681109428405762,
              0.44100236892700195,
              -0.9861481189727783,
              0.24594223499298096,
              -0.2918379306793213
            ],
            [
              0.5804779529571533,
              -0.33149099349975586,
              -0.1623523235321045,
              0.9320036172866821,
              0.9637935161590576,
              0.0048949564807116985,
              -0.7612978219985962,
              -0.10485708713531494,
              -0.9907083511352539
            ],
            [
              -0.7011501789093018,
              0.8452631235122681,
              0.9040871858596802,
              -0.5797010660171509,
              0.03583347797393799,
              0.05855214595794678,
              -0.05888080596923828,
              -0.2951892614364624,
              -0.0024334192276000977
            ],
            [
              -0.32060492038726807,
              -0.15344750881195068,
              -0.8449503183364868,
              -0.679865837097168,
              0.8014668226242065,
              -0.8956594467163086,
              0.30778777599334717,
              0.5357321500778198,
              -0.12047111988067627
            ],
            [
              0.8351837396621704,
              -0.7990809679031372,
              0.059662818908691406,
              -0.2585411071777344,
              -0.5381759405136108,
              -0.7286527156829834,
              0.742232084274292,
              -0.3586629629135132,
              -0.47089600563049316
            ],
            [
              0.10733211040496826,
              0.5579314231872559,
              0.38442540168762207,
              -0.42706120014190674,
              0.23478686809539795,
              -0.6678265333175659,
              0.8689429759979248,
              0.25516772270202637,
              0.09764766693115234
            ],
            [
              -0.27200114727020264,
              -0.2342684268951416,
              0.5141626596450806,
              0.9596112966537476,
              0.908544659614563,
              0.5831362009048462,
              0.8041318655014038,
              -0.16322088241577148,
              -0.7361534833908081
            ],
            [
              -0.9651936292648315,
              -0.029381155967712402,
              -0.8471848964691162,
              0.2822040319442749,
              0.8430694341659546,
              0.5783154964447021,
              -0.36886298656463623,
              -0.4724229574203491,
              0.17666566371917725
            ],
            [
              0.8594213128089905,
              -0.8003107309341431,
              0.257235050201416,
              0.5518624782562256,
              -0.06446552276611328,
              -0.7635092735290527,
              0.9077852964401245,
              0.8394162654876709,
              0.02144336700439453
            ],
            [
              -0.6618030071258545,
              0.5931509733200073,
              0.041924118995666504,
              -0.15832149982452393,
              -0.38463544845581055,
              -0.6710695028305054,
              0.6684383153915405,
              -0.19645023345947266,
              0.1292259693145752
            ],
            [
              0.9823919534683228,
              -0.8263047933578491,
              0.27437257766723633,
              -0.03590428829193115,
              0.3490332365036011,
              -0.7079187631607056,
              0.9914673566818237,
              0.07707954198122025,
              -0.428993821144104
            ],
            [
              -0.1680905818939209,
              -0.7872542142868042,
              0.12070095539093018,
              -0.694861888885498,
              0.16035115718841553,
              -0.6812121868133545,
              0.2795443534851074,
              0.8023608922958374,
              0.16635358333587646
            ]
          ],
          "column": 9,
          "row": 16
        },
        {
          "array": [
            [
              0.23625922203063965,
              0.9553543329238892,
              -0.9065964221954346,
              0.5435160398483276,
              0.8224426507949829,
              -0.12490701675415039,
              0.3589761257171631,
              -0.8882131576538086,
              0.04637336730957031,
              -0.5216720104217529,
              0.21535301208496094,
              -0.27151215076446533,
              -0.5386497974395752,
              0.8693215847015381,
              0.714911937713623,
              -0.6751036643981934
            ],
            [
              0.22897779941558838,
              -0.201124906539917,
              -0.448455810546875,
              0.20203566551208496,
              -0.7878315448760986,
              -0.16608619689941406,
              0.32802271842956543,
              0.5328143835067749,
              -0.6031595468521118,
              0.6219561696052551,
              0.48963463306427,
              0.7585848569869995,
              0.09745180606842041,
              -0.2460765838623047,
              -0.1389545202255249,
              -0.032774925231933594
            ],
            [
              0.9618717432022095,
              -0.008537530899047852,
              0.11313951015472412,
              -0.03761768341064453,
              -0.45016181468963623,
              0.6540728807449341,
              0.5171056985855103,
              0.38498449325561523,
              0.6089178323745728,
              -0.09511911869049072,
              -0.7649850845336914,
              -0.014838337898254395,
              -0.713659405708313,
              0.850717306137085,
              0.4015113115310669,
              -0.5717787742614746
            ],
            [
              -0.1506253480911255,
              0.7427959442138672,
              -0.8467718362808228,
              -0.7785792350769043,
              0.2773820161819458,
              0.541617751121521,
              -0.6244184970855713,
              -0.7556208372116089,
              0.8529250621795654,
              0.6148674488067627,
              0.6064021587371826,
              0.6366950273513794,
              0.9161043167114258,
              0.0737338438630104,
              0.6393917798995972,
              -0.47040534019470215
            ],
            [
              -0.16421794891357422,
              -0.5760996341705322,
              -0.1841716766357422,
              -0.7016487121582031,
              0.9969645142555237,
              0.1642972230911255,
              0.719762921333313,
              -0.9408100843429565,
              0.4263956546783447,
              -0.4950960874557495,
              0.4708385467529297,
              0.34506547451019287,
              0.8992117643356323,
              0.8716964721679688,
              0.5417778491973877,
              0.9819542169570923
            ],
            [
              0.6346633434295654,
              0.7597669363021851,
              -0.9522619247436523,
              -0.22970962524414062,
              0.33753788471221924,
              0.9744625091552734,
              0.8265650272369385,
              -0.3197239637374878,
              -0.6817429065704346,
              0.7854112386703491,
              -0.051802754402160645,
              0.9944002032279968,
              -0.8697209358215332,
              0.7989178895950317,
              -0.8149633407592773,
              -0.16391897201538086
            ],
            [
              0.3697636127471924,
              -0.5281964540481567,
              0.6012072563171387,
              0.602407693862915,
              0.4978039264678955,
              0.022812485694885254,
              -0.03327512741088867,
              -0.5070821046829224,
              -0.7590930461883545,
              -0.6627795696258545,
              0.8934077024459839,
              0.37755322456359863,
              -0.3831918239593506,
              0.753535270690918,
              -0.8251873254776001,
              0.3674290180206299
            ]
          ],
          "column": 16,
          "row": 7
        }
      ]
    },
    {
      "biases": [
        {
          "array": [
            [-0.4965916872024536],
            [0.06821095943450928],
            [0.4974179267883301],
            [-0.19279348850250244],
            [-0.45926904678344727],
            [0.9746463298797607],
            [0.178183913230896],
            [0.6995060443878174],
            [0.07320984452962875],
            [0.6641504764556885],
            [0.5499144792556763],
            [0.7887217998504639],
            [0.596725344657898],
            [0.9674561023712158],
            [0.908186674118042],
            [-0.4886833429336548]
          ],
          "column": 1,
          "row": 16
        },
        {
          "array": [
            [0.875206708908081],
            [-0.5283230543136597],
            [0.07579433917999268],
            [-0.26331984996795654],
            [-0.6270663738250732],
            [-0.010453343391418457],
            [-0.4270906448364258]
          ],
          "column": 1,
          "row": 7
        }
      ],
      "weights": [
        {
          "array": [
            [
              -0.5302799940109253,
              -0.15698575973510742,
              0.675756573677063,
              0.761757493019104,
              -0.37560105323791504,
              -0.1978015899658203,
              0.5075620412826538,
              -0.6291025876998901,
              0.37066566944122314
            ],
            [
              0.9486041069030762,
              0.9775537252426147,
              -0.5308569669723511,
              -0.5315585136413574,
              -0.25744616985321045,
              0.7576333284378052,
              -0.3045034408569336,
              -0.9651694297790527,
              -0.28105151653289795
            ],
            [
              0.9502372741699219,
              -0.811586856842041,
              -0.08938074111938477,
              -0.44587910175323486,
              0.7261241674423218,
              -0.18760526180267334,
              0.749313235282898,
              -0.9092979431152344,
              0.21413075923919678
            ],
            [
              0.4196552038192749,
              0.7933089733123779,
              0.2649562358856201,
              0.29196298122406006,
              -0.8661986589431763,
              0.09166038036346436,
              -0.8558521270751953,
              -0.08645939826965332,
              -0.19690406322479248
            ],
            [
              -0.17599833011627197,
              -0.6618219614028931,
              -0.967501163482666,
              -0.18020260334014893,
              0.5681109428405762,
              0.44100236892700195,
              -0.9861481189727783,
              0.24594223499298096,
              -0.2918379306793213
            ],
            [
              0.5804779529571533,
              -0.33149099349975586,
              -0.1623523235321045,
              0.9320036172866821,
              0.9637935161590576,
              -0.7685017585754395,
              -0.7612978219985962,
              -0.10485708713531494,
              -0.9907083511352539
            ],
            [
              -0.7011501789093018,
              0.8452631235122681,
              0.9040871858596802,
              -0.5797010660171509,
              0.03583347797393799,
              0.05855214595794678,
              -0.05888080596923828,
              -0.2951892614364624,
              0.0048889280296862125
            ],
            [
              -0.32060492038726807,
              -0.15344750881195068,
              -0.8449503183364868,
              -0.679865837097168,
              0.8014668226242065,
              -0.8956594467163086,
              0.30778777599334717,
              0.5357321500778198,
              -0.12047111988067627
            ],
            [
              0.8351837396621704,
              -0.7990809679031372,
              0.059662818908691406,
              -0.2585411071777344,
              -0.5381759405136108,
              -0.7286527156829834,
              0.742232084274292,
              -0.3586629629135132,
              -0.47089600563049316
            ],
            [
              0.10733211040496826,
              0.5579314231872559,
              0.38442540168762207,
              0.9932622313499451,
              0.23478686809539795,
              -0.6678265333175659,
              0.8689429759979248,
              0.25516772270202637,
              0.09764766693115234
            ],
            [
              -0.27200114727020264,
              -0.2342684268951416,
              0.5141626596450806,
              0.9596112966537476,
              0.908544659614563,
              0.5831362009048462,
              0.8041318655014038,
              -0.16322088241577148,
              -0.7361534833908081
            ],
            [
              -0.9651936292648315,
              -0.029381155967712402,
              -0.8471848964691162,
              0.2822040319442749,
              0.8430694341659546,
              0.5783154964447021,
              -0.36886298656463623,
              -0.4724229574203491,
              0.17666566371917725
            ],
            [
              0.9938286542892456,
              -0.8003107309341431,
              0.257235050201416,
              0.5518624782562256,
              -0.06446552276611328,
              -0.7635092735290527,
              -0.48861801624298096,
              0.8394162654876709,
              0.02144336700439453
            ],
            [
              -0.6618030071258545,
              0.5931509733200073,
              0.041924118995666504,
              -0.15832149982452393,
              -0.38463544845581055,
              -0.6710695028305054,
              0.6684383153915405,
              -0.19645023345947266,
              0.1292259693145752
            ],
            [
              0.9823919534683228,
              -0.8263047933578491,
              0.27437257766723633,
              -0.03590428829193115,
              0.3490332365036011,
              -0.7079187631607056,
              0.9914673566818237,
              0.21179354190826416,
              -0.428993821144104
            ],
            [
              -0.1680905818939209,
              -0.7872542142868042,
              0.12070095539093018,
              -0.694861888885498,
              0.16035115718841553,
              -0.6812121868133545,
              0.2795443534851074,
              0.8023608922958374,
              0.16635358333587646
            ]
          ],
          "column": 9,
          "row": 16
        },
        {
          "array": [
            [
              0.23625922203063965,
              0.9553543329238892,
              -0.9065964221954346,
              0.5435160398483276,
              0.8224426507949829,
              -0.12490701675415039,
              0.3589761257171631,
              -0.8882131576538086,
              0.04637336730957031,
              -0.5216720104217529,
              0.21535301208496094,
              -0.27151215076446533,
              -0.5386497974395752,
              0.8693215847015381,
              0.714911937713623,
              -0.6751036643981934
            ],
            [
              0.22897779941558838,
              0.004129890818148851,
              -0.448455810546875,
              0.20203566551208496,
              -0.7878315448760986,
              -0.16608619689941406,
              0.32802271842956543,
              0.5328143835067749,
              -0.6031595468521118,
              0.21073222160339355,
              0.48963463306427,
              0.7585848569869995,
              0.09745180606842041,
              -0.2460765838623047,
              -0.1389545202255249,
              -0.032774925231933594
            ],
            [
              0.9618717432022095,
              -0.008537530899047852,
              0.11313951015472412,
              -0.03761768341064453,
              -0.45016181468963623,
              0.6540728807449341,
              0.5171056985855103,
              0.38498449325561523,
              0.6089178323745728,
              -0.09511911869049072,
              -0.7649850845336914,
              -0.014838337898254395,
              -0.713659405708313,
              0.850717306137085,
              0.4015113115310669,
              -0.5717787742614746
            ],
            [
              -0.1506253480911255,
              0.7427959442138672,
              -0.8467718362808228,
              -0.7785792350769043,
              0.2773820161819458,
              0.541617751121521,
              -0.6244184970855713,
              -0.7556208372116089,
              0.8529250621795654,
              0.6148674488067627,
              0.6064021587371826,
              0.6366950273513794,
              0.9161043167114258,
              -0.16998052597045898,
              0.6393917798995972,
              -0.47040534019470215
            ],
            [
              -0.16421794891357422,
              -0.5760996341705322,
              -0.1841716766357422,
              -0.7016487121582031,
              0.3548084497451782,
              0.1642972230911255,
              0.719762921333313,
              -0.9408100843429565,
              0.4263956546783447,
              -0.4950960874557495,
              0.4708385467529297,
              0.34506547451019287,
              0.8992117643356323,
              0.8716964721679688,
              0.5417778491973877,
              0.9819542169570923
            ],
            [
              0.6346633434295654,
              0.7597669363021851,
              -0.9522619247436523,
              -0.22970962524414062,
              0.33753788471221924,
              0.9744625091552734,
              0.8265650272369385,
              -0.3197239637374878,
              -0.6817429065704346,
              0.7854112386703491,
              -0.051802754402160645,
              0.9944002032279968,
              -0.8697209358215332,
              0.7989178895950317,
              -0.8149633407592773,
              -0.16391897201538086
            ],
            [
              0.3697636127471924,
              -0.5281964540481567,
              0.6012072563171387,
              0.602407693862915,
              0.4978039264678955,
              0.022812485694885254,
              -0.03327512741088867,
              -0.5070821046829224,
              -0.7590930461883545,
              -0.6627795696258545,
              0.8934077024459839,
              0.37755322456359863,
              -0.3831918239593506,
              0.753535270690918,
              -0.8251873254776001,
              0.3674290180206299
            ]
          ],
          "column": 16,
          "row": 7
        }
      ]
    },
    {
      "biases": [
        {
          "array": [
            [-0.4965916872024536],
            [0.06821095943450928],
            [0.4974179267883301],
            [-0.19279348850250244],
            [-0.45926904678344727],
            [0.9746463298797607],
            [0.178183913230896],
            [0.6995060443878174],
            [0.07320984452962875],
            [0.6641504764556885],
            [0.5499144792556763],
            [0.7887217998504639],
            [0.596725344657898],
            [0.9674561023712158],
            [0.908186674118042],
            [-0.4886833429336548]
          ],
          "column": 1,
          "row": 16
        },
        {
          "array": [
            [0.875206708908081],
            [-0.5283230543136597],
            [0.07579433917999268],
            [-0.26331984996795654],
            [-0.6270663738250732],
            [-0.010453343391418457],
            [-0.4270906448364258]
          ],
          "column": 1,
          "row": 7
        }
      ],
      "weights": [
        {
          "array": [
            [
              0.8953677415847778,
              -0.15698575973510742,
              0.675756573677063,
              0.761757493019104,
              -0.37560105323791504,
              -0.1978015899658203,
              0.5075620412826538,
              -0.6291025876998901,
              0.37066566944122314
            ],
            [
              0.9486041069030762,
              0.9775537252426147,
              -0.5308569669723511,
              -0.5315585136413574,
              -0.25744616985321045,
              0.7576333284378052,
              -0.3045034408569336,
              -0.9651694297790527,
              -0.28105151653289795
            ],
            [
              0.9502372741699219,
              -0.811586856842041,
              -0.08938074111938477,
              -0.44587910175323486,
              0.7261241674423218,
              -0.18760526180267334,
              0.749313235282898,
              -0.9092979431152344,
              0.21413075923919678
            ],
            [
              0.4196552038192749,
              0.7933089733123779,
              0.2649562358856201,
              0.29196298122406006,
              -0.8661986589431763,
              0.09166038036346436,
              -0.8558521270751953,
              -0.08645939826965332,
              -0.19690406322479248
            ],
            [
              -0.17599833011627197,
              -0.6618219614028931,
              -0.967501163482666,
              -0.18020260334014893,
              0.5681109428405762,
              0.44100236892700195,
              -0.9861481189727783,
              0.24594223499298096,
              -0.2918379306793213
            ],
            [
              0.5804779529571533,
              -0.33149099349975586,
              -0.1623523235321045,
              0.9320036172866821,
              0.9637935161590576,
              -0.7685017585754395,
              -0.7612978219985962,
              -0.10485708713531494,
              -0.9907083511352539
            ],
            [
              -0.7011501789093018,
              0.8452631235122681,
              0.9040871858596802,
              -0.5797010660171509,
              0.03583347797393799,
              0.05855214595794678,
              -0.05888080596923828,
              -0.2951892614364624,
              -0.0024334192276000977
            ],
            [
              -0.32060492038726807,
              -0.15344750881195068,
              -0.8449503183364868,
              -0.679865837097168,
              0.8014668226242065,
              -0.8956594467163086,
              0.30778777599334717,
              0.5357321500778198,
              -0.12047111988067627
            ],
            [
              0.8351837396621704,
              -0.7990809679031372,
              0.059662818908691406,
              -0.2585411071777344,
              -0.5381759405136108,
              -0.7286527156829834,
              0.742232084274292,
              -0.3586629629135132,
              -0.47089600563049316
            ],
            [
              0.10733211040496826,
              0.5579314231872559,
              0.38442540168762207,
              -0.42706120014190674,
              0.23478686809539795,
              -0.6678265333175659,
              0.8689429759979248,
              0.25516772270202637,
              0.09764766693115234
            ],
            [
              -0.27200114727020264,
              -0.2342684268951416,
              0.5141626596450806,
              0.9596112966537476,
              0.908544659614563,
              0.5831362009048462,
              0.8041318655014038,
              -0.16322088241577148,
              -0.7361534833908081
            ],
            [
              -0.9651936292648315,
              -0.029381155967712402,
              -0.8471848964691162,
              0.2822040319442749,
              0.8430694341659546,
              0.5783154964447021,
              -0.36886298656463623,
              -0.4724229574203491,
              0.17666566371917725
            ],
            [
              0.9938286542892456,
              -0.8003107309341431,
              0.257235050201416,
              0.5518624782562256,
              -0.06446552276611328,
              -0.7635092735290527,
              0.9077852964401245,
              0.8394162654876709,
              0.02144336700439453
            ],
            [
              -0.6618030071258545,
              0.5931509733200073,
              0.041924118995666504,
              -0.15832149982452393,
              -0.38463544845581055,
              -0.6710695028305054,
              0.6684383153915405,
              -0.19645023345947266,
              0.1292259693145752
            ],
            [
              0.9823919534683228,
              -0.8263047933578491,
              0.27437257766723633,
              -0.03590428829193115,
              0.3490332365036011,
              -0.7079187631607056,
              0.9914673566818237,
              0.07707954198122025,
              -0.428993821144104
            ],
            [
              -0.1680905818939209,
              -0.7872542142868042,
              0.12070095539093018,
              -0.694861888885498,
              0.16035115718841553,
              -0.6812121868133545,
              0.2795443534851074,
              0.8023608922958374,
              0.16635358333587646
            ]
          ],
          "column": 9,
          "row": 16
        },
        {
          "array": [
            [
              0.23625922203063965,
              0.9553543329238892,
              -0.9065964221954346,
              0.5435160398483276,
              0.8224426507949829,
              -0.12490701675415039,
              0.3589761257171631,
              -0.8882131576538086,
              0.04637336730957031,
              -0.5216720104217529,
              0.21535301208496094,
              -0.27151215076446533,
              -0.5386497974395752,
              0.8693215847015381,
              0.714911937713623,
              -0.6751036643981934
            ],
            [
              0.22897779941558838,
              -0.201124906539917,
              -0.448455810546875,
              0.20203566551208496,
              -0.7878315448760986,
              -0.16608619689941406,
              0.32802271842956543,
              0.5328143835067749,
              -0.6031595468521118,
              0.21073222160339355,
              0.48963463306427,
              0.7585848569869995,
              0.09745180606842041,
              -0.2460765838623047,
              -0.1389545202255249,
              -0.032774925231933594
            ],
            [
              0.9618717432022095,
              -0.008537530899047852,
              0.11313951015472412,
              -0.03761768341064453,
              -0.45016181468963623,
              0.6540728807449341,
              0.5171056985855103,
              0.38498449325561523,
              0.6089178323745728,
              -0.09511911869049072,
              -0.7649850845336914,
              -0.014838337898254395,
              -0.713659405708313,
              0.850717306137085,
              0.4015113115310669,
              -0.5717787742614746
            ],
            [
              -0.1506253480911255,
              0.7427959442138672,
              -0.8467718362808228,
              -0.7785792350769043,
              0.2773820161819458,
              0.541617751121521,
              -0.6244184970855713,
              -0.7556208372116089,
              0.8529250621795654,
              0.6148674488067627,
              0.6064021587371826,
              0.6366950273513794,
              0.9161043167114258,
              -0.16998052597045898,
              0.6393917798995972,
              -0.47040534019470215
            ],
            [
              -0.16421794891357422,
              -0.5760996341705322,
              -0.1841716766357422,
              -0.7016487121582031,
              0.9969645142555237,
              0.1642972230911255,
              0.719762921333313,
              -0.9408100843429565,
              0.4263956546783447,
              -0.4950960874557495,
              0.4708385467529297,
              0.34506547451019287,
              0.8992117643356323,
              0.8716964721679688,
              0.5417778491973877,
              0.9819542169570923
            ],
            [
              0.6346633434295654,
              0.7597669363021851,
              -0.9522619247436523,
              -0.22970962524414062,
              0.33753788471221924,
              0.9744625091552734,
              0.8265650272369385,
              -0.3197239637374878,
              -0.6817429065704346,
              0.7854112386703491,
              -0.051802754402160645,
              0.9944002032279968,
              -0.8697209358215332,
              0.7989178895950317,
              -0.8149633407592773,
              -0.16391897201538086
            ],
            [
              0.3697636127471924,
              -0.5281964540481567,
              0.6012072563171387,
              0.602407693862915,
              0.4978039264678955,
              0.022812485694885254,
              -0.03327512741088867,
              -0.5070821046829224,
              -0.7590930461883545,
              -0.6627795696258545,
              0.8934077024459839,
              0.37755322456359863,
              -0.3831918239593506,
              0.753535270690918,
              -0.8251873254776001,
              0.3674290180206299
            ]
          ],
          "column": 16,
          "row": 7
        }
      ]
    },
    {
      "biases": [
        {
          "array": [
            [-0.4965916872024536],
            [0.06821095943450928],
            [0.4974179267883301],
            [-0.19279348850250244],
            [-0.45926904678344727],
            [0.9746463298797607],
            [0.178183913230896],
            [0.6995060443878174],
            [0.07320984452962875],
            [0.6641504764556885],
            [0.5499144792556763],
            [0.7887217998504639],
            [0.596725344657898],
            [0.9674561023712158],
            [0.908186674118042],
            [-0.4886833429336548]
          ],
          "column": 1,
          "row": 16
        },
        {
          "array": [
            [0.875206708908081],
            [-0.5283230543136597],
            [0.07579433917999268],
            [-0.26331984996795654],
            [-0.6270663738250732],
            [-0.010453343391418457],
            [-0.4270906448364258]
          ],
          "column": 1,
          "row": 7
        }
      ],
      "weights": [
        {
          "array": [
            [
              0.8953677415847778,
              -0.15698575973510742,
              0.675756573677063,
              0.761757493019104,
              -0.37560105323791504,
              -0.1978015899658203,
              0.5075620412826538,
              -0.6291025876998901,
              0.37066566944122314
            ],
            [
              0.9486041069030762,
              0.9775537252426147,
              0.11002469062805176,
              -0.5315585136413574,
              -0.25744616985321045,
              0.7576333284378052,
              -0.3045034408569336,
              -0.9651694297790527,
              -0.28105151653289795
            ],
            [
              0.9502372741699219,
              -0.811586856842041,
              -0.08938074111938477,
              -0.44587910175323486,
              0.7261241674423218,
              -0.18760526180267334,
              0.749313235282898,
              -0.9092979431152344,
              0.21413075923919678
            ],
            [
              0.4196552038192749,
              0.7933089733123779,
              0.2649562358856201,
              0.29196298122406006,
              -0.8661986589431763,
              0.09166038036346436,
              -0.8558521270751953,
              -0.08645939826965332,
              -0.19690406322479248
            ],
            [
              -0.17599833011627197,
              -0.6618219614028931,
              -0.967501163482666,
              -0.18020260334014893,
              0.5681109428405762,
              0.44100236892700195,
              -0.9861481189727783,
              0.24594223499298096,
              -0.2918379306793213
            ],
            [
              0.5804779529571533,
              -0.33149099349975586,
              -0.1623523235321045,
              0.9320036172866821,
              0.9637935161590576,
              -0.7685017585754395,
              -0.7612978219985962,
              -0.10485708713531494,
              -0.9907083511352539
            ],
            [
              -0.7011501789093018,
              0.8452631235122681,
              0.9040871858596802,
              -0.5797010660171509,
              0.03583347797393799,
              0.05855214595794678,
              -0.05888080596923828,
              -0.2951892614364624,
              -0.0024334192276000977
            ],
            [
              -0.32060492038726807,
              0.08414150029420853,
              -0.8449503183364868,
              -0.679865837097168,
              0.8014668226242065,
              -0.8956594467163086,
              0.30778777599334717,
              0.5357321500778198,
              -0.12047111988067627
            ],
            [
              0.8351837396621704,
              -0.7990809679031372,
              0.059662818908691406,
              -0.2585411071777344,
              -0.5381759405136108,
              -0.7286527156829834,
              0.742232084274292,
              -0.3586629629135132,
              -0.47089600563049316
            ],
            [
              0.10733211040496826,
              0.5579314231872559,
              0.38442540168762207,
              -0.42706120014190674,
              0.23478686809539795,
              -0.6678265333175659,
              0.8689429759979248,
              0.25516772270202637,
              0.09764766693115234
            ],
            [
              -0.27200114727020264,
              -0.2342684268951416,
              0.5141626596450806,
              0.9596112966537476,
              0.908544659614563,
              0.5831362009048462,
              0.8041318655014038,
              -0.16322088241577148,
              -0.7361534833908081
            ],
            [
              -0.9651936292648315,
              -0.029381155967712402,
              -0.8471848964691162,
              0.2822040319442749,
              0.8430694341659546,
              0.5783154964447021,
              -0.36886298656463623,
              -0.4724229574203491,
              0.17666566371917725
            ],
            [
              0.9938286542892456,
              -0.8003107309341431,
              0.257235050201416,
              0.5518624782562256,
              -0.06446552276611328,
              -0.7635092735290527,
              0.9077852964401245,
              0.8394162654876709,
              0.02144336700439453
            ],
            [
              -0.6618030071258545,
              0.5931509733200073,
              0.041924118995666504,
              -0.15832149982452393,
              -0.38463544845581055,
              -0.6710695028305054,
              0.6684383153915405,
              -0.19645023345947266,
              0.1292259693145752
            ],
            [
              0.9823919534683228,
              -0.8263047933578491,
              0.27437257766723633,
              -0.03590428829193115,
              0.3490332365036011,
              -0.7079187631607056,
              0.9914673566818237,
              0.07707954198122025,
              -0.428993821144104
            ],
            [
              -0.1680905818939209,
              -0.7872542142868042,
              0.12070095539093018,
              -0.694861888885498,
              0.16035115718841553,
              -0.6812121868133545,
              0.2795443534851074,
              0.8023608922958374,
              0.16635358333587646
            ]
          ],
          "column": 9,
          "row": 16
        },
        {
          "array": [
            [
              0.23625922203063965,
              0.9553543329238892,
              -0.9065964221954346,
              0.5435160398483276,
              0.8224426507949829,
              -0.12490701675415039,
              0.3589761257171631,
              -0.8882131576538086,
              0.04637336730957031,
              -0.5216720104217529,
              0.21535301208496094,
              -0.27151215076446533,
              -0.5386497974395752,
              0.8693215847015381,
              0.714911937713623,
              -0.6751036643981934
            ],
            [
              0.22897779941558838,
              -0.201124906539917,
              -0.448455810546875,
              0.20203566551208496,
              -0.7878315448760986,
              -0.16608619689941406,
              0.32802271842956543,
              0.5328143835067749,
              -0.6031595468521118,
              0.9991000890731812,
              0.48963463306427,
              0.7585848569869995,
              0.09745180606842041,
              -0.2460765838623047,
              -0.1389545202255249,
              -0.032774925231933594
            ],
            [
              0.9618717432022095,
              -0.008537530899047852,
              0.11313951015472412,
              -0.03761768341064453,
              0.6264076828956604,
              0.6540728807449341,
              0.5171056985855103,
              0.38498449325561523,
              0.8499760031700134,
              0.5356696248054504,
              -0.7649850845336914,
              -0.014838337898254395,
              -0.713659405708313,
              0.9966840147972107,
              0.4015113115310669,
              -0.5717787742614746
            ],
            [
              -0.1506253480911255,
              0.7427959442138672,
              -0.8467718362808228,
              -0.7785792350769043,
              0.2773820161819458,
              0.541617751121521,
              -0.6244184970855713,
              -0.7556208372116089,
              0.8529250621795654,
              0.6148674488067627,
              0.6064021587371826,
              0.6366950273513794,
              0.9161043167114258,
              -0.16998052597045898,
              0.6393917798995972,
              -0.47040534019470215
            ],
            [
              -0.16421794891357422,
              -0.5760996341705322,
              -0.1841716766357422,
              -0.7016487121582031,
              0.9969645142555237,
              0.1642972230911255,
              0.719762921333313,
              -0.9408100843429565,
              0.4263956546783447,
              -0.4950960874557495,
              0.4708385467529297,
              0.34506547451019287,
              0.8992117643356323,
              0.8716964721679688,
              0.5417778491973877,
              0.9819542169570923
            ],
            [
              0.6346633434295654,
              0.7597669363021851,
              -0.9522619247436523,
              -0.22970962524414062,
              0.33753788471221924,
              0.9744625091552734,
              0.8265650272369385,
              -0.3197239637374878,
              -0.6817429065704346,
              0.7854112386703491,
              -0.051802754402160645,
              0.9944002032279968,
              -0.8697209358215332,
              0.7989178895950317,
              -0.8149633407592773,
              -0.16391897201538086
            ],
            [
              0.3697636127471924,
              -0.5281964540481567,
              0.6012072563171387,
              0.602407693862915,
              0.4978039264678955,
              0.022812485694885254,
              -0.03327512741088867,
              -0.5070821046829224,
              -0.7590930461883545,
              -0.6627795696258545,
              0.8934077024459839,
              0.37755322456359863,
              -0.3831918239593506,
              0.753535270690918,
              -0.8251873254776001,
              0.3674290180206299
            ]
          ],
          "column": 16,
          "row": 7
        }
      ]
    },
    {
      "biases": [
        {
          "array": [
            [-0.4965916872024536],
            [0.06821095943450928],
            [0.4974179267883301],
            [-0.19279348850250244],
            [-0.45926904678344727],
            [0.9746463298797607],
            [0.178183913230896],
            [0.6995060443878174],
            [0.07320984452962875],
            [0.6641504764556885],
            [0.5499144792556763],
            [0.7887217998504639],
            [0.596725344657898],
            [0.9674561023712158],
            [0.908186674118042],
            [-0.4886833429336548]
          ],
          "column": 1,
          "row": 16
        },
        {
          "array": [
            [0.875206708908081],
            [-0.5283230543136597],
            [0.07579433917999268],
            [-0.26331984996795654],
            [-0.6270663738250732],
            [-0.010453343391418457],
            [-0.4270906448364258]
          ],
          "column": 1,
          "row": 7
        }
      ],
      "weights": [
        {
          "array": [
            [
              0.8953677415847778,
              -0.15698575973510742,
              0.675756573677063,
              0.761757493019104,
              -0.37560105323791504,
              -0.1978015899658203,
              0.5075620412826538,
              -0.6291025876998901,
              0.37066566944122314
            ],
            [
              0.9486041069030762,
              0.9775537252426147,
              -0.5308569669723511,
              -0.5315585136413574,
              -0.25744616985321045,
              0.7576333284378052,
              -0.3045034408569336,
              -0.9651694297790527,
              -0.28105151653289795
            ],
            [
              0.9502372741699219,
              -0.811586856842041,
              -0.08938074111938477,
              -0.44587910175323486,
              0.7261241674423218,
              -0.18760526180267334,
              0.749313235282898,
              -0.9092979431152344,
              0.21413075923919678
            ],
            [
              0.4196552038192749,
              0.7933089733123779,
              0.2649562358856201,
              0.29196298122406006,
              -0.8661986589431763,
              0.09166038036346436,
              -0.8558521270751953,
              -0.08645939826965332,
              -0.19690406322479248
            ],
            [
              -0.17599833011627197,
              -0.6618219614028931,
              -0.967501163482666,
              -0.18020260334014893,
              0.5681109428405762,
              0.44100236892700195,
              -0.9861481189727783,
              0.24594223499298096,
              -0.2918379306793213
            ],
            [
              0.5804779529571533,
              -0.33149099349975586,
              -0.1623523235321045,
              0.9320036172866821,
              0.9637935161590576,
              -0.7685017585754395,
              -0.7612978219985962,
              -0.10485708713531494,
              -0.9907083511352539
            ],
            [
              -0.7011501789093018,
              0.8452631235122681,
              0.9040871858596802,
              -0.5797010660171509,
              0.03583347797393799,
              0.05855214595794678,
              -0.05888080596923828,
              -0.2951892614364624,
              -0.0024334192276000977
            ],
            [
              -0.32060492038726807,
              -0.15344750881195068,
              -0.8449503183364868,
              -0.679865837097168,
              0.8014668226242065,
              -0.8956594467163086,
              0.30778777599334717,
              0.5357321500778198,
              -0.12047111988067627
            ],
            [
              0.8351837396621704,
              -0.7990809679031372,
              0.059662818908691406,
              -0.2585411071777344,
              -0.5381759405136108,
              -0.7286527156829834,
              0.742232084274292,
              -0.3586629629135132,
              -0.47089600563049316
            ],
            [
              0.10733211040496826,
              0.5579314231872559,
              0.38442540168762207,
              -0.42706120014190674,
              0.23478686809539795,
              -0.6678265333175659,
              0.8689429759979248,
              0.25516772270202637,
              0.09764766693115234
            ],
            [
              -0.27200114727020264,
              -0.2342684268951416,
              0.5141626596450806,
              0.9596112966537476,
              0.908544659614563,
              0.5831362009048462,
              0.8041318655014038,
              -0.16322088241577148,
              -0.7361534833908081
            ],
            [
              -0.9651936292648315,
              -0.029381155967712402,
              -0.8471848964691162,
              0.2822040319442749,
              0.8430694341659546,
              0.5783154964447021,
              -0.36886298656463623,
              -0.4724229574203491,
              0.17666566371917725
            ],
            [
              0.9938286542892456,
              -0.8003107309341431,
              0.257235050201416,
              0.5518624782562256,
              -0.06446552276611328,
              -0.7635092735290527,
              0.9077852964401245,
              0.8394162654876709,
              0.02144336700439453
            ],
            [
              -0.6618030071258545,
              0.5931509733200073,
              0.041924118995666504,
              -0.15832149982452393,
              -0.38463544845581055,
              -0.6710695028305054,
              0.6684383153915405,
              -0.19645023345947266,
              0.1292259693145752
            ],
            [
              0.9823919534683228,
              -0.8263047933578491,
              0.27437257766723633,
              -0.03590428829193115,
              0.3490332365036011,
              -0.7079187631607056,
              0.9914673566818237,
              0.07707954198122025,
              -0.428993821144104
            ],
            [
              -0.1680905818939209,
              -0.7872542142868042,
              0.12070095539093018,
              -0.694861888885498,
              0.16035115718841553,
              -0.6812121868133545,
              0.3130282461643219,
              0.8023608922958374,
              0.16635358333587646
            ]
          ],
          "column": 9,
          "row": 16
        },
        {
          "array": [
            [
              0.23625922203063965,
              0.9553543329238892,
              -0.9065964221954346,
              0.5435160398483276,
              0.8224426507949829,
              -0.12490701675415039,
              0.3589761257171631,
              -0.8882131576538086,
              0.04637336730957031,
              -0.5216720104217529,
              0.21535301208496094,
              -0.27151215076446533,
              -0.5386497974395752,
              0.8693215847015381,
              0.714911937713623,
              -0.6751036643981934
            ],
            [
              0.22897779941558838,
              -0.201124906539917,
              -0.448455810546875,
              0.20203566551208496,
              -0.7878315448760986,
              -0.16608619689941406,
              0.32802271842956543,
              0.5328143835067749,
              -0.6031595468521118,
              0.21073222160339355,
              0.48963463306427,
              0.7585848569869995,
              0.09745180606842041,
              -0.2460765838623047,
              -0.1389545202255249,
              -0.032774925231933594
            ],
            [
              0.9618717432022095,
              -0.008537530899047852,
              0.11313951015472412,
              -0.03761768341064453,
              -0.45016181468963623,
              0.6540728807449341,
              0.5171056985855103,
              0.38498449325561523,
              0.6089178323745728,
              -0.09511911869049072,
              -0.7649850845336914,
              -0.014838337898254395,
              -0.713659405708313,
              0.850717306137085,
              0.4015113115310669,
              -0.5717787742614746
            ],
            [
              -0.1506253480911255,
              0.7427959442138672,
              -0.8467718362808228,
              -0.7785792350769043,
              0.2773820161819458,
              0.541617751121521,
              -0.6244184970855713,
              -0.7556208372116089,
              0.8529250621795654,
              0.6148674488067627,
              0.6064021587371826,
              0.6366950273513794,
              0.9161043167114258,
              -0.16998052597045898,
              0.6393917798995972,
              -0.47040534019470215
            ],
            [
              -0.16421794891357422,
              -0.5760996341705322,
              -0.1841716766357422,
              -0.7016487121582031,
              0.9969645142555237,
              0.1642972230911255,
              0.719762921333313,
              -0.9408100843429565,
              0.4263956546783447,
              -0.4950960874557495,
              0.4708385467529297,
              0.34506547451019287,
              0.8992117643356323,
              0.8716964721679688,
              0.5417778491973877,
              0.9819542169570923
            ],
            [
              0.6346633434295654,
              0.7597669363021851,
              -0.9522619247436523,
              -0.22970962524414062,
              0.33753788471221924,
              0.9744625091552734,
              0.8265650272369385,
              -0.3197239637374878,
              -0.6817429065704346,
              0.7854112386703491,
              -0.051802754402160645,
              0.9944002032279968,
              -0.8697209358215332,
              0.7989178895950317,
              -0.8149633407592773,
              -0.16391897201538086
            ],
            [
              0.3697636127471924,
              -0.5281964540481567,
              0.6012072563171387,
              0.602407693862915,
              0.4978039264678955,
              0.022812485694885254,
              -0.03327512741088867,
              -0.5070821046829224,
              -0.7590930461883545,
              -0.6627795696258545,
              0.8934077024459839,
              0.37755322456359863,
              -0.3831918239593506,
              0.753535270690918,
              -0.8251873254776001,
              0.3674290180206299
            ]
          ],
          "column": 16,
          "row": 7
        }
      ]
    },
    {
      "biases": [
        {
          "array": [
            [-0.4965916872024536],
            [0.06821095943450928],
            [0.4974179267883301],
            [-0.19279348850250244],
            [-0.45926904678344727],
            [0.9746463298797607],
            [0.178183913230896],
            [0.6995060443878174],
            [0.07320984452962875],
            [0.6641504764556885],
            [0.5499144792556763],
            [0.7887217998504639],
            [0.596725344657898],
            [0.9674561023712158],
            [0.908186674118042],
            [-0.4886833429336548]
          ],
          "column": 1,
          "row": 16
        },
        {
          "array": [
            [0.875206708908081],
            [-0.5283230543136597],
            [0.07579433917999268],
            [-0.26331984996795654],
            [-0.6270663738250732],
            [-0.010453343391418457],
            [-0.4270906448364258]
          ],
          "column": 1,
          "row": 7
        }
      ],
      "weights": [
        {
          "array": [
            [
              0.8953677415847778,
              -0.15698575973510742,
              0.675756573677063,
              0.761757493019104,
              -0.37560105323791504,
              -0.1978015899658203,
              0.5075620412826538,
              -0.6291025876998901,
              0.37066566944122314
            ],
            [
              0.9486041069030762,
              0.9775537252426147,
              -0.5308569669723511,
              -0.5315585136413574,
              -0.25744616985321045,
              0.7576333284378052,
              -0.3045034408569336,
              -0.9651694297790527,
              -0.28105151653289795
            ],
            [
              0.9502372741699219,
              -0.811586856842041,
              -0.08938074111938477,
              -0.44587910175323486,
              0.7261241674423218,
              -0.18760526180267334,
              0.749313235282898,
              -0.9092979431152344,
              0.21413075923919678
            ],
            [
              0.4196552038192749,
              0.7933089733123779,
              0.2649562358856201,
              0.29196298122406006,
              -0.8661986589431763,
              0.09166038036346436,
              -0.8558521270751953,
              -0.08645939826965332,
              -0.19690406322479248
            ],
            [
              -0.17599833011627197,
              -0.6618219614028931,
              -0.967501163482666,
              -0.18020260334014893,
              0.5681109428405762,
              0.44100236892700195,
              -0.9861481189727783,
              0.24594223499298096,
              -0.2918379306793213
            ],
            [
              0.5804779529571533,
              -0.33149099349975586,
              -0.1623523235321045,
              0.9320036172866821,
              0.9637935161590576,
              -0.7685017585754395,
              -0.7612978219985962,
              -0.10485708713531494,
              -0.9907083511352539
            ],
            [
              -0.7011501789093018,
              0.8452631235122681,
              0.9040871858596802,
              -0.5797010660171509,
              0.03583347797393799,
              0.05855214595794678,
              -0.05888080596923828,
              -0.2951892614364624,
              -0.0024334192276000977
            ],
            [
              -0.32060492038726807,
              -0.15344750881195068,
              -0.8449503183364868,
              -0.679865837097168,
              0.9991883635520935,
              -0.8956594467163086,
              0.30778777599334717,
              0.5357321500778198,
              -0.12047111988067627
            ],
            [
              0.8351837396621704,
              -0.7990809679031372,
              0.059662818908691406,
              -0.2585411071777344,
              -0.5381759405136108,
              -0.7286527156829834,
              0.742232084274292,
              -0.3586629629135132,
              -0.47089600563049316
            ],
            [
              0.10733211040496826,
              0.5579314231872559,
              0.38442540168762207,
              -0.42706120014190674,
              0.23478686809539795,
              -0.6678265333175659,
              0.8689429759979248,
              0.25516772270202637,
              0.09764766693115234
            ],
            [
              -0.27200114727020264,
              -0.2342684268951416,
              0.5141626596450806,
              0.9596112966537476,
              0.908544659614563,
              0.5831362009048462,
              0.8041318655014038,
              -0.16322088241577148,
              -0.7361534833908081
            ],
            [
              -0.9651936292648315,
              -0.029381155967712402,
              -0.8471848964691162,
              0.2822040319442749,
              0.8430694341659546,
              0.5783154964447021,
              -0.36886298656463623,
              -0.4724229574203491,
              0.17666566371917725
            ],
            [
              0.9938286542892456,
              -0.8003107309341431,
              0.257235050201416,
              0.5518624782562256,
              -0.06446552276611328,
              -0.7635092735290527,
              0.9077852964401245,
              0.8394162654876709,
              0.02144336700439453
            ],
            [
              -0.6618030071258545,
              0.5931509733200073,
              0.041924118995666504,
              -0.15832149982452393,
              -0.38463544845581055,
              -0.6710695028305054,
              0.6684383153915405,
              -0.19645023345947266,
              0.1292259693145752
            ],
            [
              0.9823919534683228,
              -0.8263047933578491,
              0.27437257766723633,
              -0.03590428829193115,
              0.3490332365036011,
              -0.7079187631607056,
              0.9914673566818237,
              0.07707954198122025,
              -0.428993821144104
            ],
            [
              -0.1680905818939209,
              -0.7872542142868042,
              0.12070095539093018,
              -0.694861888885498,
              0.16035115718841553,
              -0.6812121868133545,
              0.2795443534851074,
              0.8023608922958374,
              0.16635358333587646
            ]
          ],
          "column": 9,
          "row": 16
        },
        {
          "array": [
            [
              0.23625922203063965,
              0.9553543329238892,
              -0.9065964221954346,
              0.5435160398483276,
              0.8224426507949829,
              -0.12490701675415039,
              0.3589761257171631,
              -0.8882131576538086,
              0.04637336730957031,
              -0.5216720104217529,
              0.21535301208496094,
              -0.27151215076446533,
              -0.5386497974395752,
              0.8693215847015381,
              0.714911937713623,
              -0.6751036643981934
            ],
            [
              0.22897779941558838,
              -0.201124906539917,
              -0.448455810546875,
              0.20203566551208496,
              -0.7878315448760986,
              -0.16608619689941406,
              0.32802271842956543,
              0.5328143835067749,
              -0.6031595468521118,
              0.21073222160339355,
              0.48963463306427,
              0.7585848569869995,
              0.09745180606842041,
              -0.2460765838623047,
              -0.1389545202255249,
              -0.032774925231933594
            ],
            [
              0.9618717432022095,
              -0.008537530899047852,
              0.11313951015472412,
              -0.03761768341064453,
              -0.45016181468963623,
              0.6540728807449341,
              0.5171056985855103,
              0.38498449325561523,
              0.6089178323745728,
              -0.09511911869049072,
              -0.7649850845336914,
              -0.014838337898254395,
              -0.713659405708313,
              0.850717306137085,
              0.4015113115310669,
              -0.5717787742614746
            ],
            [
              -0.1506253480911255,
              0.7427959442138672,
              -0.8467718362808228,
              -0.7785792350769043,
              0.2773820161819458,
              0.541617751121521,
              -0.6244184970855713,
              -0.7556208372116089,
              0.8529250621795654,
              0.6148674488067627,
              0.6064021587371826,
              0.6366950273513794,
              0.9161043167114258,
              -0.16998052597045898,
              0.6393917798995972,
              -0.47040534019470215
            ],
            [
              -0.16421794891357422,
              -0.5760996341705322,
              -0.1841716766357422,
              -0.7016487121582031,
              0.9969645142555237,
              0.1642972230911255,
              0.719762921333313,
              -0.9408100843429565,
              0.4263956546783447,
              -0.4950960874557495,
              0.4708385467529297,
              0.34506547451019287,
              0.8992117643356323,
              0.8716964721679688,
              0.5417778491973877,
              0.9819542169570923
            ],
            [
              0.6346633434295654,
              0.7597669363021851,
              -0.9522619247436523,
              -0.22970962524414062,
              0.33753788471221924,
              0.9744625091552734,
              0.8265650272369385,
              -0.3197239637374878,
              -0.6817429065704346,
              0.7854112386703491,
              -0.051802754402160645,
              0.9944002032279968,
              -0.8697209358215332,
              0.7989178895950317,
              -0.8149633407592773,
              -0.16391897201538086
            ],
            [
              0.3697636127471924,
              -0.5281964540481567,
              0.6012072563171387,
              0.602407693862915,
              0.4978039264678955,
              0.022812485694885254,
              -0.03327512741088867,
              -0.5070821046829224,
              -0.7590930461883545,
              -0.6627795696258545,
              0.8934077024459839,
              0.37755322456359863,
              -0.3831918239593506,
              0.753535270690918,
              -0.8251873254776001,
              0.3674290180206299
            ]
          ],
          "column": 16,
          "row": 7
        }
      ]
    },
    {
      "biases": [
        {
          "array": [
            [-0.4965916872024536],
            [0.06821095943450928],
            [0.4974179267883301],
            [-0.19279348850250244],
            [-0.45926904678344727],
            [0.9746463298797607],
            [0.178183913230896],
            [0.6995060443878174],
            [0.07320984452962875],
            [0.6641504764556885],
            [0.5499144792556763],
            [0.7887217998504639],
            [0.596725344657898],
            [0.9674561023712158],
            [0.908186674118042],
            [-0.4886833429336548]
          ],
          "column": 1,
          "row": 16
        },
        {
          "array": [
            [0.875206708908081],
            [-0.5283230543136597],
            [0.07579433917999268],
            [-0.26331984996795654],
            [-0.6270663738250732],
            [-0.010453343391418457],
            [-0.4270906448364258]
          ],
          "column": 1,
          "row": 7
        }
      ],
      "weights": [
        {
          "array": [
            [
              0.8953677415847778,
              -0.15698575973510742,
              0.675756573677063,
              0.761757493019104,
              -0.37560105323791504,
              -0.1978015899658203,
              0.5075620412826538,
              -0.6291025876998901,
              0.37066566944122314
            ],
            [
              0.9486041069030762,
              0.9775537252426147,
              -0.5308569669723511,
              -0.5315585136413574,
              -0.25744616985321045,
              0.7576333284378052,
              -0.3045034408569336,
              -0.9651694297790527,
              -0.28105151653289795
            ],
            [
              0.9502372741699219,
              -0.811586856842041,
              -0.08938074111938477,
              -0.44587910175323486,
              0.7261241674423218,
              -0.18760526180267334,
              0.749313235282898,
              -0.9092979431152344,
              0.21413075923919678
            ],
            [
              0.4196552038192749,
              0.7933089733123779,
              0.2649562358856201,
              0.29196298122406006,
              -0.8661986589431763,
              0.09166038036346436,
              -0.8558521270751953,
              -0.08645939826965332,
              -0.19690406322479248
            ],
            [
              -0.17599833011627197,
              -0.6618219614028931,
              -0.967501163482666,
              -0.18020260334014893,
              0.5681109428405762,
              0.44100236892700195,
              -0.9861481189727783,
              0.24594223499298096,
              -0.2918379306793213
            ],
            [
              0.5804779529571533,
              -0.33149099349975586,
              -0.1623523235321045,
              0.9320036172866821,
              0.9637935161590576,
              -0.7685017585754395,
              -0.7612978219985962,
              -0.10485708713531494,
              -0.9907083511352539
            ],
            [
              -0.7011501789093018,
              0.8452631235122681,
              0.9040871858596802,
              -0.5797010660171509,
              0.03583347797393799,
              0.05855214595794678,
              -0.05888080596923828,
              -0.2951892614364624,
              -0.0024334192276000977
            ],
            [
              -0.32060492038726807,
              -0.15344750881195068,
              -0.8449503183364868,
              -0.679865837097168,
              0.8014668226242065,
              -0.8956594467163086,
              0.30778777599334717,
              0.5357321500778198,
              -0.12047111988067627
            ],
            [
              0.8351837396621704,
              -0.7990809679031372,
              0.059662818908691406,
              -0.2585411071777344,
              -0.5381759405136108,
              -0.7286527156829834,
              0.742232084274292,
              -0.3586629629135132,
              -0.47089600563049316
            ],
            [
              0.10733211040496826,
              0.5579314231872559,
              0.38442540168762207,
              -0.42706120014190674,
              0.23478686809539795,
              -0.6678265333175659,
              0.8689429759979248,
              0.25516772270202637,
              0.09764766693115234
            ],
            [
              -0.27200114727020264,
              -0.2342684268951416,
              0.5141626596450806,
              0.9596112966537476,
              0.908544659614563,
              0.5831362009048462,
              0.8041318655014038,
              -0.16322088241577148,
              -0.7361534833908081
            ],
            [
              -0.9651936292648315,
              -0.029381155967712402,
              -0.8471848964691162,
              0.2822040319442749,
              0.8430694341659546,
              0.5783154964447021,
              -0.36886298656463623,
              -0.4724229574203491,
              0.17666566371917725
            ],
            [
              0.9938286542892456,
              -0.8003107309341431,
              0.257235050201416,
              0.5518624782562256,
              -0.06446552276611328,
              -0.7635092735290527,
              0.9077852964401245,
              0.8394162654876709,
              0.02144336700439453
            ],
            [
              -0.6618030071258545,
              0.5931509733200073,
              0.041924118995666504,
              -0.15832149982452393,
              -0.38463544845581055,
              -0.6710695028305054,
              0.6684383153915405,
              -0.19645023345947266,
              0.1292259693145752
            ],
            [
              0.9823919534683228,
              -0.8263047933578491,
              0.27437257766723633,
              -0.03590428829193115,
              0.3490332365036011,
              -0.7079187631607056,
              0.9914673566818237,
              0.07707954198122025,
              -0.428993821144104
            ],
            [
              -0.1680905818939209,
              -0.7872542142868042,
              0.12070095539093018,
              -0.694861888885498,
              0.16035115718841553,
              -0.6812121868133545,
              0.2795443534851074,
              0.8023608922958374,
              0.16635358333587646
            ]
          ],
          "column": 9,
          "row": 16
        },
        {
          "array": [
            [
              0.23625922203063965,
              0.9553543329238892,
              -0.9065964221954346,
              0.5435160398483276,
              0.8224426507949829,
              -0.12490701675415039,
              0.3589761257171631,
              -0.8882131576538086,
              0.04637336730957031,
              -0.5216720104217529,
              0.21535301208496094,
              -0.27151215076446533,
              -0.5386497974395752,
              0.8693215847015381,
              0.714911937713623,
              -0.6751036643981934
            ],
            [
              0.22897779941558838,
              -0.201124906539917,
              -0.448455810546875,
              0.20203566551208496,
              -0.7878315448760986,
              -0.16608619689941406,
              0.32802271842956543,
              0.5328143835067749,
              -0.6031595468521118,
              0.21073222160339355,
              0.48963463306427,
              0.7585848569869995,
              0.09745180606842041,
              -0.2460765838623047,
              -0.1389545202255249,
              -0.032774925231933594
            ],
            [
              0.9618717432022095,
              -0.008537530899047852,
              0.11313951015472412,
              -0.03761768341064453,
              -0.45016181468963623,
              0.6540728807449341,
              0.5171056985855103,
              0.38498449325561523,
              0.6089178323745728,
              -0.09511911869049072,
              -0.7649850845336914,
              -0.014838337898254395,
              -0.713659405708313,
              0.850717306137085,
              0.4015113115310669,
              -0.5717787742614746
            ],
            [
              -0.1506253480911255,
              0.7427959442138672,
              -0.8467718362808228,
              -0.7785792350769043,
              0.2773820161819458,
              0.541617751121521,
              -0.6244184970855713,
              -0.7556208372116089,
              0.8529250621795654,
              0.6148674488067627,
              0.6064021587371826,
              0.6366950273513794,
              0.9161043167114258,
              -0.16998052597045898,
              0.6393917798995972,
              -0.47040534019470215
            ],
            [
              -0.16421794891357422,
              -0.5760996341705322,
              -0.1841716766357422,
              -0.7016487121582031,
              0.005647504702210426,
              0.1642972230911255,
              0.719762921333313,
              -0.9408100843429565,
              0.4263956546783447,
              -0.4950960874557495,
              0.4708385467529297,
              0.7031214833259583,
              0.8992117643356323,
              0.8716964721679688,
              0.5417778491973877,
              0.9819542169570923
            ],
            [
              0.6346633434295654,
              0.7597669363021851,
              -0.9522619247436523,
              -0.22970962524414062,
              0.33753788471221924,
              0.9744625091552734,
              0.8265650272369385,
              -0.3197239637374878,
              -0.6817429065704346,
              0.7854112386703491,
              -0.051802754402160645,
              0.9944002032279968,
              -0.8697209358215332,
              0.7989178895950317,
              -0.8149633407592773,
              -0.16391897201538086
            ],
            [
              0.3697636127471924,
              -0.5281964540481567,
              0.6012072563171387,
              0.602407693862915,
              0.4978039264678955,
              0.022812485694885254,
              -0.03327512741088867,
              -0.5070821046829224,
              -0.7590930461883545,
              -0.6627795696258545,
              0.8934077024459839,
              0.37755322456359863,
              -0.3831918239593506,
              0.753535270690918,
              -0.8251873254776001,
              0.3674290180206299
            ]
          ],
          "column": 16,
          "row": 7
        }
      ]
    },
    {
      "biases": [
        {
          "array": [
            [-0.4965916872024536],
            [0.06821095943450928],
            [0.4974179267883301],
            [-0.19279348850250244],
            [-0.45926904678344727],
            [0.9746463298797607],
            [0.178183913230896],
            [0.6995060443878174],
            [0.07320984452962875],
            [0.6641504764556885],
            [0.5499144792556763],
            [0.7887217998504639],
            [0.596725344657898],
            [0.9674561023712158],
            [0.908186674118042],
            [-0.4886833429336548]
          ],
          "column": 1,
          "row": 16
        },
        {
          "array": [
            [0.875206708908081],
            [-0.5283230543136597],
            [0.07579433917999268],
            [-0.26331984996795654],
            [-0.6270663738250732],
            [-0.010453343391418457],
            [-0.4270906448364258]
          ],
          "column": 1,
          "row": 7
        }
      ],
      "weights": [
        {
          "array": [
            [
              -0.5302799940109253,
              -0.15698575973510742,
              0.675756573677063,
              0.761757493019104,
              -0.37560105323791504,
              -0.1978015899658203,
              0.5075620412826538,
              -0.6291025876998901,
              0.37066566944122314
            ],
            [
              0.9486041069030762,
              0.9775537252426147,
              -0.5308569669723511,
              -0.5315585136413574,
              -0.25744616985321045,
              0.7576333284378052,
              -0.3045034408569336,
              -0.9651694297790527,
              -0.28105151653289795
            ],
            [
              0.9502372741699219,
              -0.811586856842041,
              -0.08938074111938477,
              -0.44587910175323486,
              0.7261241674423218,
              -0.18760526180267334,
              0.749313235282898,
              -0.9092979431152344,
              0.21413075923919678
            ],
            [
              0.4196552038192749,
              0.7933089733123779,
              0.2649562358856201,
              0.29196298122406006,
              -0.8661986589431763,
              0.09166038036346436,
              -0.8558521270751953,
              -0.08645939826965332,
              -0.19690406322479248
            ],
            [
              -0.17599833011627197,
              -0.6618219614028931,
              -0.967501163482666,
              -0.18020260334014893,
              0.5681109428405762,
              0.44100236892700195,
              -0.9861481189727783,
              0.24594223499298096,
              -0.2918379306793213
            ],
            [
              0.5804779529571533,
              -0.33149099349975586,
              -0.1623523235321045,
              0.9320036172866821,
              0.9637935161590576,
              -0.7685017585754395,
              -0.7612978219985962,
              -0.10485708713531494,
              -0.9907083511352539
            ],
            [
              -0.7011501789093018,
              0.8452631235122681,
              0.9040871858596802,
              -0.5797010660171509,
              0.03583347797393799,
              0.05855214595794678,
              -0.05888080596923828,
              -0.2951892614364624,
              -0.0024334192276000977
            ],
            [
              -0.32060492038726807,
              -0.15344750881195068,
              -0.8449503183364868,
              -0.679865837097168,
              0.8014668226242065,
              -0.8956594467163086,
              0.30778777599334717,
              0.5357321500778198,
              -0.12047111988067627
            ],
            [
              0.8351837396621704,
              -0.7990809679031372,
              0.059662818908691406,
              -0.2585411071777344,
              -0.5381759405136108,
              -0.7286527156829834,
              0.742232084274292,
              -0.3586629629135132,
              -0.47089600563049316
            ],
            [
              0.10733211040496826,
              0.5579314231872559,
              0.38442540168762207,
              0.9932622313499451,
              0.23478686809539795,
              -0.6678265333175659,
              0.8689429759979248,
              0.25516772270202637,
              0.09764766693115234
            ],
            [
              -0.27200114727020264,
              -0.2342684268951416,
              0.5141626596450806,
              0.9596112966537476,
              0.908544659614563,
              0.5831362009048462,
              0.8041318655014038,
              -0.16322088241577148,
              -0.7361534833908081
            ],
            [
              -0.9651936292648315,
              -0.029381155967712402,
              -0.8471848964691162,
              0.2822040319442749,
              0.8430694341659546,
              0.5783154964447021,
              -0.36886298656463623,
              -0.4724229574203491,
              0.17666566371917725
            ],
            [
              0.9938286542892456,
              -0.8003107309341431,
              0.257235050201416,
              0.5518624782562256,
              -0.06446552276611328,
              -0.7635092735290527,
              -0.48861801624298096,
              0.8394162654876709,
              0.02144336700439453
            ],
            [
              -0.6618030071258545,
              0.5931509733200073,
              0.041924118995666504,
              -0.15832149982452393,
              -0.38463544845581055,
              -0.6710695028305054,
              0.6684383153915405,
              -0.19645023345947266,
              0.1292259693145752
            ],
            [
              0.9823919534683228,
              -0.8263047933578491,
              0.27437257766723633,
              -0.03590428829193115,
              0.3490332365036011,
              -0.7079187631607056,
              0.9914673566818237,
              0.21179354190826416,
              -0.428993821144104
            ],
            [
              -0.1680905818939209,
              -0.7872542142868042,
              0.12070095539093018,
              -0.694861888885498,
              0.16035115718841553,
              -0.6812121868133545,
              0.2795443534851074,
              0.8023608922958374,
              0.16635358333587646
            ]
          ],
          "column": 9,
          "row": 16
        },
        {
          "array": [
            [
              0.23625922203063965,
              0.9553543329238892,
              -0.9065964221954346,
              0.5435160398483276,
              0.8224426507949829,
              -0.12490701675415039,
              0.3589761257171631,
              -0.8882131576538086,
              0.04637336730957031,
              -0.5216720104217529,
              0.21535301208496094,
              -0.27151215076446533,
              -0.5386497974395752,
              0.8693215847015381,
              0.714911937713623,
              -0.6751036643981934
            ],
            [
              0.22897779941558838,
              -0.201124906539917,
              -0.448455810546875,
              0.20203566551208496,
              -0.7878315448760986,
              -0.16608619689941406,
              0.32802271842956543,
              0.5328143835067749,
              -0.6031595468521118,
              0.21073222160339355,
              0.48963463306427,
              0.7585848569869995,
              0.09745180606842041,
              -0.2460765838623047,
              -0.1389545202255249,
              -0.032774925231933594
            ],
            [
              0.9618717432022095,
              -0.008537530899047852,
              0.11313951015472412,
              -0.03761768341064453,
              -0.45016181468963623,
              0.6540728807449341,
              0.5171056985855103,
              0.38498449325561523,
              0.6089178323745728,
              -0.09511911869049072,
              -0.7649850845336914,
              -0.014838337898254395,
              -0.713659405708313,
              0.850717306137085,
              0.4015113115310669,
              -0.5717787742614746
            ],
            [
              -0.1506253480911255,
              0.7427959442138672,
              -0.8467718362808228,
              -0.7785792350769043,
              0.2773820161819458,
              0.541617751121521,
              -0.6244184970855713,
              -0.7556208372116089,
              0.8529250621795654,
              0.6148674488067627,
              0.6064021587371826,
              0.6366950273513794,
              0.9161043167114258,
              -0.16998052597045898,
              0.6393917798995972,
              -0.47040534019470215
            ],
            [
              -0.16421794891357422,
              -0.5760996341705322,
              -0.1841716766357422,
              -0.7016487121582031,
              0.3548084497451782,
              0.1642972230911255,
              0.719762921333313,
              -0.9408100843429565,
              0.4263956546783447,
              -0.4950960874557495,
              0.4708385467529297,
              0.34506547451019287,
              0.8992117643356323,
              0.8716964721679688,
              0.5417778491973877,
              0.9819542169570923
            ],
            [
              0.6346633434295654,
              0.7597669363021851,
              -0.9522619247436523,
              -0.22970962524414062,
              0.33753788471221924,
              0.9744625091552734,
              0.8265650272369385,
              -0.3197239637374878,
              -0.6817429065704346,
              0.7854112386703491,
              -0.051802754402160645,
              0.9944002032279968,
              -0.8697209358215332,
              0.7989178895950317,
              -0.8149633407592773,
              -0.16391897201538086
            ],
            [
              0.3697636127471924,
              -0.5281964540481567,
              0.6012072563171387,
              0.602407693862915,
              0.4978039264678955,
              0.022812485694885254,
              -0.03327512741088867,
              -0.5070821046829224,
              -0.7590930461883545,
              -0.6627795696258545,
              0.8934077024459839,
              0.37755322456359863,
              -0.3831918239593506,
              0.753535270690918,
              -0.8251873254776001,
              0.3674290180206299
            ]
          ],
          "column": 16,
          "row": 7
        }
      ]
    },
    {
      "biases": [
        {
          "array": [
            [-0.4965916872024536],
            [0.06821095943450928],
            [0.4974179267883301],
            [-0.19279348850250244],
            [-0.45926904678344727],
            [0.9746463298797607],
            [0.178183913230896],
            [0.6995060443878174],
            [0.07320984452962875],
            [0.6641504764556885],
            [0.5499144792556763],
            [0.7887217998504639],
            [0.596725344657898],
            [0.9674561023712158],
            [0.908186674118042],
            [-0.4886833429336548]
          ],
          "column": 1,
          "row": 16
        },
        {
          "array": [
            [0.875206708908081],
            [0.7756764888763428],
            [0.07579433917999268],
            [-0.26331984996795654],
            [-0.6270663738250732],
            [-0.010453343391418457],
            [-0.4270906448364258]
          ],
          "column": 1,
          "row": 7
        }
      ],
      "weights": [
        {
          "array": [
            [
              0.8953677415847778,
              -0.15698575973510742,
              0.675756573677063,
              0.761757493019104,
              -0.37560105323791504,
              -0.1978015899658203,
              0.5075620412826538,
              -0.6291025876998901,
              0.37066566944122314
            ],
            [
              0.9486041069030762,
              0.9775537252426147,
              -0.5308569669723511,
              -0.5315585136413574,
              -0.25744616985321045,
              0.7576333284378052,
              -0.3045034408569336,
              -0.9651694297790527,
              -0.28105151653289795
            ],
            [
              0.9502372741699219,
              -0.811586856842041,
              -0.08938074111938477,
              -0.44587910175323486,
              0.7261241674423218,
              0.6499102711677551,
              0.749313235282898,
              -0.9092979431152344,
              0.21413075923919678
            ],
            [
              0.4196552038192749,
              0.7933089733123779,
              0.2649562358856201,
              0.29196298122406006,
              -0.8661986589431763,
              0.09166038036346436,
              -0.8558521270751953,
              -0.08645939826965332,
              -0.19690406322479248
            ],
            [
              -0.17599833011627197,
              -0.6618219614028931,
              -0.967501163482666,
              -0.18020260334014893,
              0.5681109428405762,
              0.44100236892700195,
              -0.9861481189727783,
              0.24594223499298096,
              -0.2918379306793213
            ],
            [
              0.5804779529571533,
