{
  "generation": 49,
  "brains": [
    {
      "biases": [
        {
          "array": [
            [0.9778012633323669],
            [-0.5782440900802612],
            [0.5642160177230835],
            [0.9991390705108643],
            [-0.9247870445251465],
            [0.09578725695610046]
          ],
          "column": 1,
          "row": 6
        },
        {
          "array": [
            [0.8651469945907593],
            [0.91590416431427],
            [0.001755300210788846],
            [-0.6213611364364624],
            [-0.015660524368286133],
            [0.9922101497650146]
          ],
          "column": 1,
          "row": 6
        }
      ],
      "weights": [
        {
          "array": [
            [
              0.7018613219261169,
              0.12389202415943146,
              0.5408167839050293,
              0.9128891825675964
            ],
            [
              -0.9941765069961548,
              0.10529352724552155,
              -0.4264853000640869,
              -0.9462758302688599
            ],
            [
              -0.8697290420532227,
              -0.7178912162780762,
              0.7896777391433716,
              0.9142706394195557
            ],
            [
              0.6868665218353271,
              -0.18347501754760742,
              -0.7211143970489502,
              -0.801929235458374
            ],
            [
              -0.5010530948638916,
              -0.9059876203536987,
              -0.17414116859436035,
              0.3165284991264343
            ],
            [
              0.40932416915893555,
              -0.9187881946563721,
              0.9206021428108215,
              0.5903820991516113
            ]
          ],
          "column": 4,
          "row": 6
        },
        {
          "array": [
            [
              0.9731636047363281,
              0.364549458026886,
              0.8628053665161133,
              0.9831975698471069,
              -0.7327533960342407,
              0.0012039594585075974
            ],
            [
              0.40641605854034424,
              -0.6012983322143555,
              0.08330881595611572,
              -0.08558535575866699,
              0.006012916564941406,
              0.032479580491781235
            ],
            [
              0.9252908229827881,
              0.33264899253845215,
              0.008205218240618706,
              0.695580005645752,
              0.3212447166442871,
              -0.9806281328201294
            ],
            [
              0.8540290594100952,
              0.05141264945268631,
              0.06516373157501221,
              9.297768701799214E-4,
              0.4894437789916992,
              0.285919189453125
            ],
            [
              0.4506590962409973,
              -0.9808677434921265,
              0.5417494773864746,
              0.33376598358154297,
              0.11623253673315048,
              -0.4871731996536255
            ],
            [
              -0.6474093198776245,
              -0.5114085674285889,
              0.22345781326293945,
              0.4680020809173584,
              0.5593030452728271,
              -0.6568359136581421
            ]
          ],
          "column": 6,
          "row": 6
        }
      ]
    },
    {
      "biases": [
        {
          "array": [
            [0.9778012633323669],
            [-0.5782440900802612],
            [0.5642160177230835],
            [0.9991390705108643],
            [-0.9247870445251465],
            [0.09578725695610046]
          ],
          "column": 1,
          "row": 6
        },
        {
          "array": [
            [0.8651469945907593],
            [0.91590416431427],
            [0.001755300210788846],
            [-0.6213611364364624],
            [-0.015660524368286133],
            [0.9922101497650146]
          ],
          "column": 1,
          "row": 6
        }
      ],
      "weights": [
        {
          "array": [
            [
              0.7018613219261169,
              0.12389202415943146,
              0.5408167839050293,
              0.9128891825675964
            ],
            [
              -0.9941765069961548,
              0.10529352724552155,
              -0.4264853000640869,
              -0.9462758302688599
            ],
            [
              -0.8697290420532227,
              -0.7178912162780762,
              0.7896777391433716,
              0.9142706394195557
            ],
            [
              0.6868665218353271,
              -0.18347501754760742,
              -0.7211143970489502,
              -0.801929235458374
            ],
            [
              -0.5010530948638916,
              -0.9059876203536987,
              -0.17414116859436035,
              0.3165284991264343
            ],
            [
              0.40932416915893555,
              -0.9187881946563721,
              0.9206021428108215,
              0.5903820991516113
            ]
          ],
          "column": 4,
          "row": 6
        },
        {
          "array": [
            [
              0.9731636047363281,
              0.364549458026886,
              0.8628053665161133,
              0.9831975698471069,
              -0.7327533960342407,
              0.0012039594585075974
            ],
            [
              0.40641605854034424,
              -0.6012983322143555,
              0.08330881595611572,
              -0.08558535575866699,
              0.006012916564941406,
              0.032479580491781235
            ],
            [
              0.9252908229827881,
              0.33264899253845215,
              0.008205218240618706,
              0.695580005645752,
              0.3212447166442871,
              -0.9806281328201294
            ],
            [
              0.8540290594100952,
              0.05141264945268631,
              0.06516373157501221,
              9.297768701799214E-4,
              0.4894437789916992,
              0.285919189453125
            ],
            [
              0.4506590962409973,
              -0.9808677434921265,
              0.5417494773864746,
              0.33376598358154297,
              0.11623253673315048,
              -0.4871731996536255
            ],
            [
              -0.6474093198776245,
              -0.5114085674285889,
              0.22345781326293945,
              0.4680020809173584,
              0.5593030452728271,
              -0.6568359136581421
            ]
          ],
          "column": 6,
          "row": 6
        }
      ]
    },
    {
      "biases": [
        {
          "array": [
            [0.9778012633323669],
            [-0.5782440900802612],
            [0.5642160177230835],
            [0.9991390705108643],
            [-0.9247870445251465],
            [0.09578725695610046]
          ],
          "column": 1,
          "row": 6
        },
        {
          "array": [
            [0.8651469945907593],
            [0.91590416431427],
            [0.001755300210788846],
            [-0.6213611364364624],
            [-0.015660524368286133],
            [0.9922101497650146]
          ],
          "column": 1,
          "row": 6
        }
      ],
      "weights": [
        {
          "array": [
            [
              0.7018613219261169,
              0.12389202415943146,
              0.5408167839050293,
              0.9128891825675964
            ],
            [
              -0.9941765069961548,
              0.10529352724552155,
              -0.4264853000640869,
              -0.9462758302688599
            ],
            [
              -0.8697290420532227,
              -0.7178912162780762,
              0.7896777391433716,
              0.9142706394195557
            ],
            [
              0.6868665218353271,
              -0.18347501754760742,
              -0.7211143970489502,
              -0.801929235458374
            ],
            [
              -0.5010530948638916,
              -0.9059876203536987,
              -0.17414116859436035,
              0.3165284991264343
            ],
            [
              0.40932416915893555,
              -0.9187881946563721,
              0.9206021428108215,
              0.5903820991516113
            ]
          ],
          "column": 4,
          "row": 6
        },
        {
          "array": [
            [
              0.9731636047363281,
              0.364549458026886,
              0.8628053665161133,
              0.9831975698471069,
              -0.7327533960342407,
              0.0012039594585075974
            ],
            [
              0.40641605854034424,
              -0.6012983322143555,
              0.08330881595611572,
              -0.08558535575866699,
              0.9760763645172119,
              0.032479580491781235
            ],
            [
              0.967678427696228,
              0.33264899253845215,
              0.008205218240618706,
              0.695580005645752,
              0.3212447166442871,
              -0.9806281328201294
            ],
            [
              0.8540290594100952,
              0.05141264945268631,
              0.06516373157501221,
              9.297768701799214E-4,
              0.4894437789916992,
              0.285919189453125
            ],
            [
              0.4506590962409973,
              -0.9808677434921265,
              0.5417494773864746,
              0.33376598358154297,
              0.11623253673315048,
              -0.4871731996536255
            ],
            [
              -0.6474093198776245,
              -0.5114085674285889,
              0.22345781326293945,
              0.4680020809173584,
              0.5593030452728271,
              -0.6568359136581421
            ]
          ],
          "column": 6,
          "row": 6
        }
      ]
    },
    {
      "biases": [
        {
          "array": [
            [0.9778012633323669],
            [-0.5782440900802612],
            [0.9982269406318665],
            [0.9991390705108643],
            [-0.9247870445251465],
            [0.09578725695610046]
          ],
          "column": 1,
          "row": 6
        },
        {
          "array": [
            [0.8651469945907593],
            [0.91590416431427],
            [0.001755300210788846],
            [-0.6213611364364624],
            [-0.015660524368286133],
            [0.9922101497650146]
          ],
          "column": 1,
          "row": 6
        }
      ],
      "weights": [
        {
          "array": [
            [
              0.7018613219261169,
              0.12389202415943146,
              0.5408167839050293,
              0.9128891825675964
            ],
            [
              -0.9941765069961548,
              0.10529352724552155,
              -0.4264853000640869,
              -0.9462758302688599
            ],
            [
              -0.8697290420532227,
              -0.7178912162780762,
              0.7896777391433716,
              0.9142706394195557
            ],
            [
              0.6868665218353271,
              0.002077830955386162,
              -0.7211143970489502,
              -0.801929235458374
            ],
            [
              -0.5010530948638916,
              -0.9059876203536987,
              -0.17414116859436035,
              0.3165284991264343
            ],
            [
              0.40932416915893555,
              -0.9187881946563721,
              0.9206021428108215,
              0.5903820991516113
            ]
          ],
          "column": 4,
          "row": 6
        },
        {
          "array": [
            [
              0.9731636047363281,
              0.364549458026886,
              0.8628053665161133,
              0.9831975698471069,
              -0.7327533960342407,
              0.0012039594585075974
            ],
            [
              0.40641605854034424,
              -0.6012983322143555,
              0.08330881595611572,
              -0.08558535575866699,
              0.006012916564941406,
              0.032479580491781235
            ],
            [
              0.9252908229827881,
              0.33264899253845215,
              0.008205218240618706,
              0.695580005645752,
              0.3212447166442871,
              -0.9806281328201294
            ],
            [
              0.8540290594100952,
              0.05141264945268631,
              0.06516373157501221,
              9.297768701799214E-4,
              0.4894437789916992,
              0.285919189453125
            ],
            [
              0.4506590962409973,
              -0.9808677434921265,
              0.5417494773864746,
              0.33376598358154297,
              0.11623253673315048,
              -0.4871731996536255
            ],
            [
              -0.6474093198776245,
              -0.5114085674285889,
              0.22345781326293945,
              0.4680020809173584,
              0.5593030452728271,
              -0.6568359136581421
            ]
          ],
          "column": 6,
          "row": 6
        }
      ]
    },
    {
      "biases": [
        {
          "array": [
            [0.9778012633323669],
            [-0.5782440900802612],
            [0.5642160177230835],
            [0.9991390705108643],
            [-0.9247870445251465],
            [0.09578725695610046]
          ],
          "column": 1,
          "row": 6
        },
        {
          "array": [
            [0.5316997170448303],
            [0.91590416431427],
            [0.001755300210788846],
            [-0.6213611364364624],
            [-0.015660524368286133],
            [0.9922101497650146]
          ],
          "column": 1,
          "row": 6
        }
      ],
      "weights": [
        {
          "array": [
            [
              0.19565193355083466,
              0.12389202415943146,
              0.5408167839050293,
              0.9128891825675964
            ],
            [
              -0.9941765069961548,
              0.10529352724552155,
              -0.4264853000640869,
              -0.9462758302688599
            ],
            [
              -0.8697290420532227,
              -0.7178912162780762,
              0.7896777391433716,
              0.9142706394195557
            ],
            [
              0.6868665218353271,
              -0.18347501754760742,
              -0.7211143970489502,
              -0.801929235458374
            ],
            [
              -0.5010530948638916,
              -0.9059876203536987,
              -0.17414116859436035,
              0.3165284991264343
            ],
            [
              0.40932416915893555,
              -0.9187881946563721,
              0.9206021428108215,
              0.5903820991516113
            ]
          ],
          "column": 4,
          "row": 6
        },
        {
          "array": [
            [
              0.9731636047363281,
              0.364549458026886,
              0.8628053665161133,
              0.9831975698471069,
              -0.7327533960342407,
              0.0012039594585075974
            ],
            [
              0.40641605854034424,
              -0.6012983322143555,
              0.08330881595611572,
              -0.08558535575866699,
              0.006012916564941406,
              0.032479580491781235
            ],
            [
              0.9252908229827881,
              0.33264899253845215,
              0.008205218240618706,
              0.695580005645752,
              0.9991546869277954,
              -0.9806281328201294
            ],
            [
              0.8540290594100952,
              0.05141264945268631,
              0.06516373157501221,
              9.297768701799214E-4,
              0.07356613874435425,
              0.285919189453125
            ],
            [
              0.4506590962409973,
              -0.9808677434921265,
              0.5417494773864746,
              0.33376598358154297,
              0.11623253673315048,
              -0.4871731996536255
            ],
            [
              -0.6474093198776245,
              -0.5114085674285889,
              0.22345781326293945,
              0.4680020809173584,
              0.5593030452728271,
              -0.6568359136581421
            ]
          ],
          "column": 6,
          "row": 6
        }
      ]
    },
    {
      "biases": [
        {
          "array": [
            [0.9778012633323669],
            [-0.5782440900802612],
            [0.5642160177230835],
            [0.9991390705108643],
            [-0.9247870445251465],
            [0.09578725695610046]
          ],
          "column": 1,
          "row": 6
        },
        {
          "array": [
            [0.8651469945907593],
            [0.91590416431427],
            [0.001755300210788846],
            [-0.6213611364364624],
            [-0.015660524368286133],
            [0.9922101497650146]
          ],
          "column": 1,
          "row": 6
        }
      ],
      "weights": [
        {
          "array": [
            [
              0.7018613219261169,
              0.12389202415943146,
              0.5408167839050293,
              0.9128891825675964
            ],
            [
              -0.9941765069961548,
              0.10529352724552155,
              -0.4264853000640869,
              -0.9462758302688599
            ],
            [
              -0.8697290420532227,
              -0.7178912162780762,
              0.7896777391433716,
              0.9142706394195557
            ],
            [
              0.6868665218353271,
              -0.18347501754760742,
              -0.7211143970489502,
              -0.801929235458374
            ],
            [
              -0.5010530948638916,
              -0.9059876203536987,
              -0.17414116859436035,
              0.3165284991264343
            ],
            [
              0.40932416915893555,
              -0.9187881946563721,
              0.9206021428108215,
              0.5903820991516113
            ]
          ],
          "column": 4,
          "row": 6
        },
        {
          "array": [
            [
              0.9731636047363281,
              0.364549458026886,
              0.8628053665161133,
              0.9831975698471069,
              -0.7327533960342407,
              0.0012039594585075974
            ],
            [
              0.40641605854034424,
              -0.6012983322143555,
              0.08330881595611572,
              -0.08558535575866699,
              0.006012916564941406,
              0.032479580491781235
            ],
            [
              0.9252908229827881,
              0.33264899253845215,
              0.9977098703384399,
              0.695580005645752,
              0.3212447166442871,
              -0.9806281328201294
            ],
            [
              0.8540290594100952,
              0.05141264945268631,
              0.0047972905449569225,
              9.297768701799214E-4,
              0.4894437789916992,
              0.285919189453125
            ],
            [
              0.4506590962409973,
              -0.9808677434921265,
              0.5417494773864746,
              0.33376598358154297,
              0.11623253673315048,
              -0.4871731996536255
            ],
            [
              -0.6474093198776245,
              -0.5114085674285889,
              0.22345781326293945,
              0.4680020809173584,
              0.5593030452728271,
              -0.6568359136581421
            ]
          ],
          "column": 6,
          "row": 6
        }
      ]
    },
    {
      "biases": [
        {
          "array": [
            [0.9778012633323669],
            [-0.5782440900802612],
            [0.5642160177230835],
            [0.9991390705108643],
            [-0.9247870445251465],
            [0.09578725695610046]
          ],
          "column": 1,
          "row": 6
        },
        {
          "array": [
            [0.8651469945907593],
            [0.91590416431427],
            [0.001755300210788846],
            [-0.6213611364364624],
            [-0.015660524368286133],
            [0.9922101497650146]
          ],
          "column": 1,
          "row": 6
        }
      ],
      "weights": [
        {
          "array": [
            [
              0.7018613219261169,
              0.12389202415943146,
              0.5408167839050293,
              0.9128891825675964
            ],
            [
              -0.9941765069961548,
              0.10529352724552155,
              -0.4264853000640869,
              -0.9462758302688599
            ],
            [
              -0.8697290420532227,
              -0.7178912162780762,
              0.7896777391433716,
              0.9142706394195557
            ],
            [
              0.6868665218353271,
              -0.18347501754760742,
              -0.7211143970489502,
              -0.801929235458374
            ],
            [
              -0.5010530948638916,
              -0.9059876203536987,
              -0.17414116859436035,
              0.3165284991264343
            ],
            [
              0.40932416915893555,
              -0.9187881946563721,
              0.9206021428108215,
              0.5903820991516113
            ]
          ],
          "column": 4,
          "row": 6
        },
        {
          "array": [
            [
              0.9731636047363281,
              0.364549458026886,
              0.8628053665161133,
              0.9831975698471069,
              -0.7327533960342407,
              0.0012039594585075974
            ],
            [
              0.40641605854034424,
              -0.6012983322143555,
              0.08330881595611572,
              -0.08558535575866699,
              0.006012916564941406,
              0.032479580491781235
            ],
            [
              0.9252908229827881,
              0.33264899253845215,
              0.008205218240618706,
              0.695580005645752,
              0.3212447166442871,
              -0.9806281328201294
            ],
            [
              0.8540290594100952,
              0.05141264945268631,
              0.06516373157501221,
              9.297768701799214E-4,
              0.4894437789916992,
              0.285919189453125
            ],
            [
              0.4506590962409973,
              -0.9808677434921265,
              0.5417494773864746,
              0.33376598358154297,
              0.11623253673315048,
              -0.4871731996536255
            ],
            [
              -0.6474093198776245,
              -0.5114085674285889,
              0.22345781326293945,
              0.4680020809173584,
              0.5593030452728271,
              -0.6568359136581421
            ]
          ],
          "column": 6,
          "row": 6
        }
      ]
    },
    {
      "biases": [
        {
          "array": [
            [0.9778012633323669],
            [0.8665987253189087],
            [0.5642160177230835],
            [0.9991390705108643],
            [-0.9247870445251465],
            [0.09578725695610046]
          ],
          "column": 1,
          "row": 6
        },
        {
          "array": [
            [0.5533666610717773],
            [0.91590416431427],
            [0.001755300210788846],
            [-0.6213611364364624],
            [-0.015660524368286133],
            [0.9922101497650146]
          ],
          "column": 1,
          "row": 6
        }
      ],
      "weights": [
        {
          "array": [
            [
              0.7018613219261169,
              0.12389202415943146,
              0.5408167839050293,
              0.9128891825675964
            ],
            [
              -0.9941765069961548,
              0.10529352724552155,
              -0.4264853000640869,
              -0.9462758302688599
            ],
            [
              -0.8697290420532227,
              -0.7178912162780762,
              0.7896777391433716,
              0.9142706394195557
            ],
            [
              0.6868665218353271,
              -0.18347501754760742,
              -0.7211143970489502,
              -0.801929235458374
            ],
            [
              -0.5010530948638916,
              -0.9059876203536987,
              -0.17414116859436035,
              0.3165284991264343
            ],
            [
              0.40932416915893555,
              -0.9187881946563721,
              0.9206021428108215,
              0.5903820991516113
            ]
          ],
          "column": 4,
          "row": 6
        },
        {
          "array": [
            [
              0.9731636047363281,
              0.364549458026886,
              0.8628053665161133,
              0.9831975698471069,
              -0.7327533960342407,
              0.0012039594585075974
            ],
            [
              0.40641605854034424,
              -0.6012983322143555,
              0.08330881595611572,
              -0.08558535575866699,
              0.006012916564941406,
              0.032479580491781235
            ],
            [
              0.9252908229827881,
              0.33264899253845215,
              0.008205218240618706,
              0.695580005645752,
              0.3212447166442871,
              -0.9806281328201294
            ],
            [
              0.8540290594100952,
              0.05141264945268631,
              0.06516373157501221,
              9.297768701799214E-4,
              0.4894437789916992,
              0.285919189453125
            ],
            [
              0.4506590962409973,
              -0.9808677434921265,
              0.5417494773864746,
              0.33376598358154297,
              0.9916422367095947,
              -0.4871731996536255
            ],
            [
              -0.6474093198776245,
              -0.5114085674285889,
              0.22345781326293945,
              0.4680020809173584,
              0.5593030452728271,
              -0.6568359136581421
            ]
          ],
          "column": 6,
          "row": 6
        }
      ]
    },
    {
      "biases": [
        {
          "array": [
            [0.9778012633323669],
            [-0.5782440900802612],
            [0.5642160177230835],
            [0.9991390705108643],
            [0.05955492705106735],
            [0.09578725695610046]
          ],
          "column": 1,
          "row": 6
        },
        {
          "array": [
            [0.8651469945907593],
            [0.91590416431427],
            [0.001755300210788846],
            [-0.6213611364364624],
            [-0.015660524368286133],
            [0.9922101497650146]
          ],
          "column": 1,
          "row": 6
        }
      ],
      "weights": [
        {
          "array": [
            [
              0.7018613219261169,
              0.12389202415943146,
              0.5408167839050293,
              0.9128891825675964
            ],
            [
              -0.9941765069961548,
              0.10529352724552155,
              -0.4264853000640869,
              0.6589372158050537
            ],
            [
              -0.8697290420532227,
              -0.7178912162780762,
              0.7896777391433716,
              0.9142706394195557
            ],
            [
              0.6868665218353271,
              -0.18347501754760742,
              -0.7211143970489502,
              -0.801929235458374
            ],
            [
              0.047731004655361176,
              -0.9059876203536987,
              -0.17414116859436035,
              0.3165284991264343
            ],
            [
              0.40932416915893555,
              -0.9187881946563721,
              0.9206021428108215,
              0.5903820991516113
            ]
          ],
          "column": 4,
          "row": 6
        },
        {
          "array": [
            [
              0.9731636047363281,
              0.364549458026886,
              0.8628053665161133,
              0.9831975698471069,
              -0.7327533960342407,
              0.0012039594585075974
            ],
            [
              0.40641605854034424,
              -0.6012983322143555,
              0.08330881595611572,
              -0.08558535575866699,
              0.006012916564941406,
              0.032479580491781235
            ],
            [
              0.9252908229827881,
              0.33264899253845215,
              0.008205218240618706,
              0.695580005645752,
              0.3212447166442871,
              -0.9806281328201294
            ],
            [
              0.8540290594100952,
              0.05141264945268631,
              0.06516373157501221,
              9.297768701799214E-4,
              0.4894437789916992,
              0.285919189453125
            ],
            [
              0.4506590962409973,
              -0.9808677434921265,
              0.5417494773864746,
              0.33376598358154297,
              0.11623253673315048,
              -0.4871731996536255
            ],
            [
              -0.6474093198776245,
              -0.5114085674285889,
              0.22345781326293945,
              0.4680020809173584,
              0.5593030452728271,
              -0.6568359136581421
            ]
          ],
          "column": 6,
          "row": 6
        }
      ]
    },
    {
      "biases": [
        {
          "array": [
            [0.9778012633323669],
            [-0.5782440900802612],
            [0.5642160177230835],
            [0.9991390705108643],
            [-0.9247870445251465],
            [0.09578725695610046]
          ],
          "column": 1,
          "row": 6
        },
        {
          "array": [
            [0.5533666610717773],
            [0.91590416431427],
            [0.001755300210788846],
            [-0.6213611364364624],
            [-0.015660524368286133],
            [0.9922101497650146]
          ],
          "column": 1,
          "row": 6
        }
      ],
      "weights": [
        {
          "array": [
            [
              0.7018613219261169,
              0.48244744539260864,
              0.5408167839050293,
              0.9128891825675964
            ],
            [
              -0.9941765069961548,
              0.10529352724552155,
              -0.4264853000640869,
              -0.9462758302688599
            ],
            [
              -0.8697290420532227,
              -0.7178912162780762,
              0.7896777391433716,
              0.9142706394195557
            ],
            [
              0.6868665218353271,
              -0.18347501754760742,
              -0.7211143970489502,
              -0.801929235458374
            ],
            [
              -0.5010530948638916,
              -0.9059876203536987,
              -0.17414116859436035,
              0.3165284991264343
            ],
            [
              0.40932416915893555,
              -0.9187881946563721,
              0.9206021428108215,
              0.5903820991516113
            ]
          ],
          "column": 4,
          "row": 6
        },
        {
          "array": [
            [
              0.9731636047363281,
              0.364549458026886,
              0.8628053665161133,
              0.9831975698471069,
              -0.7327533960342407,
              0.0012039594585075974
            ],
            [
              0.40641605854034424,
              -0.6012983322143555,
              0.08330881595611572,
              -0.08558535575866699,
              0.9983654618263245,
              0.032479580491781235
            ],
            [
              0.9252908229827881,
              0.33264899253845215,
              0.008205218240618706,
              0.695580005645752,
              0.3212447166442871,
              -0.9806281328201294
            ],
            [
              0.8540290594100952,
              0.05141264945268631,
              0.06516373157501221,
              9.297768701799214E-4,
              0.4894437789916992,
              0.285919189453125
            ],
            [
              0.4506590962409973,
              -0.9808677434921265,
              0.5417494773864746,
              0.33376598358154297,
              0.11623253673315048,
              -0.4871731996536255
            ],
            [
              -0.6474093198776245,
              -0.5114085674285889,
              0.22345781326293945,
              0.2366444319486618,
              0.5593030452728271,
              -0.6568359136581421
            ]
          ],
          "column": 6,
          "row": 6
        }
      ]
    },
    {
      "biases": [
        {
          "array": [
            [0.9778012633323669],
            [-0.5782440900802612],
            [0.5642160177230835],
            [0.9991390705108643],
            [-0.9247870445251465],
            [0.09578725695610046]
          ],
          "column": 1,
          "row": 6
        },
        {
          "array": [
            [0.5533666610717773],
            [0.91590416431427],
            [0.001755300210788846],
            [-0.6213611364364624],
            [-0.015660524368286133],
            [0.9922101497650146]
          ],
          "column": 1,
          "row": 6
        }
      ],
      "weights": [
        {
          "array": [
            [
              0.7018613219261169,
              0.12389202415943146,
              0.5408167839050293,
              0.9128891825675964
            ],
            [
              -0.9941765069961548,
              0.10529352724552155,
              -0.4264853000640869,
              -0.9462758302688599
            ],
            [
              -0.8697290420532227,
              -0.7178912162780762,
              0.7896777391433716,
              0.9142706394195557
            ],
            [
              0.6868665218353271,
              -0.18347501754760742,
              -0.7211143970489502,
              -0.801929235458374
            ],
            [
              -0.5010530948638916,
              -0.9059876203536987,
              -0.17414116859436035,
              0.3165284991264343
            ],
            [
              0.40932416915893555,
              -0.9187881946563721,
              0.9206021428108215,
              0.5903820991516113
            ]
          ],
          "column": 4,
          "row": 6
        },
        {
          "array": [
            [
              0.9731636047363281,
              0.364549458026886,
              0.8628053665161133,
              0.9831975698471069,
              -0.7327533960342407,
              0.0012039594585075974
            ],
            [
              0.40641605854034424,
              -0.6012983322143555,
              0.08330881595611572,
              -0.08558535575866699,
              0.006012916564941406,
              0.032479580491781235
            ],
            [
              0.9252908229827881,
              0.33264899253845215,
              0.008205218240618706,
              0.695580005645752,
              0.3212447166442871,
              -0.9806281328201294
            ],
            [
              0.8540290594100952,
              0.05141264945268631,
              0.06516373157501221,
              9.297768701799214E-4,
              0.4894437789916992,
              0.285919189453125
            ],
            [
              0.4506590962409973,
              -0.9808677434921265,
              0.5417494773864746,
              0.33376598358154297,
              0.11623253673315048,
              -0.4871731996536255
            ],
            [
              -0.6474093198776245,
              -0.5114085674285889,
              0.22345781326293945,
              0.4680020809173584,
              0.5593030452728271,
              -0.6568359136581421
            ]
          ],
          "column": 6,
          "row": 6
        }
      ]
    },
    {
      "biases": [
        {
          "array": [
            [0.9778012633323669],
            [-0.5782440900802612],
            [0.5642160177230835],
            [0.9991390705108643],
            [-0.9247870445251465],
            [0.09578725695610046]
          ],
          "column": 1,
          "row": 6
        },
        {
          "array": [
            [0.8651469945907593],
            [0.91590416431427],
            [0.001755300210788846],
            [-0.6213611364364624],
            [-0.015660524368286133],
            [0.9922101497650146]
          ],
          "column": 1,
          "row": 6
        }
      ],
      "weights": [
        {
          "array": [
            [
              0.4622883200645447,
              0.12389202415943146,
              0.5408167839050293,
              0.9128891825675964
            ],
            [
              -0.9941765069961548,
              0.10529352724552155,
              -0.4264853000640869,
              -0.9462758302688599
            ],
            [
              -0.8697290420532227,
              -0.7178912162780762,
              0.7896777391433716,
              0.9142706394195557
            ],
            [
              0.6868665218353271,
              -0.18347501754760742,
              -0.7211143970489502,
              -0.801929235458374
            ],
            [
              -0.5010530948638916,
              -0.9059876203536987,
              -0.17414116859436035,
              0.3165284991264343
            ],
            [
              0.40932416915893555,
              -0.9187881946563721,
              0.9206021428108215,
              0.5903820991516113
            ]
          ],
          "column": 4,
          "row": 6
        },
        {
          "array": [
            [
              0.9731636047363281,
              0.364549458026886,
              0.8628053665161133,
              0.9831975698471069,
              -0.7327533960342407,
              0.0012039594585075974
            ],
            [
              0.40641605854034424,
              -0.6012983322143555,
              0.08330881595611572,
              -0.08558535575866699,
              0.006012916564941406,
              0.032479580491781235
            ],
            [
              0.9252908229827881,
              0.33264899253845215,
              0.008205218240618706,
              0.695580005645752,
              0.9991546869277954,
              -0.9806281328201294
            ],
            [
              0.8540290594100952,
              0.05141264945268631,
              0.06516373157501221,
              9.297768701799214E-4,
              0.4894437789916992,
              0.285919189453125
            ],
            [
              0.4506590962409973,
              -0.9808677434921265,
              0.5417494773864746,
              0.33376598358154297,
              0.11623253673315048,
              -0.4871731996536255
            ],
            [
              -0.6474093198776245,
              -0.5114085674285889,
              0.22345781326293945,
              0.4680020809173584,
              0.5593030452728271,
              -0.6568359136581421
            ]
          ],
          "column": 6,
          "row": 6
        }
      ]
    },
    {
      "biases": [
        {
          "array": [
            [0.9778012633323669],
            [-0.5782440900802612],
            [0.5642160177230835],
            [0.9991390705108643],
            [-0.9247870445251465],
            [0.09578725695610046]
          ],
          "column": 1,
          "row": 6
        },
        {
          "array": [
            [0.8651469945907593],
            [0.91590416431427],
            [0.001755300210788846],
            [-0.6213611364364624],
            [-0.015660524368286133],
            [0.9922101497650146]
          ],
          "column": 1,
          "row": 6
        }
      ],
      "weights": [
        {
          "array": [
            [
              0.7018613219261169,
              0.12389202415943146,
              0.5408167839050293,
              0.9128891825675964
            ],
            [
              -0.9941765069961548,
              0.10529352724552155,
              -0.4264853000640869,
              0.30568212270736694
            ],
            [
              -0.8697290420532227,
              -0.7178912162780762,
              0.7896777391433716,
              0.9142706394195557
            ],
            [
              0.6868665218353271,
              -0.18347501754760742,
              -0.7211143970489502,
              -0.801929235458374
            ],
            [
              -0.5010530948638916,
              -0.9059876203536987,
              -0.17414116859436035,
              0.3165284991264343
            ],
            [
              0.40932416915893555,
              -0.9187881946563721,
              0.9206021428108215,
              0.5903820991516113
            ]
          ],
          "column": 4,
          "row": 6
        },
        {
          "array": [
            [
              0.9731636047363281,
              0.364549458026886,
              0.07338055968284607,
              0.9831975698471069,
              -0.7327533960342407,
              0.0012039594585075974
            ],
            [
              0.40641605854034424,
              -0.6012983322143555,
              0.08330881595611572,
              -0.08558535575866699,
              0.007981815375387669,
              0.032479580491781235
            ],
            [
              0.9252908229827881,
              0.33264899253845215,
              0.008205218240618706,
              0.695580005645752,
              0.3212447166442871,
              -0.9806281328201294
            ],
            [
              0.8540290594100952,
              0.05141264945268631,
              0.06516373157501221,
              9.297768701799214E-4,
              0.4894437789916992,
              0.285919189453125
            ],
            [
              0.4506590962409973,
              -0.9808677434921265,
              0.5417494773864746,
              0.33376598358154297,
              0.11623253673315048,
              -0.4871731996536255
            ],
            [
              -0.6474093198776245,
              -0.5114085674285889,
              0.22345781326293945,
              0.4680020809173584,
              0.5593030452728271,
              -0.6568359136581421
            ]
          ],
          "column": 6,
          "row": 6
        }
      ]
    },
    {
      "biases": [
        {
          "array": [
            [0.9778012633323669],
            [-0.5782440900802612],
            [0.5642160177230835],
            [0.9991390705108643],
            [-0.9247870445251465],
            [0.09578725695610046]
          ],
          "column": 1,
          "row": 6
        },
        {
          "array": [
            [0.5533666610717773],
            [0.91590416431427],
            [0.001755300210788846],
            [-0.6213611364364624],
            [-0.015660524368286133],
            [0.9922101497650146]
          ],
          "column": 1,
          "row": 6
        }
      ],
      "weights": [
        {
          "array": [
            [
              0.7018613219261169,
              0.12389202415943146,
              0.5408167839050293,
              0.9128891825675964
            ],
            [
              -0.9941765069961548,
              0.10529352724552155,
              -0.4264853000640869,
              -0.9462758302688599
            ],
            [
              -0.8697290420532227,
              -0.7178912162780762,
              0.7896777391433716,
              0.9142706394195557
            ],
            [
              0.6868665218353271,
              -0.18347501754760742,
              -0.7211143970489502,
              -0.801929235458374
            ],
            [
              -0.5010530948638916,
              -0.9059876203536987,
              -0.17414116859436035,
              0.3165284991264343
            ],
            [
              0.40932416915893555,
              -0.9187881946563721,
              0.9206021428108215,
              0.5903820991516113
            ]
          ],
          "column": 4,
          "row": 6
        },
        {
          "array": [
            [
              0.9731636047363281,
              0.364549458026886,
              0.8628053665161133,
              0.9831975698471069,
              -0.7327533960342407,
              0.0012039594585075974
            ],
            [
              0.40641605854034424,
              -0.6012983322143555,
              0.08330881595611572,
              -0.08558535575866699,
              0.006012916564941406,
              0.032479580491781235
            ],
            [
              0.9252908229827881,
              0.33264899253845215,
              0.008205218240618706,
              0.695580005645752,
              0.3212447166442871,
              -0.9806281328201294
            ],
            [
              0.8540290594100952,
              0.05141264945268631,
              0.06516373157501221,
              9.297768701799214E-4,
              0.4894437789916992,
              0.285919189453125
            ],
            [
              0.4506590962409973,
              -0.9808677434921265,
              0.5417494773864746,
              0.33376598358154297,
              0.11623253673315048,
              -0.4871731996536255
            ],
            [
              -0.6474093198776245,
              -0.5114085674285889,
              0.22345781326293945,
              0.4680020809173584,
              0.5593030452728271,
              -0.6568359136581421
            ]
          ],
          "column": 6,
          "row": 6
        }
      ]
    },
    {
      "biases": [
        {
          "array": [
            [0.9778012633323669],
            [-0.5782440900802612],
            [0.5642160177230835],
            [0.9991390705108643],
            [-0.9247870445251465],
            [0.09578725695610046]
          ],
          "column": 1,
          "row": 6
        },
        {
          "array": [
            [0.8651469945907593],
            [0.91590416431427],
            [0.001755300210788846],
            [-0.6213611364364624],
            [-0.015660524368286133],
            [0.9922101497650146]
          ],
          "column": 1,
          "row": 6
        }
      ],
      "weights": [
        {
          "array": [
            [
              0.7018613219261169,
              0.12389202415943146,
              0.5408167839050293,
              0.9128891825675964
            ],
            [
              0.009559431113302708,
              0.10529352724552155,
              -0.4264853000640869,
              -0.9462758302688599
            ],
            [
              -0.8697290420532227,
              -0.7178912162780762,
              0.7896777391433716,
              0.9142706394195557
            ],
            [
              0.6868665218353271,
              -0.18347501754760742,
              -0.7211143970489502,
              -0.801929235458374
            ],
            [
              -0.5010530948638916,
              -0.9059876203536987,
              -0.17414116859436035,
              0.3165284991264343
            ],
            [
              0.40932416915893555,
              -0.9187881946563721,
              0.9206021428108215,
              0.5903820991516113
            ]
          ],
          "column": 4,
          "row": 6
        },
        {
          "array": [
            [
              0.956318199634552,
              0.364549458026886,
              0.8628053665161133,
              0.9831975698471069,
              -0.7327533960342407,
              0.0012039594585075974
            ],
            [
              0.0029203949961811304,
              -0.6012983322143555,
              0.08330881595611572,
              -0.08558535575866699,
              0.006012916564941406,
              0.032479580491781235
            ],
            [
              0.9252908229827881,
              0.33264899253845215,
              0.008205218240618706,
              0.695580005645752,
              0.3212447166442871,
              -0.9806281328201294
            ],
            [
              0.8540290594100952,
              0.05141264945268631,
              0.06516373157501221,
              9.297768701799214E-4,
              0.4894437789916992,
              0.285919189453125
            ],
            [
              0.4506590962409973,
              0.0012762272963300347,
              0.5417494773864746,
              0.33376598358154297,
              0.11623253673315048,
              -0.4871731996536255
            ],
            [
              -0.6474093198776245,
              -0.5114085674285889,
              0.22345781326293945,
              0.4680020809173584,
              0.5593030452728271,
              -0.6568359136581421
            ]
          ],
          "column": 6,
          "row": 6
        }
      ]
    },
    {
      "biases": [
        {
          "array": [
            [0.9778012633323669],
            [-0.5782440900802612],
            [0.5642160177230835],
            [0.9991390705108643],
            [-0.9247870445251465],
            [0.09578725695610046]
          ],
          "column": 1,
          "row": 6
        },
        {
          "array": [
            [0.8651469945907593],
            [0.91590416431427],
            [0.001755300210788846],
            [-0.6213611364364624],
            [-0.015660524368286133],
            [0.9922101497650146]
          ],
          "column": 1,
          "row": 6
        }
      ],
      "weights": [
        {
          "array": [
            [
              0.7018613219261169,
              0.12389202415943146,
              0.5408167839050293,
              0.9128891825675964
            ],
            [
              -0.9941765069961548,
              0.10529352724552155,
              -0.4264853000640869,
              -0.9462758302688599
            ],
            [
              -0.8697290420532227,
              -0.7178912162780762,
              0.7896777391433716,
              0.9142706394195557
            ],
            [
              0.6868665218353271,
              -0.18347501754760742,
              -0.7211143970489502,
              -0.801929235458374
            ],
            [
              -0.5010530948638916,
              -0.9059876203536987,
              -0.17414116859436035,
              0.3165284991264343
            ],
            [
              0.40932416915893555,
              -0.9187881946563721,
              0.9206021428108215,
              0.5903820991516113
            ]
          ],
          "column": 4,
          "row": 6
        },
        {
          "array": [
            [
              0.9731636047363281,
              0.364549458026886,
              0.8628053665161133,
              0.9831975698471069,
              -0.7327533960342407,
              0.0012039594585075974
            ],
            [
              0.40641605854034424,
              -0.6012983322143555,
              0.08330881595611572,
              -0.08558535575866699,
              0.006012916564941406,
              0.032479580491781235
            ],
            [
              0.9252908229827881,
              0.33264899253845215,
              0.008205218240618706,
              0.695580005645752,
              0.3212447166442871,
              -0.9806281328201294
            ],
            [
              0.8540290594100952,
              0.05141264945268631,
              0.06516373157501221,
              9.297768701799214E-4,
              0.4894437789916992,
              0.285919189453125
            ],
            [
              0.4506590962409973,
              -0.9808677434921265,
              0.5417494773864746,
              0.02131495624780655,
              0.11623253673315048,
              -0.4871731996536255
            ],
            [
              -0.6474093198776245,
              -0.5114085674285889,
              0.22345781326293945,
              0.4680020809173584,
              0.5593030452728271,
              -0.6568359136581421
            ]
          ],
          "column": 6,
          "row": 6
        }
      ]
    },
    {
      "biases": [
        {
          "array": [
            [0.9778012633323669],
            [-0.5782440900802612],
            [0.5642160177230835],
            [0.9991390705108643],
            [-0.9247870445251465],
            [0.09578725695610046]
          ],
          "column": 1,
          "row": 6
        },
        {
          "array": [
            [0.8651469945907593],
            [0.91590416431427],
            [0.001755300210788846],
            [-0.6213611364364624],
            [-0.015660524368286133],
            [0.9922101497650146]
          ],
          "column": 1,
          "row": 6
        }
      ],
      "weights": [
        {
          "array": [
            [
              0.7018613219261169,
              0.12389202415943146,
              0.5408167839050293,
              0.9128891825675964
            ],
            [
              -0.9941765069961548,
              0.10529352724552155,
              -0.4264853000640869,
              -0.9462758302688599
            ],
            [
              -0.8697290420532227,
              -0.7178912162780762,
              0.7896777391433716,
              0.9142706394195557
            ],
            [
              0.6868665218353271,
              -0.18347501754760742,
              -0.7211143970489502,
              -0.801929235458374
            ],
            [
              -0.5010530948638916,
              -0.9059876203536987,
              -0.17414116859436035,
              0.3165284991264343
            ],
            [
              0.40932416915893555,
              -0.9187881946563721,
              0.9206021428108215,
              0.5903820991516113
            ]
          ],
          "column": 4,
          "row": 6
        },
        {
          "array": [
            [
              0.9731636047363281,
              0.364549458026886,
              0.8628053665161133,
              0.9831975698471069,
              -0.7327533960342407,
              0.0012039594585075974
            ],
            [
              0.40641605854034424,
              -0.6012983322143555,
              0.08330881595611572,
              -0.08558535575866699,
              0.006012916564941406,
              0.0806521475315094
            ],
            [
              0.9252908229827881,
              0.33264899253845215,
              0.008205218240618706,
              0.695580005645752,
              0.3212447166442871,
              -0.9806281328201294
            ],
            [
              0.8540290594100952,
              0.05141264945268631,
              0.06516373157501221,
              9.297768701799214E-4,
              0.4894437789916992,
              0.285919189453125
            ],
            [
              0.4506590962409973,
              -0.9808677434921265,
              0.5417494773864746,
              0.33376598358154297,
              0.11623253673315048,
              -0.4871731996536255
            ],
            [
              -0.6474093198776245,
              -0.5114085674285889,
              0.22345781326293945,
              0.4680020809173584,
              0.5593030452728271,
              -0.6568359136581421
            ]
          ],
          "column": 6,
          "row": 6
        }
      ]
    },
    {
      "biases": [
        {
          "array": [
            [0.9778012633323669],
            [-0.5782440900802612],
            [0.5642160177230835],
            [0.9992617964744568],
            [-0.9247870445251465],
            [0.09578725695610046]
          ],
          "column": 1,
          "row": 6
        },
        {
          "array": [
            [0.5533666610717773],
            [0.91590416431427],
            [0.001755300210788846],
            [-0.6213611364364624],
            [-0.015660524368286133],
            [0.9993422627449036]
          ],
          "column": 1,
          "row": 6
        }
      ],
      "weights": [
        {
          "array": [
            [
              0.7018613219261169,
              0.5450043678283691,
              0.5408167839050293,
              0.9128891825675964
            ],
            [
              -0.9941765069961548,
              0.10529352724552155,
              -0.4264853000640869,
              -0.9462758302688599
            ],
            [
              -0.8697290420532227,
              -0.7178912162780762,
              0.7896777391433716,
              0.9142706394195557
            ],
            [
              0.6868665218353271,
              -0.18347501754760742,
              -0.7211143970489502,
              -0.801929235458374
            ],
            [
              -0.5010530948638916,
              -0.9059876203536987,
              0.2760508954524994,
              0.3165284991264343
            ],
            [
              0.40932416915893555,
              -0.9187881946563721,
              0.9206021428108215,
              0.5903820991516113
            ]
          ],
          "column": 4,
          "row": 6
        },
        {
          "array": [
            [
              0.9731636047363281,
              0.2070935219526291,
              0.8628053665161133,
              0.9831975698471069,
              -0.7327533960342407,
              0.0012039594585075974
            ],
            [
              0.40641605854034424,
              -0.6012983322143555,
              0.08330881595611572,
              -0.08558535575866699,
              0.44886553287506104,
              0.04193975031375885
            ],
            [
              0.982854962348938,
              0.33264899253845215,
              0.008205218240618706,
              0.695580005645752,
              0.3212447166442871,
              -0.9806281328201294
            ],
            [
              0.8540290594100952,
              0.05141264945268631,
              0.06516373157501221,
              9.297768701799214E-4,
              0.4894437789916992,
              0.285919189453125
            ],
            [
              0.4506590962409973,
              -0.9808677434921265,
              0.5417494773864746,
              0.33376598358154297,
              0.11623253673315048,
              -0.4871731996536255
            ],
            [
              -0.6474093198776245,
              -0.5114085674285889,
              0.22345781326293945,
              0.4680020809173584,
              0.5593030452728271,
              -0.6568359136581421
            ]
          ],
          "column": 6,
          "row": 6
        }
      ]
    },
    {
      "biases": [
        {
          "array": [
            [0.9778012633323669],
            [-0.5782440900802612],
            [0.5642160177230835],
            [0.9991390705108643],
            [-0.9247870445251465],
            [0.09578725695610046]
          ],
          "column": 1,
          "row": 6
        },
        {
          "array": [
            [0.5533666610717773],
            [0.91590416431427],
            [0.001755300210788846],
            [-0.6213611364364624],
            [-0.015660524368286133],
            [0.9922101497650146]
          ],
          "column": 1,
          "row": 6
        }
      ],
      "weights": [
        {
          "array": [
            [
              0.7018613219261169,
              0.12389202415943146,
              0.5408167839050293,
              0.9128891825675964
            ],
            [
              -0.9941765069961548,
              0.10529352724552155,
              -0.4264853000640869,
              -0.9462758302688599
            ],
            [
              -0.8697290420532227,
              -0.7178912162780762,
              0.7896777391433716,
              0.9142706394195557
            ],
            [
              0.6868665218353271,
              -0.18347501754760742,
              -0.7211143970489502,
              -0.801929235458374
            ],
            [
              -0.5010530948638916,
              -0.9059876203536987,
              -0.17414116859436035,
              0.3165284991264343
            ],
            [
              0.40932416915893555,
              -0.9187881946563721,
              0.9206021428108215,
              0.5903820991516113
            ]
          ],
          "column": 4,
          "row": 6
        },
        {
          "array": [
            [
              0.9731636047363281,
              0.364549458026886,
              0.8628053665161133,
              0.9831975698471069,
              -0.7327533960342407,
              0.0012039594585075974
            ],
            [
              0.40641605854034424,
              -0.6012983322143555,
              0.08330881595611572,
              -0.08558535575866699,
              0.006012916564941406,
              0.032479580491781235
            ],
            [
              0.9252908229827881,
              0.33264899253845215,
              0.008205218240618706,
              0.695580005645752,
              0.3212447166442871,
              -0.9806281328201294
            ],
            [
              0.8540290594100952,
              0.05141264945268631,
              0.06516373157501221,
              9.297768701799214E-4,
              0.4894437789916992,
              0.285919189453125
            ],
            [
              0.4506590962409973,
              -0.9808677434921265,
              0.5417494773864746,
              0.33376598358154297,
              0.11623253673315048,
              -0.4871731996536255
            ],
            [
              -0.6474093198776245,
              -0.5114085674285889,
              0.22345781326293945,
              0.4680020809173584,
              0.5593030452728271,
              -0.6568359136581421
            ]
          ],
          "column": 6,
          "row": 6
        }
      ]
    },
    {
      "biases": [
        {
          "array": [
            [0.8989663124084473],
            [-0.5782440900802612],
            [0.5642160177230835],
            [0.9991390705108643],
            [-0.9247870445251465],
            [0.09578725695610046]
          ],
          "column": 1,
          "row": 6
        },
        {
          "array": [
            [0.8651469945907593],
            [0.91590416431427],
            [0.001755300210788846],
            [-0.6213611364364624],
            [-0.015660524368286133],
            [0.9922101497650146]
          ],
          "column": 1,
          "row": 6
        }
      ],
      "weights": [
        {
          "array": [
            [
              0.7018613219261169,
              0.12389202415943146,
              0.5408167839050293,
              0.9128891825675964
            ],
            [
              -0.9941765069961548,
              0.10529352724552155,
              -0.4264853000640869,
              -0.9462758302688599
            ],
            [
              -0.8697290420532227,
              -0.7178912162780762,
              0.7896777391433716,
              0.9142706394195557
            ],
            [
              0.6868665218353271,
              -0.18347501754760742,
              -0.7211143970489502,
              -0.801929235458374
            ],
            [
              -0.5010530948638916,
              -0.9059876203536987,
              -0.17414116859436035,
              0.3165284991264343
            ],
            [
              0.40932416915893555,
              -0.9187881946563721,
              0.9206021428108215,
              0.5903820991516113
            ]
          ],
          "column": 4,
          "row": 6
        },
        {
          "array": [
            [
              0.9731636047363281,
              0.364549458026886,
              0.8628053665161133,
              0.9831975698471069,
              -0.7327533960342407,
              0.0012039594585075974
            ],
            [
              0.40641605854034424,
              -0.6012983322143555,
              0.08330881595611572,
              -0.08558535575866699,
              0.006012916564941406,
              0.032479580491781235
            ],
            [
              0.9252908229827881,
              0.33264899253845215,
              0.008205218240618706,
              0.695580005645752,
              0.3212447166442871,
              -0.9806281328201294
            ],
            [
              0.8540290594100952,
              0.05141264945268631,
              0.06516373157501221,
              9.297768701799214E-4,
              0.4894437789916992,
              0.285919189453125
            ],
            [
              0.4506590962409973,
              -0.9808677434921265,
              0.5417494773864746,
              0.33376598358154297,
              0.11623253673315048,
              -0.4871731996536255
            ],
            [
              -0.6474093198776245,
              -0.5114085674285889,
              0.22345781326293945,
              0.4680020809173584,
              0.5593030452728271,
              -0.6568359136581421
            ]
          ],
          "column": 6,
          "row": 6
        }
      ]
    },
    {
      "biases": [
        {
          "array": [
            [0.9778012633323669],
            [-0.5782440900802612],
            [0.5642160177230835],
            [0.9991390705108643],
            [-0.9247870445251465],
            [0.09578725695610046]
          ],
          "column": 1,
          "row": 6
        },
        {
          "array": [
            [0.8651469945907593],
            [0.91590416431427],
            [0.001755300210788846],
            [-0.6213611364364624],
            [-0.015660524368286133],
            [0.9922101497650146]
          ],
          "column": 1,
          "row": 6
        }
      ],
      "weights": [
        {
          "array": [
            [
              0.7018613219261169,
              0.12389202415943146,
              0.5408167839050293,
              0.9128891825675964
            ],
            [
              -0.9941765069961548,
              0.10529352724552155,
              -0.4264853000640869,
              -0.9462758302688599
            ],
            [
              -0.8697290420532227,
              -0.7178912162780762,
              0.7896777391433716,
              0.9142706394195557
            ],
            [
              0.6868665218353271,
              -0.18347501754760742,
              -0.7211143970489502,
              -0.801929235458374
            ],
            [
              -0.5010530948638916,
              -0.9059876203536987,
              -0.17414116859436035,
              0.3165284991264343
            ],
            [
              0.40932416915893555,
              -0.9187881946563721,
              0.9206021428108215,
              0.5903820991516113
            ]
          ],
          "column": 4,
          "row": 6
        },
        {
          "array": [
            [
              0.9731636047363281,
              0.364549458026886,
              0.8628053665161133,
              0.9831975698471069,
              -0.7327533960342407,
              0.0012039594585075974
            ],
            [
              0.40641605854034424,
              -0.6012983322143555,
              0.08330881595611572,
              -0.08558535575866699,
              0.006012916564941406,
              0.032479580491781235
            ],
            [
              0.9252908229827881,
              0.33264899253845215,
              0.008205218240618706,
              0.695580005645752,
              0.3212447166442871,
              -0.9806281328201294
            ],
            [
              0.8540290594100952,
              0.05141264945268631,
              0.06516373157501221,
              9.297768701799214E-4,
              0.4894437789916992,
              0.285919189453125
            ],
            [
              0.4506590962409973,
              -0.9808677434921265,
              0.5417494773864746,
              0.33376598358154297,
              0.11623253673315048,
              -0.4871731996536255
            ],
            [
              -0.6474093198776245,
              -0.5114085674285889,
              0.22345781326293945,
              0.4680020809173584,
              0.5593030452728271,
              -0.6568359136581421
            ]
          ],
          "column": 6,
          "row": 6
        }
      ]
    },
    {
      "biases": [
        {
          "array": [
            [0.9778012633323669],
            [-0.5782440900802612],
            [0.5642160177230835],
            [0.9991390705108643],
            [-0.9247870445251465],
            [0.09578725695610046]
          ],
          "column": 1,
          "row": 6
        },
        {
          "array": [
            [0.8651469945907593],
            [0.91590416431427],
            [0.001755300210788846],
            [-0.6213611364364624],
            [-0.015660524368286133],
            [0.9922101497650146]
          ],
          "column": 1,
          "row": 6
        }
      ],
      "weights": [
        {
          "array": [
            [
              0.7018613219261169,
              0.12389202415943146,
              0.5408167839050293,
              0.9128891825675964
            ],
            [
              -0.9941765069961548,
              0.10529352724552155,
              -0.4264853000640869,
              -0.9462758302688599
            ],
            [
              -0.8697290420532227,
              -0.7178912162780762,
              0.7896777391433716,
              0.9142706394195557
            ],
            [
              0.6868665218353271,
              -0.18347501754760742,
              -0.7211143970489502,
              -0.801929235458374
            ],
            [
              -0.5010530948638916,
              -0.9059876203536987,
              -0.17414116859436035,
              0.3165284991264343
            ],
            [
              0.40932416915893555,
              -0.9187881946563721,
              0.9206021428108215,
              0.5903820991516113
            ]
          ],
          "column": 4,
          "row": 6
        },
        {
          "array": [
            [
              0.9731636047363281,
              0.364549458026886,
              0.8628053665161133,
              0.9831975698471069,
              -0.7327533960342407,
              0.0012039594585075974
            ],
            [
              0.40641605854034424,
              -0.6012983322143555,
              0.08330881595611572,
              -0.08558535575866699,
              0.006012916564941406,
              0.0026406869292259216
            ],
            [
              0.9252908229827881,
              0.33264899253845215,
              0.008205218240618706,
              0.695580005645752,
              0.3212447166442871,
              -0.9806281328201294
            ],
            [
              0.8540290594100952,
              0.05141264945268631,
              0.06516373157501221,
              9.297768701799214E-4,
              0.4894437789916992,
              0.285919189453125
            ],
            [
              0.4506590962409973,
              -0.9808677434921265,
              0.5417494773864746,
              0.33376598358154297,
              0.11623253673315048,
              -0.4871731996536255
            ],
            [
              0.011202676221728325,
              -0.5114085674285889,
              0.22345781326293945,
              0.4680020809173584,
              0.5593030452728271,
              -0.6568359136581421
            ]
          ],
          "column": 6,
          "row": 6
        }
      ]
    },
    {
      "biases": [
        {
          "array": [
            [0.9778012633323669],
            [-0.5782440900802612],
            [0.5642160177230835],
            [0.9991390705108643],
            [-0.9247870445251465],
            [0.025652294978499413]
          ],
          "column": 1,
          "row": 6
        },
        {
          "array": [
            [0.8651469945907593],
            [0.91590416431427],
            [0.001755300210788846],
            [-0.6213611364364624],
            [-0.015660524368286133],
            [0.9922101497650146]
          ],
          "column": 1,
          "row": 6
        }
      ],
      "weights": [
        {
          "array": [
            [
              0.7018613219261169,
              0.12389202415943146,
              0.5408167839050293,
              0.9128891825675964
            ],
            [
              -0.9941765069961548,
              0.10529352724552155,
              -0.4264853000640869,
              0.004626671317964792
            ],
            [
              -0.8697290420532227,
              -0.7178912162780762,
              0.7896777391433716,
              0.9142706394195557
            ],
            [
              0.6868665218353271,
              -0.18347501754760742,
              -0.7211143970489502,
              -0.801929235458374
            ],
            [
              -0.5010530948638916,
              -0.9059876203536987,
              -0.17414116859436035,
              0.3165284991264343
            ],
            [
              0.40932416915893555,
              -0.9187881946563721,
              0.9206021428108215,
              0.5903820991516113
            ]
          ],
          "column": 4,
          "row": 6
        },
        {
          "array": [
            [
              0.9731636047363281,
              0.364549458026886,
              0.8628053665161133,
              0.9831975698471069,
              -0.7327533960342407,
              0.0012039594585075974
            ],
            [
              0.40641605854034424,
              0.047000542283058167,
              0.08330881595611572,
              -0.08558535575866699,
              0.00671801995486021,
              0.032479580491781235
            ],
            [
              0.9252908229827881,
              0.33264899253845215,
              0.008205218240618706,
              0.695580005645752,
              0.3212447166442871,
              -0.9806281328201294
            ],
            [
              0.8540290594100952,
              0.05141264945268631,
              0.06516373157501221,
              9.297768701799214E-4,
              0.4894437789916992,
              0.285919189453125
            ],
            [
              0.4506590962409973,
              -0.9808677434921265,
              0.5417494773864746,
              0.33376598358154297,
              0.11623253673315048,
              -0.4871731996536255
            ],
            [
              -0.6474093198776245,
              -0.5114085674285889,
              0.22345781326293945,
              0.4680020809173584,
              0.5593030452728271,
              -0.6568359136581421
            ]
          ],
          "column": 6,
          "row": 6
        }
      ]
    },
    {
      "biases": [
        {
          "array": [
            [0.9778012633323669],
            [-0.5782440900802612],
            [0.5642160177230835],
            [0.9991390705108643],
            [-0.9247870445251465],
            [0.09578725695610046]
          ],
          "column": 1,
          "row": 6
        },
        {
          "array": [
            [0.5533666610717773],
            [0.91590416431427],
            [0.001755300210788846],
            [-0.6213611364364624],
            [-0.015660524368286133],
            [0.9922101497650146]
          ],
          "column": 1,
          "row": 6
        }
      ],
      "weights": [
        {
          "array": [
            [
              0.7018613219261169,
              0.5450043678283691,
              0.5408167839050293,
              0.9128891825675964
            ],
            [
              -0.9941765069961548,
              0.10529352724552155,
              -0.4264853000640869,
              -0.9462758302688599
            ],
            [
              -0.8697290420532227,
              -0.7178912162780762,
              0.7896777391433716,
              0.9142706394195557
            ],
            [
              0.6868665218353271,
              -0.18347501754760742,
              -0.7211143970489502,
              -0.801929235458374
            ],
            [
              -0.5010530948638916,
              -0.9059876203536987,
              0.998619556427002,
              0.3165284991264343
            ],
            [
              0.40932416915893555,
              -0.9187881946563721,
              0.9206021428108215,
              0.5903820991516113
            ]
          ],
          "column": 4,
          "row": 6
        },
        {
          "array": [
            [
              0.9731636047363281,
              0.0023217129055410624,
              0.8628053665161133,
              0.9831975698471069,
              -0.7327533960342407,
              0.0012039594585075974
            ],
            [
              0.40641605854034424,
              -0.6012983322143555,
              0.08330881595611572,
              -0.08558535575866699,
              0.006012916564941406,
              0.032479580491781235
            ],
            [
              0.998869001865387,
              0.33264899253845215,
              0.008205218240618706,
              0.695580005645752,
              0.3212447166442871,
              -0.9806281328201294
            ],
            [
              0.8540290594100952,
              0.05141264945268631,
              0.06516373157501221,
              9.297768701799214E-4,
              0.9235062599182129,
              0.285919189453125
            ],
            [
              0.4506590962409973,
              -0.9808677434921265,
              0.5417494773864746,
              0.33376598358154297,
              0.11623253673315048,
              -0.4871731996536255
            ],
            [
              -0.6474093198776245,
              -0.5114085674285889,
              0.22345781326293945,
              0.4680020809173584,
              0.5593030452728271,
              -0.6568359136581421
            ]
          ],
          "column": 6,
          "row": 6
        }
      ]
    },
    {
      "biases": [
        {
          "array": [
            [0.9778012633323669],
            [-0.5782440900802612],
            [0.5642160177230835],
            [0.9991390705108643],
            [-0.9247870445251465],
            [0.09578725695610046]
          ],
          "column": 1,
          "row": 6
        },
        {
          "array": [
            [0.8651469945907593],
            [0.91590416431427],
            [0.001755300210788846],
            [-0.6213611364364624],
            [-0.015660524368286133],
            [0.9922101497650146]
          ],
          "column": 1,
          "row": 6
        }
      ],
      "weights": [
        {
          "array": [
            [
              0.7018613219261169,
              0.12389202415943146,
              0.5408167839050293,
              0.9128891825675964
            ],
            [
              -0.9941765069961548,
              0.10529352724552155,
              -0.4264853000640869,
              -0.9462758302688599
            ],
            [
              -0.8697290420532227,
              -0.7178912162780762,
              0.7896777391433716,
              0.9142706394195557
            ],
            [
              0.6868665218353271,
              -0.18347501754760742,
              -0.7211143970489502,
              -0.801929235458374
            ],
            [
              -0.5010530948638916,
              -0.9059876203536987,
              -0.17414116859436035,
              0.3165284991264343
            ],
            [
              0.40932416915893555,
              -0.9187881946563721,
              0.9206021428108215,
              0.5903820991516113
            ]
          ],
          "column": 4,
          "row": 6
        },
        {
          "array": [
            [
              0.9731636047363281,
              0.364549458026886,
              0.8628053665161133,
              0.988132655620575,
              -0.7327533960342407,
              0.0012039594585075974
            ],
            [
              0.11700499057769775,
              -0.6012983322143555,
              0.08330881595611572,
              -0.08558535575866699,
              0.006012916564941406,
              0.032479580491781235
            ],
            [
              0.9252908229827881,
              0.33264899253845215,
              0.008205218240618706,
              0.695580005645752,
              0.3212447166442871,
              -0.9806281328201294
            ],
            [
              0.8540290594100952,
              0.05141264945268631,
              0.06516373157501221,
              9.297768701799214E-4,
              0.4894437789916992,
              0.285919189453125
            ],
            [
              0.4506590962409973,
              -0.9808677434921265,
              0.5417494773864746,
              0.33376598358154297,
              0.11623253673315048,
              -0.4871731996536255
            ],
            [
              -0.6474093198776245,
              -0.5114085674285889,
              0.22345781326293945,
              0.4680020809173584,
              0.5593030452728271,
              -0.6568359136581421
            ]
          ],
          "column": 6,
          "row": 6
        }
      ]
    },
    {
      "biases": [
        {
          "array": [
            [0.9778012633323669],
            [-0.5782440900802612],
            [0.5642160177230835],
            [0.9991390705108643],
            [-0.9247870445251465],
            [0.09578725695610046]
          ],
          "column": 1,
          "row": 6
        },
        {
          "array": [
            [0.5533666610717773],
            [0.91590416431427],
            [0.001755300210788846],
            [-0.6213611364364624],
            [-0.015660524368286133],
            [0.9922101497650146]
          ],
          "column": 1,
          "row": 6
        }
      ],
      "weights": [
        {
          "array": [
            [
              0.7018613219261169,
              0.5450043678283691,
              0.5408167839050293,
              0.9128891825675964
            ],
            [
              -0.9941765069961548,
              0.10529352724552155,
              -0.4264853000640869,
              -0.9462758302688599
            ],
            [
              -0.8697290420532227,
              -0.7178912162780762,
              0.7896777391433716,
              0.9142706394195557
            ],
            [
              0.6868665218353271,
              -0.18347501754760742,
              -0.7211143970489502,
              -0.801929235458374
            ],
            [
              -0.5010530948638916,
              -0.9059876203536987,
              -0.17414116859436035,
              0.3165284991264343
            ],
            [
              0.40932416915893555,
              -0.9187881946563721,
              0.9206021428108215,
              0.5903820991516113
            ]
          ],
          "column": 4,
          "row": 6
        },
        {
          "array": [
            [
              0.9731636047363281,
              0.364549458026886,
              0.8628053665161133,
              0.9831975698471069,
              -0.7327533960342407,
              0.0012039594585075974
            ],
            [
              0.40641605854034424,
              -0.6012983322143555,
              0.08330881595611572,
              0.9966630339622498,
              0.988764762878418,
              0.032479580491781235
            ],
            [
              0.0031653018668293953,
              0.33264899253845215,
              0.008205218240618706,
              0.695580005645752,
              0.3212447166442871,
              -0.9806281328201294
            ],
            [
              0.8540290594100952,
              0.05141264945268631,
              0.06516373157501221,
              9.297768701799214E-4,
              0.4894437789916992,
              0.285919189453125
            ],
            [
              0.4506590962409973,
              -0.9808677434921265,
              0.5417494773864746,
              0.33376598358154297,
              0.11623253673315048,
              -0.4871731996536255
            ],
            [
              -0.6474093198776245,
              -0.5114085674285889,
              0.22345781326293945,
              0.4680020809173584,
              0.5593030452728271,
              -0.6568359136581421
            ]
          ],
          "column": 6,
          "row": 6
        }
      ]
    },
    {
      "biases": [
        {
          "array": [
            [0.9778012633323669],
            [-0.5782440900802612],
            [0.5642160177230835],
            [0.9991390705108643],
            [-0.9247870445251465],
            [0.09578725695610046]
          ],
          "column": 1,
          "row": 6
        },
        {
          "array": [
            [0.5533666610717773],
            [0.91590416431427],
            [0.001755300210788846],
            [-0.6213611364364624],
            [-0.015660524368286133],
            [0.9922101497650146]
          ],
          "column": 1,
          "row": 6
        }
      ],
      "weights": [
        {
          "array": [
            [
              0.7018613219261169,
              0.5450043678283691,
              0.5408167839050293,
              0.9128891825675964
            ],
            [
              -0.9941765069961548,
              0.10529352724552155,
              -0.4264853000640869,
              -0.9462758302688599
            ],
            [
              -0.8697290420532227,
              -0.7178912162780762,
              0.7896777391433716,
              0.9142706394195557
            ],
            [
              0.6868665218353271,
              -0.18347501754760742,
              -0.7211143970489502,
              -0.801929235458374
            ],
            [
              -0.5010530948638916,
              -0.9059876203536987,
              -0.17414116859436035,
              0.3165284991264343
            ],
            [
              0.40932416915893555,
              -0.9187881946563721,
              0.9206021428108215,
              0.5903820991516113
            ]
          ],
          "column": 4,
          "row": 6
        },
        {
          "array": [
            [
              0.9731636047363281,
              0.364549458026886,
              0.8628053665161133,
              0.9831975698471069,
              -0.7327533960342407,
              0.0012039594585075974
            ],
            [
              0.40641605854034424,
              -0.6012983322143555,
              0.08330881595611572,
              -0.08558535575866699,
              0.006012916564941406,
              0.032479580491781235
            ],
            [
              0.998869001865387,
              0.33264899253845215,
              0.008205218240618706,
              0.695580005645752,
              0.3212447166442871,
              -0.9806281328201294
            ],
            [
              0.8540290594100952,
              0.05141264945268631,
              0.06516373157501221,
              9.297768701799214E-4,
              0.4894437789916992,
              0.285919189453125
            ],
            [
              0.4506590962409973,
              -0.9808677434921265,
              0.5417494773864746,
              0.33376598358154297,
              0.11623253673315048,
              -0.4871731996536255
            ],
            [
              -0.6474093198776245,
              -0.5114085674285889,
              0.22345781326293945,
              0.4680020809173584,
              0.5593030452728271,
              -0.6568359136581421
            ]
          ],
          "column": 6,
          "row": 6
        }
      ]
    },
    {
      "biases": [
        {
          "array": [
            [0.013981008902192116],
            [-0.5782440900802612],
            [0.5642160177230835],
            [0.9991390705108643],
            [-0.9247870445251465],
            [0.09578725695610046]
          ],
          "column": 1,
          "row": 6
        },
        {
          "array": [
            [0.5533666610717773],
            [0.91590416431427],
            [0.001755300210788846],
            [-0.6213611364364624],
            [-0.015660524368286133],
            [0.9922101497650146]
          ],
          "column": 1,
          "row": 6
        }
      ],
      "weights": [
        {
          "array": [
            [
              0.7018613219261169,
              0.12389202415943146,
              0.5408167839050293,
              0.9128891825675964
            ],
            [
              -0.9941765069961548,
              0.10529352724552155,
              0.2268970012664795,
              -0.9462758302688599
            ],
            [
              -0.8697290420532227,
              -0.7178912162780762,
              0.7896777391433716,
              0.9142706394195557
            ],
            [
              0.6868665218353271,
              -0.18347501754760742,
              -0.7211143970489502,
              -0.801929235458374
            ],
            [
              -0.5010530948638916,
              -0.9059876203536987,
              -0.17414116859436035,
              0.3165284991264343
            ],
            [
              0.40932416915893555,
              -0.9187881946563721,
              0.9206021428108215,
              0.5903820991516113
            ]
          ],
          "column": 4,
          "row": 6
        },
        {
          "array": [
            [
              0.557079017162323,
              0.364549458026886,
              0.8628053665161133,
              0.9831975698471069,
              -0.7327533960342407,
              0.0012039594585075974
            ],
            [
              0.40641605854034424,
              -0.6012983322143555,
              0.08330881595611572,
              -0.08558535575866699,
              0.006012916564941406,
              0.032479580491781235
            ],
            [
              0.9252908229827881,
              0.33264899253845215,
              0.008205218240618706,
              0.695580005645752,
              0.3212447166442871,
              -0.9806281328201294
            ],
            [
              0.8540290594100952,
              0.05141264945268631,
              0.06516373157501221,
              9.297768701799214E-4,
              0.4894437789916992,
              0.285919189453125
            ],
            [
              0.4506590962409973,
              -0.9808677434921265,
              0.5417494773864746,
              0.33376598358154297,
              0.11623253673315048,
              -0.4871731996536255
            ],
            [
              -0.6474093198776245,
              -0.5114085674285889,
              0.22345781326293945,
              0.4680020809173584,
              0.5593030452728271,
              -0.6568359136581421
            ]
          ],
          "column": 6,
          "row": 6
        }
      ]
    },
    {
      "biases": [
        {
          "array": [
            [0.9778012633323669],
            [-0.5782440900802612],
            [0.5642160177230835],
            [0.9991390705108643],
            [-0.9247870445251465],
            [0.09578725695610046]
          ],
          "column": 1,
          "row": 6
        },
        {
          "array": [
            [0.8651469945907593],
            [0.91590416431427],
            [0.001755300210788846],
            [-0.6213611364364624],
            [-0.015660524368286133],
            [0.9922101497650146]
          ],
          "column": 1,
          "row": 6
        }
      ],
      "weights": [
        {
          "array": [
            [
              0.7018613219261169,
              0.12389202415943146,
              0.5408167839050293,
              0.9128891825675964
            ],
            [
              -0.9941765069961548,
              0.10529352724552155,
              -0.4264853000640869,
              -0.9462758302688599
            ],
            [
              -0.8697290420532227,
              -0.7178912162780762,
              0.9952411651611328,
              0.9142706394195557
            ],
            [
              0.6868665218353271,
              -0.18347501754760742,
              -0.7211143970489502,
              -0.801929235458374
            ],
            [
              -0.5010530948638916,
              -0.9059876203536987,
              -0.17414116859436035,
              0.3165284991264343
            ],
            [
              0.9909092783927917,
              -0.9187881946563721,
              0.9206021428108215,
              0.5903820991516113
            ]
          ],
          "column": 4,
          "row": 6
        },
        {
          "array": [
            [
              0.9731636047363281,
              0.364549458026886,
              0.8628053665161133,
              0.9831975698471069,
              -0.7327533960342407,
              0.0012039594585075974
            ],
            [
              0.40641605854034424,
              -0.6012983322143555,
              0.08330881595611572,
              -0.08558535575866699,
              0.006012916564941406,
              0.07234439253807068
            ],
            [
              0.9252908229827881,
              0.33264899253845215,
              0.008205218240618706,
              0.695580005645752,
              0.3212447166442871,
              -0.9806281328201294
            ],
            [
              0.8540290594100952,
              0.05141264945268631,
              0.06516373157501221,
              9.297768701799214E-4,
              0.4894437789916992,
              0.285919189453125
            ],
            [
              0.4506590962409973,
              -0.9808677434921265,
              0.5417494773864746,
              0.33376598358154297,
              0.11623253673315048,
              -0.4871731996536255
            ],
            [
              -0.6474093198776245,
              -0.5114085674285889,
              0.22345781326293945,
              0.4680020809173584,
              0.5593030452728271,
              -0.6568359136581421
            ]
          ],
          "column": 6,
          "row": 6
        }
      ]
    },
    {
      "biases": [
        {
          "array": [
            [0.9778012633323669],
            [-0.5782440900802612],
            [0.5642160177230835],
            [0.9991390705108643],
            [-0.9247870445251465],
            [0.09578725695610046]
          ],
          "column": 1,
          "row": 6
        },
        {
          "array": [
            [0.8651469945907593],
            [0.91590416431427],
            [0.001755300210788846],
            [-0.6213611364364624],
            [-0.015660524368286133],
            [0.9922101497650146]
          ],
          "column": 1,
          "row": 6
        }
      ],
      "weights": [
        {
          "array": [
            [
              0.7018613219261169,
              0.12389202415943146,
              0.5408167839050293,
              0.9128891825675964
            ],
            [
              -0.9941765069961548,
              0.10529352724552155,
              -0.4264853000640869,
              -0.9462758302688599
            ],
            [
              -0.8697290420532227,
              -0.7178912162780762,
              0.7896777391433716,
              0.9142706394195557
            ],
            [
              0.6868665218353271,
              -0.18347501754760742,
              -0.7211143970489502,
              -0.801929235458374
            ],
            [
              -0.5010530948638916,
              -0.9059876203536987,
              -0.17414116859436035,
              0.3165284991264343
            ],
            [
              0.40932416915893555,
              -0.9187881946563721,
              0.9206021428108215,
              0.5903820991516113
            ]
          ],
          "column": 4,
          "row": 6
        },
        {
          "array": [
            [
              0.9731636047363281,
              0.364549458026886,
              0.8628053665161133,
              0.9831975698471069,
              -0.7327533960342407,
              0.0012039594585075974
            ],
            [
              0.40641605854034424,
              -0.6012983322143555,
              0.08330881595611572,
              -0.08558535575866699,
              0.006012916564941406,
              0.032479580491781235
            ],
            [
              0.9252908229827881,
              0.33264899253845215,
              0.008205218240618706,
              0.695580005645752,
              0.3212447166442871,
              -0.9806281328201294
            ],
            [
              0.8540290594100952,
              0.05141264945268631,
              0.06516373157501221,
              9.297768701799214E-4,
              0.4894437789916992,
              0.285919189453125
            ],
            [
              0.4506590962409973,
              -0.9808677434921265,
              0.5417494773864746,
              0.33376598358154297,
              0.11623253673315048,
              -0.4871731996536255
            ],
            [
              -0.6474093198776245,
              -0.5114085674285889,
              0.22345781326293945,
              0.4680020809173584,
              0.5593030452728271,
              -0.6568359136581421
            ]
          ],
          "column": 6,
          "row": 6
        }
      ]
    },
    {
      "biases": [
        {
          "array": [
            [0.9778012633323669],
            [-0.5782440900802612],
            [0.5642160177230835],
            [0.9991390705108643],
            [-0.9247870445251465],
            [0.09578725695610046]
          ],
          "column": 1,
          "row": 6
        },
        {
          "array": [
            [0.8651469945907593],
            [0.91590416431427],
            [0.001755300210788846],
            [-0.6213611364364624],
            [-0.015660524368286133],
            [0.9922101497650146]
          ],
          "column": 1,
          "row": 6
        }
      ],
      "weights": [
        {
          "array": [
            [
              0.7018613219261169,
              0.12389202415943146,
              0.5408167839050293,
              0.9128891825675964
            ],
            [
              -0.9941765069961548,
              0.10529352724552155,
              -0.4264853000640869,
              -0.9462758302688599
            ],
            [
              -0.8697290420532227,
              -0.7178912162780762,
              0.7896777391433716,
              0.9142706394195557
            ],
            [
              0.6868665218353271,
              -0.18347501754760742,
              -0.7211143970489502,
              -0.801929235458374
            ],
            [
              -0.5010530948638916,
              -0.9059876203536987,
              -0.17414116859436035,
              0.3165284991264343
