{
  "generation": 11,
  "brains": [
    {
      "biases": [
        {
          "array": [
            [0.8083043098449707],
            [0.9655067920684814],
            [0.9937240481376648],
            [0.490328311920166],
            [0.09926760196685791],
            [0.40708649158477783]
          ],
          "column": 1,
          "row": 6
        },
        {
          "array": [
            [0.8039793968200684],
            [-0.7759678363800049],
            [0.7280014753341675],
            [0.2390117645263672],
            [0.9912893772125244],
            [0.21327710151672363]
          ],
          "column": 1,
          "row": 6
        }
      ],
      "weights": [
        {
          "array": [
            [
              -0.7614926099777222,
              -0.09669291973114014,
              -0.9084135293960571,
              0.998835027217865
            ],
            [
              0.06257513910531998,
              -0.6856290102005005,
              0.0030491119250655174,
              -0.5190101861953735
            ],
            [
              0.018553778529167175,
              0.004957978148013353,
              -0.31327807903289795,
              0.8268630504608154
            ],
            [
              0.9028881788253784,
              -0.4511977434158325,
              0.8669161796569824,
              0.9948754906654358
            ],
            [
              0.1720644235610962,
              0.06206488981842995,
              0.010649667121469975,
              -0.5427101850509644
            ],
            [
              -0.9286129474639893,
              0.7440862655639648,
              -0.7046941518783569,
              0.8854192495346069
            ]
          ],
          "column": 4,
          "row": 6
        },
        {
          "array": [
            [
              0.9116197228431702,
              -0.6649235486984253,
              -0.07483935356140137,
              0.9687216281890869,
              0.25932300090789795,
              0.008180590346455574
            ],
            [
              6.835899548605084E-4,
              -0.9414379596710205,
              0.646742582321167,
              -0.46142876148223877,
              0.7685620784759521,
              0.8375723361968994
            ],
            [
              0.8732613325119019,
              -0.6549204587936401,
              -0.43354809284210205,
              0.011042194440960884,
              -0.7345894575119019,
              0.07560224831104279
            ],
            [
              0.25419336557388306,
              -0.910698652267456,
              0.5577237606048584,
              0.7453739643096924,
              -0.5208948850631714,
              0.26968905329704285
            ],
            [
              0.0051386188715696335,
              0.9995836615562439,
              0.9301548004150391,
              -0.8141324520111084,
              0.20314407348632812,
              0.9781107306480408
            ],
            [
              0.9088273048400879,
              0.05642818287014961,
              0.029305407777428627,
              0.9973502159118652,
              0.4946916103363037,
              0.9036397337913513
            ]
          ],
          "column": 6,
          "row": 6
        }
      ]
    },
    {
      "biases": [
        {
          "array": [
            [-0.39998865127563477],
            [-0.4197671413421631],
            [0.005406664218753576],
            [-0.48321688175201416],
            [-0.7292463779449463],
            [-0.20189356803894043]
          ],
          "column": 1,
          "row": 6
        },
        {
          "array": [
            [0.23701691627502441],
            [-0.8601466417312622],
            [-0.5736486911773682],
            [0.4353935718536377],
            [0.894750714302063],
            [0.5560882687568665]
          ],
          "column": 1,
          "row": 6
        }
      ],
      "weights": [
        {
          "array": [
            [
              0.8707453012466431,
              0.02459133416414261,
              0.9821184873580933,
              -0.9461675882339478
            ],
            [
              0.9984105825424194,
              0.9918911457061768,
              -0.2908409833908081,
              0.0035414868034422398
            ],
            [
              0.9299862384796143,
              0.14753508567810059,
              0.014564909972250462,
              0.30480968952178955
            ],
            [
              0.005009889602661133,
              -0.5134011507034302,
              -0.11019706726074219,
              0.5619202852249146
            ],
            [
              0.9600430727005005,
              0.43215715885162354,
              -0.18563902378082275,
              -0.6571625471115112
            ],
            [
              -0.666817307472229,
              -0.2952005863189697,
              0.879641592502594,
              0.8038073182106018
            ]
          ],
          "column": 4,
          "row": 6
        },
        {
          "array": [
            [
              0.009740537032485008,
              -0.35725510120391846,
              0.9487823843955994,
              -0.9916849136352539,
              -0.5315980911254883,
              0.6679819822311401
            ],
            [
              0.28007304668426514,
              0.09348845481872559,
              -0.6684777736663818,
              0.30317890644073486,
              0.17164649069309235,
              0.31938445568084717
            ],
            [
              0.07568500190973282,
              0.0969281792640686,
              0.6432504653930664,
              0.19200778007507324,
              -0.23953378200531006,
              0.49383068084716797
            ],
            [
              0.8520588278770447,
              -0.23939621448516846,
              -0.24987995624542236,
              0.4102686643600464,
              -0.12556695938110352,
              0.9246245622634888
            ],
            [
              0.06551730632781982,
              0.06757509708404541,
              0.2762867212295532,
              0.011967062950134277,
              -0.10636353492736816,
              0.029730796813964844
            ],
            [
              0.3309694528579712,
              -0.1668567657470703,
              0.7609776258468628,
              -0.6956204175949097,
              -0.4990997314453125,
              0.0037585049867630005
            ]
          ],
          "column": 6,
          "row": 6
        }
      ]
    },
    {
      "biases": [
        {
          "array": [
            [-0.1334071159362793],
            [-0.27688491344451904],
            [0.7790281772613525],
            [0.7976908683776855],
            [-0.7055883407592773],
            [0.9109243154525757]
          ],
          "column": 1,
          "row": 6
        },
        {
          "array": [
            [0.8009015321731567],
            [-0.19557762145996094],
            [-0.34730005264282227],
            [0.9990043044090271],
            [-0.30696380138397217],
            [-0.21175754070281982]
          ],
          "column": 1,
          "row": 6
        }
      ],
      "weights": [
        {
          "array": [
            [
              0.2178100347518921,
              -0.04572772979736328,
              0.352356880903244,
              -0.7754062414169312
            ],
            [
              -0.5576468706130981,
              0.874965488910675,
              0.7723455429077148,
              -0.6890835762023926
            ],
            [
              0.7526227235794067,
              0.6058729887008667,
              0.1362488716840744,
              0.7306055426597595
            ],
            [
              0.9343414306640625,
              0.8917745351791382,
              0.10525870323181152,
              0.10669982433319092
            ],
            [
              0.9993707537651062,
              0.34981226921081543,
              0.18991804122924805,
              0.6851991415023804
            ],
            [
              0.9363484382629395,
              0.20679175853729248,
              0.00805672351270914,
              0.22696617245674133
            ]
          ],
          "column": 4,
          "row": 6
        },
        {
          "array": [
            [
              -0.1679847240447998,
              -0.09526956081390381,
              0.9392600059509277,
              0.15249407291412354,
              -0.39446163177490234,
              0.9634685516357422
            ],
            [
              0.0046176910400390625,
              0.008518259041011333,
              0.520848274230957,
              0.04634292796254158,
              -0.7700773477554321,
              0.9597488641738892
            ],
            [
              0.050261855125427246,
              -0.8392294645309448,
              -0.7248309850692749,
              0.5212006568908691,
              0.05982339382171631,
              0.19623470306396484
            ],
            [
              -0.4789339303970337,
              0.06439495086669922,
              0.8050593137741089,
              -0.874295711517334,
              0.04734456539154053,
              -0.926024317741394
            ],
            [
              0.8794505596160889,
              0.13761675357818604,
              0.7162012457847595,
              0.191869854927063,
              0.4855079650878906,
              0.011828064918518066
            ],
            [
              -0.863937497138977,
              0.4822119474411011,
              0.0010883273789659142,
              0.9542630910873413,
              0.8651937246322632,
              0.20377564430236816
            ]
          ],
          "column": 6,
          "row": 6
        }
      ]
    },
    {
      "biases": [
        {
          "array": [
            [-0.39998865127563477],
            [-0.4197671413421631],
            [0.005406664218753576],
            [-0.48321688175201416],
            [-0.7292463779449463],
            [-0.20189356803894043]
          ],
          "column": 1,
          "row": 6
        },
        {
          "array": [
            [0.23701691627502441],
            [-0.8601466417312622],
            [-0.5736486911773682],
            [0.4353935718536377],
            [0.894750714302063],
            [0.998625636100769]
          ],
          "column": 1,
          "row": 6
        }
      ],
      "weights": [
        {
          "array": [
            [
              0.8707453012466431,
              0.5205091238021851,
              0.9821184873580933,
              -0.9461675882339478
            ],
            [
              0.9958932399749756,
              0.0011557048419490457,
              -0.2908409833908081,
              0.01471412181854248
            ],
            [
              0.9299862384796143,
              0.14753508567810059,
              0.0025746796745806932,
              0.9976958632469177
            ],
            [
              0.005009889602661133,
              -0.5134011507034302,
              -0.11019706726074219,
              0.9790967106819153
            ],
            [
              0.9600430727005005,
              0.43215715885162354,
              -0.18563902378082275,
              -0.6571625471115112
            ],
            [
              -0.666817307472229,
              -0.2952005863189697,
              0.879641592502594,
              0.8038073182106018
            ]
          ],
          "column": 4,
          "row": 6
        },
        {
          "array": [
            [
              0.4637606143951416,
              -0.35725510120391846,
              0.9487823843955994,
              -0.9916849136352539,
              -0.5315980911254883,
              0.6679819822311401
            ],
            [
              0.28007304668426514,
              0.09348845481872559,
              0.31884923577308655,
              0.30317890644073486,
              0.5999352931976318,
              0.31938445568084717
            ],
            [
              0.07568500190973282,
              0.0969281792640686,
              0.6432504653930664,
              0.19200778007507324,
              -0.23953378200531006,
              0.9922877550125122
            ],
            [
              0.387836217880249,
              -0.23939621448516846,
              -0.24987995624542236,
              0.4102686643600464,
              -0.12556695938110352,
              0.9246245622634888
            ],
            [
              0.06551730632781982,
              0.06757509708404541,
              0.2762867212295532,
              0.011967062950134277,
              -0.10636353492736816,
              0.029730796813964844
            ],
            [
              0.3309694528579712,
              -0.1668567657470703,
              0.7609776258468628,
              -0.6956204175949097,
              -0.4990997314453125,
              0.0037585049867630005
            ]
          ],
          "column": 6,
          "row": 6
        }
      ]
    },
    {
      "biases": [
        {
          "array": [
            [-0.1334071159362793],
            [-0.27688491344451904],
            [0.006181578617542982],
            [0.004553290084004402],
            [-0.7055883407592773],
            [0.4329444169998169]
          ],
          "column": 1,
          "row": 6
        },
        {
          "array": [
            [0.8009015321731567],
            [-0.19557762145996094],
            [0.014166677370667458],
            [0.0897669792175293],
            [-0.30696380138397217],
            [-0.21175754070281982]
          ],
          "column": 1,
          "row": 6
        }
      ],
      "weights": [
        {
          "array": [
            [
              0.9988521337509155,
              -0.04572772979736328,
              0.4045020341873169,
              -0.7754062414169312
            ],
            [
              -0.5576468706130981,
              0.7096458673477173,
              0.7723455429077148,
              -0.6890835762023926
            ],
            [
              0.7526227235794067,
              0.6058729887008667,
              0.35017892718315125,
              0.5269694328308105
            ],
            [
              0.7309239506721497,
              0.8917745351791382,
              0.10525870323181152,
              0.10669982433319092
            ],
            [
              0.49331486225128174,
              0.34981226921081543,
              0.18991804122924805,
              0.6851991415023804
            ],
            [
              0.9363484382629395,
              0.20679175853729248,
              0.4747154712677002,
              -0.15149617195129395
            ]
          ],
          "column": 4,
          "row": 6
        },
        {
          "array": [
            [
              -0.1679847240447998,
              -0.09526956081390381,
              0.9392600059509277,
              0.15249407291412354,
              -0.39446163177490234,
              0.9634685516357422
            ],
            [
              0.0046176910400390625,
              0.20346975326538086,
              0.520848274230957,
              0.7032016515731812,
              -0.7700773477554321,
              -0.9598677158355713
            ],
            [
              0.050261855125427246,
              -0.8392294645309448,
              -0.7248309850692749,
              0.5212006568908691,
              0.05982339382171631,
              0.19623470306396484
            ],
            [
              0.9976640939712524,
              0.06439495086669922,
              0.8050593137741089,
              -0.874295711517334,
              0.04734456539154053,
              -0.926024317741394
            ],
            [
              0.8794505596160889,
              0.13761675357818604,
              -0.7078356742858887,
              0.191869854927063,
              0.4855079650878906,
              0.011828064918518066
            ],
            [
              -0.863937497138977,
              0.4822119474411011,
              -0.7060877084732056,
              0.8216859102249146,
              0.8651937246322632,
              0.20377564430236816
            ]
          ],
          "column": 6,
          "row": 6
        }
      ]
    },
    {
      "biases": [
        {
          "array": [
            [-0.39998865127563477],
            [0.0025792033411562443],
            [0.07515759021043777],
            [-0.48321688175201416],
            [-0.7292463779449463],
            [-0.20189356803894043]
          ],
          "column": 1,
          "row": 6
        },
        {
          "array": [
            [0.23701691627502441],
            [-0.8601466417312622],
            [-0.5736486911773682],
            [0.4353935718536377],
            [0.894750714302063],
            [0.998625636100769]
          ],
          "column": 1,
          "row": 6
        }
      ],
      "weights": [
        {
          "array": [
            [
              0.8707453012466431,
              0.5205091238021851,
              0.9821184873580933,
              -0.9461675882339478
            ],
            [
              0.9984105825424194,
              0.0011557048419490457,
              -0.2908409833908081,
              0.01471412181854248
            ],
            [
              0.9299862384796143,
              0.14753508567810059,
              0.0025746796745806932,
              0.9976958632469177
            ],
            [
              0.005009889602661133,
              -0.5134011507034302,
              -0.11019706726074219,
              0.9790967106819153
            ],
            [
              0.9600430727005005,
              0.43215715885162354,
              -0.18563902378082275,
              -0.6571625471115112
            ],
            [
              -0.666817307472229,
              -0.2952005863189697,
              0.026991499587893486,
              0.8038073182106018
            ]
          ],
          "column": 4,
          "row": 6
        },
        {
          "array": [
            [
              0.4637606143951416,
              -0.35725510120391846,
              0.9487823843955994,
              -0.9916849136352539,
              -0.5315980911254883,
              0.6679819822311401
            ],
            [
              0.28007304668426514,
              0.09348845481872559,
              -0.6684777736663818,
              0.9968493580818176,
              0.17164649069309235,
              0.31938445568084717
            ],
            [
              0.07568500190973282,
              0.0969281792640686,
              0.6432504653930664,
              0.19200778007507324,
              0.1495225429534912,
              0.9922877550125122
            ],
            [
              0.387836217880249,
              -0.23939621448516846,
              -0.24987995624542236,
              0.4102686643600464,
              -0.12556695938110352,
              0.9246245622634888
            ],
            [
              0.06551730632781982,
              0.06757509708404541,
              0.2762867212295532,
              0.011967062950134277,
              -0.10636353492736816,
              0.029730796813964844
            ],
            [
              0.3309694528579712,
              -0.1668567657470703,
              0.7609776258468628,
              -0.6956204175949097,
              -0.4990997314453125,
              0.0037585049867630005
            ]
          ],
          "column": 6,
          "row": 6
        }
      ]
    },
    {
      "biases": [
        {
          "array": [
            [0.8083043098449707],
            [0.9655067920684814],
            [0.6081943511962891],
            [0.490328311920166],
            [0.09926760196685791],
            [0.40708649158477783]
          ],
          "column": 1,
          "row": 6
        },
        {
          "array": [
            [0.8039793968200684],
            [-0.7759678363800049],
            [0.7280014753341675],
            [0.2390117645263672],
            [0.9912893772125244],
            [0.9987443685531616]
          ],
          "column": 1,
          "row": 6
        }
      ],
      "weights": [
        {
          "array": [
            [
              0.06954038888216019,
              0.9958136677742004,
              -0.9084135293960571,
              0.9868962168693542
            ],
            [
              0.946631908416748,
              -0.6856290102005005,
              0.0030491119250655174,
              -0.5190101861953735
            ],
            [
              0.018553778529167175,
              0.004957978148013353,
              0.947467565536499,
              0.8268630504608154
            ],
            [
              0.9028881788253784,
              -0.4511977434158325,
              0.8669161796569824,
              0.9783003926277161
            ],
            [
              0.1720644235610962,
              0.06206488981842995,
              0.010649667121469975,
              -0.5427101850509644
            ],
            [
              -0.9286129474639893,
              0.7440862655639648,
              -0.7046941518783569,
              0.8854192495346069
            ]
          ],
          "column": 4,
          "row": 6
        },
        {
          "array": [
            [
              -0.09829103946685791,
              -0.6649235486984253,
              0.4040389358997345,
              0.9687216281890869,
              0.25932300090789795,
              0.07936327159404755
            ],
            [
              6.835899548605084E-4,
              5.307464743964374E-4,
              0.646742582321167,
              0.967850387096405,
              0.7685620784759521,
              0.8375723361968994
            ],
            [
              0.8732613325119019,
              -0.6549204587936401,
              -0.43354809284210205,
              -0.7558525800704956,
              -0.7345894575119019,
              0.07560224831104279
            ],
            [
              0.040654778480529785,
              -0.910698652267456,
              0.8631264567375183,
              0.7453739643096924,
              -0.5208948850631714,
              -0.9916012287139893
            ],
            [
              0.005733252037316561,
              0.9995836615562439,
              0.21227118372917175,
              -0.8141324520111084,
              0.20314407348632812,
              0.05858275294303894
            ],
            [
              0.9088273048400879,
              0.05642818287014961,
              -0.1228872537612915,
              0.9973502159118652,
              0.4946916103363037,
              0.7725809812545776
            ]
          ],
          "column": 6,
          "row": 6
        }
      ]
    },
    {
      "biases": [
        {
          "array": [
            [-0.1334071159362793],
            [0.0744365006685257],
            [0.006181578617542982],
            [-0.5416730642318726],
            [-0.7055883407592773],
            [0.9109243154525757]
          ],
          "column": 1,
          "row": 6
        },
        {
          "array": [
            [0.8009015321731567],
            [-0.19557762145996094],
            [-0.34730005264282227],
            [0.0897669792175293],
            [-0.30696380138397217],
            [-0.21175754070281982]
          ],
          "column": 1,
          "row": 6
        }
      ],
      "weights": [
        {
          "array": [
            [
              0.9988521337509155,
              -0.04572772979736328,
              0.9142715930938721,
              -0.7754062414169312
            ],
            [
              -0.5576468706130981,
              0.7096458673477173,
              0.7723455429077148,
              -0.6890835762023926
            ],
            [
              0.7526227235794067,
              0.6058729887008667,
              0.35017892718315125,
              0.5269694328308105
            ],
            [
              0.7309239506721497,
              0.8917745351791382,
              0.10525870323181152,
              0.10669982433319092
            ],
            [
              0.49331486225128174,
              0.34981226921081543,
              0.18991804122924805,
              0.6851991415023804
            ],
            [
              0.9363484382629395,
              0.20679175853729248,
              0.4747154712677002,
              -0.15149617195129395
            ]
          ],
          "column": 4,
          "row": 6
        },
        {
          "array": [
            [
              -0.1679847240447998,
              -0.09526956081390381,
              0.9392600059509277,
              0.15249407291412354,
              -0.39446163177490234,
              0.9634685516357422
            ],
            [
              0.0046176910400390625,
              0.3710559606552124,
              0.520848274230957,
              0.7032016515731812,
              -0.7700773477554321,
              -0.9598677158355713
            ],
            [
              0.050261855125427246,
              -0.8392294645309448,
              -0.7248309850692749,
              0.5212006568908691,
              0.05982339382171631,
              0.19623470306396484
            ],
            [
              0.9976640939712524,
              0.06439495086669922,
              0.8050593137741089,
              -0.874295711517334,
              0.04734456539154053,
              -0.926024317741394
            ],
            [
              0.8794505596160889,
              0.13761675357818604,
              -0.7078356742858887,
              0.191869854927063,
              0.4855079650878906,
              0.011828064918518066
            ],
            [
              -0.863937497138977,
              0.4822119474411011,
              -0.7060877084732056,
              0.8216859102249146,
              0.8651937246322632,
              0.20377564430236816
            ]
          ],
          "column": 6,
          "row": 6
        }
      ]
    },
    {
      "biases": [
        {
          "array": [
            [-0.1334071159362793],
            [-0.27688491344451904],
            [0.7790281772613525],
            [-0.5416730642318726],
            [-0.7055883407592773],
            [0.9109243154525757]
          ],
          "column": 1,
          "row": 6
        },
        {
          "array": [
            [0.8009015321731567],
            [-0.19557762145996094],
            [-0.34730005264282227],
            [0.0897669792175293],
            [-0.30696380138397217],
            [-0.21175754070281982]
          ],
          "column": 1,
          "row": 6
        }
      ],
      "weights": [
        {
          "array": [
            [
              0.9988521337509155,
              -0.04572772979736328,
              0.4045020341873169,
              -0.7754062414169312
            ],
            [
              -0.5576468706130981,
              0.7096458673477173,
              0.7723455429077148,
              -0.6890835762023926
            ],
            [
              0.7526227235794067,
              0.6058729887008667,
              -0.7869607210159302,
              0.5269694328308105
            ],
            [
              0.7309239506721497,
              0.8917745351791382,
              0.10525870323181152,
              0.10669982433319092
            ],
            [
              0.49331486225128174,
              0.34981226921081543,
              0.18991804122924805,
              0.6851991415023804
            ],
            [
              0.9363484382629395,
              0.20679175853729248,
              0.4747154712677002,
              -0.15149617195129395
            ]
          ],
          "column": 4,
          "row": 6
        },
        {
          "array": [
            [
              -0.1679847240447998,
              -0.09526956081390381,
              0.9392600059509277,
              0.15249407291412354,
              0.064357228577137,
              0.9634685516357422
            ],
            [
              0.0046176910400390625,
              0.20346975326538086,
              0.520848274230957,
              0.7032016515731812,
              0.9655749201774597,
              -0.9598677158355713
            ],
            [
              0.050261855125427246,
              -0.8392294645309448,
              -0.7248309850692749,
              0.5212006568908691,
              0.05982339382171631,
              0.19623470306396484
            ],
            [
              0.9976640939712524,
              0.06439495086669922,
              0.8050593137741089,
              -0.874295711517334,
              0.04734456539154053,
              -0.926024317741394
            ],
            [
              0.8794505596160889,
              0.13761675357818604,
              -0.7078356742858887,
              0.191869854927063,
              0.4855079650878906,
              0.011828064918518066
            ],
            [
              -0.863937497138977,
              0.4822119474411011,
              -0.7060877084732056,
              0.8216859102249146,
              0.8651937246322632,
              0.20377564430236816
            ]
          ],
          "column": 6,
          "row": 6
        }
      ]
    },
    {
      "biases": [
        {
          "array": [
            [-0.1334071159362793],
            [-0.27688491344451904],
            [0.7790281772613525],
            [0.8481109142303467],
            [-0.7055883407592773],
            [0.9109243154525757]
          ],
          "column": 1,
          "row": 6
        },
        {
          "array": [
            [0.8009015321731567],
            [-0.19557762145996094],
            [-0.34730005264282227],
            [0.9990043044090271],
            [-0.30696380138397217],
            [-0.21175754070281982]
          ],
          "column": 1,
          "row": 6
        }
      ],
      "weights": [
        {
          "array": [
            [
              0.2178100347518921,
              -0.04572772979736328,
              0.352356880903244,
              0.08789348602294922
            ],
            [
              -0.5576468706130981,
              0.7096458673477173,
              0.7723455429077148,
              -0.6890835762023926
            ],
            [
              0.7526227235794067,
              0.6058729887008667,
              0.1362488716840744,
              0.7306055426597595
            ],
            [
              0.9343414306640625,
              0.8917745351791382,
              0.10525870323181152,
              0.10669982433319092
            ],
            [
              0.9993707537651062,
              0.34981226921081543,
              0.18991804122924805,
              0.9883574843406677
            ],
            [
              0.9363484382629395,
              0.20679175853729248,
              0.4747154712677002,
              0.22696617245674133
            ]
          ],
          "column": 4,
          "row": 6
        },
        {
          "array": [
            [
              -0.1679847240447998,
              -0.09526956081390381,
              0.9392600059509277,
              0.15249407291412354,
              -0.39446163177490234,
              0.9634685516357422
            ],
            [
              0.0046176910400390625,
              0.008518259041011333,
              0.520848274230957,
              0.04634292796254158,
              0.7773025631904602,
              0.9597488641738892
            ],
            [
              0.050261855125427246,
              -0.8392294645309448,
              -0.7248309850692749,
              0.5212006568908691,
              0.05982339382171631,
              0.19623470306396484
            ],
            [
              -0.4789339303970337,
              0.06439495086669922,
              0.8050593137741089,
              -0.874295711517334,
              0.04734456539154053,
              -0.926024317741394
            ],
            [
              0.8794505596160889,
              0.13761675357818604,
              0.7162012457847595,
              0.9410011172294617,
              0.4855079650878906,
              0.011828064918518066
            ],
            [
              -0.863937497138977,
              0.4822119474411011,
              0.0010883273789659142,
              0.9542630910873413,
              0.8651937246322632,
              0.20377564430236816
            ]
          ],
          "column": 6,
          "row": 6
        }
      ]
    },
    {
      "biases": [
        {
          "array": [
            [0.8083043098449707],
            [0.9655067920684814],
            [0.6081943511962891],
            [0.490328311920166],
            [0.09926760196685791],
            [0.40708649158477783]
          ],
          "column": 1,
          "row": 6
        },
        {
          "array": [
            [0.8039793968200684],
            [-0.7759678363800049],
            [0.7280014753341675],
            [0.2390117645263672],
            [0.9912893772125244],
            [0.21327710151672363]
          ],
          "column": 1,
          "row": 6
        }
      ],
      "weights": [
        {
          "array": [
            [
              0.06954038888216019,
              -0.09669291973114014,
              -0.9084135293960571,
              0.9868962168693542
            ],
            [
              0.946631908416748,
              -0.6856290102005005,
              0.0030491119250655174,
              -0.5190101861953735
            ],
            [
              0.018553778529167175,
              0.004957978148013353,
              0.947467565536499,
              0.8268630504608154
            ],
            [
              0.9028881788253784,
              -0.4511977434158325,
              0.8669161796569824,
              0.9783003926277161
            ],
            [
              0.1720644235610962,
              0.06206488981842995,
              0.010649667121469975,
              -0.5427101850509644
            ],
            [
              -0.9286129474639893,
              0.7440862655639648,
              -0.7046941518783569,
              0.8854192495346069
            ]
          ],
          "column": 4,
          "row": 6
        },
        {
          "array": [
            [
              -0.09829103946685791,
              -0.6649235486984253,
              0.4040389358997345,
              0.9687216281890869,
              0.25932300090789795,
              0.0016538382042199373
            ],
            [
              6.835899548605084E-4,
              -0.9414379596710205,
              0.646742582321167,
              0.967850387096405,
              0.7685620784759521,
              0.8375723361968994
            ],
            [
              0.8732613325119019,
              -0.6549204587936401,
              -0.43354809284210205,
              -0.7558525800704956,
              -0.7345894575119019,
              0.07560224831104279
            ],
            [
              0.040654778480529785,
              -0.910698652267456,
              0.8631264567375183,
              0.7453739643096924,
              -0.5208948850631714,
              -0.9916012287139893
            ],
            [
              0.005733252037316561,
              0.9995836615562439,
              0.9301548004150391,
              -0.8141324520111084,
              0.20314407348632812,
              0.2254868745803833
            ],
            [
              0.9088273048400879,
              0.05642818287014961,
              -0.1228872537612915,
              0.9973502159118652,
              0.4946916103363037,
              0.7725809812545776
            ]
          ],
          "column": 6,
          "row": 6
        }
      ]
    },
    {
      "biases": [
        {
          "array": [
            [-0.39998865127563477],
            [0.0025792033411562443],
            [0.005406664218753576],
            [-0.48321688175201416],
            [-0.7292463779449463],
            [-0.20189356803894043]
          ],
          "column": 1,
          "row": 6
        },
        {
          "array": [
            [0.23701691627502441],
            [-0.8601466417312622],
            [-0.5736486911773682],
            [0.4353935718536377],
            [0.894750714302063],
            [0.998625636100769]
          ],
          "column": 1,
          "row": 6
        }
      ],
      "weights": [
        {
          "array": [
            [
              0.8707453012466431,
              0.5205091238021851,
              0.9821184873580933,
              -0.9461675882339478
            ],
            [
              0.9993993043899536,
              0.0011557048419490457,
              -0.2908409833908081,
              0.01471412181854248
            ],
            [
              0.9299862384796143,
              0.14753508567810059,
              0.0025746796745806932,
              0.9976958632469177
            ],
            [
              0.005009889602661133,
              -0.5134011507034302,
              -0.11019706726074219,
              0.9790967106819153
            ],
            [
              0.9600430727005005,
              0.43215715885162354,
              -0.18563902378082275,
              -0.6571625471115112
            ],
            [
              -0.666817307472229,
              -0.2952005863189697,
              0.879641592502594,
              0.8038073182106018
            ]
          ],
          "column": 4,
          "row": 6
        },
        {
          "array": [
            [
              0.4637606143951416,
              -0.35725510120391846,
              0.9487823843955994,
              -0.9916849136352539,
              -0.5315980911254883,
              0.6679819822311401
            ],
            [
              0.28007304668426514,
              0.09348845481872559,
              -0.6684777736663818,
              0.9968493580818176,
              0.17164649069309235,
              0.31938445568084717
            ],
            [
              0.07568500190973282,
              0.0969281792640686,
              0.6432504653930664,
              0.19200778007507324,
              0.1495225429534912,
              0.9922877550125122
            ],
            [
              0.387836217880249,
              -0.23939621448516846,
              -0.24987995624542236,
              0.4102686643600464,
              -0.12556695938110352,
              0.9246245622634888
            ],
            [
              0.06551730632781982,
              0.06757509708404541,
              0.2762867212295532,
              0.011967062950134277,
              -0.10636353492736816,
              0.029730796813964844
            ],
            [
              0.3309694528579712,
              -0.1668567657470703,
              0.7609776258468628,
              -0.6956204175949097,
              -0.4990997314453125,
              0.0037585049867630005
            ]
          ],
          "column": 6,
          "row": 6
        }
      ]
    },
    {
      "biases": [
        {
          "array": [
            [0.8083043098449707],
            [0.9655067920684814],
            [0.6081943511962891],
            [0.490328311920166],
            [0.09926760196685791],
            [0.40708649158477783]
          ],
          "column": 1,
          "row": 6
        },
        {
          "array": [
            [0.8039793968200684],
            [-0.7759678363800049],
            [0.7280014753341675],
            [0.2390117645263672],
            [0.9912893772125244],
            [0.21327710151672363]
          ],
          "column": 1,
          "row": 6
        }
      ],
      "weights": [
        {
          "array": [
            [
              -0.7614926099777222,
              -0.09669291973114014,
              -0.9084135293960571,
              0.998835027217865
            ],
            [
              0.946631908416748,
              -0.6856290102005005,
              0.0030491119250655174,
              -0.5190101861953735
            ],
            [
              0.018553778529167175,
              0.004957978148013353,
              -0.31327807903289795,
              0.8268630504608154
            ],
            [
              0.9028881788253784,
              -0.4511977434158325,
              0.8669161796569824,
              0.8896998763084412
            ],
            [
              0.1720644235610962,
              0.06206488981842995,
              0.23982279002666473,
              -0.5427101850509644
            ],
            [
              -0.9286129474639893,
              0.7440862655639648,
              -0.7046941518783569,
              0.8854192495346069
            ]
          ],
          "column": 4,
          "row": 6
        },
        {
          "array": [
            [
              -0.09829103946685791,
              0.2793863117694855,
              -0.07483935356140137,
              0.9687216281890869,
              0.25932300090789795,
              0.008180590346455574
            ],
            [
              6.835899548605084E-4,
              -0.9414379596710205,
              0.646742582321167,
              -0.46142876148223877,
              0.7685620784759521,
              0.8375723361968994
            ],
            [
              0.8732613325119019,
              -0.6549204587936401,
              -0.43354809284210205,
              -0.7558525800704956,
              -0.7345894575119019,
              0.07560224831104279
            ],
            [
              0.040654778480529785,
              -0.910698652267456,
              0.5577237606048584,
              0.7453739643096924,
              -0.5208948850631714,
              -0.9916012287139893
            ],
            [
              -0.8808822631835938,
              0.9995836615562439,
              0.9301548004150391,
              -0.8141324520111084,
              0.20314407348632812,
              0.9781107306480408
            ],
            [
              0.9088273048400879,
              0.35145869851112366,
              -0.1228872537612915,
              0.9973502159118652,
              0.4946916103363037,
              0.7725809812545776
            ]
          ],
          "column": 6,
          "row": 6
        }
      ]
    },
    {
      "biases": [
        {
          "array": [
            [-0.1334071159362793],
            [-0.27688491344451904],
            [0.7790281772613525],
            [-0.5416730642318726],
            [-0.7055883407592773],
            [0.15836340188980103]
          ],
          "column": 1,
          "row": 6
        },
        {
          "array": [
            [0.8009015321731567],
            [-0.19557762145996094],
            [0.9948546886444092],
            [0.0897669792175293],
            [0.01518844161182642],
            [-0.21175754070281982]
          ],
          "column": 1,
          "row": 6
        }
      ],
      "weights": [
        {
          "array": [
            [
              0.2178100347518921,
              -0.04572772979736328,
              0.4045020341873169,
              -0.7754062414169312
            ],
            [
              -0.5576468706130981,
              0.9336356520652771,
              0.7723455429077148,
              -0.6890835762023926
            ],
            [
              0.7526227235794067,
              0.8201290369033813,
              -0.7869607210159302,
              0.5269694328308105
            ],
            [
              0.9343414306640625,
              0.8670411705970764,
              0.9731563925743103,
              0.6944593787193298
            ],
            [
              0.49331486225128174,
              0.34981226921081543,
              0.18991804122924805,
              0.6851991415023804
            ],
            [
              0.9363484382629395,
              0.20679175853729248,
              0.4747154712677002,
              -0.15149617195129395
            ]
          ],
          "column": 4,
          "row": 6
        },
        {
          "array": [
            [
              0.42229971289634705,
              -0.09526956081390381,
              0.9392600059509277,
              0.10331115871667862,
              -0.39446163177490234,
              0.9634685516357422
            ],
            [
              0.0046176910400390625,
              0.20346975326538086,
              0.520848274230957,
              0.7032016515731812,
              -0.7700773477554321,
              -0.9598677158355713
            ],
            [
              0.9417905807495117,
              -0.8392294645309448,
              0.985566258430481,
              0.0971793457865715,
              0.05982339382171631,
              0.19623470306396484
            ],
            [
              -0.4789339303970337,
              0.06439495086669922,
              0.02027226984500885,
              0.10153109580278397,
              0.04734456539154053,
              0.9831529259681702
            ],
            [
              0.8794505596160889,
              0.13761675357818604,
              -0.7078356742858887,
              0.191869854927063,
              0.4855079650878906,
              0.011952884495258331
            ],
            [
              -0.863937497138977,
              0.4822119474411011,
              -0.7060877084732056,
              0.8216859102249146,
              0.8651937246322632,
              0.20377564430236816
            ]
          ],
          "column": 6,
          "row": 6
        }
      ]
    },
    {
      "biases": [
        {
          "array": [
            [0.6623927354812622],
            [0.33298271894454956],
            [0.6875537037849426],
            [0.982537031173706],
            [-0.22252583503723145],
            [-0.3266613483428955]
          ],
          "column": 1,
          "row": 6
        },
        {
          "array": [
            [0.23620891571044922],
            [0.3381108045578003],
            [-0.559524416923523],
            [0.05833376199007034],
            [0.372103214263916],
            [0.951035737991333]
          ],
          "column": 1,
          "row": 6
        }
      ],
      "weights": [
        {
          "array": [
            [
              0.9183424711227417,
              -0.00829935073852539,
              0.9387813210487366,
              0.4424639344215393
            ],
            [
              -0.5355930328369141,
              0.37701237201690674,
              0.9989542961120605,
              0.26143431663513184
            ],
            [
              0.5504427552223206,
              0.1190418004989624,
              0.8718311786651611,
              -0.6020605564117432
            ],
            [
              0.9077175259590149,
              7.778932340443134E-4,
              0.8289241790771484,
              0.16022324562072754
            ],
            [
              0.0461188405752182,
              0.22017693519592285,
              0.935343861579895,
              0.019030548632144928
            ],
            [
              0.9254522323608398,
              0.7014725208282471,
              0.3608821630477905,
              0.9210942983627319
            ]
          ],
          "column": 4,
          "row": 6
        },
        {
          "array": [
            [
              0.9926895499229431,
              0.9983861446380615,
              0.5892530679702759,
              0.4858992099761963,
              0.10808157920837402,
              0.35555610060691833
            ],
            [
              0.927028238773346,
              -0.8559696674346924,
              0.1944880187511444,
              -0.9619178771972656,
              0.1784348487854004,
              0.35145580768585205
            ],
            [
              0.005202421452850103,
              -0.24980437755584717,
              0.9856847524642944,
              -0.8214869499206543,
              -0.6942435503005981,
              -0.43344295024871826
            ],
            [
              0.8576124906539917,
              0.3430591821670532,
              0.0089188814163208,
              0.20602107048034668,
              -0.023923277854919434,
              0.8638917207717896
            ],
            [
              -0.3721756935119629,
              0.998149037361145,
              0.8987603187561035,
              -0.2683582305908203,
              -0.7885434627532959,
              0.022693108767271042
            ],
            [
              0.48333263397216797,
              0.3191457688808441,
              0.5163884162902832,
              -0.7855790853500366,
              -0.30672264099121094,
              0.9902169704437256
            ]
          ],
          "column": 6,
          "row": 6
        }
      ]
    },
    {
      "biases": [
        {
          "array": [
            [0.6623927354812622],
            [0.33298271894454956],
            [0.6875537037849426],
            [0.982537031173706],
            [-0.22252583503723145],
            [-0.3266613483428955]
          ],
          "column": 1,
          "row": 6
        },
        {
          "array": [
            [0.23620891571044922],
            [0.3381108045578003],
            [-0.559524416923523],
            [0.05833376199007034],
            [0.372103214263916],
            [-0.9290417432785034]
          ],
          "column": 1,
          "row": 6
        }
      ],
      "weights": [
        {
          "array": [
            [
              0.9183424711227417,
              -0.00829935073852539,
              0.9387813210487366,
              0.4424639344215393
            ],
            [
              -0.5355930328369141,
              0.37701237201690674,
              0.11000049114227295,
              0.26143431663513184
            ],
            [
              -0.9586700201034546,
              0.0021899596322327852,
              0.8718311786651611,
              -0.6020605564117432
            ],
            [
              0.9077175259590149,
              7.778932340443134E-4,
              0.8289241790771484,
              0.16022324562072754
            ],
            [
              0.0461188405752182,
              0.22017693519592285,
              0.935343861579895,
              -0.8243468999862671
            ],
            [
              0.9254522323608398,
              0.7014725208282471,
              0.9955025315284729,
              0.9210942983627319
            ]
          ],
          "column": 4,
          "row": 6
        },
        {
          "array": [
            [
              0.0053617521189153194,
              0.9983861446380615,
              0.5892530679702759,
              0.4858992099761963,
              0.10808157920837402,
              0.35555610060691833
            ],
            [
              0.927028238773346,
              -0.8559696674346924,
              0.1944880187511444,
              -0.9619178771972656,
              0.1784348487854004,
              0.35145580768585205
            ],
            [
              0.9656975269317627,
              -0.24980437755584717,
              0.9856847524642944,
              -0.8214869499206543,
              -0.6942435503005981,
              -0.43344295024871826
            ],
            [
              0.8576124906539917,
              0.3430591821670532,
              0.0089188814163208,
              0.20602107048034668,
              -0.023923277854919434,
              0.8638917207717896
            ],
            [
              -0.3721756935119629,
              0.998149037361145,
              0.8987603187561035,
              -0.2683582305908203,
              -0.7885434627532959,
              0.022693108767271042
            ],
            [
              0.48333263397216797,
              0.3191457688808441,
              0.5163884162902832,
              -0.7855790853500366,
              -0.30672264099121094,
              0.9902169704437256
            ]
          ],
          "column": 6,
          "row": 6
        }
      ]
    },
    {
      "biases": [
        {
          "array": [
            [-0.39998865127563477],
            [-0.4197671413421631],
            [0.005406664218753576],
            [-0.48321688175201416],
            [-0.7292463779449463],
            [-0.20189356803894043]
          ],
          "column": 1,
          "row": 6
        },
        {
          "array": [
            [0.23701691627502441],
            [-0.8601466417312622],
            [-0.5736486911773682],
            [0.4353935718536377],
            [0.894750714302063],
            [0.998625636100769]
          ],
          "column": 1,
          "row": 6
        }
      ],
      "weights": [
        {
          "array": [
            [
              0.8707453012466431,
              0.007892705500125885,
              0.9821184873580933,
              -0.9461675882339478
            ],
            [
              0.9984105825424194,
              0.0011557048419490457,
              -0.2908409833908081,
              0.01471412181854248
            ],
            [
              0.9299862384796143,
              0.14753508567810059,
              0.014564909972250462,
              0.30480968952178955
            ],
            [
              0.005009889602661133,
              -0.5134011507034302,
              -0.11019706726074219,
              0.5619202852249146
            ],
            [
              0.9762859344482422,
              0.43215715885162354,
              -0.18563902378082275,
              -0.6571625471115112
            ],
            [
              -0.666817307472229,
              -0.2952005863189697,
              0.879641592502594,
              0.8038073182106018
            ]
          ],
          "column": 4,
          "row": 6
        },
        {
          "array": [
            [
              0.4637606143951416,
              -0.35725510120391846,
              0.9487823843955994,
              -0.9916849136352539,
              -0.5315980911254883,
              0.6679819822311401
            ],
            [
              0.28007304668426514,
              0.09348845481872559,
              -0.6684777736663818,
              0.30317890644073486,
              0.17164649069309235,
              0.31938445568084717
            ],
            [
              0.07568500190973282,
              0.0969281792640686,
              0.6432504653930664,
              0.19200778007507324,
              -0.23953378200531006,
              0.49383068084716797
            ],
            [
              0.387836217880249,
              -0.23939621448516846,
              -0.24987995624542236,
              0.4102686643600464,
              -0.12556695938110352,
              0.9246245622634888
            ],
            [
              0.586432158946991,
              0.06757509708404541,
              0.2762867212295532,
              0.011967062950134277,
              -0.10636353492736816,
              0.029730796813964844
            ],
            [
              0.3309694528579712,
              -0.1668567657470703,
              0.7609776258468628,
              -0.6956204175949097,
              -0.4990997314453125,
              0.0037585049867630005
            ]
          ],
          "column": 6,
          "row": 6
        }
      ]
    },
    {
      "biases": [
        {
          "array": [
            [0.8083043098449707],
            [0.9655067920684814],
            [0.6081943511962891],
            [0.490328311920166],
            [0.09926760196685791],
            [0.40708649158477783]
          ],
          "column": 1,
          "row": 6
        },
        {
          "array": [
            [0.8039793968200684],
            [-0.7759678363800049],
            [0.7280014753341675],
            [0.2390117645263672],
            [0.9273003935813904],
            [0.21327710151672363]
          ],
          "column": 1,
          "row": 6
        }
      ],
      "weights": [
        {
          "array": [
            [
              -0.7614926099777222,
              -0.09669291973114014,
              -0.9084135293960571,
              0.998835027217865
            ],
            [
              0.946631908416748,
              -0.6856290102005005,
              0.0030491119250655174,
              -0.5190101861953735
            ],
            [
              0.018553778529167175,
              0.004957978148013353,
              -0.31327807903289795,
              0.8268630504608154
            ],
            [
              0.9028881788253784,
              -0.4511977434158325,
              0.8669161796569824,
              0.8896998763084412
            ],
            [
              0.1720644235610962,
              0.06206488981842995,
              0.23982279002666473,
              -0.5427101850509644
            ],
            [
              -0.9286129474639893,
              0.7440862655639648,
              -0.7046941518783569,
              0.8854192495346069
            ]
          ],
          "column": 4,
          "row": 6
        },
        {
          "array": [
            [
              -0.09829103946685791,
              -0.6649235486984253,
              -0.07483935356140137,
              0.9687216281890869,
              0.25932300090789795,
              0.008180590346455574
            ],
            [
              6.835899548605084E-4,
              -0.9414379596710205,
              0.646742582321167,
              -0.46142876148223877,
              0.7685620784759521,
              0.9046826958656311
            ],
            [
              0.8732613325119019,
              -0.6549204587936401,
              -0.43354809284210205,
              -0.7558525800704956,
              -0.7345894575119019,
              0.07560224831104279
            ],
            [
              0.040654778480529785,
              -0.910698652267456,
              0.5577237606048584,
              0.7453739643096924,
              -0.5208948850631714,
              -0.9916012287139893
            ],
            [
              -0.8808822631835938,
              0.9995836615562439,
              0.9301548004150391,
              -0.8141324520111084,
              0.20314407348632812,
              0.9781107306480408
            ],
            [
              0.9088273048400879,
              0.35145869851112366,
              -0.1228872537612915,
              0.9973502159118652,
              0.4946916103363037,
              0.7725809812545776
            ]
          ],
          "column": 6,
          "row": 6
        }
      ]
    },
    {
      "biases": [
        {
          "array": [
            [0.8083043098449707],
            [0.9655067920684814],
            [0.6081943511962891],
            [0.9953029155731201],
            [0.09926760196685791],
            [0.40708649158477783]
          ],
          "column": 1,
          "row": 6
        },
        {
          "array": [
            [0.8039793968200684],
            [-0.7759678363800049],
            [0.7280014753341675],
            [0.2390117645263672],
            [-0.9082037210464478],
            [0.21327710151672363]
          ],
          "column": 1,
          "row": 6
        }
      ],
      "weights": [
        {
          "array": [
            [
              5.215783603489399E-4,
              -0.09669291973114014,
              -0.9084135293960571,
              -0.5365782976150513
            ],
            [
              0.10259045660495758,
              -0.6856290102005005,
              -0.22717952728271484,
              0.07030550390481949
            ],
            [
              0.16207802295684814,
              0.995581328868866,
              -0.31327807903289795,
              0.8268630504608154
            ],
            [
              0.14974834024906158,
              0.2908537685871124,
              0.8669161796569824,
              -0.595557689666748
            ],
            [
              0.9910594820976257,
              -0.5624793767929077,
              -0.6686666011810303,
              0.27481138706207275
            ],
            [
              -0.9286129474639893,
              0.7440862655639648,
              -0.7046941518783569,
              0.9975093603134155
            ]
          ],
          "column": 4,
          "row": 6
        },
        {
          "array": [
            [
              -0.09829103946685791,
              -0.6649235486984253,
              -0.07483935356140137,
              0.8563599586486816,
              0.25932300090789795,
              0.1339561939239502
            ],
            [
              -0.31249916553497314,
              -0.9414379596710205,
              0.12835752964019775,
              -0.46142876148223877,
              0.7685620784759521,
              0.26755642890930176
            ],
            [
              0.9988947510719299,
              -0.6549204587936401,
              0.0016837542643770576,
              -0.7558525800704956,
              0.028490860015153885,
              0.39085090160369873
            ],
            [
              0.040654778480529785,
              -0.910698652267456,
              0.5577237606048584,
              0.7453739643096924,
              -0.5208948850631714,
              -0.9916012287139893
            ],
            [
              -0.8808822631835938,
              0.7387848496437073,
              0.9301548004150391,
              -0.8141324520111084,
              0.20314407348632812,
              0.785115122795105
            ],
            [
              0.9088273048400879,
              -0.5046995878219604,
              -0.1228872537612915,
              0.3322569727897644,
              0.4946916103363037,
              0.7725809812545776
            ]
          ],
          "column": 6,
          "row": 6
        }
      ]
    },
    {
      "biases": [
        {
          "array": [
            [-0.39998865127563477],
            [-0.4197671413421631],
            [0.9447929859161377],
            [-0.48321688175201416],
            [-0.7292463779449463],
            [-0.20189356803894043]
          ],
          "column": 1,
          "row": 6
        },
        {
          "array": [
            [0.23701691627502441],
            [-0.8601466417312622],
            [-0.5736486911773682],
            [0.4353935718536377],
            [0.894750714302063],
            [0.998625636100769]
          ],
          "column": 1,
          "row": 6
        }
      ],
      "weights": [
        {
          "array": [
            [
              0.530772864818573,
              0.5205091238021851,
              0.9821184873580933,
              -0.9461675882339478
            ],
            [
              0.9984105825424194,
              0.0011557048419490457,
              -0.2908409833908081,
              0.01471412181854248
            ],
            [
              0.9299862384796143,
              0.9858132004737854,
              0.014564909972250462,
              0.30480968952178955
            ],
            [
              0.7996783256530762,
              -0.5134011507034302,
              -0.11019706726074219,
              0.9790967106819153
            ],
            [
              0.9600430727005005,
              0.9672442078590393,
              -0.18563902378082275,
              -0.6571625471115112
            ],
            [
              -0.666817307472229,
              -0.2952005863189697,
              0.879641592502594,
              0.8038073182106018
            ]
          ],
          "column": 4,
          "row": 6
        },
        {
          "array": [
            [
              0.4637606143951416,
              0.19042889773845673,
              0.9487823843955994,
              -0.9916849136352539,
              -0.5315980911254883,
              0.6679819822311401
            ],
            [
              0.28007304668426514,
              0.09348845481872559,
              -0.6684777736663818,
              0.30317890644073486,
              0.17164649069309235,
              0.31938445568084717
            ],
            [
              0.07568500190973282,
              0.0969281792640686,
              0.005298335570842028,
              0.19200778007507324,
              -0.23953378200531006,
              0.49383068084716797
            ],
            [
              0.9993264675140381,
              -0.23939621448516846,
              -0.24987995624542236,
              0.4102686643600464,
              -0.12556695938110352,
              0.9246245622634888
            ],
            [
              0.06551730632781982,
              0.06757509708404541,
              0.29422757029533386,
              0.011967062950134277,
              -0.10636353492736816,
              0.029730796813964844
            ],
            [
              0.3309694528579712,
              -0.1668567657470703,
              0.7609776258468628,
              -0.6956204175949097,
              -0.4990997314453125,
              0.0037585049867630005
            ]
          ],
          "column": 6,
          "row": 6
        }
      ]
    },
    {
      "biases": [
        {
          "array": [
            [0.8083043098449707],
            [0.9655067920684814],
            [0.9937240481376648],
            [0.490328311920166],
            [0.09926760196685791],
            [0.40708649158477783]
          ],
          "column": 1,
          "row": 6
        },
        {
          "array": [
            [0.8039793968200684],
            [-0.7759678363800049],
            [0.7280014753341675],
            [0.2390117645263672],
            [0.9912893772125244],
            [0.21327710151672363]
          ],
          "column": 1,
          "row": 6
        }
      ],
      "weights": [
        {
          "array": [
            [
              -0.7614926099777222,
              -0.09669291973114014,
              -0.9084135293960571,
              0.998835027217865
            ],
            [
              0.06257513910531998,
              -0.6856290102005005,
              0.0030491119250655174,
              -0.5190101861953735
            ],
            [
              0.018553778529167175,
              0.004957978148013353,
              -0.31327807903289795,
              0.8268630504608154
            ],
            [
              0.9028881788253784,
              -0.4511977434158325,
              0.8669161796569824,
              0.9948754906654358
            ],
            [
              0.1720644235610962,
              0.06206488981842995,
              0.010649667121469975,
              -0.5427101850509644
            ],
            [
              -0.9286129474639893,
              0.7440862655639648,
              -0.7046941518783569,
              0.8854192495346069
            ]
          ],
          "column": 4,
          "row": 6
        },
        {
          "array": [
            [
              0.9116197228431702,
              -0.6649235486984253,
              -0.07483935356140137,
              0.9687216281890869,
              0.25932300090789795,
              0.008180590346455574
            ],
            [
              6.835899548605084E-4,
              -0.9414379596710205,
              0.646742582321167,
              -0.46142876148223877,
              0.7685620784759521,
              0.8375723361968994
            ],
            [
              0.8732613325119019,
              0.9954980611801147,
              -0.43354809284210205,
              0.011042194440960884,
              -0.7345894575119019,
              0.07560224831104279
            ],
            [
              0.25419336557388306,
              -0.910698652267456,
              0.5577237606048584,
              0.7453739643096924,
              -0.5208948850631714,
              0.26968905329704285
            ],
            [
              0.0051386188715696335,
              0.9995836615562439,
              0.9301548004150391,
              -0.8141324520111084,
              0.20314407348632812,
              0.9781107306480408
            ],
            [
              0.9088273048400879,
              0.05642818287014961,
              0.029305407777428627,
              0.9973502159118652,
              0.4946916103363037,
              0.9036397337913513
            ]
          ],
          "column": 6,
          "row": 6
        }
      ]
    },
    {
      "biases": [
        {
          "array": [
            [-0.39998865127563477],
            [-0.4197671413421631],
            [0.005406664218753576],
            [-0.48321688175201416],
            [-0.7292463779449463],
            [-0.20189356803894043]
          ],
          "column": 1,
          "row": 6
        },
        {
          "array": [
            [0.23701691627502441],
            [-0.8601466417312622],
            [-0.5736486911773682],
            [0.4353935718536377],
            [0.894750714302063],
            [0.5560882687568665]
          ],
          "column": 1,
          "row": 6
        }
      ],
      "weights": [
        {
          "array": [
            [
              0.8707453012466431,
              0.02459133416414261,
              0.9821184873580933,
              -0.9461675882339478
            ],
            [
              0.9984105825424194,
              0.0011557048419490457,
              -0.2908409833908081,
              0.0035414868034422398
            ],
            [
              0.9299862384796143,
              0.14753508567810059,
              0.014564909972250462,
              0.30480968952178955
            ],
            [
              0.005009889602661133,
              -0.5134011507034302,
              -0.11019706726074219,
              0.5619202852249146
            ],
            [
              0.9600430727005005,
              0.43215715885162354,
              -0.18563902378082275,
              -0.6571625471115112
            ],
            [
              -0.666817307472229,
              -0.2952005863189697,
              0.879641592502594,
              0.8038073182106018
            ]
          ],
          "column": 4,
          "row": 6
        },
        {
          "array": [
            [
              0.009740537032485008,
              -0.35725510120391846,
              0.9487823843955994,
              -0.9916849136352539,
              -0.5315980911254883,
              0.6679819822311401
            ],
            [
              0.28007304668426514,
              0.09348845481872559,
              -0.6684777736663818,
              0.30317890644073486,
              0.17164649069309235,
              0.31938445568084717
            ],
            [
              0.07568500190973282,
              0.0969281792640686,
              0.6432504653930664,
              0.19200778007507324,
              -0.23953378200531006,
              0.49383068084716797
            ],
            [
              0.8520588278770447,
              -0.23939621448516846,
              -0.24987995624542236,
              0.4102686643600464,
              -0.12556695938110352,
              0.9246245622634888
            ],
            [
              0.06551730632781982,
              0.06757509708404541,
              0.2762867212295532,
              0.011967062950134277,
              -0.10636353492736816,
              0.029730796813964844
            ],
            [
              0.3309694528579712,
              -0.1668567657470703,
              0.7609776258468628,
              -0.6956204175949097,
              -0.4990997314453125,
              0.0037585049867630005
            ]
          ],
          "column": 6,
          "row": 6
        }
      ]
    },
    {
      "biases": [
        {
          "array": [
            [-0.39998865127563477],
            [-0.4197671413421631],
            [0.9447929859161377],
            [-0.48321688175201416],
            [-0.7292463779449463],
            [-0.20189356803894043]
          ],
          "column": 1,
          "row": 6
        },
        {
          "array": [
            [0.23701691627502441],
            [-0.8601466417312622],
            [-0.5736486911773682],
            [0.4353935718536377],
            [0.894750714302063],
            [0.998625636100769]
          ],
          "column": 1,
          "row": 6
        }
      ],
      "weights": [
        {
          "array": [
            [
              0.8707453012466431,
              0.5205091238021851,
              0.9821184873580933,
              -0.9461675882339478
            ],
            [
              0.9984105825424194,
              0.0011557048419490457,
              -0.2908409833908081,
              0.01471412181854248
            ],
            [
              0.9299862384796143,
              0.9858132004737854,
              0.014564909972250462,
              0.30480968952178955
            ],
            [
              0.7996783256530762,
              -0.5134011507034302,
              -0.11019706726074219,
              0.9790967106819153
            ],
            [
              0.9600430727005005,
              0.9672442078590393,
              -0.18563902378082275,
              -0.6571625471115112
            ],
            [
              -0.666817307472229,
              -0.2952005863189697,
              0.879641592502594,
              0.8038073182106018
            ]
          ],
          "column": 4,
          "row": 6
        },
        {
          "array": [
            [
              0.4637606143951416,
              0.19042889773845673,
              0.9487823843955994,
              -0.9916849136352539,
              -0.5315980911254883,
              0.6679819822311401
            ],
            [
              0.28007304668426514,
              0.09348845481872559,
              -0.6684777736663818,
              0.30317890644073486,
              0.17164649069309235,
              0.31938445568084717
            ],
            [
              0.07568500190973282,
              0.0969281792640686,
              0.6432504653930664,
              0.19200778007507324,
              -0.23953378200531006,
              0.49383068084716797
            ],
            [
              0.9993264675140381,
              -0.23939621448516846,
              -0.24987995624542236,
              0.4102686643600464,
              -0.12556695938110352,
              0.9246245622634888
            ],
            [
              0.06551730632781982,
              0.06757509708404541,
              0.29422757029533386,
              0.011967062950134277,
              -0.10636353492736816,
              0.029730796813964844
            ],
            [
              0.3309694528579712,
              -0.1668567657470703,
              0.7609776258468628,
              -0.6956204175949097,
              -0.4990997314453125,
              0.0037585049867630005
            ]
          ],
          "column": 6,
          "row": 6
        }
      ]
    },
    {
      "biases": [
        {
          "array": [
            [-0.39998865127563477],
            [0.0025792033411562443],
            [0.005406664218753576],
            [-0.48321688175201416],
            [-0.7292463779449463],
            [-0.20189356803894043]
          ],
          "column": 1,
          "row": 6
        },
        {
          "array": [
            [0.23701691627502441],
            [-0.8601466417312622],
            [-0.5736486911773682],
            [0.4353935718536377],
            [0.894750714302063],
            [0.998625636100769]
          ],
          "column": 1,
          "row": 6
        }
      ],
      "weights": [
        {
          "array": [
            [
              0.8707453012466431,
              0.5205091238021851,
              0.9821184873580933,
              -0.9461675882339478
            ],
            [
              0.9984105825424194,
              0.0011557048419490457,
              -0.2908409833908081,
              0.01471412181854248
            ],
            [
              0.9299862384796143,
              0.14753508567810059,
              0.0025746796745806932,
              0.9976958632469177
            ],
            [
              0.005009889602661133,
              -0.5134011507034302,
              -0.11019706726074219,
              0.9790967106819153
            ],
            [
              0.9600430727005005,
              0.43215715885162354,
              -0.18563902378082275,
              -0.6571625471115112
            ],
            [
              -0.666817307472229,
              -0.2952005863189697,
              0.879641592502594,
              0.8038073182106018
            ]
          ],
          "column": 4,
          "row": 6
        },
        {
          "array": [
            [
              0.4637606143951416,
              -0.35725510120391846,
              0.9487823843955994,
              -0.9916849136352539,
              -0.5315980911254883,
              0.6679819822311401
            ],
            [
              0.28007304668426514,
              0.09348845481872559,
              -0.6684777736663818,
              0.9968493580818176,
              0.17164649069309235,
              0.31938445568084717
            ],
            [
              0.07568500190973282,
              0.0969281792640686,
              0.6432504653930664,
              0.19200778007507324,
              0.1495225429534912,
              0.9922877550125122
            ],
            [
              0.003724786452949047,
              0.9929250478744507,
              -0.24987995624542236,
              0.4102686643600464,
              -0.12556695938110352,
              0.9246245622634888
            ],
            [
              0.06551730632781982,
              0.06757509708404541,
              0.2762867212295532,
              0.011967062950134277,
              -0.10636353492736816,
              0.029730796813964844
            ],
            [
              0.3309694528579712,
              -0.1668567657470703,
              0.7609776258468628,
              -0.6956204175949097,
              -0.4990997314453125,
              0.0037585049867630005
            ]
          ],
          "column": 6,
          "row": 6
        }
      ]
    },
    {
      "biases": [
        {
          "array": [
            [0.6623927354812622],
            [0.33298271894454956],
            [0.6875537037849426],
            [0.982537031173706],
            [-0.22252583503723145],
            [-0.3266613483428955]
          ],
          "column": 1,
          "row": 6
        },
        {
          "array": [
            [0.23620891571044922],
            [0.3381108045578003],
            [-0.559524416923523],
            [0.05833376199007034],
            [0.372103214263916],
            [-0.9290417432785034]
          ],
          "column": 1,
          "row": 6
        }
      ],
      "weights": [
        {
          "array": [
            [
              0.9183424711227417,
              -0.00829935073852539,
              0.9387813210487366,
              0.4424639344215393
            ],
            [
              -0.5355930328369141,
              0.37701237201690674,
              0.11000049114227295,
              0.26143431663513184
            ],
            [
              0.5504427552223206,
              0.1190418004989624,
              0.8718311786651611,
              -0.6020605564117432
            ],
            [
              0.9077175259590149,
              7.778932340443134E-4,
              0.8289241790771484,
              0.16022324562072754
            ],
            [
              0.0461188405752182,
              0.22017693519592285,
              0.935343861579895,
              -0.8243468999862671
            ],
            [
              0.9254522323608398,
              0.7014725208282471,
              0.3608821630477905,
              0.9210942983627319
            ]
          ],
          "column": 4,
          "row": 6
        },
        {
          "array": [
            [
              0.9926895499229431,
              0.9983861446380615,
              0.5892530679702759,
              0.4858992099761963,
              0.10808157920837402,
              0.35555610060691833
            ],
            [
              0.927028238773346,
              -0.8559696674346924,
              0.1944880187511444,
              -0.9619178771972656,
              0.1784348487854004,
              0.35145580768585205
            ],
            [
              0.005202421452850103,
              -0.24980437755584717,
              0.9856847524642944,
              -0.8214869499206543,
              -0.6942435503005981,
              -0.43344295024871826
            ],
            [
              0.8576124906539917,
              0.3430591821670532,
              0.0089188814163208,
              0.20602107048034668,
              -0.023923277854919434,
              0.8638917207717896
            ],
            [
              -0.3721756935119629,
              0.998149037361145,
              0.8987603187561035,
              -0.2683582305908203,
              -0.7885434627532959,
              0.022693108767271042
            ],
            [
              0.48333263397216797,
              0.3191457688808441,
              0.5163884162902832,
              -0.7855790853500366,
              -0.30672264099121094,
              0.9902169704437256
            ]
          ],
          "column": 6,
          "row": 6
        }
      ]
    },
    {
      "biases": [
        {
          "array": [
            [-0.39998865127563477],
            [-0.4197671413421631],
            [0.005406664218753576],
            [-0.48321688175201416],
            [-0.7292463779449463],
            [-0.20189356803894043]
          ],
          "column": 1,
          "row": 6
        },
        {
          "array": [
            [0.23701691627502441],
            [-0.8601466417312622],
            [-0.5736486911773682],
            [0.4353935718536377],
            [0.894750714302063],
            [0.5560882687568665]
          ],
          "column": 1,
          "row": 6
        }
      ],
      "weights": [
        {
          "array": [
            [
              0.8707453012466431,
              0.02459133416414261,
              0.9821184873580933,
              -0.9461675882339478
            ],
            [
              0.9984105825424194,
              0.0011557048419490457,
              -0.2908409833908081,
              0.0035414868034422398
            ],
            [
              0.9299862384796143,
              0.14753508567810059,
              0.014564909972250462,
              0.30480968952178955
            ],
            [
              0.005009889602661133,
              -0.5134011507034302,
              -0.11019706726074219,
              0.5619202852249146
            ],
            [
              0.9600430727005005,
              0.43215715885162354,
              -0.18563902378082275,
              -0.6571625471115112
            ],
            [
              -0.666817307472229,
              -0.2952005863189697,
              0.879641592502594,
              0.8038073182106018
            ]
          ],
          "column": 4,
          "row": 6
        },
        {
          "array": [
            [
              0.009740537032485008,
              -0.35725510120391846,
              0.9487823843955994,
              -0.9916849136352539,
              -0.5315980911254883,
              0.6679819822311401
            ],
            [
              0.017370902001857758,
              0.09348845481872559,
              -0.6684777736663818,
              0.30317890644073486,
              0.17164649069309235,
              0.31938445568084717
            ],
            [
              0.07568500190973282,
              0.0969281792640686,
              0.6432504653930664,
              0.19200778007507324,
              -0.23953378200531006,
              0.49383068084716797
            ],
            [
              0.8520588278770447,
              0.9594616889953613,
              -0.24987995624542236,
              0.4102686643600464,
              -0.12556695938110352,
              0.9246245622634888
            ],
            [
              0.06551730632781982,
              0.06757509708404541,
              0.2762867212295532,
              0.011967062950134277,
              -0.10636353492736816,
              0.029730796813964844
            ],
            [
              0.3309694528579712,
              -0.1668567657470703,
              0.7609776258468628,
              -0.6956204175949097,
              -0.4990997314453125,
              0.0037585049867630005
            ]
          ],
          "column": 6,
          "row": 6
        }
      ]
    },
    {
      "biases": [
        {
          "array": [
            [-0.1334071159362793],
            [-0.27688491344451904],
            [0.7790281772613525],
            [0.0027514882385730743],
            [0.9745368957519531],
            [0.0019927779212594032]
          ],
          "column": 1,
          "row": 6
        },
        {
          "array": [
            [0.004651181399822235],
            [-0.19557762145996094],
            [0.0030509312637150288],
            [0.0897669792175293],
            [0.06045025959610939],
            [-0.21175754070281982]
          ],
          "column": 1,
          "row": 6
        }
      ],
      "weights": [
        {
          "array": [
            [
              0.2178100347518921,
              -0.04572772979736328,
              0.4045020341873169,
              -0.7754062414169312
            ],
            [
              0.9845536947250366,
              0.7096458673477173,
              0.7723455429077148,
              0.13167154788970947
            ],
            [
              0.7526227235794067,
              0.026065358892083168,
              -0.7869607210159302,
              0.8359101414680481
            ],
            [
              0.9343414306640625,
              0.8917745351791382,
              0.10525870323181152,
              0.10669982433319092
            ],
            [
              0.9794402718544006,
              0.34981226921081543,
              0.18991804122924805,
              0.6851991415023804
            ],
            [
              0.8772121667861938,
              0.6523699164390564,
              0.4747154712677002,
              -0.15149617195129395
            ]
          ],
          "column": 4,
          "row": 6
        },
        {
          "array": [
            [
              0.001790194888599217,
              0.33261996507644653,
              0.9422558546066284,
              0.15249407291412354,
              -0.39446163177490234,
              0.9634685516357422
            ],
            [
              0.0046176910400390625,
              0.20346975326538086,
              0.9833022952079773,
              0.7032016515731812,
              0.4978957772254944,
              -0.9598677158355713
            ],
            [
              0.050261855125427246,
              -0.8392294645309448,
              -0.7248309850692749,
              0.5212006568908691,
              0.05982339382171631,
              0.19623470306396484
            ],
            [
              -0.4789339303970337,
              0.13848784565925598,
              0.9989783763885498,
              -0.874295711517334,
              0.04734456539154053,
              -0.926024317741394
            ],
            [
              0.8794505596160889,
              0.13761675357818604,
              -0.7078356742858887,
              0.191869854927063,
              0.4855079650878906,
              0.011828064918518066
            ],
            [
              -0.863937497138977,
              0.4822119474411011,
              0.07554298639297485,
              0.8216859102249146,
              0.8651937246322632,
              0.20377564430236816
            ]
          ],
          "column": 6,
          "row": 6
        }
      ]
    },
    {
      "biases": [
        {
          "array": [
            [0.8083043098449707],
            [0.9655067920684814],
            [0.6081943511962891],
            [0.490328311920166],
            [0.09926760196685791],
            [0.40708649158477783]
          ],
          "column": 1,
          "row": 6
        },
        {
          "array": [
            [0.8039793968200684],
            [-0.7759678363800049],
            [0.7280014753341675],
            [0.2390117645263672],
            [0.9912893772125244],
            [0.21327710151672363]
          ],
          "column": 1,
          "row": 6
        }
      ],
      "weights": [
        {
          "array": [
            [
              -0.7614926099777222,
              -0.09669291973114014,
              -0.9084135293960571,
              0.998835027217865
            ],
            [
              0.946631908416748,
              0.15918490290641785,
              0.0030491119250655174,
              -0.5190101861953735
            ],
            [
              0.018553778529167175,
              0.004957978148013353,
              -0.31327807903289795,
              0.8268630504608154
            ],
            [
              0.9028881788253784,
              -0.4511977434158325,
              0.8669161796569824,
              0.8896998763084412
            ],
            [
              0.1720644235610962,
              0.06206488981842995,
              0.23982279002666473,
              -0.5427101850509644
            ],
            [
              -0.9286129474639893,
              0.7440862655639648,
              -0.7046941518783569,
              0.8854192495346069
            ]
          ],
          "column": 4,
          "row": 6
        },
        {
          "array": [
            [
              -0.09829103946685791,
              -0.6649235486984253,
              -0.07483935356140137,
              0.9687216281890869,
              0.25932300090789795,
              0.008180590346455574
            ],
            [
              6.835899548605084E-4,
              -0.9414379596710205,
              0.646742582321167,
              -0.46142876148223877,
              0.7685620784759521,
              0.8375723361968994
            ],
            [
              0.8732613325119019,
              -0.6549204587936401,
              -0.43354809284210205,
              -0.7558525800704956,
              -0.7345894575119019,
              0.07560224831104279
            ],
            [
              0.040654778480529785,
              -0.910698652267456,
              0.5577237606048584,
              0.7453739643096924,
              -0.5208948850631714,
              -0.9916012287139893
            ],
            [
              -0.8808822631835938,
              0.9995836615562439,
              0.9301548004150391,
              -0.8141324520111084,
              0.20314407348632812,
              0.9781107306480408
            ],
            [
              0.9088273048400879,
              0.35145869851112366,
              -0.1228872537612915,
              0.9973502159118652,
              0.4946916103363037,
              0.7725809812545776
            ]
          ],
          "column": 6,
          "row": 6
        }
      ]
    },
    {
      "biases": [
        {
          "array": [
            [-0.1334071159362793],
            [-0.27688491344451904],
            [0.7790281772613525],
            [-0.5416730642318726],
            [0.9484326839447021],
            [0.8861455321311951]
          ],
          "column": 1,
          "row": 6
        },
        {
          "array": [
            [0.8009015321731567],
            [-0.19557762145996094],
            [0.9948546886444092],
            [0.0897669792175293],
            [-0.30696380138397217],
            [-0.21175754070281982]
          ],
          "column": 1,
          "row": 6
        }
      ],
      "weights": [
        {
          "array": [
            [
              0.2178100347518921,
              -0.04572772979736328,
              0.4045020341873169,
              -0.7754062414169312
            ],
            [
              -0.5576468706130981,
              0.7096458673477173,
              0.7723455429077148,
              -0.6890835762023926
            ],
            [
              0.7526227235794067,
              0.8201290369033813,
              -0.7869607210159302,
              0.5269694328308105
            ],
            [
              0.9343414306640625,
              0.8917745351791382,
              0.10525870323181152,
              0.10669982433319092
            ],
            [
              0.9633859395980835,
              0.34981226921081543,
              0.18991804122924805,
              0.6851991415023804
            ],
            [
              0.694184422492981,
              0.20679175853729248,
              0.9921667575836182,
              0.970678448677063
            ]
          ],
          "column": 4,
          "row": 6
        },
        {
          "array": [
            [
              0.004818826913833618,
              -0.09526956081390381,
              0.9392600059509277,
              0.15249407291412354,
              -0.39446163177490234,
              0.9634685516357422
            ],
            [
              0.0046176910400390625,
              0.20346975326538086,
              0.520848274230957,
              0.99434894323349,
              -0.7700773477554321,
              -0.9598677158355713
            ],
            [
              0.050261855125427246,
              -0.8392294645309448,
              0.985566258430481,
              0.5212006568908691,
              0.05982339382171631,
              0.19623470306396484
            ],
            [
              -0.4789339303970337,
              0.0010831382824108005,
              0.02027226984500885,
              -0.874295711517334,
              0.04734456539154053,
              -0.926024317741394
            ],
            [
              0.9179838299751282,
              0.007831149734556675,
              -0.7078356742858887,
              0.191869854927063,
              0.4855079650878906,
              0.011952884495258331
            ],
            [
              -0.863937497138977,
              0.4822119474411011,
              -0.7060877084732056,
              0.8216859102249146,
              0.8651937246322632,
              0.20377564430236816
            ]
          ],
          "column": 6,
          "row": 6
        }
      ]
    },
    {
      "biases": [
        {
          "array": [
            [-0.39998865127563477],
            [-0.4197671413421631],
            [0.9447929859161377],
            [-0.48321688175201416],
            [-0.7292463779449463],
            [-0.20189356803894043]
          ],
          "column": 1,
          "row": 6
        },
        {
          "array": [
            [0.23701691627502441],
            [-0.8601466417312622],
            [-0.5736486911773682],
            [0.4353935718536377],
            [0.894750714302063],
            [0.998625636100769]
          ],
          "column": 1,
          "row": 6
        }
      ],
      "weights": [
        {
          "array": [
            [
              0.8707453012466431,
              0.5205091238021851,
              0.9821184873580933,
              -0.9461675882339478
            ],
            [
              0.9984105825424194,
              0.0011557048419490457,
              -0.2908409833908081,
              0.01471412181854248
            ],
            [
              0.9299862384796143,
              0.9858132004737854,
              0.014564909972250462,
              0.30480968952178955
            ],
            [
              0.7996783256530762,
              -0.5134011507034302,
              -0.11019706726074219,
              0.9790967106819153
            ],
            [
              0.9600430727005005,
              0.19755308330059052,
              -0.18563902378082275,
              -0.6571625471115112
            ],
            [
              -0.666817307472229,
              -0.2952005863189697,
              0.879641592502594,
              0.8038073182106018
            ]
          ],
          "column": 4,
          "row": 6
        },
        {
          "array": [
            [
              0.4637606143951416,
              0.19042889773845673,
              0.9487823843955994,
              -0.9916849136352539,
              -0.5315980911254883,
              0.6679819822311401
            ],
            [
              0.28007304668426514,
              0.09348845481872559,
              -0.6684777736663818,
              0.30317890644073486,
              0.17164649069309235,
              0.31938445568084717
            ],
            [
              0.07568500190973282,
              0.0969281792640686,
              0.6432504653930664,
              0.19200778007507324,
              -0.23953378200531006,
              0.49383068084716797
            ],
            [
              0.9993264675140381,
              -0.23939621448516846,
              -0.24987995624542236,
              0.4102686643600464,
              -0.12556695938110352,
              0.9246245622634888
            ],
            [
              0.06551730632781982,
              0.06757509708404541,
              0.29422757029533386,
              0.011967062950134277,
              -0.10636353492736816,
              0.029730796813964844
            ],
            [
              0.3309694528579712,
              -0.1668567657470703,
              0.7609776258468628,
              -0.6956204175949097,
              -0.4990997314453125,
              0.0037585049867630005
            ]
          ],
          "column": 6,
          "row": 6
        }
      ]
    },
    {
      "biases": [
        {
          "array": [
            [-0.1334071159362793],
            [-0.27688491344451904],
            [0.7790281772613525],
            [-0.5416730642318726],
            [0.9484326839447021],
            [0.8861455321311951]
          ],
          "column": 1,
          "row": 6
        },
        {
          "array": [
            [0.8009015321731567],
            [-0.19557762145996094],
            [0.9520224928855896],
            [0.0897669792175293],
            [-0.30696380138397217],
            [-0.21175754070281982]
          ],
          "column": 1,
          "row": 6
        }
      ],
      "weights": [
        {
          "array": [
            [
              0.2178100347518921,
              -0.04572772979736328,
              0.4045020341873169,
              -0.7754062414169312
            ],
            [
              -0.5576468706130981,
              0.7096458673477173,
              0.7723455429077148,
              -0.6890835762023926
            ],
            [
              0.7526227235794067,
              0.8201290369033813,
              -0.7869607210159302,
              0.5269694328308105
            ],
            [
              0.9343414306640625,
              0.8917745351791382,
              0.10525870323181152,
              0.10669982433319092
            ],
