{
  "generation": 14,
  "brains": [
    {
      "biases": [
        {
          "array": [
            [0.8874885439872742],
            [-0.47376513481140137],
            [0.23582375049591064],
            [0.658421516418457],
            [0.2419590950012207],
            [0.9993780851364136],
            [-0.5164186954498291],
            [0.8985223770141602],
            [-0.11822140216827393],
            [-0.81773841381073],
            [-0.7722078561782837],
            [-0.6335934400558472]
          ],
          "column": 1,
          "row": 12
        },
        {
          "array": [
            [0.43851804733276367],
            [0.8787004947662354],
            [0.0847940444946289],
            [0.015053591690957546],
            [0.044474996626377106],
            [-0.3793982267379761],
            [0.3635704517364502],
            [-0.3663156032562256],
            [0.004164630081504583],
            [-0.1324307918548584]
          ],
          "column": 1,
          "row": 10
        },
        {
          "array": [
            [-0.7979602813720703],
            [0.1652759462594986],
            [0.7502353191375732],
            [0.9934306144714355],
            [0.7894376516342163],
            [0.3812532424926758],
            [0.07268011569976807]
          ],
          "column": 1,
          "row": 7
        }
      ],
      "weights": [
        {
          "array": [
            [
              0.590656042098999,
              -0.7639802694320679,
              -0.3333158493041992,
              0.9747852087020874,
              -0.9865577220916748,
              0.9474053382873535,
              0.3177553415298462,
              -0.5985476970672607
            ],
            [
              -0.35475099086761475,
              0.9017884731292725,
              -0.1375424861907959,
              -0.15230131149291992,
              -0.9126821756362915,
              -0.7730249166488647,
              0.997011661529541,
              -0.9219081401824951
            ],
            [
              0.80272376537323,
              0.7080808877944946,
              -0.18355870246887207,
              0.4408419132232666,
              0.9957860112190247,
              -0.9634326696395874,
              0.921093225479126,
              -0.5422431230545044
            ],
            [
              0.46834802627563477,
              0.4504821300506592,
              0.6073338985443115,
              -0.4453617334365845,
              -0.7324773073196411,
              0.7291306257247925,
              -0.0025415420532226562,
              0.9857265949249268
            ],
            [
              0.4723855257034302,
              0.3837372064590454,
              0.9860469102859497,
              0.23213732242584229,
              0.19487571716308594,
              -0.2623666524887085,
              0.8215687274932861,
              0.27337491512298584
            ],
            [
              -0.21487033367156982,
              -0.6270989179611206,
              0.8171312808990479,
              -0.3756225109100342,
              0.9432093501091003,
              0.26548337936401367,
              -0.5915652513504028,
              0.6196173429489136
            ],
            [
              0.9358360767364502,
              -0.3844311237335205,
              0.40697646141052246,
              0.005871085915714502,
              0.18311524391174316,
              0.0025077846366912127,
              -0.8316473960876465,
              -0.0887829065322876
            ],
            [
              0.2281414270401001,
              -0.06171715259552002,
              0.046473726630210876,
              -0.6328357458114624,
              0.7751840353012085,
              -0.6944550275802612,
              0.05924415588378906,
              -0.7990328073501587
            ],
            [
              0.6043273210525513,
              -0.43800151348114014,
              -0.7244129180908203,
              -0.8934065103530884,
              0.08860880881547928,
              0.9844875931739807,
              0.9967523813247681,
              0.9976195693016052
            ],
            [
              -0.41695117950439453,
              0.014922380447387695,
              -0.4501093626022339,
              -0.23174285888671875,
              0.4301379919052124,
              0.910507082939148,
              -0.23928678035736084,
              -0.0457305908203125
            ],
            [
              0.07991588115692139,
              -0.8653239011764526,
              0.22007596492767334,
              -0.1402266025543213,
              0.5870792865753174,
              0.08304642140865326,
              0.9831066131591797,
              0.9781935214996338
            ],
            [
              -0.882420539855957,
              0.8708415031433105,
              0.976223349571228,
              0.3332953453063965,
              -0.8216729164123535,
              0.6425299644470215,
              0.03963112831115723,
              0.12543845176696777
            ]
          ],
          "column": 8,
          "row": 12
        },
        {
          "array": [
            [
              0.9387170076370239,
              -0.27584707736968994,
              0.10335803031921387,
              -0.9421758651733398,
              0.929407000541687,
              0.6799901723861694,
              0.2006988823413849,
              -0.42743170261383057,
              0.15720131993293762,
              0.2277998924255371,
              0.7592941522598267,
              0.48327744007110596
            ],
            [
              0.4561429023742676,
              0.2138717770576477,
              -0.7327271699905396,
              0.9388680458068848,
              -0.354783296585083,
              0.5181390047073364,
              0.919303297996521,
              -0.020737290382385254,
              0.7499991655349731,
              -0.20579290390014648,
              0.0017764568328857422,
              0.5562155246734619
            ],
            [
              0.9623938798904419,
              0.09063470363616943,
              -0.558856725692749,
              0.10825324058532715,
              0.12419092655181885,
              -0.5943863391876221,
              -0.7155003547668457,
              0.8287246823310852,
              0.4347440004348755,
              0.8980677127838135,
              0.007275530602782965,
              0.9230109453201294
            ],
            [
              0.2353506088256836,
              0.919750988483429,
              -0.16463398933410645,
              -0.596027135848999,
              -0.5423614978790283,
              -0.5712876319885254,
              -0.6628632545471191,
              -0.7813262939453125,
              0.017095547169446945,
              0.32647082209587097,
              -0.6532604694366455,
              0.35840457677841187
            ],
            [
              0.002472265623509884,
              0.5799862146377563,
              0.5711708068847656,
              0.11478292942047119,
              -0.9239317178726196,
              0.014850088395178318,
              0.6813558340072632,
              -0.769722580909729,
              -0.9315136671066284,
              0.34472477436065674,
              -0.6481726169586182,
              0.006862711627036333
            ],
            [
              0.7095199823379517,
              0.943289041519165,
              0.8590668439865112,
              -0.4290691614151001,
              0.11570154130458832,
              0.9854331016540527,
              -0.7531447410583496,
              -0.13951289653778076,
              -0.14108729362487793,
              0.8341845273971558,
              0.0289914608001709,
              0.5242804884910583
            ],
            [
              -0.6672624349594116,
              -0.40742671489715576,
              0.9160699844360352,
              0.8985506892204285,
              -0.7645214796066284,
              -0.9236575365066528,
              0.6475706100463867,
              -0.41318953037261963,
              -0.6202530860900879,
              0.7061470746994019,
              0.942314863204956,
              -0.9355010986328125
            ],
            [
              -0.36591649055480957,
              0.6698036193847656,
              -0.629682183265686,
              0.9713106155395508,
              0.047920841723680496,
              0.025536656379699707,
              -0.542570948600769,
              0.20063447952270508,
              -0.986312747001648,
              0.7153570652008057,
              0.9612811803817749,
              0.9964859485626221
            ],
            [
              -0.2645251750946045,
              -0.8592280149459839,
              0.12212276458740234,
              -0.48574113845825195,
              0.7389748096466064,
              0.21240198612213135,
              -0.4920414686203003,
              0.5444589257240295,
              0.33380162715911865,
              0.689091682434082,
              -0.6747018098831177,
              0.7632657289505005
            ],
            [
              -0.35393500328063965,
              0.9246872663497925,
              -0.7868728637695312,
              -0.8228616714477539,
              -0.6719775199890137,
              0.04208292439579964,
              0.08749675750732422,
              -0.8377773761749268,
              0.6049624681472778,
              0.9991863369941711,
              -0.35622096061706543,
              0.9744268655776978
            ]
          ],
          "column": 12,
          "row": 10
        },
        {
          "array": [
            [
              0.45360279083251953,
              0.338570237159729,
              0.7737865447998047,
              0.1758631467819214,
              0.037496089935302734,
              -0.3645751476287842,
              0.4136350154876709,
              0.9985212683677673,
              0.5934869050979614,
              -0.5505083799362183
            ],
            [
              -0.9358202219009399,
              7.828850066289306E-4,
              0.8792046904563904,
              -0.874006986618042,
              -0.18577003479003906,
              -0.9638867378234863,
              0.05422830581665039,
              0.9845453500747681,
              -0.1499091386795044,
              0.9240936040878296
            ],
            [
              0.5777415633201599,
              -0.6715357303619385,
              0.8260771036148071,
              -0.568163275718689,
              -0.2249690294265747,
              0.4212878942489624,
              0.9360413551330566,
              -0.7637104988098145,
              0.0031613954342901707,
              -0.7223718166351318
            ],
            [
              0.30497920513153076,
              -0.7262976169586182,
              -0.562114953994751,
              0.789237380027771,
              -0.38331854343414307,
              0.373213529586792,
              8.987353648990393E-4,
              -0.6374846696853638,
              0.006289276294410229,
              -0.4279313087463379
            ],
            [
              -0.4962437152862549,
              0.304426908493042,
              0.996479868888855,
              0.6259515285491943,
              -0.7683779001235962,
              -0.6349968910217285,
              -0.3105156421661377,
              -0.49413931369781494,
              -0.3805943727493286,
              0.6126172542572021
            ],
            [
              0.03906893730163574,
              -0.5723859071731567,
              -0.0734943151473999,
              0.059864580631256104,
              0.9926536083221436,
              0.7870978116989136,
              -0.48571503162384033,
              -0.37048840522766113,
              -0.33069705963134766,
              0.9007498025894165
            ],
            [
              0.4086649417877197,
              0.023204553872346878,
              -0.7109638452529907,
              8.402089006267488E-4,
              0.2510955333709717,
              0.07764256000518799,
              -0.6141459941864014,
              -0.9631915092468262,
              0.3555716276168823,
              -0.25608158111572266
            ]
          ],
          "column": 10,
          "row": 7
        }
      ]
    },
    {
      "biases": [
        {
          "array": [
            [0.8874885439872742],
            [-0.47376513481140137],
            [0.23582375049591064],
            [0.658421516418457],
            [0.2419590950012207],
            [0.9993780851364136],
            [-0.5164186954498291],
            [0.8985223770141602],
            [-0.11822140216827393],
            [-0.81773841381073],
            [-0.7722078561782837],
            [-0.6335934400558472]
          ],
          "column": 1,
          "row": 12
        },
        {
          "array": [
            [0.43851804733276367],
            [0.8787004947662354],
            [0.0847940444946289],
            [0.015053591690957546],
            [0.044474996626377106],
            [-0.3793982267379761],
            [0.3635704517364502],
            [-0.3663156032562256],
            [0.004164630081504583],
            [-0.1324307918548584]
          ],
          "column": 1,
          "row": 10
        },
        {
          "array": [
            [-0.7979602813720703],
            [0.1652759462594986],
            [0.7502353191375732],
            [0.9934306144714355],
            [0.7894376516342163],
            [0.3812532424926758],
            [0.07268011569976807]
          ],
          "column": 1,
          "row": 7
        }
      ],
      "weights": [
        {
          "array": [
            [
              0.590656042098999,
              -0.7639802694320679,
              -0.3333158493041992,
              0.9747852087020874,
              -0.9865577220916748,
              0.9474053382873535,
              0.3177553415298462,
              -0.5985476970672607
            ],
            [
              -0.35475099086761475,
              0.9017884731292725,
              -0.1375424861907959,
              -0.15230131149291992,
              -0.9126821756362915,
              -0.7730249166488647,
              0.997011661529541,
              0.003269731532782316
            ],
            [
              0.80272376537323,
              0.7080808877944946,
              -0.18355870246887207,
              0.4408419132232666,
              0.9957860112190247,
              -0.9634326696395874,
              0.921093225479126,
              -0.5422431230545044
            ],
            [
              0.7878636717796326,
              0.4504821300506592,
              0.6073338985443115,
              -0.4453617334365845,
              -0.7324773073196411,
              0.7291306257247925,
              -0.0025415420532226562,
              0.9857265949249268
            ],
            [
              0.4723855257034302,
              0.3837372064590454,
              0.9845576286315918,
              0.23213732242584229,
              0.19487571716308594,
              -0.2623666524887085,
              0.8215687274932861,
              0.27337491512298584
            ],
            [
              -0.21487033367156982,
              -0.6270989179611206,
              0.16450580954551697,
              -0.3756225109100342,
              0.9432093501091003,
              0.26548337936401367,
              -0.5915652513504028,
              0.6196173429489136
            ],
            [
              0.9358360767364502,
              -0.3844311237335205,
              0.40697646141052246,
              0.005871085915714502,
              0.18311524391174316,
              0.0025077846366912127,
              -0.8316473960876465,
              -0.0887829065322876
            ],
            [
              0.2281414270401001,
              -0.06171715259552002,
              0.046473726630210876,
              -0.6328357458114624,
              0.7751840353012085,
              0.20538048446178436,
              0.05924415588378906,
              -0.7990328073501587
            ],
            [
              0.6043273210525513,
              -0.43800151348114014,
              0.003326339880004525,
              -0.8934065103530884,
              0.08860880881547928,
              0.9844875931739807,
              0.9967523813247681,
              0.9976195693016052
            ],
            [
              -0.41695117950439453,
              0.014922380447387695,
              -0.4501093626022339,
              -0.23174285888671875,
              0.08625253289937973,
              0.910507082939148,
              -0.23928678035736084,
              -0.0457305908203125
            ],
            [
              0.07991588115692139,
              -0.8653239011764526,
              0.22007596492767334,
              0.005955973640084267,
              0.8262120485305786,
              0.08304642140865326,
              0.9831066131591797,
              0.9781935214996338
            ],
            [
              -0.882420539855957,
              0.8708415031433105,
              0.976223349571228,
              0.3332953453063965,
              -0.8216729164123535,
              0.6425299644470215,
              0.03963112831115723,
              0.9544614553451538
            ]
          ],
          "column": 8,
          "row": 12
        },
        {
          "array": [
            [
              0.9387170076370239,
              -0.27584707736968994,
              0.10335803031921387,
              -0.9421758651733398,
              0.929407000541687,
              0.6799901723861694,
              0.16186483204364777,
              -0.42743170261383057,
              0.15720131993293762,
              0.2277998924255371,
              0.7592941522598267,
              0.48327744007110596
            ],
            [
              0.4561429023742676,
              0.2138717770576477,
              -0.7327271699905396,
              0.9987747073173523,
              -0.354783296585083,
              0.059742093086242676,
              0.919303297996521,
              -0.020737290382385254,
              0.7499991655349731,
              -0.20579290390014648,
              0.0017764568328857422,
              0.5562155246734619
            ],
            [
              0.9623938798904419,
              0.09063470363616943,
              -0.558856725692749,
              0.10825324058532715,
              0.12419092655181885,
              -0.5943863391876221,
              -0.7155003547668457,
              0.8287246823310852,
              0.4347440004348755,
              0.8980677127838135,
              0.007275530602782965,
              0.9230109453201294
            ],
            [
              0.2353506088256836,
              0.919750988483429,
              -0.16463398933410645,
              -0.596027135848999,
              -0.5423614978790283,
              -0.5712876319885254,
              -0.6628632545471191,
              -0.7813262939453125,
              0.017095547169446945,
              0.32647082209587097,
              0.9827322959899902,
              0.35840457677841187
            ],
            [
              0.002472265623509884,
              0.5799862146377563,
              0.5711708068847656,
              0.11478292942047119,
              -0.9239317178726196,
              0.014850088395178318,
              0.6813558340072632,
              0.9952774047851562,
              0.9298802614212036,
              0.34472477436065674,
              -0.6481726169586182,
              0.006862711627036333
            ],
            [
              0.7095199823379517,
              0.943289041519165,
              0.8590668439865112,
              -0.4290691614151001,
              0.11570154130458832,
              0.9854331016540527,
              -0.7531447410583496,
              -0.13951289653778076,
              -0.14108729362487793,
              0.1682618409395218,
              0.0289914608001709,
              0.5242804884910583
            ],
            [
              -0.6672624349594116,
              -0.40742671489715576,
              0.9160699844360352,
              0.8985506892204285,
              -0.7645214796066284,
              -0.9236575365066528,
              0.6475706100463867,
              -0.41318953037261963,
              -0.6202530860900879,
              0.7061470746994019,
              0.942314863204956,
              -0.9355010986328125
            ],
            [
              -0.36591649055480957,
              0.6698036193847656,
              -0.629682183265686,
              0.9713106155395508,
              0.047920841723680496,
              0.025536656379699707,
              -0.542570948600769,
              0.20063447952270508,
              -0.986312747001648,
              0.7153570652008057,
              0.9612811803817749,
              0.9964859485626221
            ],
            [
              -0.2645251750946045,
              -0.8592280149459839,
              0.12212276458740234,
              -0.48574113845825195,
              0.7389748096466064,
              0.21240198612213135,
              -0.4920414686203003,
              0.5444589257240295,
              0.33380162715911865,
              0.689091682434082,
              -0.6747018098831177,
              0.7632657289505005
            ],
            [
              -0.35393500328063965,
              0.9246872663497925,
              -0.7868728637695312,
              -0.8228616714477539,
              -0.6719775199890137,
              0.04208292439579964,
              0.08749675750732422,
              0.029562117531895638,
              0.6049624681472778,
              0.9956206679344177,
              -0.35622096061706543,
              0.9744268655776978
            ]
          ],
          "column": 12,
          "row": 10
        },
        {
          "array": [
            [
              0.45360279083251953,
              0.338570237159729,
              0.7737865447998047,
              0.1758631467819214,
              0.037496089935302734,
              -0.3645751476287842,
              0.4136350154876709,
              0.9985212683677673,
              0.5934869050979614,
              -0.5505083799362183
            ],
            [
              -0.9358202219009399,
              7.828850066289306E-4,
              0.8792046904563904,
              -0.874006986618042,
              -0.18577003479003906,
              -0.9638867378234863,
              0.9426709413528442,
              0.9845453500747681,
              -0.1499091386795044,
              0.9240936040878296
            ],
            [
              0.5777415633201599,
              -0.6715357303619385,
              0.8260771036148071,
              -0.568163275718689,
              -0.2249690294265747,
              0.4212878942489624,
              0.9955790638923645,
              -0.7637104988098145,
              0.0031613954342901707,
              -0.7223718166351318
            ],
            [
              0.9201677441596985,
              0.493037611246109,
              -0.562114953994751,
              0.789237380027771,
              -0.38331854343414307,
              0.373213529586792,
              8.987353648990393E-4,
              -0.6374846696853638,
              0.006289276294410229,
              -0.4279313087463379
            ],
            [
              -0.4962437152862549,
              0.304426908493042,
              0.996479868888855,
              0.6259515285491943,
              -0.7683779001235962,
              -0.6349968910217285,
              -0.3105156421661377,
              -0.49413931369781494,
              -0.3805943727493286,
              0.6126172542572021
            ],
            [
              0.03906893730163574,
              -0.5723859071731567,
              -0.0734943151473999,
              0.059864580631256104,
              0.9926536083221436,
              0.7870978116989136,
              -0.48571503162384033,
              -0.37048840522766113,
              0.004096338525414467,
              0.9007498025894165
            ],
            [
              0.4086649417877197,
              0.023204553872346878,
              0.006280648522078991,
              8.402089006267488E-4,
              0.2510955333709717,
              0.07764256000518799,
              0.43384578824043274,
              -0.9631915092468262,
              0.3555716276168823,
              -0.25608158111572266
            ]
          ],
          "column": 10,
          "row": 7
        }
      ]
    },
    {
      "biases": [
        {
          "array": [
            [0.8874885439872742],
            [-0.47376513481140137],
            [0.17964348196983337],
            [0.9983124732971191],
            [0.2419590950012207],
            [0.017769159749150276],
            [-0.5164186954498291],
            [0.8985223770141602],
            [-0.11822140216827393],
            [-0.81773841381073],
            [-0.7722078561782837],
            [0.0017453241162002087]
          ],
          "column": 1,
          "row": 12
        },
        {
          "array": [
            [0.43851804733276367],
            [0.8787004947662354],
            [0.0847940444946289],
            [0.015053591690957546],
            [0.044474996626377106],
            [-0.3793982267379761],
            [0.3635704517364502],
            [0.7592523097991943],
            [0.004164630081504583],
            [-0.1324307918548584]
          ],
          "column": 1,
          "row": 10
        },
        {
          "array": [
            [-0.7979602813720703],
            [0.9964975714683533],
            [0.7502353191375732],
            [0.9934306144714355],
            [0.7894376516342163],
            [0.3812532424926758],
            [0.07268011569976807]
          ],
          "column": 1,
          "row": 7
        }
      ],
      "weights": [
        {
          "array": [
            [
              0.590656042098999,
              -0.7639802694320679,
              -0.3333158493041992,
              0.9747852087020874,
              0.9926585555076599,
              0.02723024971783161,
              0.3177553415298462,
              -0.5985476970672607
            ],
            [
              -0.35475099086761475,
              0.9846293926239014,
              -0.1375424861907959,
              0.5181496143341064,
              -0.9126821756362915,
              0.19242998957633972,
              0.6956527829170227,
              0.8761332631111145
            ],
            [
              0.80272376537323,
              0.9979143738746643,
              -0.18355870246887207,
              0.4408419132232666,
              0.9957860112190247,
              0.7554563879966736,
              0.921093225479126,
              -0.5422431230545044
            ],
            [
              0.46834802627563477,
              0.4504821300506592,
              0.6073338985443115,
              0.9539150595664978,
              0.1357453614473343,
              0.7291306257247925,
              -0.0025415420532226562,
              0.9857265949249268
            ],
            [
              0.4723855257034302,
              0.3837372064590454,
              0.719752311706543,
              0.23213732242584229,
              0.19487571716308594,
              -0.2623666524887085,
              0.8215687274932861,
              0.27337491512298584
            ],
            [
              -0.21487033367156982,
              -0.6270989179611206,
              0.8171312808990479,
              0.07490125298500061,
              0.03803874924778938,
              0.26548337936401367,
              -0.5915652513504028,
              0.6196173429489136
            ],
            [
              0.9358360767364502,
              -0.3844311237335205,
              0.40697646141052246,
              0.8221489191055298,
              0.18311524391174316,
              0.0025077846366912127,
              -0.8316473960876465,
              -0.0887829065322876
            ],
            [
              0.2281414270401001,
              0.9943352341651917,
              0.046473726630210876,
              -0.6328357458114624,
              0.7751840353012085,
              -0.6944550275802612,
              0.05924415588378906,
              -0.7990328073501587
            ],
            [
              0.6043273210525513,
              0.9871375560760498,
              -0.7244129180908203,
              -0.8934065103530884,
              0.08860880881547928,
              0.9844875931739807,
              0.9967523813247681,
              0.9976195693016052
            ],
            [
              -0.41695117950439453,
              0.014922380447387695,
              -0.4501093626022339,
              -0.23174285888671875,
              0.01812831126153469,
              0.910507082939148,
              0.009683504700660706,
              -0.0457305908203125
            ],
            [
              0.07991588115692139,
              -0.8653239011764526,
              0.22007596492767334,
              0.0037691001780331135,
              0.0059149484150111675,
              0.08304642140865326,
              0.9831066131591797,
              0.9781935214996338
            ],
            [
              -0.882420539855957,
              0.8708415031433105,
              0.976223349571228,
              0.3332953453063965,
              -0.8216729164123535,
              0.6425299644470215,
              0.03963112831115723,
              0.12543845176696777
            ]
          ],
          "column": 8,
          "row": 12
        },
        {
          "array": [
            [
              0.9387170076370239,
              -0.27584707736968994,
              0.10335803031921387,
              -0.9421758651733398,
              0.929407000541687,
              0.6799901723861694,
              0.11337131261825562,
              0.047394003719091415,
              0.15720131993293762,
              0.02929697185754776,
              0.7592941522598267,
              0.0016760110156610608
            ],
            [
              0.4561429023742676,
              0.2138717770576477,
              -0.7327271699905396,
              0.9388680458068848,
              0.9389006495475769,
              0.5181390047073364,
              0.9931610822677612,
              -0.020737290382385254,
              0.7499991655349731,
              -0.20579290390014648,
              0.0017764568328857422,
              0.5562155246734619
            ],
            [
              0.9623938798904419,
              0.09063470363616943,
              0.8972854018211365,
              0.10825324058532715,
              0.12419092655181885,
              -0.5943863391876221,
              -0.7155003547668457,
              0.8287246823310852,
              0.8800624012947083,
              0.8946772217750549,
              0.0027751813177019358,
              0.9230109453201294
            ],
            [
              0.2353506088256836,
              0.919750988483429,
              -0.16463398933410645,
              -0.596027135848999,
              0.0012784231221303344,
              -0.5712876319885254,
              -0.6628632545471191,
              -0.7813262939453125,
              0.017095547169446945,
              0.32647082209587097,
              -0.6532604694366455,
              0.35840457677841187
            ],
            [
              0.002472265623509884,
              0.5799862146377563,
              0.5711708068847656,
              0.11478292942047119,
              -0.9239317178726196,
              0.014850088395178318,
              0.9990342855453491,
              -0.769722580909729,
              -0.9315136671066284,
              0.34472477436065674,
              -0.6481726169586182,
              0.006862711627036333
            ],
            [
              0.7095199823379517,
              0.943289041519165,
              0.8590668439865112,
              -0.4290691614151001,
              0.11570154130458832,
              0.9854331016540527,
              -0.7531447410583496,
              -0.13951289653778076,
              -0.14108729362487793,
              0.8341845273971558,
              0.0289914608001709,
              0.5242804884910583
            ],
            [
              -0.6672624349594116,
              -0.40742671489715576,
              0.9160699844360352,
              0.8985506892204285,
              0.004245340824127197,
              -0.9236575365066528,
              0.6475706100463867,
              0.008118044584989548,
              -0.6202530860900879,
              0.7061470746994019,
              0.9604306817054749,
              -0.9355010986328125
            ],
            [
              -0.36591649055480957,
              0.6698036193847656,
              -0.629682183265686,
              0.11347118765115738,
              0.047920841723680496,
              0.025536656379699707,
              -0.542570948600769,
              0.20063447952270508,
              0.008609632030129433,
              0.7153570652008057,
              0.9612811803817749,
              0.9964859485626221
            ],
            [
              -0.2645251750946045,
              -0.8592280149459839,
              0.12212276458740234,
              -0.48574113845825195,
              0.7389748096466064,
              0.21240198612213135,
              -0.4920414686203003,
              0.5444589257240295,
              0.33380162715911865,
              0.689091682434082,
              -0.6747018098831177,
              0.7632657289505005
            ],
            [
              -0.35393500328063965,
              0.9246872663497925,
              0.06782177090644836,
              -0.8228616714477539,
              -0.6719775199890137,
              0.04208292439579964,
              0.08749675750732422,
              -0.8377773761749268,
              0.6049624681472778,
              0.9991863369941711,
              -0.35622096061706543,
              0.9744268655776978
            ]
          ],
          "column": 12,
          "row": 10
        },
        {
          "array": [
            [
              0.45360279083251953,
              0.338570237159729,
              0.962293267250061,
              0.1758631467819214,
              0.037496089935302734,
              -0.3645751476287842,
              0.4136350154876709,
              0.9985212683677673,
              0.11743413656949997,
              -0.5505083799362183
            ],
            [
              -0.9358202219009399,
              7.828850066289306E-4,
              0.8792046904563904,
              0.01836644858121872,
              -0.18577003479003906,
              0.7012339234352112,
              0.05422830581665039,
              0.9845453500747681,
              -0.1499091386795044,
              0.9240936040878296
            ],
            [
              0.0029315908905118704,
              -0.6715357303619385,
              0.8260771036148071,
              0.0644383579492569,
              0.00668466417118907,
              0.9833900332450867,
              0.9360413551330566,
              -0.7637104988098145,
              0.0031613954342901707,
              0.03884909301996231
            ],
            [
              0.30497920513153076,
              -0.7262976169586182,
              -0.562114953994751,
              0.789237380027771,
              -0.38331854343414307,
              0.373213529586792,
              8.987353648990393E-4,
              -0.6374846696853638,
              0.20720450580120087,
              -0.4279313087463379
            ],
            [
              -0.4962437152862549,
              0.304426908493042,
              0.996479868888855,
              0.6259515285491943,
              -0.7683779001235962,
              -0.6349968910217285,
              -0.3105156421661377,
              0.21881715953350067,
              -0.3805943727493286,
              0.6126172542572021
            ],
            [
              0.0015282488893717527,
              -0.5723859071731567,
              -0.0734943151473999,
              0.059864580631256104,
              0.7345830798149109,
              0.7870978116989136,
              0.2399640679359436,
              -0.37048840522766113,
              -0.33069705963134766,
              0.9007498025894165
            ],
            [
              0.9815504550933838,
              0.90872722864151,
              -0.7109638452529907,
              8.402089006267488E-4,
              0.2510955333709717,
              0.21416035294532776,
              -0.6141459941864014,
              -0.9631915092468262,
              0.3555716276168823,
              -0.25608158111572266
            ]
          ],
          "column": 10,
          "row": 7
        }
      ]
    },
    {
      "biases": [
        {
          "array": [
            [0.8874885439872742],
            [-0.47376513481140137],
            [0.8807160258293152],
            [0.658421516418457],
            [0.2419590950012207],
            [0.9993780851364136],
            [-0.5164186954498291],
            [0.9992876648902893],
            [-0.11822140216827393],
            [-0.81773841381073],
            [-0.7722078561782837],
            [-0.6335934400558472]
          ],
          "column": 1,
          "row": 12
        },
        {
          "array": [
            [0.43851804733276367],
            [0.8787004947662354],
            [0.0847940444946289],
            [0.015053591690957546],
            [0.044474996626377106],
            [-0.3793982267379761],
            [0.3635704517364502],
            [-0.3663156032562256],
            [0.004164630081504583],
            [-0.1324307918548584]
          ],
          "column": 1,
          "row": 10
        },
        {
          "array": [
            [-0.7979602813720703],
            [0.1652759462594986],
            [0.7502353191375732],
            [0.9422985315322876],
            [0.7894376516342163],
            [0.3812532424926758],
            [0.07268011569976807]
          ],
          "column": 1,
          "row": 7
        }
      ],
      "weights": [
        {
          "array": [
            [
              0.590656042098999,
              -0.7639802694320679,
              -0.3333158493041992,
              0.9747852087020874,
              -0.9865577220916748,
              0.9474053382873535,
              0.9694626331329346,
              -0.5985476970672607
            ],
            [
              -0.35475099086761475,
              0.03634793683886528,
              -0.1375424861907959,
              -0.15230131149291992,
              -0.9126821756362915,
              -0.7730249166488647,
              0.997011661529541,
              0.061978019773960114
            ],
            [
              0.80272376537323,
              0.7080808877944946,
              -0.18355870246887207,
              0.4408419132232666,
              0.9957860112190247,
              -0.9634326696395874,
              0.921093225479126,
              -0.5422431230545044
            ],
            [
              0.46834802627563477,
              0.4504821300506592,
              0.6073338985443115,
              -0.4453617334365845,
              -0.7324773073196411,
              0.7291306257247925,
              -0.0025415420532226562,
              0.9857265949249268
            ],
            [
              0.4723855257034302,
              0.3837372064590454,
              0.9860469102859497,
              0.23213732242584229,
              0.19487571716308594,
              -0.2623666524887085,
              0.8215687274932861,
              0.27337491512298584
            ],
            [
              -0.21487033367156982,
              -0.6270989179611206,
              0.8171312808990479,
              0.9974837303161621,
              0.9432093501091003,
              0.26548337936401367,
              -0.5915652513504028,
              0.6196173429489136
            ],
            [
              0.9358360767364502,
              -0.3844311237335205,
              0.40697646141052246,
              0.005871085915714502,
              0.18311524391174316,
              0.9836934208869934,
              -0.8316473960876465,
              -0.0887829065322876
            ],
            [
              0.2281414270401001,
              0.1629151999950409,
              0.046473726630210876,
              -0.6328357458114624,
              0.7751840353012085,
              -0.6944550275802612,
              0.05924415588378906,
              -0.7990328073501587
            ],
            [
              0.6043273210525513,
              -0.43800151348114014,
              -0.7244129180908203,
              -0.8934065103530884,
              0.9985656142234802,
              0.9844875931739807,
              0.9611604809761047,
              0.9976195693016052
            ],
            [
              -0.41695117950439453,
              0.014922380447387695,
              -0.4501093626022339,
              -0.23174285888671875,
              0.4301379919052124,
              0.910507082939148,
              -0.23928678035736084,
              -0.0457305908203125
            ],
            [
              0.07991588115692139,
              -0.8653239011764526,
              0.22007596492767334,
              -0.1402266025543213,
              0.5870792865753174,
              0.08304642140865326,
              0.9831066131591797,
              0.9781935214996338
            ],
            [
              -0.882420539855957,
              0.8708415031433105,
              0.976223349571228,
              0.3332953453063965,
              -0.8216729164123535,
              0.6425299644470215,
              0.08359364420175552,
              0.12543845176696777
            ]
          ],
          "column": 8,
          "row": 12
        },
        {
          "array": [
            [
              0.9387170076370239,
              -0.27584707736968994,
              0.10335803031921387,
              -0.9421758651733398,
              0.929407000541687,
              0.6799901723861694,
              0.2006988823413849,
              -0.42743170261383057,
              0.15720131993293762,
              0.2277998924255371,
              0.7592941522598267,
              0.48327744007110596
            ],
            [
              0.4561429023742676,
              0.2138717770576477,
              -0.7327271699905396,
              0.0026895529590547085,
              -0.354783296585083,
              0.5181390047073364,
              0.919303297996521,
              -0.020737290382385254,
              0.7499991655349731,
              -0.20579290390014648,
              0.0017764568328857422,
              0.5562155246734619
            ],
            [
              0.989327073097229,
              0.09063470363616943,
              0.9983943104743958,
              0.10825324058532715,
              0.12419092655181885,
              -0.5943863391876221,
              -0.7155003547668457,
              0.8287246823310852,
              0.4347440004348755,
              0.8980677127838135,
              0.007275530602782965,
              0.9230109453201294
            ],
            [
              0.2353506088256836,
              0.919750988483429,
              -0.16463398933410645,
              -0.596027135848999,
              -0.5423614978790283,
              -0.5712876319885254,
              -0.6628632545471191,
              -0.7813262939453125,
              0.017095547169446945,
              0.32647082209587097,
              -0.6532604694366455,
              0.35840457677841187
            ],
            [
              0.002472265623509884,
              0.9683273434638977,
              0.004330165684223175,
              0.11478292942047119,
              -0.9239317178726196,
              0.014850088395178318,
              0.6813558340072632,
              -0.769722580909729,
              0.4843935966491699,
              0.34472477436065674,
              -0.6481726169586182,
              0.006862711627036333
            ],
            [
              0.7095199823379517,
              0.943289041519165,
              0.8590668439865112,
              -0.4290691614151001,
              0.11570154130458832,
              0.9854331016540527,
              0.5158628821372986,
              -0.13951289653778076,
              -0.14108729362487793,
              0.8341845273971558,
              0.0289914608001709,
              0.5242804884910583
            ],
            [
              -0.6672624349594116,
              0.6600675582885742,
              0.9160699844360352,
              0.8985506892204285,
              -0.7645214796066284,
              -0.9236575365066528,
              0.6475706100463867,
              -0.41318953037261963,
              -0.6202530860900879,
              0.7061470746994019,
              0.942314863204956,
              -0.9355010986328125
            ],
            [
              -0.36591649055480957,
              0.6698036193847656,
              -0.629682183265686,
              0.9713106155395508,
              0.047920841723680496,
              0.025536656379699707,
              -0.542570948600769,
              0.20063447952270508,
              -0.986312747001648,
              0.7153570652008057,
              0.9612811803817749,
              0.9996498823165894
            ],
            [
              0.5946891903877258,
              0.29911699891090393,
              0.12212276458740234,
              -0.48574113845825195,
              0.7389748096466064,
              0.21240198612213135,
              -0.4920414686203003,
              0.5444589257240295,
              0.33380162715911865,
              0.689091682434082,
              -0.6747018098831177,
              0.6405320167541504
            ],
            [
              -0.35393500328063965,
              0.9246872663497925,
              -0.7868728637695312,
              -0.8228616714477539,
              -0.6719775199890137,
              0.04208292439579964,
              0.08749675750732422,
              -0.8377773761749268,
              0.6049624681472778,
              0.9991863369941711,
              -0.35622096061706543,
              0.9744268655776978
            ]
          ],
          "column": 12,
          "row": 10
        },
        {
          "array": [
            [
              0.45360279083251953,
              0.338570237159729,
              0.9929255247116089,
              0.1758631467819214,
              0.037496089935302734,
              -0.3645751476287842,
              0.4136350154876709,
              0.9985212683677673,
              0.5934869050979614,
              -0.5505083799362183
            ],
            [
              0.9903468489646912,
              0.2584519684314728,
              0.8792046904563904,
              -0.874006986618042,
              -0.18577003479003906,
              -0.9638867378234863,
              0.05422830581665039,
              0.9845453500747681,
              -0.1499091386795044,
              0.9240936040878296
            ],
            [
              0.5777415633201599,
              -0.6715357303619385,
              0.7346183061599731,
              -0.568163275718689,
              -0.2249690294265747,
              0.4212878942489624,
              0.9360413551330566,
              -0.7637104988098145,
              0.0031613954342901707,
              -0.7223718166351318
            ],
            [
              0.30497920513153076,
              -0.7262976169586182,
              -0.562114953994751,
              0.789237380027771,
              -0.38331854343414307,
              0.373213529586792,
              8.987353648990393E-4,
              -0.6374846696853638,
              0.006289276294410229,
              0.001122584450058639
            ],
            [
              -0.4962437152862549,
              0.304426908493042,
              0.996479868888855,
              0.00887548178434372,
              -0.7683779001235962,
              -0.6349968910217285,
              -0.3105156421661377,
              -0.49413931369781494,
              0.9723654985427856,
              0.6126172542572021
            ],
            [
              0.03906893730163574,
              -0.5723859071731567,
              0.13922721147537231,
              0.059864580631256104,
              0.9926536083221436,
              0.7870978116989136,
              0.1068216860294342,
              -0.37048840522766113,
              -0.33069705963134766,
              0.9007498025894165
            ],
            [
              0.4086649417877197,
              0.023204553872346878,
              -0.7109638452529907,
              8.402089006267488E-4,
              0.2510955333709717,
              0.07764256000518799,
              -0.6141459941864014,
              -0.9631915092468262,
              0.3555716276168823,
              -0.25608158111572266
            ]
          ],
          "column": 10,
          "row": 7
        }
      ]
    },
    {
      "biases": [
        {
          "array": [
            [0.8874885439872742],
            [-0.47376513481140137],
            [0.9991869330406189],
            [0.658421516418457],
            [0.9840388894081116],
            [0.9993780851364136],
            [-0.5164186954498291],
            [0.8985223770141602],
            [-0.11822140216827393],
            [-0.81773841381073],
            [-0.7722078561782837],
            [-0.6335934400558472]
          ],
          "column": 1,
          "row": 12
        },
        {
          "array": [
            [0.9988571405410767],
            [0.9995505213737488],
            [0.0847940444946289],
            [0.015053591690957546],
            [0.18190854787826538],
            [0.002499025547876954],
            [0.3635704517364502],
            [-0.3663156032562256],
            [0.005746940616518259],
            [-0.1324307918548584]
          ],
          "column": 1,
          "row": 10
        },
        {
          "array": [
            [-0.7979602813720703],
            [0.1652759462594986],
            [0.7502353191375732],
            [0.9934306144714355],
            [0.7894376516342163],
            [0.3812532424926758],
            [0.07268011569976807]
          ],
          "column": 1,
          "row": 7
        }
      ],
      "weights": [
        {
          "array": [
            [
              0.00369031704030931,
              -0.7639802694320679,
              -0.3333158493041992,
              0.9747852087020874,
              -0.9865577220916748,
              0.9474053382873535,
              0.3177553415298462,
              -0.5985476970672607
            ],
            [
              0.9955322742462158,
              0.9017884731292725,
              -0.1375424861907959,
              -0.15230131149291992,
              -0.9126821756362915,
              -0.7730249166488647,
              0.997011661529541,
              -0.9219081401824951
            ],
            [
              0.80272376537323,
              0.7080808877944946,
              -0.18355870246887207,
              0.4408419132232666,
              0.9957860112190247,
              -0.9634326696395874,
              0.9995612502098083,
              -0.5422431230545044
            ],
            [
              0.46834802627563477,
              0.4504821300506592,
              0.6073338985443115,
              -0.4453617334365845,
              -0.7324773073196411,
              0.7291306257247925,
              -0.0025415420532226562,
              0.9857265949249268
            ],
            [
              0.07469888776540756,
              0.3837372064590454,
              0.9991602897644043,
              0.23213732242584229,
              0.19487571716308594,
              -0.2623666524887085,
              0.8215687274932861,
              0.27337491512298584
            ],
            [
              0.1448407620191574,
              -0.6270989179611206,
              0.8171312808990479,
              -0.3756225109100342,
              0.9432093501091003,
              0.26548337936401367,
              -0.5915652513504028,
              0.6196173429489136
            ],
            [
              0.9358360767364502,
              -0.3844311237335205,
              0.40697646141052246,
              0.005871085915714502,
              0.18311524391174316,
              0.0025077846366912127,
              -0.8316473960876465,
              -0.0887829065322876
            ],
            [
              0.2281414270401001,
              -0.06171715259552002,
              0.046473726630210876,
              -0.6328357458114624,
              0.7751840353012085,
              -0.6944550275802612,
              0.05924415588378906,
              -0.7990328073501587
            ],
            [
              0.6043273210525513,
              -0.43800151348114014,
              -0.7244129180908203,
              -0.8934065103530884,
              0.08860880881547928,
              0.9844875931739807,
              0.9967523813247681,
              0.9976195693016052
            ],
            [
              -0.41695117950439453,
              0.014922380447387695,
              -0.4501093626022339,
              -0.23174285888671875,
              0.4301379919052124,
              0.910507082939148,
              -0.23928678035736084,
              -0.0457305908203125
            ],
            [
              0.07991588115692139,
              -0.8653239011764526,
              0.22007596492767334,
              -0.1402266025543213,
              0.08904977142810822,
              0.08304642140865326,
              0.9831066131591797,
              0.9781935214996338
            ],
            [
              -0.882420539855957,
              0.8708415031433105,
              0.976223349571228,
              0.3332953453063965,
              -0.8216729164123535,
              0.6425299644470215,
              0.03963112831115723,
              0.12543845176696777
            ]
          ],
          "column": 8,
          "row": 12
        },
        {
          "array": [
            [
              0.9387170076370239,
              -0.27584707736968994,
              0.10335803031921387,
              -0.9421758651733398,
              0.929407000541687,
              0.6799901723861694,
              0.2006988823413849,
              -0.42743170261383057,
              0.15720131993293762,
              0.2277998924255371,
              0.7592941522598267,
              0.48327744007110596
            ],
            [
              0.4561429023742676,
              0.2138717770576477,
              -0.7327271699905396,
              0.08418285101652145,
              0.9467582106590271,
              0.5181390047073364,
              0.919303297996521,
              -0.020737290382385254,
              0.7499991655349731,
              0.2853567898273468,
              0.0017764568328857422,
              0.5562155246734619
            ],
            [
              0.9623938798904419,
              0.09063470363616943,
              -0.558856725692749,
              0.10825324058532715,
              0.12419092655181885,
              -0.5943863391876221,
              -0.7155003547668457,
              0.8287246823310852,
              0.4347440004348755,
              0.8980677127838135,
              0.007275530602782965,
              0.9230109453201294
            ],
            [
              0.2353506088256836,
              0.919750988483429,
              -0.16463398933410645,
              -0.596027135848999,
              0.016409726813435555,
              -0.5712876319885254,
              -0.6628632545471191,
              -0.7813262939453125,
              0.017095547169446945,
              0.32647082209587097,
              -0.6532604694366455,
              0.35840457677841187
            ],
            [
              0.002472265623509884,
              0.5799862146377563,
              0.5711708068847656,
              0.11478292942047119,
              -0.9239317178726196,
              0.014850088395178318,
              0.6813558340072632,
              -0.769722580909729,
              -0.9315136671066284,
              0.34472477436065674,
              -0.6481726169586182,
              0.006862711627036333
            ],
            [
              0.7095199823379517,
              0.943289041519165,
              0.8590668439865112,
              -0.4290691614151001,
              0.11570154130458832,
              0.9854331016540527,
              -0.7531447410583496,
              -0.13951289653778076,
              -0.14108729362487793,
              0.8341845273971558,
              0.0289914608001709,
              0.5242804884910583
            ],
            [
              -0.6672624349594116,
              -0.40742671489715576,
              0.9160699844360352,
              0.8985506892204285,
              -0.7645214796066284,
              -0.9236575365066528,
              0.6475706100463867,
              0.04345538094639778,
              -0.6202530860900879,
              0.7061470746994019,
              0.942314863204956,
              -0.9355010986328125
            ],
            [
              -0.36591649055480957,
              0.6698036193847656,
              -0.629682183265686,
              0.9713106155395508,
              0.047920841723680496,
              0.025536656379699707,
              -0.542570948600769,
              0.20063447952270508,
              -0.986312747001648,
              0.7153570652008057,
              0.9612811803817749,
              0.9964859485626221
            ],
            [
              -0.2645251750946045,
              -0.8592280149459839,
              0.04783058911561966,
              -0.48574113845825195,
              0.7389748096466064,
              0.21240198612213135,
              -0.4920414686203003,
              0.5444589257240295,
              0.33380162715911865,
              0.9990284442901611,
              0.01740657165646553,
              0.7632657289505005
            ],
            [
              -0.35393500328063965,
              0.9246872663497925,
              -0.7868728637695312,
              -0.8228616714477539,
              -0.6719775199890137,
              0.04208292439579964,
              0.08749675750732422,
              -0.8377773761749268,
              0.6049624681472778,
              0.9991863369941711,
              -0.35622096061706543,
              0.9744268655776978
            ]
          ],
          "column": 12,
          "row": 10
        },
        {
          "array": [
            [
              0.45360279083251953,
              0.338570237159729,
              0.7737865447998047,
              0.1758631467819214,
              0.037496089935302734,
              -0.3645751476287842,
              0.4136350154876709,
              0.9985212683677673,
              0.5934869050979614,
              0.9720869660377502
            ],
            [
              -0.9358202219009399,
              7.828850066289306E-4,
              0.8792046904563904,
              -0.874006986618042,
              -0.18577003479003906,
              -0.9638867378234863,
              0.05422830581665039,
              0.9845453500747681,
              -0.1499091386795044,
              0.9240936040878296
            ],
            [
              0.5777415633201599,
              -0.6715357303619385,
              0.8016113042831421,
              -0.568163275718689,
              -0.2249690294265747,
              0.4212878942489624,
              0.9360413551330566,
              -0.7637104988098145,
              0.0031613954342901707,
              -0.7223718166351318
            ],
            [
              0.9923789501190186,
              -0.7262976169586182,
              -0.562114953994751,
              0.789237380027771,
              -0.38331854343414307,
              0.373213529586792,
              8.987353648990393E-4,
              -0.6374846696853638,
              0.006289276294410229,
              -0.4279313087463379
            ],
            [
              -0.4962437152862549,
              0.304426908493042,
              0.996479868888855,
              0.9718614816665649,
              -0.7683779001235962,
              -0.6349968910217285,
              0.8439509868621826,
              -0.49413931369781494,
              -0.3805943727493286,
              0.6126172542572021
            ],
            [
              0.03906893730163574,
              -0.5723859071731567,
              -0.0734943151473999,
              0.059864580631256104,
              0.9926536083221436,
              0.7870978116989136,
              -0.48571503162384033,
              -0.37048840522766113,
              -0.33069705963134766,
              0.9007498025894165
            ],
            [
              0.4086649417877197,
              0.023204553872346878,
              -0.7109638452529907,
              8.402089006267488E-4,
              0.2510955333709717,
              0.002134287729859352,
              -0.6141459941864014,
              -0.9631915092468262,
              0.3555716276168823,
              -0.25608158111572266
            ]
          ],
          "column": 10,
          "row": 7
        }
      ]
    },
    {
      "biases": [
        {
          "array": [
            [0.8874885439872742],
            [-0.47376513481140137],
            [0.23582375049591064],
            [0.658421516418457],
            [0.2419590950012207],
            [0.9993780851364136],
            [-0.5164186954498291],
            [0.8985223770141602],
            [-0.11822140216827393],
            [0.8446029424667358],
            [-0.7722078561782837],
            [0.00890444591641426]
          ],
          "column": 1,
          "row": 12
        },
        {
          "array": [
            [0.43851804733276367],
            [0.039736293256282806],
            [0.0847940444946289],
            [0.01155232172459364],
            [0.044474996626377106],
            [-0.3793982267379761],
            [0.3635704517364502],
            [-0.3663156032562256],
            [0.004164630081504583],
            [-0.1324307918548584]
          ],
          "column": 1,
          "row": 10
        },
        {
          "array": [
            [0.0012576322769746184],
            [0.1652759462594986],
            [0.7502353191375732],
            [0.9934306144714355],
            [0.7894376516342163],
            [0.9766985774040222],
            [0.07268011569976807]
          ],
          "column": 1,
          "row": 7
        }
      ],
      "weights": [
        {
          "array": [
            [
              0.590656042098999,
              -0.7639802694320679,
              0.9542604684829712,
              0.9747852087020874,
              0.07182355970144272,
              0.9474053382873535,
              0.3177553415298462,
              -0.5985476970672607
            ],
            [
              -0.35475099086761475,
              0.9017884731292725,
              -0.1375424861907959,
              0.30783137679100037,
              -0.9126821756362915,
              -0.7730249166488647,
              0.07986517995595932,
              -0.9219081401824951
            ],
            [
              0.80272376537323,
              0.7080808877944946,
              0.062374092638492584,
              0.4408419132232666,
              0.9957860112190247,
              -0.9634326696395874,
              0.921093225479126,
              0.9722948670387268
            ],
            [
              0.46834802627563477,
              0.4504821300506592,
              0.6073338985443115,
              -0.4453617334365845,
              0.0055121383629739285,
              0.7291306257247925,
              -0.0025415420532226562,
              0.9857265949249268
            ],
            [
              0.4723855257034302,
              0.3837372064590454,
              0.9860469102859497,
              0.23213732242584229,
              0.19487571716308594,
              -0.2623666524887085,
              0.8215687274932861,
              0.43551379442214966
            ],
            [
              -0.21487033367156982,
              0.6856116652488708,
              0.8171312808990479,
              -0.3756225109100342,
              0.9776290059089661,
              0.26548337936401367,
              0.0689869225025177,
              0.6196173429489136
            ],
            [
              0.9358360767364502,
              -0.3844311237335205,
              0.40697646141052246,
              0.992775559425354,
              0.18311524391174316,
              0.34400731325149536,
              -0.8316473960876465,
              -0.0887829065322876
            ],
            [
              0.2281414270401001,
              -0.06171715259552002,
              0.046473726630210876,
              -0.6328357458114624,
              0.7751840353012085,
              -0.6944550275802612,
              0.05924415588378906,
              -0.7990328073501587
            ],
            [
              0.45230793952941895,
              -0.43800151348114014,
              -0.7244129180908203,
              -0.8934065103530884,
              0.08860880881547928,
              0.9720444083213806,
              0.9993501305580139,
              0.9976195693016052
            ],
            [
              -0.41695117950439453,
              0.014922380447387695,
              -0.4501093626022339,
              0.9974279999732971,
              0.4301379919052124,
              0.6287874579429626,
              -0.23928678035736084,
              -0.0457305908203125
            ],
            [
              0.07015601545572281,
              -0.8653239011764526,
              0.22007596492767334,
              0.0027008256874978542,
              0.5870792865753174,
              0.08304642140865326,
              0.9831066131591797,
              0.9781935214996338
            ],
            [
              -0.882420539855957,
              0.8708415031433105,
              0.976223349571228,
              0.3332953453063965,
              -0.8216729164123535,
              0.6425299644470215,
              0.03963112831115723,
              0.12543845176696777
            ]
          ],
          "column": 8,
          "row": 12
        },
        {
          "array": [
            [
              0.9387170076370239,
              -0.27584707736968994,
              0.10335803031921387,
              -0.9421758651733398,
              0.929407000541687,
              0.6799901723861694,
              0.2006988823413849,
              -0.42743170261383057,
              0.15720131993293762,
              0.2277998924255371,
              0.7592941522598267,
              0.48327744007110596
            ],
            [
              0.4561429023742676,
              0.2138717770576477,
              -0.7327271699905396,
              0.9388680458068848,
              -0.354783296585083,
              0.05710630118846893,
              0.919303297996521,
              -0.020737290382385254,
              0.7499991655349731,
              0.002726189326494932,
              0.0017764568328857422,
              0.5562155246734619
            ],
            [
              0.9623938798904419,
              0.09063470363616943,
              -0.558856725692749,
              0.10825324058532715,
              0.12419092655181885,
              -0.5943863391876221,
              -0.7155003547668457,
              0.8287246823310852,
              0.4347440004348755,
              0.8980677127838135,
              0.9930618405342102,
              0.9230109453201294
            ],
            [
              0.2353506088256836,
              0.9983413219451904,
              -0.16463398933410645,
              -0.596027135848999,
              -0.5423614978790283,
              -0.5712876319885254,
              -0.6628632545471191,
              -0.7813262939453125,
              0.017095547169446945,
              0.32647082209587097,
              0.0018580651376396418,
              0.35840457677841187
            ],
            [
              0.002472265623509884,
              0.5799862146377563,
              0.5711708068847656,
              0.11478292942047119,
              -0.9239317178726196,
              0.014850088395178318,
              0.6813558340072632,
              -0.769722580909729,
              -0.9315136671066284,
              0.968183696269989,
              -0.6481726169586182,
              0.002270978642627597
            ],
            [
              0.013317495584487915,
              0.943289041519165,
              0.8590668439865112,
              -0.4290691614151001,
              0.11570154130458832,
              0.0077426680363714695,
              -0.7531447410583496,
              0.8799146413803101,
              -0.14108729362487793,
              0.8341845273971558,
              0.43177706003189087,
              0.001746480935253203
            ],
            [
              0.018416058272123337,
              0.020142195746302605,
              0.868988573551178,
              0.8985506892204285,
              -0.7645214796066284,
              -0.9236575365066528,
              0.6475706100463867,
              0.04718280956149101,
              -0.6202530860900879,
              0.008237998932600021,
              0.942314863204956,
              -0.9355010986328125
            ],
            [
              -0.36591649055480957,
              0.6698036193847656,
              -0.629682183265686,
              0.783159613609314,
              0.047920841723680496,
              0.025536656379699707,
              -0.542570948600769,
              0.20063447952270508,
              -0.986312747001648,
              0.7153570652008057,
              0.11837932467460632,
              0.9964859485626221
            ],
            [
              -0.2645251750946045,
              -0.8592280149459839,
              0.12212276458740234,
              -0.48574113845825195,
              0.7389748096466064,
              0.9827632904052734,
              -0.4920414686203003,
              0.5444589257240295,
              0.33380162715911865,
              0.689091682434082,
              -0.6747018098831177,
              0.7632657289505005
            ],
            [
              -0.35393500328063965,
              0.9246872663497925,
              -0.7868728637695312,
              -0.8228616714477539,
              -0.6719775199890137,
              0.04208292439579964,
              0.08749675750732422,
              -0.8377773761749268,
              0.6049624681472778,
              0.9991863369941711,
              0.9097059965133667,
              0.9744268655776978
            ]
          ],
          "column": 12,
          "row": 10
        },
        {
          "array": [
            [
              0.19933836162090302,
              0.338570237159729,
              0.7737865447998047,
              0.1758631467819214,
              0.037496089935302734,
              -0.3645751476287842,
              0.042219165712594986,
              0.9985212683677673,
              0.5934869050979614,
              0.10591807216405869
            ],
            [
              -0.9358202219009399,
              7.828850066289306E-4,
              0.9995545744895935,
              0.013317137956619263,
              -0.18577003479003906,
              0.1377342790365219,
              0.05422830581665039,
              0.9845453500747681,
              -0.1499091386795044,
              0.002896044170483947
            ],
            [
              0.5777415633201599,
              -0.6715357303619385,
              0.8260771036148071,
              -0.568163275718689,
              -0.2249690294265747,
              0.0606965571641922,
              0.9360413551330566,
              -0.7637104988098145,
              0.0031613954342901707,
              -0.7223718166351318
            ],
            [
              0.30497920513153076,
              -0.7262976169586182,
              -0.562114953994751,
              0.789237380027771,
              -0.38331854343414307,
              0.8526729345321655,
              8.987353648990393E-4,
              -0.6374846696853638,
              0.006289276294410229,
              -0.4279313087463379
            ],
            [
              0.7523699998855591,
              0.304426908493042,
              0.996479868888855,
              0.6259515285491943,
              -0.7683779001235962,
              -0.6349968910217285,
              -0.3105156421661377,
              -0.49413931369781494,
              -0.3805943727493286,
              0.6126172542572021
            ],
            [
              0.03906893730163574,
              -0.5723859071731567,
              -0.0734943151473999,
              0.059864580631256104,
              0.7876492738723755,
              0.15487201511859894,
              -0.48571503162384033,
              -0.37048840522766113,
              -0.33069705963134766,
              0.9007498025894165
            ],
            [
              0.4086649417877197,
              0.023204553872346878,
              -0.7109638452529907,
              8.402089006267488E-4,
              0.022247623652219772,
              0.5151302218437195,
              -0.6141459941864014,
              -0.9631915092468262,
              0.3555716276168823,
              -0.25608158111572266
            ]
          ],
          "column": 10,
          "row": 7
        }
      ]
    },
    {
      "biases": [
        {
          "array": [
            [0.8874885439872742],
            [-0.47376513481140137],
            [0.23582375049591064],
            [0.658421516418457],
            [0.2419590950012207],
            [0.9993780851364136],
            [-0.5164186954498291],
            [0.8985223770141602],
            [-0.11822140216827393],
            [-0.81773841381073],
            [-0.7722078561782837],
            [-0.6335934400558472]
          ],
          "column": 1,
          "row": 12
        },
        {
          "array": [
            [0.43851804733276367],
            [0.8787004947662354],
            [0.0847940444946289],
            [0.015053591690957546],
            [0.044474996626377106],
            [-0.3793982267379761],
            [0.3635704517364502],
            [-0.3663156032562256],
            [0.004164630081504583],
            [0.2330690175294876]
          ],
          "column": 1,
          "row": 10
        },
        {
          "array": [
            [-0.7979602813720703],
            [0.1652759462594986],
            [0.7502353191375732],
            [0.9934306144714355],
            [0.7894376516342163],
            [0.0015703749377280474],
            [0.07268011569976807]
          ],
          "column": 1,
          "row": 7
        }
      ],
      "weights": [
        {
          "array": [
            [
              0.590656042098999,
              -0.7639802694320679,
              -0.3333158493041992,
              0.9747852087020874,
              -0.9865577220916748,
              0.9474053382873535,
              0.3177553415298462,
              -0.5985476970672607
            ],
            [
              -0.35475099086761475,
              0.9017884731292725,
              -0.1375424861907959,
              -0.15230131149291992,
              -0.9126821756362915,
              -0.7730249166488647,
              0.997011661529541,
              -0.9219081401824951
            ],
            [
              0.80272376537323,
              0.7080808877944946,
              -0.18355870246887207,
              0.4408419132232666,
              0.9957860112190247,
              3.848957712762058E-4,
              0.921093225479126,
              -0.5422431230545044
            ],
            [
              0.46834802627563477,
              0.4504821300506592,
              0.6073338985443115,
              -0.4453617334365845,
              -0.7324773073196411,
              0.7291306257247925,
              -0.0025415420532226562,
              0.9857265949249268
            ],
            [
              0.4723855257034302,
              0.3837372064590454,
              0.9860469102859497,
              0.23213732242584229,
              0.19487571716308594,
              -0.2623666524887085,
              0.8215687274932861,
              0.27337491512298584
            ],
            [
              -0.21487033367156982,
              -0.6270989179611206,
              0.8171312808990479,
              -0.3756225109100342,
              0.6796736121177673,
              0.26548337936401367,
              -0.5915652513504028,
              0.6196173429489136
            ],
            [
              0.9358360767364502,
              -0.3844311237335205,
              0.8674934506416321,
              0.005871085915714502,
              0.18311524391174316,
              0.04524369165301323,
              -0.8316473960876465,
              -0.0887829065322876
            ],
            [
              0.2281414270401001,
              -0.06171715259552002,
              0.046473726630210876,
              0.06578316539525986,
              0.028326265513896942,
              -0.6944550275802612,
              0.05924415588378906,
              -0.7990328073501587
            ],
            [
              0.6043273210525513,
              -0.43800151348114014,
              -0.7244129180908203,
              -0.8934065103530884,
              0.08860880881547928,
              0.9844875931739807,
              0.9967523813247681,
              0.9976195693016052
            ],
            [
              -0.41695117950439453,
              0.014922380447387695,
              -0.4501093626022339,
              -0.23174285888671875,
              0.4301379919052124,
              0.910507082939148,
              0.750632107257843,
              -0.0457305908203125
            ],
            [
              0.0960029736161232,
              -0.8653239011764526,
              0.22007596492767334,
              -0.1402266025543213,
              0.5870792865753174,
              0.08304642140865326,
              0.9831066131591797,
              0.9781935214996338
            ],
            [
              -0.882420539855957,
              0.8708415031433105,
              0.976223349571228,
              0.3332953453063965,
              -0.8216729164123535,
              0.6425299644470215,
              0.03963112831115723,
              0.12543845176696777
            ]
          ],
          "column": 8,
          "row": 12
        },
        {
          "array": [
            [
              0.9387170076370239,
              0.9973331689834595,
              0.10335803031921387,
              -0.9421758651733398,
              0.9991782307624817,
              0.6799901723861694,
              0.2006988823413849,
              -0.42743170261383057,
              0.15720131993293762,
              0.2277998924255371,
              0.7592941522598267,
              0.48327744007110596
            ],
            [
              0.4561429023742676,
              0.2138717770576477,
              0.9832445383071899,
              0.9388680458068848,
              -0.354783296585083,
              0.5181390047073364,
              0.08879482746124268,
              -0.020737290382385254,
              0.7499991655349731,
              -0.20579290390014648,
              0.0017764568328857422,
              0.5562155246734619
            ],
            [
              0.9623938798904419,
              0.09063470363616943,
              -0.558856725692749,
              0.10825324058532715,
              0.12419092655181885,
              -0.5943863391876221,
              -0.7155003547668457,
              0.8287246823310852,
              0.4347440004348755,
              0.8980677127838135,
              0.007275530602782965,
              0.9230109453201294
            ],
            [
              0.2353506088256836,
              0.919750988483429,
              -0.16463398933410645,
              -0.596027135848999,
              0.038882434368133545,
              -0.5712876319885254,
              -0.6628632545471191,
              0.0077890148386359215,
              0.017095547169446945,
              0.32647082209587097,
              -0.6532604694366455,
              0.7464276552200317
            ],
            [
              0.002472265623509884,
              0.5799862146377563,
              0.5711708068847656,
              0.11478292942047119,
              -0.9239317178726196,
              0.014850088395178318,
              0.6813558340072632,
              -0.769722580909729,
              -0.9315136671066284,
              0.34472477436065674,
              -0.6481726169586182,
              0.006862711627036333
            ],
            [
              0.7095199823379517,
              0.943289041519165,
              0.8590668439865112,
              -0.4290691614151001,
              0.11570154130458832,
              0.5277788639068604,
              -0.7531447410583496,
              -0.13951289653778076,
              -0.14108729362487793,
              0.8341845273971558,
              0.0289914608001709,
              0.011681095696985722
            ],
            [
              -0.6672624349594116,
              -0.40742671489715576,
              0.9160699844360352,
              0.9629414081573486,
              -0.7645214796066284,
              -0.9236575365066528,
              0.6475706100463867,
              -0.41318953037261963,
              -0.6202530860900879,
              0.031815968453884125,
              0.942314863204956,
              -0.9355010986328125
            ],
            [
              0.006719754543155432,
              0.6698036193847656,
              -0.629682183265686,
              0.9713106155395508,
              0.047920841723680496,
              0.025536656379699707,
              -0.542570948600769,
              0.20063447952270508,
              -0.986312747001648,
              0.7153570652008057,
              0.9612811803817749,
              0.9964859485626221
            ],
            [
              -0.2645251750946045,
              -0.8592280149459839,
              0.12212276458740234,
              -0.48574113845825195,
              0.7389748096466064,
              0.21240198612213135,
              -0.4920414686203003,
              0.5444589257240295,
              0.33380162715911865,
              0.689091682434082,
              -0.6747018098831177,
              0.7632657289505005
            ],
            [
              -0.35393500328063965,
              0.9246872663497925,
              -0.7868728637695312,
              -0.8228616714477539,
              -0.6719775199890137,
              0.04208292439579964,
              0.08749675750732422,
              -0.8377773761749268,
              0.6049624681472778,
              0.9991863369941711,
              -0.35622096061706543,
              0.9744268655776978
            ]
          ],
          "column": 12,
          "row": 10
        },
        {
          "array": [
            [
              0.45360279083251953,
              0.338570237159729,
              0.7737865447998047,
              0.1758631467819214,
              0.037496089935302734,
              0.987470805644989,
              0.4136350154876709,
              0.9985212683677673,
              0.5934869050979614,
              -0.5505083799362183
            ],
            [
              -0.9358202219009399,
              7.828850066289306E-4,
              0.8792046904563904,
              -0.874006986618042,
              -0.18577003479003906,
              -0.9638867378234863,
              0.05422830581665039,
              0.9845453500747681,
              -0.1499091386795044,
              0.9240936040878296
            ],
            [
              0.5777415633201599,
              -0.6715357303619385,
              0.8260771036148071,
              -0.568163275718689,
              -0.2249690294265747,
              0.4212878942489624,
              0.9360413551330566,
              -0.7637104988098145,
              0.0031613954342901707,
              -0.7223718166351318
            ],
            [
              0.30497920513153076,
              -0.7262976169586182,
              -0.562114953994751,
              0.789237380027771,
              -0.38331854343414307,
              0.373213529586792,
              0.9092746376991272,
              -0.6374846696853638,
              0.006289276294410229,
              0.9713736772537231
            ],
            [
              -0.4962437152862549,
              0.304426908493042,
              0.996479868888855,
              0.6259515285491943,
              -0.7683779001235962,
              -0.6349968910217285,
              -0.3105156421661377,
              -0.49413931369781494,
              0.022510847076773643,
              0.6126172542572021
            ],
            [
              0.03906893730163574,
              -0.5723859071731567,
              -0.0734943151473999,
              0.059864580631256104,
              0.8381843566894531,
              0.9899477958679199,
              -0.48571503162384033,
              -0.37048840522766113,
              -0.33069705963134766,
              0.9007498025894165
            ],
            [
              0.993715226650238,
              0.023204553872346878,
              -0.7109638452529907,
              8.402089006267488E-4,
              0.2510955333709717,
              0.07764256000518799,
              0.9777370095252991,
              -0.9631915092468262,
              0.3555716276168823,
              -0.25608158111572266
            ]
          ],
          "column": 10,
          "row": 7
        }
      ]
    },
    {
      "biases": [
        {
          "array": [
            [0.8874885439872742],
            [-0.47376513481140137],
            [0.23582375049591064],
            [0.658421516418457],
            [0.2419590950012207],
            [0.9993780851364136],
            [-0.5164186954498291],
            [0.8985223770141602],
            [0.9546189308166504],
            [-0.81773841381073],
            [-0.7722078561782837],
            [-0.6335934400558472]
          ],
          "column": 1,
          "row": 12
        },
        {
          "array": [
            [0.43851804733276367],
            [0.8787004947662354],
            [0.0847940444946289],
            [0.015053591690957546],
            [0.044474996626377106],
            [-0.3793982267379761],
            [0.3635704517364502],
            [-0.3663156032562256],
            [0.004164630081504583],
            [-0.1324307918548584]
          ],
          "column": 1,
          "row": 10
        },
        {
          "array": [
            [-0.7979602813720703],
            [0.037160441279411316],
            [0.7502353191375732],
            [0.9934306144714355],
            [0.7894376516342163],
            [0.3812532424926758],
            [0.07268011569976807]
          ],
          "column": 1,
          "row": 7
        }
      ],
      "weights": [
        {
          "array": [
            [
              0.590656042098999,
              0.992621660232544,
              0.0026942319236695766,
              0.9747852087020874,
              -0.9865577220916748,
              0.9474053382873535,
              0.3177553415298462,
              -0.5985476970672607
            ],
            [
              -0.35475099086761475,
              0.9017884731292725,
              -0.1375424861907959,
              -0.15230131149291992,
              -0.9126821756362915,
              0.711348831653595,
              0.997011661529541,
              -0.9219081401824951
            ],
            [
              0.80272376537323,
              0.7080808877944946,
              -0.18355870246887207,
              0.4408419132232666,
              0.9957860112190247,
              -0.9634326696395874,
              0.921093225479126,
              -0.5422431230545044
            ],
            [
              0.46834802627563477,
              0.4504821300506592,
              0.6073338985443115,
              -0.4453617334365845,
              -0.7324773073196411,
              0.7291306257247925,
              0.0025006833020597696,
              0.9857265949249268
            ],
            [
              0.4723855257034302,
              0.3837372064590454,
              0.9860469102859497,
              0.23213732242584229,
              0.19487571716308594,
              -0.2623666524887085,
              0.8215687274932861,
              0.27337491512298584
            ],
            [
              -0.21487033367156982,
              -0.6270989179611206,
              0.8171312808990479,
              -0.3756225109100342,
              0.9432093501091003,
              0.00379934161901474,
              -0.5915652513504028,
              0.6196173429489136
            ],
            [
              0.9358360767364502,
              -0.3844311237335205,
              0.40697646141052246,
              0.005871085915714502,
              0.9325056076049805,
              0.0025077846366912127,
              -0.8316473960876465,
              -0.0887829065322876
            ],
            [
              0.2281414270401001,
              -0.06171715259552002,
              0.046473726630210876,
              0.9980788230895996,
              0.7751840353012085,
              -0.6944550275802612,
              0.05924415588378906,
              -0.7990328073501587
            ],
            [
              0.6043273210525513,
              -0.43800151348114014,
              -0.7244129180908203,
              -0.8934065103530884,
              0.08860880881547928,
              0.9989151954650879,
              0.9967523813247681,
              0.9976195693016052
            ],
            [
              -0.41695117950439453,
              0.014922380447387695,
              -0.4501093626022339,
              -0.23174285888671875,
              0.4301379919052124,
              0.910507082939148,
              -0.23928678035736084,
              -0.0457305908203125
            ],
            [
              0.07991588115692139,
              -0.8653239011764526,
              0.22007596492767334,
              -0.1402266025543213,
              0.5870792865753174,
              0.08304642140865326,
              0.9831066131591797,
              0.9781935214996338
            ],
            [
              -0.882420539855957,
              0.8708415031433105,
              0.976223349571228,
              0.3332953453063965,
              0.5928754806518555,
              0.6425299644470215,
              0.013765671290457249,
              0.12543845176696777
            ]
          ],
          "column": 8,
          "row": 12
        },
        {
          "array": [
            [
              0.9387170076370239,
              -0.27584707736968994,
              0.10335803031921387,
              -0.9421758651733398,
              0.929407000541687,
              0.6799901723861694,
              0.2006988823413849,
              -0.42743170261383057,
              0.9981483221054077,
              0.2277998924255371,
              0.7592941522598267,
              0.48327744007110596
            ],
            [
              0.4561429023742676,
              0.2138717770576477,
              -0.7327271699905396,
              0.9388680458068848,
              -0.354783296585083,
              0.9539281725883484,
              0.919303297996521,
              0.0015563834458589554,
              0.7499991655349731,
              -0.20579290390014648,
              0.0017764568328857422,
              0.5562155246734619
            ],
            [
              0.9623938798904419,
              0.09063470363616943,
              -0.558856725692749,
              0.10825324058532715,
              0.12419092655181885,
              -0.5943863391876221,
              -0.7155003547668457,
              0.8287246823310852,
              0.4347440004348755,
              0.8980677127838135,
              0.007275530602782965,
              0.9230109453201294
            ],
            [
              0.2353506088256836,
              0.919750988483429,
              -0.16463398933410645,
              -0.596027135848999,
              -0.5423614978790283,
              -0.5712876319885254,
              -0.6628632545471191,
              -0.7813262939453125,
              0.017095547169446945,
              0.32647082209587097,
              -0.6532604694366455,
              0.35840457677841187
            ],
            [
              0.002472265623509884,
              0.5799862146377563,
              0.5711708068847656,
              0.11478292942047119,
              -0.9239317178726196,
              0.014850088395178318,
              0.9988538026809692,
              -0.769722580909729,
              -0.9315136671066284,
              0.34472477436065674,
              -0.6481726169586182,
              0.006862711627036333
            ],
            [
              0.7095199823379517,
              0.943289041519165,
              0.8590668439865112,
              -0.4290691614151001,
              0.11570154130458832,
              0.9854331016540527,
              0.996895432472229,
              -0.13951289653778076,
              -0.14108729362487793,
              0.8341845273971558,
              0.0289914608001709,
              0.5242804884910583
            ],
            [
              -0.6672624349594116,
              -0.40742671489715576,
              0.9160699844360352,
              0.8985506892204285,
              -0.7645214796066284,
              -0.9236575365066528,
              0.6475706100463867,
              0.1552000790834427,
              -0.6202530860900879,
              0.7061470746994019,
              0.4049615263938904,
              0.808476448059082
            ],
            [
              -0.36591649055480957,
              0.4009529650211334,
              -0.629682183265686,
              0.9713106155395508,
              0.047920841723680496,
              0.025536656379699707,
              -0.542570948600769,
              0.20063447952270508,
              -0.986312747001648,
              0.7153570652008057,
              0.9612811803817749,
              0.9964859485626221
            ],
            [
              0.9972496628761292,
              -0.8592280149459839,
              0.12212276458740234,
              -0.48574113845825195,
              0.7389748096466064,
              0.21240198612213135,
              -0.4920414686203003,
              0.5444589257240295,
              0.33380162715911865,
              0.689091682434082,
              -0.6747018098831177,
              0.7632657289505005
            ],
            [
              -0.35393500328063965,
              0.9246872663497925,
              -0.7868728637695312,
              -0.8228616714477539,
              -0.6719775199890137,
              0.04208292439579964,
              0.08749675750732422,
              0.9950597882270813,
              0.6049624681472778,
              0.9991863369941711,
              -0.35622096061706543,
              0.9744268655776978
            ]
          ],
          "column": 12,
          "row": 10
        },
        {
          "array": [
            [
              0.45360279083251953,
              0.338570237159729,
              0.7737865447998047,
              0.1758631467819214,
              0.037496089935302734,
              -0.3645751476287842,
              0.4136350154876709,
              0.9985212683677673,
              0.5934869050979614,
              -0.5505083799362183
            ],
            [
              -0.9358202219009399,
              7.828850066289306E-4,
              0.9846662282943726,
              0.9965752959251404,
              -0.18577003479003906,
              -0.9638867378234863,
              0.05422830581665039,
              0.9845453500747681,
              -0.1499091386795044,
              0.9240936040878296
            ],
            [
              0.5777415633201599,
              -0.6715357303619385,
              0.8260771036148071,
              -0.568163275718689,
              -0.2249690294265747,
              0.4212878942489624,
              0.9360413551330566,
              -0.7637104988098145,
              0.0031613954342901707,
              -0.7223718166351318
            ],
            [
              0.30497920513153076,
              -0.7262976169586182,
              -0.562114953994751,
              0.789237380027771,
              -0.38331854343414307,
              0.6400094628334045,
              8.987353648990393E-4,
              0.9551600217819214,
              0.9629613757133484,
              6.252334569580853E-4
            ],
            [
              0.598895788192749,
              0.304426908493042,
              0.996479868888855,
              0.6259515285491943,
              -0.7683779001235962,
              -0.6349968910217285,
              -0.3105156421661377,
              -0.49413931369781494,
              -0.3805943727493286,
              0.6126172542572021
            ],
            [
              0.03906893730163574,
              -0.5723859071731567,
              -0.0734943151473999,
              0.059864580631256104,
              0.9926536083221436,
              0.7870978116989136,
              -0.48571503162384033,
              0.9890996813774109,
              -0.33069705963134766,
              0.9007498025894165
            ],
            [
              0.4086649417877197,
              0.023204553872346878,
              -0.7109638452529907,
              8.402089006267488E-4,
              0.2510955333709717,
              0.07764256000518799,
              -0.6141459941864014,
              -0.9631915092468262,
              0.3555716276168823,
              -0.25608158111572266
            ]
          ],
          "column": 10,
          "row": 7
        }
      ]
    },
    {
      "biases": [
        {
          "array": [
            [0.8874885439872742],
            [-0.47376513481140137],
            [0.6009005904197693],
            [0.04511532187461853],
            [0.2419590950012207],
            [0.9993780851364136],
            [-0.5164186954498291],
            [0.8985223770141602],
            [-0.11822140216827393],
            [-0.81773841381073],
            [-0.7722078561782837],
            [-0.6335934400558472]
          ],
          "column": 1,
          "row": 12
        },
        {
          "array": [
            [0.43851804733276367],
            [0.8787004947662354],
            [0.0847940444946289],
            [0.015053591690957546],
            [0.044474996626377106],
            [-0.3793982267379761],
            [0.3635704517364502],
            [-0.3663156032562256],
