{
  "generation": 37,
  "brains": [
    {
      "biases": [
        {
          "array": [
            [0.9778012633323669],
            [-0.5782440900802612],
            [0.5642160177230835],
            [0.9991390705108643],
            [-0.9247870445251465],
            [0.09578725695610046]
          ],
          "column": 1,
          "row": 6
        },
        {
          "array": [
            [0.7798947095870972],
            [0.91590416431427],
            [0.001755300210788846],
            [-0.6213611364364624],
            [-0.015660524368286133],
            [0.9922101497650146]
          ],
          "column": 1,
          "row": 6
        }
      ],
      "weights": [
        {
          "array": [
            [
              0.6936009526252747,
              0.5450043678283691,
              0.5408167839050293,
              0.9128891825675964
            ],
            [
              -0.9941765069961548,
              0.10529352724552155,
              -0.4264853000640869,
              -0.9462758302688599
            ],
            [
              -0.8697290420532227,
              -0.7178912162780762,
              0.7896777391433716,
              0.9142706394195557
            ],
            [
              0.6868665218353271,
              -0.18347501754760742,
              -0.7211143970489502,
              -0.801929235458374
            ],
            [
              -0.5010530948638916,
              -0.9059876203536987,
              -0.17414116859436035,
              0.3165284991264343
            ],
            [
              0.40932416915893555,
              -0.9187881946563721,
              0.9206021428108215,
              0.5903820991516113
            ]
          ],
          "column": 4,
          "row": 6
        },
        {
          "array": [
            [
              0.9731636047363281,
              0.364549458026886,
              0.8628053665161133,
              0.11360979080200195,
              -0.7327533960342407,
              0.0012039594585075974
            ],
            [
              0.40641605854034424,
              -0.6012983322143555,
              0.08330881595611572,
              -0.08558535575866699,
              0.006012916564941406,
              0.032479580491781235
            ],
            [
              0.022320201620459557,
              0.33264899253845215,
              0.048439133912324905,
              0.695580005645752,
              0.3212447166442871,
              -0.9806281328201294
            ],
            [
              0.8540290594100952,
              0.05141264945268631,
              0.06516373157501221,
              9.297768701799214E-4,
              0.4894437789916992,
              0.285919189453125
            ],
            [
              0.4506590962409973,
              -0.9808677434921265,
              0.5417494773864746,
              0.33376598358154297,
              0.11623253673315048,
              -0.4871731996536255
            ],
            [
              -0.6474093198776245,
              -0.5114085674285889,
              0.22345781326293945,
              0.4680020809173584,
              0.5593030452728271,
              -0.6568359136581421
            ]
          ],
          "column": 6,
          "row": 6
        }
      ]
    },
    {
      "biases": [
        {
          "array": [
            [0.9778012633323669],
            [-0.5782440900802612],
            [0.5642160177230835],
            [0.9991390705108643],
            [-0.9247870445251465],
            [0.09578725695610046]
          ],
          "column": 1,
          "row": 6
        },
        {
          "array": [
            [0.7798947095870972],
            [0.91590416431427],
            [0.001755300210788846],
            [-0.6213611364364624],
            [-0.015660524368286133],
            [0.9529407024383545]
          ],
          "column": 1,
          "row": 6
        }
      ],
      "weights": [
        {
          "array": [
            [
              0.6936009526252747,
              0.5450043678283691,
              0.5408167839050293,
              0.9128891825675964
            ],
            [
              -0.9941765069961548,
              0.10529352724552155,
              -0.4264853000640869,
              -0.9462758302688599
            ],
            [
              -0.8697290420532227,
              -0.7178912162780762,
              0.7896777391433716,
              0.9142706394195557
            ],
            [
              0.6868665218353271,
              -0.18347501754760742,
              -0.7211143970489502,
              -0.801929235458374
            ],
            [
              -0.5010530948638916,
              -0.9059876203536987,
              -0.17414116859436035,
              0.3165284991264343
            ],
            [
              0.40932416915893555,
              -0.9187881946563721,
              0.9206021428108215,
              0.5903820991516113
            ]
          ],
          "column": 4,
          "row": 6
        },
        {
          "array": [
            [
              0.9731636047363281,
              0.364549458026886,
              0.8628053665161133,
              0.11360979080200195,
              -0.7327533960342407,
              0.0012039594585075974
            ],
            [
              0.40641605854034424,
              7.172705954872072E-4,
              0.08330881595611572,
              -0.08558535575866699,
              0.006012916564941406,
              0.032479580491781235
            ],
            [
              0.022320201620459557,
              0.33264899253845215,
              0.048439133912324905,
              0.695580005645752,
              0.3212447166442871,
              -0.9806281328201294
            ],
            [
              0.8540290594100952,
              0.05141264945268631,
              0.06516373157501221,
              9.297768701799214E-4,
              0.4894437789916992,
              0.285919189453125
            ],
            [
              0.4506590962409973,
              -0.9808677434921265,
              0.5417494773864746,
              0.33376598358154297,
              0.11623253673315048,
              -0.4871731996536255
            ],
            [
              -0.6474093198776245,
              -0.5114085674285889,
              0.22345781326293945,
              0.4680020809173584,
              0.5593030452728271,
              -0.6568359136581421
            ]
          ],
          "column": 6,
          "row": 6
        }
      ]
    },
    {
      "biases": [
        {
          "array": [
            [0.9778012633323669],
            [-0.5782440900802612],
            [0.5642160177230835],
            [0.9991390705108643],
            [-0.9247870445251465],
            [0.09578725695610046]
          ],
          "column": 1,
          "row": 6
        },
        {
          "array": [
            [0.7798947095870972],
            [0.91590416431427],
            [0.001755300210788846],
            [0.9969534873962402],
            [-0.015660524368286133],
            [0.9529407024383545]
          ],
          "column": 1,
          "row": 6
        }
      ],
      "weights": [
        {
          "array": [
            [
              0.6936009526252747,
              0.5450043678283691,
              0.5408167839050293,
              0.9128891825675964
            ],
            [
              -0.9941765069961548,
              0.10529352724552155,
              -0.4264853000640869,
              -0.9462758302688599
            ],
            [
              -0.8697290420532227,
              -0.7178912162780762,
              0.7896777391433716,
              0.9142706394195557
            ],
            [
              0.6868665218353271,
              -0.18347501754760742,
              -0.7211143970489502,
              -0.801929235458374
            ],
            [
              -0.5010530948638916,
              -0.9059876203536987,
              -0.17414116859436035,
              0.3165284991264343
            ],
            [
              0.40932416915893555,
              0.002756156725808978,
              0.9206021428108215,
              0.5903820991516113
            ]
          ],
          "column": 4,
          "row": 6
        },
        {
          "array": [
            [
              0.9731636047363281,
              0.364549458026886,
              0.8628053665161133,
              0.11360979080200195,
              -0.7327533960342407,
              0.0012039594585075974
            ],
            [
              0.40641605854034424,
              -0.6012983322143555,
              0.08330881595611572,
              -0.08558535575866699,
              0.006012916564941406,
              0.032479580491781235
            ],
            [
              0.022320201620459557,
              0.33264899253845215,
              0.048439133912324905,
              0.695580005645752,
              0.3212447166442871,
              -0.9806281328201294
            ],
            [
              0.8540290594100952,
              0.05141264945268631,
              0.06516373157501221,
              9.297768701799214E-4,
              0.4894437789916992,
              0.285919189453125
            ],
            [
              0.4506590962409973,
              -0.9808677434921265,
              0.5417494773864746,
              0.33376598358154297,
              0.11623253673315048,
              -0.4871731996536255
            ],
            [
              -0.6474093198776245,
              -0.5114085674285889,
              0.22345781326293945,
              0.0070122405886650085,
              0.5593030452728271,
              0.4250379204750061
            ]
          ],
          "column": 6,
          "row": 6
        }
      ]
    },
    {
      "biases": [
        {
          "array": [
            [0.9778012633323669],
            [-0.5782440900802612],
            [0.5642160177230835],
            [0.9991390705108643],
            [-0.9247870445251465],
            [0.09578725695610046]
          ],
          "column": 1,
          "row": 6
        },
        {
          "array": [
            [0.7798947095870972],
            [0.91590416431427],
            [0.001755300210788846],
            [-0.6213611364364624],
            [-0.015660524368286133],
            [0.9529407024383545]
          ],
          "column": 1,
          "row": 6
        }
      ],
      "weights": [
        {
          "array": [
            [
              0.6936009526252747,
              0.5450043678283691,
              0.5408167839050293,
              0.9128891825675964
            ],
            [
              -0.9941765069961548,
              0.10529352724552155,
              -0.4264853000640869,
              -0.9462758302688599
            ],
            [
              -0.8697290420532227,
              -0.7178912162780762,
              0.7896777391433716,
              0.9142706394195557
            ],
            [
              0.6868665218353271,
              -0.18347501754760742,
              -0.7211143970489502,
              -0.801929235458374
            ],
            [
              -0.5010530948638916,
              -0.9059876203536987,
              -0.17414116859436035,
              0.3165284991264343
            ],
            [
              0.40932416915893555,
              -0.9187881946563721,
              0.9206021428108215,
              0.5903820991516113
            ]
          ],
          "column": 4,
          "row": 6
        },
        {
          "array": [
            [
              0.9731636047363281,
              0.364549458026886,
              0.9150598645210266,
              0.11360979080200195,
              -0.7327533960342407,
              0.0012039594585075974
            ],
            [
              0.40641605854034424,
              -0.6012983322143555,
              0.08330881595611572,
              -0.08558535575866699,
              0.006012916564941406,
              0.032479580491781235
            ],
            [
              0.022320201620459557,
              0.33264899253845215,
              0.048439133912324905,
              0.695580005645752,
              0.3212447166442871,
              -0.9806281328201294
            ],
            [
              0.8540290594100952,
              0.05141264945268631,
              0.06516373157501221,
              9.297768701799214E-4,
              0.9969876408576965,
              0.285919189453125
            ],
            [
              0.4506590962409973,
              -0.9808677434921265,
              0.5417494773864746,
              0.33376598358154297,
              0.11623253673315048,
              -0.4871731996536255
            ],
            [
              -0.6474093198776245,
              -0.5114085674285889,
              0.22345781326293945,
              0.4680020809173584,
              0.5593030452728271,
              -0.6568359136581421
            ]
          ],
          "column": 6,
          "row": 6
        }
      ]
    },
    {
      "biases": [
        {
          "array": [
            [0.9778012633323669],
            [-0.5782440900802612],
            [0.5642160177230835],
            [0.9991390705108643],
            [-0.9247870445251465],
            [0.09578725695610046]
          ],
          "column": 1,
          "row": 6
        },
        {
          "array": [
            [0.7798947095870972],
            [0.91590416431427],
            [0.001755300210788846],
            [-0.6213611364364624],
            [-0.015660524368286133],
            [0.96906977891922]
          ],
          "column": 1,
          "row": 6
        }
      ],
      "weights": [
        {
          "array": [
            [
              0.6936009526252747,
              0.5450043678283691,
              0.5408167839050293,
              0.9128891825675964
            ],
            [
              -0.9941765069961548,
              0.10529352724552155,
              -0.4264853000640869,
              -0.9462758302688599
            ],
            [
              -0.8697290420532227,
              -0.7178912162780762,
              0.7896777391433716,
              0.9142706394195557
            ],
            [
              0.6868665218353271,
              -0.18347501754760742,
              -0.7211143970489502,
              -0.801929235458374
            ],
            [
              -0.5010530948638916,
              -0.9059876203536987,
              -0.17414116859436035,
              0.3165284991264343
            ],
            [
              0.40932416915893555,
              -0.9187881946563721,
              0.9206021428108215,
              0.5903820991516113
            ]
          ],
          "column": 4,
          "row": 6
        },
        {
          "array": [
            [
              0.9731636047363281,
              0.364549458026886,
              0.8628053665161133,
              0.11360979080200195,
              -0.7327533960342407,
              0.0012039594585075974
            ],
            [
              0.40641605854034424,
              -0.6012983322143555,
              0.08330881595611572,
              -0.08558535575866699,
              0.006012916564941406,
              0.032479580491781235
            ],
            [
              0.022320201620459557,
              0.33264899253845215,
              0.048439133912324905,
              0.695580005645752,
              0.3212447166442871,
              0.9632658958435059
            ],
            [
              0.8540290594100952,
              0.05141264945268631,
              0.06516373157501221,
              9.297768701799214E-4,
              0.4894437789916992,
              0.285919189453125
            ],
            [
              0.4506590962409973,
              -0.9808677434921265,
              0.5417494773864746,
              0.33376598358154297,
              0.11623253673315048,
              -0.4871731996536255
            ],
            [
              -0.6474093198776245,
              -0.5114085674285889,
              0.22345781326293945,
              0.4680020809173584,
              0.5593030452728271,
              -0.6568359136581421
            ]
          ],
          "column": 6,
          "row": 6
        }
      ]
    },
    {
      "biases": [
        {
          "array": [
            [0.9778012633323669],
            [-0.5782440900802612],
            [0.5642160177230835],
            [0.9991390705108643],
            [-0.9247870445251465],
            [0.09578725695610046]
          ],
          "column": 1,
          "row": 6
        },
        {
          "array": [
            [0.7798947095870972],
            [0.91590416431427],
            [0.001755300210788846],
            [0.0011763827642425895],
            [-0.015660524368286133],
            [0.9529407024383545]
          ],
          "column": 1,
          "row": 6
        }
      ],
      "weights": [
        {
          "array": [
            [
              0.6936009526252747,
              0.5450043678283691,
              0.5408167839050293,
              0.9128891825675964
            ],
            [
              -0.9941765069961548,
              0.10529352724552155,
              -0.4264853000640869,
              -0.9462758302688599
            ],
            [
              -0.8697290420532227,
              -0.7178912162780762,
              0.7896777391433716,
              0.9142706394195557
            ],
            [
              0.6868665218353271,
              -0.18347501754760742,
              -0.7211143970489502,
              -0.801929235458374
            ],
            [
              -0.5010530948638916,
              -0.9059876203536987,
              -0.17414116859436035,
              0.3165284991264343
            ],
            [
              0.40932416915893555,
              -0.9187881946563721,
              0.9206021428108215,
              0.5903820991516113
            ]
          ],
          "column": 4,
          "row": 6
        },
        {
          "array": [
            [
              0.9731636047363281,
              0.364549458026886,
              0.8628053665161133,
              0.11360979080200195,
              -0.7327533960342407,
              0.0012039594585075974
            ],
            [
              0.40641605854034424,
              -0.6012983322143555,
              0.08330881595611572,
              -0.08558535575866699,
              0.006012916564941406,
              0.032479580491781235
            ],
            [
              0.022320201620459557,
              0.33264899253845215,
              0.008205218240618706,
              0.695580005645752,
              0.3212447166442871,
              -0.9806281328201294
            ],
            [
              0.8540290594100952,
              0.05141264945268631,
              0.06516373157501221,
              9.297768701799214E-4,
              0.4894437789916992,
              0.285919189453125
            ],
            [
              0.4506590962409973,
              -0.9808677434921265,
              0.5417494773864746,
              0.33376598358154297,
              0.11623253673315048,
              -0.4871731996536255
            ],
            [
              -0.6474093198776245,
              -0.5114085674285889,
              0.22345781326293945,
              0.4680020809173584,
              0.5593030452728271,
              -0.6568359136581421
            ]
          ],
          "column": 6,
          "row": 6
        }
      ]
    },
    {
      "biases": [
        {
          "array": [
            [0.9778012633323669],
            [-0.5782440900802612],
            [0.5642160177230835],
            [0.9991390705108643],
            [-0.9247870445251465],
            [0.09578725695610046]
          ],
          "column": 1,
          "row": 6
        },
        {
          "array": [
            [0.7798947095870972],
            [0.91590416431427],
            [0.001755300210788846],
            [-0.6213611364364624],
            [-0.015660524368286133],
            [0.9538967609405518]
          ],
          "column": 1,
          "row": 6
        }
      ],
      "weights": [
        {
          "array": [
            [
              0.6936009526252747,
              0.5450043678283691,
              0.018676945939660072,
              0.9128891825675964
            ],
            [
              -0.9941765069961548,
              0.10529352724552155,
              -0.4264853000640869,
              -0.9462758302688599
            ],
            [
              -0.8697290420532227,
              -0.7178912162780762,
              0.7896777391433716,
              0.9142706394195557
            ],
            [
              0.6868665218353271,
              -0.18347501754760742,
              -0.7211143970489502,
              -0.801929235458374
            ],
            [
              -0.5010530948638916,
              -0.9059876203536987,
              -0.17414116859436035,
              0.3165284991264343
            ],
            [
              0.40932416915893555,
              -0.9187881946563721,
              0.9206021428108215,
              0.5903820991516113
            ]
          ],
          "column": 4,
          "row": 6
        },
        {
          "array": [
            [
              0.9731636047363281,
              0.364549458026886,
              0.8628053665161133,
              0.11360979080200195,
              -0.7327533960342407,
              0.9838938117027283
            ],
            [
              0.40641605854034424,
              -0.6012983322143555,
              0.4812164902687073,
              0.9205957055091858,
              0.006012916564941406,
              0.032479580491781235
            ],
            [
              0.022320201620459557,
              0.33264899253845215,
              0.048439133912324905,
              0.695580005645752,
              0.9774237275123596,
              -0.9806281328201294
            ],
            [
              0.8540290594100952,
              0.05141264945268631,
              0.06516373157501221,
              9.297768701799214E-4,
              0.4894437789916992,
              0.285919189453125
            ],
            [
              0.4506590962409973,
              -0.9808677434921265,
              0.5417494773864746,
              0.33376598358154297,
              0.11623253673315048,
              -0.4871731996536255
            ],
            [
              -0.6474093198776245,
              -0.5114085674285889,
              0.22345781326293945,
              0.4680020809173584,
              0.5593030452728271,
              -0.6568359136581421
            ]
          ],
          "column": 6,
          "row": 6
        }
      ]
    },
    {
      "biases": [
        {
          "array": [
            [0.9778012633323669],
            [-0.5782440900802612],
            [0.5642160177230835],
            [0.9991390705108643],
            [-0.9247870445251465],
            [0.09578725695610046]
          ],
          "column": 1,
          "row": 6
        },
        {
          "array": [
            [0.7798947095870972],
            [0.91590416431427],
            [0.001755300210788846],
            [-0.6213611364364624],
            [-0.015660524368286133],
            [0.9529407024383545]
          ],
          "column": 1,
          "row": 6
        }
      ],
      "weights": [
        {
          "array": [
            [
              0.6936009526252747,
              0.5450043678283691,
              0.5408167839050293,
              0.9128891825675964
            ],
            [
              -0.9941765069961548,
              0.9988319277763367,
              -0.4264853000640869,
              -0.9462758302688599
            ],
            [
              -0.8697290420532227,
              -0.7178912162780762,
              0.7896777391433716,
              0.9142706394195557
            ],
            [
              0.6868665218353271,
              -0.18347501754760742,
              -0.7211143970489502,
              -0.801929235458374
            ],
            [
              -0.5010530948638916,
              -0.9059876203536987,
              -0.17414116859436035,
              0.3165284991264343
            ],
            [
              0.40932416915893555,
              -0.9187881946563721,
              0.9206021428108215,
              0.5903820991516113
            ]
          ],
          "column": 4,
          "row": 6
        },
        {
          "array": [
            [
              0.9731636047363281,
              0.4376058876514435,
              0.8628053665161133,
              0.11360979080200195,
              0.015572188422083855,
              0.0012039594585075974
            ],
            [
              0.40641605854034424,
              -0.6012983322143555,
              0.9988641738891602,
              -0.08558535575866699,
              0.7519097924232483,
              0.032479580491781235
            ],
            [
              0.022320201620459557,
              0.33264899253845215,
              0.048439133912324905,
              0.695580005645752,
              0.3212447166442871,
              -0.9806281328201294
            ],
            [
              0.8540290594100952,
              0.05141264945268631,
              0.06516373157501221,
              9.297768701799214E-4,
              0.4894437789916992,
              0.285919189453125
            ],
            [
              0.4506590962409973,
              -0.9808677434921265,
              0.5417494773864746,
              0.33376598358154297,
              0.11623253673315048,
              -0.4871731996536255
            ],
            [
              -0.6474093198776245,
              -0.5114085674285889,
              0.22345781326293945,
              0.4680020809173584,
              0.9069138765335083,
              -0.6568359136581421
            ]
          ],
          "column": 6,
          "row": 6
        }
      ]
    },
    {
      "biases": [
        {
          "array": [
            [0.9778012633323669],
            [-0.5782440900802612],
            [0.5642160177230835],
            [0.9991390705108643],
            [-0.9247870445251465],
            [0.09578725695610046]
          ],
          "column": 1,
          "row": 6
        },
        {
          "array": [
            [0.7798947095870972],
            [0.91590416431427],
            [0.001755300210788846],
            [-0.6213611364364624],
            [-0.015660524368286133],
            [0.9529407024383545]
          ],
          "column": 1,
          "row": 6
        }
      ],
      "weights": [
        {
          "array": [
            [
              0.6936009526252747,
              0.5450043678283691,
              0.5408167839050293,
              0.005138367880135775
            ],
            [
              -0.9941765069961548,
              0.10529352724552155,
              -0.4264853000640869,
              -0.9462758302688599
            ],
            [
              -0.8697290420532227,
              -0.7178912162780762,
              0.7896777391433716,
              0.9142706394195557
            ],
            [
              0.003187771886587143,
              -0.18347501754760742,
              -0.7211143970489502,
              -0.801929235458374
            ],
            [
              -0.5010530948638916,
              -0.9059876203536987,
              -0.17414116859436035,
              0.3165284991264343
            ],
            [
              0.40932416915893555,
              -0.9187881946563721,
              0.9206021428108215,
              0.5903820991516113
            ]
          ],
          "column": 4,
          "row": 6
        },
        {
          "array": [
            [
              0.9731636047363281,
              0.9225610494613647,
              0.8628053665161133,
              0.11360979080200195,
              -0.7327533960342407,
              0.0012039594585075974
            ],
            [
              0.40641605854034424,
              -0.6012983322143555,
              0.08330881595611572,
              0.572942316532135,
              0.006012916564941406,
              0.032479580491781235
            ],
            [
              0.022320201620459557,
              0.33264899253845215,
              0.048439133912324905,
              0.695580005645752,
              0.99700528383255,
              -0.9806281328201294
            ],
            [
              0.8540290594100952,
              0.05141264945268631,
              0.06516373157501221,
              9.297768701799214E-4,
              0.4894437789916992,
              0.285919189453125
            ],
            [
              0.4506590962409973,
              -0.9808677434921265,
              0.5417494773864746,
              0.33376598358154297,
              0.11623253673315048,
              -0.4871731996536255
            ],
            [
              -0.6474093198776245,
              -0.5114085674285889,
              0.22345781326293945,
              0.4680020809173584,
              0.5593030452728271,
              -0.6568359136581421
            ]
          ],
          "column": 6,
          "row": 6
        }
      ]
    },
    {
      "biases": [
        {
          "array": [
            [0.9778012633323669],
            [-0.5782440900802612],
            [0.5642160177230835],
            [0.9991390705108643],
            [-0.9247870445251465],
            [0.09578725695610046]
          ],
          "column": 1,
          "row": 6
        },
        {
          "array": [
            [0.7798947095870972],
            [0.91590416431427],
            [0.001755300210788846],
            [-0.6213611364364624],
            [0.03857138380408287],
            [0.9529407024383545]
          ],
          "column": 1,
          "row": 6
        }
      ],
      "weights": [
        {
          "array": [
            [
              0.6936009526252747,
              0.5450043678283691,
              0.5408167839050293,
              0.9128891825675964
            ],
            [
              -0.9941765069961548,
              0.10529352724552155,
              -0.4264853000640869,
              -0.9462758302688599
            ],
            [
              -0.8697290420532227,
              -0.7178912162780762,
              0.7896777391433716,
              0.9142706394195557
            ],
            [
              0.6868665218353271,
              -0.18347501754760742,
              -0.7211143970489502,
              -0.801929235458374
            ],
            [
              -0.5010530948638916,
              -0.9059876203536987,
              -0.17414116859436035,
              0.3165284991264343
            ],
            [
              0.40932416915893555,
              -0.9187881946563721,
              0.9206021428108215,
              0.5903820991516113
            ]
          ],
          "column": 4,
          "row": 6
        },
        {
          "array": [
            [
              0.9731636047363281,
              0.364549458026886,
              0.8628053665161133,
              0.7291874289512634,
              0.004086606204509735,
              0.0012039594585075974
            ],
            [
              0.40641605854034424,
              -0.6012983322143555,
              0.08330881595611572,
              -0.08558535575866699,
              0.006012916564941406,
              0.032479580491781235
            ],
            [
              0.022320201620459557,
              0.33264899253845215,
              0.048439133912324905,
              0.695580005645752,
              0.07053317874670029,
              -0.9806281328201294
            ],
            [
              0.8540290594100952,
              0.05141264945268631,
              0.06516373157501221,
              9.297768701799214E-4,
              0.4894437789916992,
              0.285919189453125
            ],
            [
              0.4506590962409973,
              -0.9808677434921265,
              0.5417494773864746,
              0.33376598358154297,
              0.11623253673315048,
              -0.4871731996536255
            ],
            [
              -0.6474093198776245,
              -0.5114085674285889,
              0.22345781326293945,
              0.4680020809173584,
              0.5593030452728271,
              -0.6568359136581421
            ]
          ],
          "column": 6,
          "row": 6
        }
      ]
    },
    {
      "biases": [
        {
          "array": [
            [0.9778012633323669],
            [-0.5782440900802612],
            [0.5642160177230835],
            [0.9991390705108643],
            [-0.9247870445251465],
            [0.09578725695610046]
          ],
          "column": 1,
          "row": 6
        },
        {
          "array": [
            [0.7798947095870972],
            [0.037736594676971436],
            [0.001755300210788846],
            [-0.6213611364364624],
            [-0.015660524368286133],
            [0.9529407024383545]
          ],
          "column": 1,
          "row": 6
        }
      ],
      "weights": [
        {
          "array": [
            [
              0.6936009526252747,
              0.5450043678283691,
              0.5408167839050293,
              0.9128891825675964
            ],
            [
              -0.9941765069961548,
              0.10529352724552155,
              -0.4264853000640869,
              -0.9462758302688599
            ],
            [
              -0.8697290420532227,
              -0.7178912162780762,
              0.7896777391433716,
              0.9142706394195557
            ],
            [
              0.6868665218353271,
              -0.18347501754760742,
              -0.7211143970489502,
              -0.801929235458374
            ],
            [
              -0.5010530948638916,
              -0.9059876203536987,
              -0.17414116859436035,
              0.0036305596586316824
            ],
            [
              0.40932416915893555,
              -0.9187881946563721,
              0.9206021428108215,
              0.5903820991516113
            ]
          ],
          "column": 4,
          "row": 6
        },
        {
          "array": [
            [
              0.9731636047363281,
              0.364549458026886,
              0.8628053665161133,
              0.11360979080200195,
              -0.7327533960342407,
              0.9463438987731934
            ],
            [
              0.40641605854034424,
              -0.6012983322143555,
              0.08330881595611572,
              -0.08558535575866699,
              0.006012916564941406,
              0.032479580491781235
            ],
            [
              0.022320201620459557,
              0.33264899253845215,
              0.048439133912324905,
              0.695580005645752,
              0.3212447166442871,
              -0.9806281328201294
            ],
            [
              0.8540290594100952,
              0.05141264945268631,
              0.06516373157501221,
              9.297768701799214E-4,
              0.4894437789916992,
              0.285919189453125
            ],
            [
              0.4506590962409973,
              -0.9808677434921265,
              0.5417494773864746,
              0.33376598358154297,
              0.11623253673315048,
              -0.4871731996536255
            ],
            [
              -0.6474093198776245,
              -0.5114085674285889,
              0.22345781326293945,
              0.4680020809173584,
              0.5593030452728271,
              -0.6568359136581421
            ]
          ],
          "column": 6,
          "row": 6
        }
      ]
    },
    {
      "biases": [
        {
          "array": [
            [0.9778012633323669],
            [-0.5782440900802612],
            [0.5642160177230835],
            [0.9991390705108643],
            [0.7387597560882568],
            [0.09578725695610046]
          ],
          "column": 1,
          "row": 6
        },
        {
          "array": [
            [0.7798947095870972],
            [0.91590416431427],
            [0.001755300210788846],
            [-0.6213611364364624],
            [-0.015660524368286133],
            [0.9529407024383545]
          ],
          "column": 1,
          "row": 6
        }
      ],
      "weights": [
        {
          "array": [
            [
              0.6936009526252747,
              0.5450043678283691,
              0.5408167839050293,
              0.9128891825675964
            ],
            [
              -0.9941765069961548,
              0.10529352724552155,
              -0.4264853000640869,
              -0.9462758302688599
            ],
            [
              -0.8697290420532227,
              -0.7178912162780762,
              0.7896777391433716,
              0.9142706394195557
            ],
            [
              0.6868665218353271,
              -0.18347501754760742,
              -0.7211143970489502,
              -0.801929235458374
            ],
            [
              -0.5010530948638916,
              -0.9059876203536987,
              -0.17414116859436035,
              0.3165284991264343
            ],
            [
              0.40932416915893555,
              -0.9187881946563721,
              0.9206021428108215,
              0.5903820991516113
            ]
          ],
          "column": 4,
          "row": 6
        },
        {
          "array": [
            [
              0.9731636047363281,
              0.364549458026886,
              0.8628053665161133,
              0.11360979080200195,
              -0.7327533960342407,
              0.0012039594585075974
            ],
            [
              0.9116674661636353,
              -0.6012983322143555,
              0.08330881595611572,
              -0.08558535575866699,
              0.006012916564941406,
              0.032479580491781235
            ],
            [
              0.022320201620459557,
              0.33264899253845215,
              0.048439133912324905,
              0.695580005645752,
              0.3212447166442871,
              -0.9806281328201294
            ],
            [
              0.8540290594100952,
              0.05141264945268631,
              0.06516373157501221,
              9.297768701799214E-4,
              0.4894437789916992,
              0.285919189453125
            ],
            [
              0.4506590962409973,
              -0.9808677434921265,
              0.5417494773864746,
              0.33376598358154297,
              0.11623253673315048,
              -0.4871731996536255
            ],
            [
              -0.6474093198776245,
              -0.5114085674285889,
              0.22345781326293945,
              0.4680020809173584,
              0.5593030452728271,
              -0.6568359136581421
            ]
          ],
          "column": 6,
          "row": 6
        }
      ]
    },
    {
      "biases": [
        {
          "array": [
            [0.9778012633323669],
            [-0.5782440900802612],
            [0.5642160177230835],
            [0.9991390705108643],
            [-0.9247870445251465],
            [0.09578725695610046]
          ],
          "column": 1,
          "row": 6
        },
        {
          "array": [
            [0.7798947095870972],
            [0.91590416431427],
            [0.001755300210788846],
            [-0.6213611364364624],
            [-0.015660524368286133],
            [0.9529407024383545]
          ],
          "column": 1,
          "row": 6
        }
      ],
      "weights": [
        {
          "array": [
            [
              0.6936009526252747,
              0.5450043678283691,
              0.5408167839050293,
              0.9128891825675964
            ],
            [
              -0.9941765069961548,
              0.10529352724552155,
              -0.4264853000640869,
              -0.9462758302688599
            ],
            [
              -0.8697290420532227,
              -0.7178912162780762,
              0.7896777391433716,
              0.9142706394195557
            ],
            [
              0.6868665218353271,
              -0.18347501754760742,
              -0.7211143970489502,
              0.8932592868804932
            ],
            [
              -0.5010530948638916,
              -0.9059876203536987,
              -0.17414116859436035,
              0.3165284991264343
            ],
            [
              0.40932416915893555,
              -0.9187881946563721,
              0.9206021428108215,
              0.5903820991516113
            ]
          ],
          "column": 4,
          "row": 6
        },
        {
          "array": [
            [
              0.9731636047363281,
              0.364549458026886,
              0.8628053665161133,
              0.11360979080200195,
              -0.7327533960342407,
              0.0012039594585075974
            ],
            [
              0.40641605854034424,
              -0.6012983322143555,
              0.08330881595611572,
              -0.08558535575866699,
              0.006012916564941406,
              0.032479580491781235
            ],
            [
              0.9850431680679321,
              0.33264899253845215,
              0.048439133912324905,
              0.695580005645752,
              0.3212447166442871,
              -0.9806281328201294
            ],
            [
              0.8540290594100952,
              0.0034275283105671406,
              0.16469398140907288,
              9.297768701799214E-4,
              0.4894437789916992,
              0.285919189453125
            ],
            [
              0.4506590962409973,
              -0.9808677434921265,
              0.5417494773864746,
              0.33376598358154297,
              0.11623253673315048,
              -0.4871731996536255
            ],
            [
              -0.6474093198776245,
              -0.5114085674285889,
              0.22345781326293945,
              0.4680020809173584,
              0.5593030452728271,
              -0.6568359136581421
            ]
          ],
          "column": 6,
          "row": 6
        }
      ]
    },
    {
      "biases": [
        {
          "array": [
            [0.9778012633323669],
            [-0.5782440900802612],
            [0.5642160177230835],
            [0.9991390705108643],
            [-0.9247870445251465],
            [0.09578725695610046]
          ],
          "column": 1,
          "row": 6
        },
        {
          "array": [
            [0.7798947095870972],
            [0.91590416431427],
            [0.001755300210788846],
            [-0.6213611364364624],
            [-0.015660524368286133],
            [0.9529407024383545]
          ],
          "column": 1,
          "row": 6
        }
      ],
      "weights": [
        {
          "array": [
            [
              0.6936009526252747,
              0.5450043678283691,
              0.5408167839050293,
              0.9128891825675964
            ],
            [
              -0.9941765069961548,
              0.10529352724552155,
              -0.4264853000640869,
              -0.9462758302688599
            ],
            [
              -0.8697290420532227,
              -0.7178912162780762,
              0.7896777391433716,
              0.9142706394195557
            ],
            [
              0.6868665218353271,
              -0.18347501754760742,
              -0.7211143970489502,
              -0.801929235458374
            ],
            [
              -0.5010530948638916,
              -0.9059876203536987,
              -0.17414116859436035,
              0.3165284991264343
            ],
            [
              0.40932416915893555,
              -0.9187881946563721,
              0.9206021428108215,
              0.5903820991516113
            ]
          ],
          "column": 4,
          "row": 6
        },
        {
          "array": [
            [
              0.9731636047363281,
              0.4376058876514435,
              0.8628053665161133,
              0.11360979080200195,
              -0.7327533960342407,
              0.0012039594585075974
            ],
            [
              0.40641605854034424,
              -0.6012983322143555,
              0.9988641738891602,
              -0.08558535575866699,
              0.006012916564941406,
              0.032479580491781235
            ],
            [
              0.022320201620459557,
              0.33264899253845215,
              0.048439133912324905,
              0.695580005645752,
              0.3212447166442871,
              -0.9806281328201294
            ],
            [
              0.8540290594100952,
              0.05141264945268631,
              0.06516373157501221,
              9.297768701799214E-4,
              0.4894437789916992,
              0.285919189453125
            ],
            [
              0.4506590962409973,
              -0.9808677434921265,
              0.5417494773864746,
              0.33376598358154297,
              0.11623253673315048,
              -0.4871731996536255
            ],
            [
              0.009317844174802303,
              -0.5114085674285889,
              0.22345781326293945,
              0.4680020809173584,
              0.5593030452728271,
              -0.6568359136581421
            ]
          ],
          "column": 6,
          "row": 6
        }
      ]
    },
    {
      "biases": [
        {
          "array": [
            [0.9778012633323669],
            [0.9738218784332275],
            [0.5642160177230835],
            [0.9991390705108643],
            [-0.9247870445251465],
            [0.09578725695610046]
          ],
          "column": 1,
          "row": 6
        },
        {
          "array": [
            [0.7798947095870972],
            [0.91590416431427],
            [0.001755300210788846],
            [-0.6213611364364624],
            [-0.015660524368286133],
            [0.96906977891922]
          ],
          "column": 1,
          "row": 6
        }
      ],
      "weights": [
        {
          "array": [
            [
              0.6936009526252747,
              0.5450043678283691,
              0.5408167839050293,
              0.9128891825675964
            ],
            [
              -0.9941765069961548,
              0.10529352724552155,
              -0.4264853000640869,
              -0.9462758302688599
            ],
            [
              -0.8697290420532227,
              -0.7178912162780762,
              0.7896777391433716,
              0.9142706394195557
            ],
            [
              0.6868665218353271,
              -0.18347501754760742,
              -0.7211143970489502,
              -0.801929235458374
            ],
            [
              -0.5010530948638916,
              -0.9059876203536987,
              -0.17414116859436035,
              0.3165284991264343
            ],
            [
              0.40932416915893555,
              -0.9187881946563721,
              0.9206021428108215,
              0.5903820991516113
            ]
          ],
          "column": 4,
          "row": 6
        },
        {
          "array": [
            [
              0.9731636047363281,
              0.364549458026886,
              0.8628053665161133,
              0.11360979080200195,
              -0.7327533960342407,
              0.0012039594585075974
            ],
            [
              0.40641605854034424,
              -0.6012983322143555,
              0.08330881595611572,
              -0.08558535575866699,
              0.006012916564941406,
              0.032479580491781235
            ],
            [
              0.022320201620459557,
              0.33264899253845215,
              0.048439133912324905,
              0.695580005645752,
              0.3212447166442871,
              -0.9806281328201294
            ],
            [
              0.8540290594100952,
              0.05141264945268631,
              0.06516373157501221,
              9.297768701799214E-4,
              0.4894437789916992,
              0.285919189453125
            ],
            [
              0.4506590962409973,
              -0.9808677434921265,
              0.5417494773864746,
              0.33376598358154297,
              0.11623253673315048,
              -0.4871731996536255
            ],
            [
              -0.6474093198776245,
              -0.5114085674285889,
              0.22345781326293945,
              0.4680020809173584,
              0.5593030452728271,
              -0.6568359136581421
            ]
          ],
          "column": 6,
          "row": 6
        }
      ]
    },
    {
      "biases": [
        {
          "array": [
            [0.9778012633323669],
            [-0.5782440900802612],
            [0.5642160177230835],
            [0.9991390705108643],
            [-0.9247870445251465],
            [0.09578725695610046]
          ],
          "column": 1,
          "row": 6
        },
        {
          "array": [
            [0.7798947095870972],
            [0.91590416431427],
            [0.001755300210788846],
            [-0.6213611364364624],
            [-0.015660524368286133],
            [0.9529407024383545]
          ],
          "column": 1,
          "row": 6
        }
      ],
      "weights": [
        {
          "array": [
            [
              0.6936009526252747,
              0.5450043678283691,
              0.5408167839050293,
              0.9128891825675964
            ],
            [
              -0.9941765069961548,
              0.10529352724552155,
              -0.4264853000640869,
              -0.9462758302688599
            ],
            [
              -0.8697290420532227,
              -0.7178912162780762,
              0.7896777391433716,
              0.9142706394195557
            ],
            [
              0.6868665218353271,
              -0.18347501754760742,
              -0.7211143970489502,
              -0.801929235458374
            ],
            [
              -0.5010530948638916,
              -0.9059876203536987,
              -0.17414116859436035,
              0.3165284991264343
            ],
            [
              0.40932416915893555,
              -0.9187881946563721,
              0.9206021428108215,
              0.5903820991516113
            ]
          ],
          "column": 4,
          "row": 6
        },
        {
          "array": [
            [
              0.9731636047363281,
              0.364549458026886,
              0.8628053665161133,
              0.11360979080200195,
              -0.7327533960342407,
              0.0012039594585075974
            ],
            [
              0.40641605854034424,
              -0.6012983322143555,
              0.08330881595611572,
              -0.08558535575866699,
              0.006012916564941406,
              0.032479580491781235
            ],
            [
              0.022320201620459557,
              0.33264899253845215,
              0.048439133912324905,
              0.695580005645752,
              0.3212447166442871,
              -0.9806281328201294
            ],
            [
              0.8540290594100952,
              0.05141264945268631,
              0.06516373157501221,
              9.297768701799214E-4,
              0.4894437789916992,
              0.285919189453125
            ],
            [
              0.4506590962409973,
              -0.9808677434921265,
              0.5417494773864746,
              0.33376598358154297,
              0.11623253673315048,
              -0.4871731996536255
            ],
            [
              -0.6474093198776245,
              -0.5114085674285889,
              0.22345781326293945,
              0.4680020809173584,
              0.5593030452728271,
              -0.6568359136581421
            ]
          ],
          "column": 6,
          "row": 6
        }
      ]
    },
    {
      "biases": [
        {
          "array": [
            [0.9778012633323669],
            [-0.5782440900802612],
            [0.5642160177230835],
            [0.9991390705108643],
            [-0.9247870445251465],
            [0.09578725695610046]
          ],
          "column": 1,
          "row": 6
        },
        {
          "array": [
            [0.7798947095870972],
            [0.91590416431427],
            [0.001755300210788846],
            [-0.6213611364364624],
            [-0.015660524368286133],
            [0.9529407024383545]
          ],
          "column": 1,
          "row": 6
        }
      ],
      "weights": [
        {
          "array": [
            [
              0.6936009526252747,
              0.5450043678283691,
              0.5408167839050293,
              0.9128891825675964
            ],
            [
              -0.9941765069961548,
              0.10529352724552155,
              -0.4264853000640869,
              -0.9462758302688599
            ],
            [
              -0.8697290420532227,
              -0.7178912162780762,
              0.7896777391433716,
              0.9142706394195557
            ],
            [
              0.6868665218353271,
              -0.18347501754760742,
              -0.7211143970489502,
              -0.801929235458374
            ],
            [
              -0.5010530948638916,
              -0.9059876203536987,
              -0.17414116859436035,
              0.3165284991264343
            ],
            [
              0.40932416915893555,
              -0.9187881946563721,
              0.9206021428108215,
              0.5903820991516113
            ]
          ],
          "column": 4,
          "row": 6
        },
        {
          "array": [
            [
              0.9731636047363281,
              0.364549458026886,
              0.8628053665161133,
              0.11360979080200195,
              -0.7327533960342407,
              0.0012039594585075974
            ],
            [
              0.40641605854034424,
              -0.6012983322143555,
              0.08330881595611572,
              -0.08558535575866699,
              0.006012916564941406,
              0.032479580491781235
            ],
            [
              0.022320201620459557,
              0.33264899253845215,
              0.048439133912324905,
              0.695580005645752,
              0.3212447166442871,
              -0.9806281328201294
            ],
            [
              0.8540290594100952,
              0.05141264945268631,
              0.06516373157501221,
              9.297768701799214E-4,
              0.4894437789916992,
              0.285919189453125
            ],
            [
              0.4506590962409973,
              -0.9808677434921265,
              0.5417494773864746,
              0.33376598358154297,
              0.11623253673315048,
              -0.4871731996536255
            ],
            [
              0.8771025538444519,
              -0.5114085674285889,
              0.22345781326293945,
              0.4680020809173584,
              0.5593030452728271,
              -0.6568359136581421
            ]
          ],
          "column": 6,
          "row": 6
        }
      ]
    },
    {
      "biases": [
        {
          "array": [
            [0.9778012633323669],
            [-0.5782440900802612],
            [0.5642160177230835],
            [0.9991390705108643],
            [-0.9247870445251465],
            [0.09578725695610046]
          ],
          "column": 1,
          "row": 6
        },
        {
          "array": [
            [0.7798947095870972],
            [0.01422134879976511],
            [0.001755300210788846],
            [-0.6213611364364624],
            [-0.015660524368286133],
            [0.9529407024383545]
          ],
          "column": 1,
          "row": 6
        }
      ],
      "weights": [
        {
          "array": [
            [
              0.6936009526252747,
              0.5450043678283691,
              0.5408167839050293,
              0.9128891825675964
            ],
            [
              -0.9941765069961548,
              0.10529352724552155,
              -0.4264853000640869,
              -0.9462758302688599
            ],
            [
              -0.8697290420532227,
              -0.7178912162780762,
              0.7896777391433716,
              0.9142706394195557
            ],
            [
              0.6868665218353271,
              -0.18347501754760742,
              -0.7211143970489502,
              -0.801929235458374
            ],
            [
              -0.5010530948638916,
              -0.9059876203536987,
              -0.17414116859436035,
              0.3165284991264343
            ],
            [
              0.40932416915893555,
              -0.9187881946563721,
              0.9206021428108215,
              0.5903820991516113
            ]
          ],
          "column": 4,
          "row": 6
        },
        {
          "array": [
            [
              0.9731636047363281,
              0.364549458026886,
              0.8628053665161133,
              0.11360979080200195,
              -0.7327533960342407,
              0.0012039594585075974
            ],
            [
              0.40641605854034424,
              -0.6012983322143555,
              0.08330881595611572,
              -0.08558535575866699,
              0.006012916564941406,
              0.032479580491781235
            ],
            [
              0.022320201620459557,
              0.33264899253845215,
              0.048439133912324905,
              0.695580005645752,
              0.3212447166442871,
              -0.9806281328201294
            ],
            [
              0.8540290594100952,
              0.05141264945268631,
              0.06516373157501221,
              9.297768701799214E-4,
              0.4894437789916992,
              0.285919189453125
            ],
            [
              0.4506590962409973,
              -0.9808677434921265,
              0.5417494773864746,
              0.33376598358154297,
              0.11623253673315048,
              -0.4871731996536255
            ],
            [
              -0.6474093198776245,
              -0.5114085674285889,
              0.22345781326293945,
              0.4680020809173584,
              0.5593030452728271,
              -0.6568359136581421
            ]
          ],
          "column": 6,
          "row": 6
        }
      ]
    },
    {
      "biases": [
        {
          "array": [
            [0.8203495144844055],
            [-0.5782440900802612],
            [0.5642160177230835],
            [0.9991390705108643],
            [-0.9247870445251465],
            [0.09578725695610046]
          ],
          "column": 1,
          "row": 6
        },
        {
          "array": [
            [0.7798947095870972],
            [0.91590416431427],
            [0.001755300210788846],
            [-0.6213611364364624],
            [-0.015660524368286133],
            [0.96906977891922]
          ],
          "column": 1,
          "row": 6
        }
      ],
      "weights": [
        {
          "array": [
            [
              0.6936009526252747,
              0.5450043678283691,
              0.5408167839050293,
              0.9128891825675964
            ],
            [
              -0.9941765069961548,
              0.10529352724552155,
              -0.4264853000640869,
              -0.9462758302688599
            ],
            [
              -0.8697290420532227,
              -0.7178912162780762,
              0.7896777391433716,
              0.9142706394195557
            ],
            [
              0.6868665218353271,
              -0.18347501754760742,
              -0.7211143970489502,
              -0.801929235458374
            ],
            [
              -0.5010530948638916,
              -0.9059876203536987,
              -0.17414116859436035,
              0.3165284991264343
            ],
            [
              0.40932416915893555,
              -0.9187881946563721,
              0.9206021428108215,
              0.5903820991516113
            ]
          ],
          "column": 4,
          "row": 6
        },
        {
          "array": [
            [
              0.006150636821985245,
              0.364549458026886,
              0.8628053665161133,
              0.11360979080200195,
              -0.7327533960342407,
              0.0012039594585075974
            ],
            [
              0.40641605854034424,
              -0.6012983322143555,
              0.08330881595611572,
              -0.08558535575866699,
              0.006012916564941406,
              0.032479580491781235
            ],
            [
              0.022320201620459557,
              0.9924180507659912,
              0.048439133912324905,
              0.695580005645752,
              0.3212447166442871,
              -0.9806281328201294
            ],
            [
              0.8540290594100952,
              0.05141264945268631,
              0.06516373157501221,
              9.297768701799214E-4,
              0.4894437789916992,
              0.285919189453125
            ],
            [
              0.4506590962409973,
              -0.9808677434921265,
              0.5417494773864746,
              0.33376598358154297,
              0.11623253673315048,
              -0.4871731996536255
            ],
            [
              -0.6474093198776245,
              -0.5114085674285889,
              0.22345781326293945,
              0.4680020809173584,
              0.5593030452728271,
              -0.6568359136581421
            ]
          ],
          "column": 6,
          "row": 6
        }
      ]
    },
    {
      "biases": [
        {
          "array": [
            [0.9778012633323669],
            [-0.5782440900802612],
            [0.5642160177230835],
            [0.9991390705108643],
            [-0.9247870445251465],
            [0.09578725695610046]
          ],
          "column": 1,
          "row": 6
        },
        {
          "array": [
            [0.7798947095870972],
            [0.91590416431427],
            [0.001755300210788846],
            [-0.6213611364364624],
            [-0.015660524368286133],
            [0.9529407024383545]
          ],
          "column": 1,
          "row": 6
        }
      ],
      "weights": [
        {
          "array": [
            [
              0.6936009526252747,
              0.5450043678283691,
              0.5408167839050293,
              0.9128891825675964
            ],
            [
              -0.9941765069961548,
              0.10529352724552155,
              -0.4264853000640869,
              -0.9462758302688599
            ],
            [
              -0.8697290420532227,
              -0.7178912162780762,
              0.7896777391433716,
              0.9142706394195557
            ],
            [
              0.6868665218353271,
              -0.18347501754760742,
              -0.7211143970489502,
              -0.801929235458374
            ],
            [
              -0.5010530948638916,
              -0.9059876203536987,
              -0.17414116859436035,
              0.3165284991264343
            ],
            [
              0.40932416915893555,
              -0.9187881946563721,
              0.9206021428108215,
              0.5903820991516113
            ]
          ],
          "column": 4,
          "row": 6
        },
        {
          "array": [
            [
              0.9731636047363281,
              0.364549458026886,
              0.8628053665161133,
              0.11360979080200195,
              -0.7327533960342407,
              0.0012039594585075974
            ],
            [
              0.40641605854034424,
              -0.6012983322143555,
              0.08330881595611572,
              -0.08558535575866699,
              0.006012916564941406,
              0.032479580491781235
            ],
            [
              0.022320201620459557,
              0.33264899253845215,
              0.008205218240618706,
              0.695580005645752,
              0.3212447166442871,
              -0.9806281328201294
            ],
            [
              0.8540290594100952,
              0.05141264945268631,
              0.06516373157501221,
              9.297768701799214E-4,
              0.4894437789916992,
              0.285919189453125
            ],
            [
              0.4506590962409973,
              -0.9808677434921265,
              0.5417494773864746,
              0.33376598358154297,
              0.11623253673315048,
              -0.4871731996536255
            ],
            [
              -0.6474093198776245,
              -0.5114085674285889,
              0.22345781326293945,
              0.4680020809173584,
              0.5593030452728271,
              -0.6568359136581421
            ]
          ],
          "column": 6,
          "row": 6
        }
      ]
    },
    {
      "biases": [
        {
          "array": [
            [0.9778012633323669],
            [-0.5782440900802612],
            [0.5642160177230835],
            [0.9991390705108643],
            [-0.9247870445251465],
            [0.09578725695610046]
          ],
          "column": 1,
          "row": 6
        },
        {
          "array": [
            [0.7798947095870972],
            [0.91590416431427],
            [0.001755300210788846],
            [-0.6213611364364624],
            [-0.015660524368286133],
            [0.9529407024383545]
          ],
          "column": 1,
          "row": 6
        }
      ],
      "weights": [
        {
          "array": [
            [
              0.6936009526252747,
              0.5450043678283691,
              0.5408167839050293,
              0.9128891825675964
            ],
            [
              -0.9941765069961548,
              0.10529352724552155,
              -0.4264853000640869,
              -0.9462758302688599
            ],
            [
              -0.8697290420532227,
              -0.7178912162780762,
              0.7896777391433716,
              0.9142706394195557
            ],
            [
              0.6868665218353271,
              -0.18347501754760742,
              -0.7211143970489502,
              -0.801929235458374
            ],
            [
              -0.5010530948638916,
              -0.9059876203536987,
              -0.17414116859436035,
              0.3165284991264343
            ],
            [
              0.40932416915893555,
              -0.9187881946563721,
              0.9206021428108215,
              0.5903820991516113
            ]
          ],
          "column": 4,
          "row": 6
        },
        {
          "array": [
            [
              0.13048070669174194,
              0.364549458026886,
              0.8628053665161133,
              0.11360979080200195,
              -0.7327533960342407,
              0.0012039594585075974
            ],
            [
              0.40641605854034424,
              -0.6012983322143555,
              0.08330881595611572,
              -0.08558535575866699,
              0.006012916564941406,
              0.010031851939857006
            ],
            [
              0.022320201620459557,
              0.33264899253845215,
              0.048439133912324905,
              0.695580005645752,
              0.3212447166442871,
              -0.9806281328201294
            ],
            [
              0.8540290594100952,
              0.05141264945268631,
              0.06516373157501221,
              9.297768701799214E-4,
              0.4894437789916992,
              0.285919189453125
            ],
            [
              0.4506590962409973,
              -0.9808677434921265,
              0.5417494773864746,
              0.33376598358154297,
              0.11623253673315048,
              -0.4871731996536255
            ],
            [
              -0.6474093198776245,
              -0.5114085674285889,
              0.22345781326293945,
              0.4680020809173584,
              0.5593030452728271,
              -0.6568359136581421
            ]
          ],
          "column": 6,
          "row": 6
        }
      ]
    },
    {
      "biases": [
        {
          "array": [
            [0.9778012633323669],
            [-0.5782440900802612],
            [0.5642160177230835],
            [0.9991390705108643],
            [0.8968486785888672],
            [0.09578725695610046]
          ],
          "column": 1,
          "row": 6
        },
        {
          "array": [
            [0.7798947095870972],
            [0.91590416431427],
            [0.001755300210788846],
            [-0.6213611364364624],
            [-0.015660524368286133],
            [0.9529407024383545]
          ],
          "column": 1,
          "row": 6
        }
      ],
      "weights": [
        {
          "array": [
            [
              0.6936009526252747,
              0.5450043678283691,
              0.5408167839050293,
              0.9128891825675964
            ],
            [
              -0.9941765069961548,
              0.10529352724552155,
              -0.4264853000640869,
              -0.9462758302688599
            ],
            [
              -0.8697290420532227,
              -0.7178912162780762,
              0.7896777391433716,
              0.9142706394195557
            ],
            [
              0.6868665218353271,
              -0.18347501754760742,
              -0.7211143970489502,
              -0.801929235458374
            ],
            [
              -0.5010530948638916,
              -0.9059876203536987,
              0.8916288018226624,
              0.3165284991264343
            ],
            [
              0.40932416915893555,
              -0.9187881946563721,
              0.9206021428108215,
              0.48432478308677673
            ]
          ],
          "column": 4,
          "row": 6
        },
        {
          "array": [
            [
              0.9731636047363281,
              0.364549458026886,
              0.8628053665161133,
              0.11360979080200195,
              -0.7327533960342407,
              0.0012039594585075974
            ],
            [
              0.40641605854034424,
              -0.6012983322143555,
              0.08330881595611572,
              -0.08558535575866699,
              0.006012916564941406,
              0.032479580491781235
            ],
            [
              0.8030165433883667,
              0.33264899253845215,
              0.048439133912324905,
              0.695580005645752,
              0.3212447166442871,
              -0.9806281328201294
            ],
            [
              0.8540290594100952,
              0.05141264945268631,
              0.06516373157501221,
              9.297768701799214E-4,
              0.4894437789916992,
              0.285919189453125
            ],
            [
              0.4506590962409973,
              -0.9808677434921265,
              0.5417494773864746,
              0.33376598358154297,
              0.11623253673315048,
              -0.4871731996536255
            ],
            [
              -0.6474093198776245,
              -0.5114085674285889,
              0.22345781326293945,
              0.4680020809173584,
              0.5593030452728271,
              -0.6568359136581421
            ]
          ],
          "column": 6,
          "row": 6
        }
      ]
    },
    {
      "biases": [
        {
          "array": [
            [0.9778012633323669],
            [-0.5782440900802612],
            [0.5642160177230835],
            [0.9991390705108643],
            [-0.9247870445251465],
            [0.09578725695610046]
          ],
          "column": 1,
          "row": 6
        },
        {
          "array": [
            [0.7798947095870972],
            [0.91590416431427],
            [0.001755300210788846],
            [-0.6213611364364624],
            [-0.015660524368286133],
            [0.8155152201652527]
          ],
          "column": 1,
          "row": 6
        }
      ],
      "weights": [
        {
          "array": [
            [
              0.6936009526252747,
              0.5450043678283691,
              0.5408167839050293,
              0.9128891825675964
            ],
            [
              -0.9941765069961548,
              0.10529352724552155,
              0.002152272965759039,
              -0.9462758302688599
            ],
            [
              -0.8697290420532227,
              -0.7178912162780762,
              0.7896777391433716,
              0.9142706394195557
            ],
            [
              0.7242187261581421,
              -0.18347501754760742,
              -0.7211143970489502,
              -0.801929235458374
            ],
            [
              -0.5010530948638916,
              -0.9059876203536987,
              -0.17414116859436035,
              0.3165284991264343
            ],
            [
              0.40932416915893555,
              0.5679498910903931,
              0.9206021428108215,
              0.5903820991516113
            ]
          ],
          "column": 4,
          "row": 6
        },
        {
          "array": [
            [
              0.9731636047363281,
              0.364549458026886,
              0.8628053665161133,
              0.11360979080200195,
              -0.7327533960342407,
              0.0012039594585075974
            ],
            [
              0.40641605854034424,
              -0.6012983322143555,
              0.08330881595611572,
              -0.08558535575866699,
              0.006012916564941406,
              0.032479580491781235
            ],
            [
              0.022320201620459557,
              0.33264899253845215,
              0.048439133912324905,
              0.695580005645752,
              0.3212447166442871,
              -0.9806281328201294
            ],
            [
              0.8540290594100952,
              0.05141264945268631,
              0.06516373157501221,
              9.297768701799214E-4,
              0.4894437789916992,
              0.285919189453125
            ],
            [
              0.4506590962409973,
              -0.9808677434921265,
              0.5417494773864746,
              0.33376598358154297,
              0.11623253673315048,
              -0.4871731996536255
            ],
            [
              -0.6474093198776245,
              -0.5114085674285889,
              0.22345781326293945,
              0.4680020809173584,
              0.5593030452728271,
              -0.6568359136581421
            ]
          ],
          "column": 6,
          "row": 6
        }
      ]
    },
    {
      "biases": [
        {
          "array": [
            [0.9778012633323669],
            [-0.5782440900802612],
            [0.5642160177230835],
            [0.9991390705108643],
            [-0.9247870445251465],
            [0.09578725695610046]
          ],
          "column": 1,
          "row": 6
        },
        {
          "array": [
            [0.7798947095870972],
            [0.91590416431427],
            [0.001755300210788846],
            [-0.6213611364364624],
            [-0.015660524368286133],
            [0.9529407024383545]
          ],
          "column": 1,
          "row": 6
        }
      ],
      "weights": [
        {
          "array": [
            [
              0.932565450668335,
              0.5450043678283691,
              0.5408167839050293,
              0.9128891825675964
            ],
            [
              -0.9941765069961548,
              0.10529352724552155,
              -0.4264853000640869,
              -0.9462758302688599
            ],
            [
              -0.8697290420532227,
              -0.7178912162780762,
              0.7896777391433716,
              0.9142706394195557
            ],
            [
              0.6868665218353271,
              -0.18347501754760742,
              -0.7211143970489502,
              -0.801929235458374
            ],
            [
              -0.5010530948638916,
              -0.9059876203536987,
              -0.17414116859436035,
              0.3165284991264343
            ],
            [
              0.40932416915893555,
              -0.9187881946563721,
              0.9206021428108215,
              0.5903820991516113
            ]
          ],
          "column": 4,
          "row": 6
        },
        {
          "array": [
            [
              0.9731636047363281,
              0.364549458026886,
              0.8628053665161133,
              0.11360979080200195,
              -0.7327533960342407,
              0.0012039594585075974
            ],
            [
              0.40641605854034424,
              -0.6012983322143555,
              0.08330881595611572,
              -0.08558535575866699,
              0.006012916564941406,
              0.032479580491781235
            ],
            [
              0.022320201620459557,
              0.33264899253845215,
              0.048439133912324905,
              0.695580005645752,
              0.3212447166442871,
              -0.9806281328201294
            ],
            [
              0.8540290594100952,
              0.05141264945268631,
              0.06516373157501221,
              9.297768701799214E-4,
              0.4894437789916992,
              0.285919189453125
            ],
            [
              0.4506590962409973,
              -0.9808677434921265,
              0.5417494773864746,
              0.33376598358154297,
              0.11623253673315048,
              -0.4871731996536255
            ],
            [
              -0.6474093198776245,
              -0.5114085674285889,
              0.22345781326293945,
              0.4680020809173584,
              0.5593030452728271,
              -0.6568359136581421
            ]
          ],
          "column": 6,
          "row": 6
        }
      ]
    },
    {
      "biases": [
        {
          "array": [
            [0.9778012633323669],
            [-0.5782440900802612],
            [0.5642160177230835],
            [0.9991390705108643],
            [-0.9247870445251465],
            [0.09578725695610046]
          ],
          "column": 1,
          "row": 6
        },
        {
          "array": [
            [0.7798947095870972],
            [0.91590416431427],
            [0.001755300210788846],
            [-0.6213611364364624],
            [-0.015660524368286133],
            [0.9529407024383545]
          ],
          "column": 1,
          "row": 6
        }
      ],
      "weights": [
        {
          "array": [
            [
              0.6936009526252747,
              0.5450043678283691,
              0.5408167839050293,
              0.9128891825675964
            ],
            [
              -0.9941765069961548,
              0.10529352724552155,
              -0.4264853000640869,
              -0.9462758302688599
            ],
            [
              -0.8697290420532227,
              -0.7178912162780762,
              0.7896777391433716,
              0.9142706394195557
            ],
            [
              0.6868665218353271,
              -0.18347501754760742,
              -0.7211143970489502,
              -0.801929235458374
            ],
            [
              -0.5010530948638916,
              -0.9059876203536987,
              -0.17414116859436035,
              0.3165284991264343
            ],
            [
              0.40932416915893555,
              -0.9187881946563721,
              0.9206021428108215,
              0.5903820991516113
            ]
          ],
          "column": 4,
          "row": 6
        },
        {
          "array": [
            [
              0.9731636047363281,
              0.364549458026886,
              0.8628053665161133,
              0.11360979080200195,
              -0.7327533960342407,
              0.0012039594585075974
            ],
            [
              0.40641605854034424,
              -0.6012983322143555,
              0.08330881595611572,
              -0.08558535575866699,
              0.006012916564941406,
              0.032479580491781235
            ],
            [
              0.022320201620459557,
              0.33264899253845215,
              0.008205218240618706,
              0.695580005645752,
              0.3212447166442871,
              -0.9806281328201294
            ],
            [
              0.8540290594100952,
              0.05141264945268631,
              0.06516373157501221,
              9.297768701799214E-4,
              0.9829103350639343,
              0.285919189453125
            ],
            [
              0.4506590962409973,
              -0.9808677434921265,
              0.5417494773864746,
              0.33376598358154297,
              0.11623253673315048,
              -0.4871731996536255
            ],
            [
              -0.6474093198776245,
              -0.5114085674285889,
              0.22345781326293945,
              0.4680020809173584,
              0.5593030452728271,
              -0.6568359136581421
            ]
          ],
          "column": 6,
          "row": 6
        }
      ]
    },
    {
      "biases": [
        {
          "array": [
            [0.9778012633323669],
            [-0.5782440900802612],
            [0.5642160177230835],
            [0.9991390705108643],
            [-0.9247870445251465],
            [0.09578725695610046]
          ],
          "column": 1,
          "row": 6
        },
        {
          "array": [
            [0.7798947095870972],
            [0.91590416431427],
            [0.001755300210788846],
            [-0.6213611364364624],
            [-0.015660524368286133],
            [0.9529407024383545]
          ],
          "column": 1,
          "row": 6
        }
      ],
      "weights": [
        {
          "array": [
            [
              0.6936009526252747,
              0.5450043678283691,
              0.5408167839050293,
              0.9128891825675964
            ],
            [
              -0.9941765069961548,
              0.10529352724552155,
              -0.4264853000640869,
              -0.9462758302688599
            ],
            [
              -0.8697290420532227,
              -0.7178912162780762,
              0.7896777391433716,
              0.9142706394195557
            ],
            [
              0.6868665218353271,
              -0.18347501754760742,
              -0.7211143970489502,
              -0.801929235458374
            ],
            [
              -0.5010530948638916,
              -0.9059876203536987,
              -0.17414116859436035,
              0.3165284991264343
            ],
            [
              0.40932416915893555,
              -0.9187881946563721,
              0.9206021428108215,
              0.5903820991516113
            ]
          ],
          "column": 4,
          "row": 6
        },
        {
          "array": [
            [
              0.9731636047363281,
              0.364549458026886,
              0.8628053665161133,
              0.11360979080200195,
              -0.7327533960342407,
              0.0012039594585075974
            ],
            [
              0.40641605854034424,
              0.6967755556106567,
              0.08330881595611572,
              -0.08558535575866699,
              0.006012916564941406,
              0.032479580491781235
            ],
            [
              0.022320201620459557,
              0.33264899253845215,
              0.048439133912324905,
              0.695580005645752,
              0.3212447166442871,
              -0.9806281328201294
            ],
            [
              0.8540290594100952,
              0.05141264945268631,
              0.06516373157501221,
              9.297768701799214E-4,
              0.4894437789916992,
              0.285919189453125
            ],
            [
              0.4506590962409973,
              -0.9808677434921265,
              0.5417494773864746,
              0.33376598358154297,
              0.11623253673315048,
              -0.4871731996536255
            ],
            [
              -0.6474093198776245,
              -0.5114085674285889,
              0.22345781326293945,
              0.4680020809173584,
              0.5593030452728271,
              0.9686060547828674
            ]
          ],
          "column": 6,
          "row": 6
        }
      ]
    },
    {
      "biases": [
        {
          "array": [
            [0.9778012633323669],
            [-0.5782440900802612],
            [0.5642160177230835],
            [0.9991390705108643],
            [-0.9247870445251465],
            [0.09578725695610046]
          ],
          "column": 1,
          "row": 6
        },
        {
          "array": [
            [0.7798947095870972],
            [0.91590416431427],
            [0.001755300210788846],
            [-0.6213611364364624],
            [0.9627829194068909],
            [0.9529407024383545]
          ],
          "column": 1,
          "row": 6
        }
      ],
      "weights": [
        {
          "array": [
            [
              0.6936009526252747,
              0.5450043678283691,
              0.5408167839050293,
              0.9128891825675964
            ],
            [
              -0.9941765069961548,
              0.10529352724552155,
              -0.4264853000640869,
              -0.9462758302688599
            ],
            [
              -0.8697290420532227,
              -0.7178912162780762,
              0.7896777391433716,
              0.9142706394195557
            ],
            [
              0.6868665218353271,
              -0.18347501754760742,
              -0.7211143970489502,
              -0.801929235458374
            ],
            [
              -0.5010530948638916,
              -0.9059876203536987,
              -0.17414116859436035,
              0.3165284991264343
            ],
            [
              0.40932416915893555,
              -0.9187881946563721,
              0.9206021428108215,
              0.5903820991516113
            ]
          ],
          "column": 4,
          "row": 6
        },
        {
          "array": [
            [
              0.9731636047363281,
              0.364549458026886,
              0.8628053665161133,
              0.11360979080200195,
              -0.7327533960342407,
              0.0012039594585075974
            ],
            [
              0.40641605854034424,
              -0.6012983322143555,
              0.08330881595611572,
              -0.08558535575866699,
              0.006012916564941406,
              0.032479580491781235
            ],
            [
              0.9850431680679321,
              0.33264899253845215,
              0.048439133912324905,
              0.695580005645752,
              0.3212447166442871,
              -0.9806281328201294
            ],
            [
              0.8540290594100952,
              0.05141264945268631,
              0.06516373157501221,
              9.297768701799214E-4,
              0.4894437789916992,
              0.285919189453125
            ],
            [
              0.4506590962409973,
              -0.9808677434921265,
              0.5417494773864746,
              0.33376598358154297,
              0.11623253673315048,
              -0.4871731996536255
            ],
            [
              -0.6474093198776245,
              -0.5114085674285889,
              0.22345781326293945,
              0.6910010576248169,
              0.5593030452728271,
              -0.6568359136581421
            ]
          ],
          "column": 6,
          "row": 6
        }
      ]
    },
    {
      "biases": [
        {
          "array": [
            [0.9778012633323669],
            [-0.5782440900802612],
            [0.5642160177230835],
            [0.9991390705108643],
            [-0.9247870445251465],
            [0.09578725695610046]
          ],
          "column": 1,
          "row": 6
        },
        {
          "array": [
            [0.7798947095870972],
            [0.91590416431427],
            [0.001755300210788846],
            [-0.6213611364364624],
            [-0.015660524368286133],
            [0.9529407024383545]
          ],
          "column": 1,
          "row": 6
        }
      ],
      "weights": [
        {
          "array": [
            [
              0.6936009526252747,
              0.5450043678283691,
              0.5408167839050293,
              0.9128891825675964
            ],
            [
              -0.9941765069961548,
              0.10529352724552155,
              -0.4264853000640869,
              -0.9462758302688599
            ],
            [
              -0.8697290420532227,
              -0.7178912162780762,
              0.7896777391433716,
              0.9142706394195557
            ],
            [
              0.6868665218353271,
              0.025726264342665672,
              -0.7211143970489502,
              -0.801929235458374
            ],
            [
              -0.5010530948638916,
              -0.9059876203536987,
              -0.17414116859436035,
              0.3165284991264343
            ],
            [
              0.40932416915893555,
              -0.9187881946563721,
              0.9206021428108215,
              0.5903820991516113
            ]
          ],
          "column": 4,
          "row": 6
        },
        {
          "array": [
            [
              0.9731636047363281,
              0.364549458026886,
              0.8628053665161133,
              0.11360979080200195,
              -0.7327533960342407,
              0.0012039594585075974
            ],
            [
              0.40641605854034424,
              -0.6012983322143555,
              0.08330881595611572,
              -0.08558535575866699,
              0.006012916564941406,
              0.032479580491781235
            ],
            [
              0.022320201620459557,
              0.33264899253845215,
              0.048439133912324905,
              0.695580005645752,
              0.3212447166442871,
              -0.9806281328201294
            ],
            [
              0.8540290594100952,
              0.05141264945268631,
              0.06516373157501221,
              9.297768701799214E-4,
              0.4894437789916992,
              0.285919189453125
            ],
            [
              0.4506590962409973,
              -0.9808677434921265,
              0.5417494773864746,
              0.33376598358154297,
              0.11623253673315048,
              -0.4871731996536255
            ],
            [
              -0.6474093198776245,
              0.9481632709503174,
              0.22345781326293945,
              0.4680020809173584,
              0.5593030452728271,
              -0.6568359136581421
            ]
          ],
          "column": 6,
          "row": 6
        }
      ]
    },
    {
      "biases": [
        {
          "array": [
            [0.9778012633323669],
            [-0.5782440900802612],
            [0.5642160177230835],
            [0.9991390705108643],
            [-0.9247870445251465],
            [0.09578725695610046]
          ],
          "column": 1,
          "row": 6
        },
        {
          "array": [
            [0.7798947095870972],
            [0.91590416431427],
            [0.001755300210788846],
            [-0.6213611364364624],
            [-0.015660524368286133],
            [0.9529407024383545]
          ],
          "column": 1,
          "row": 6
        }
      ],
      "weights": [
        {
          "array": [
            [
              0.6936009526252747,
              0.5450043678283691,
              0.5408167839050293,
              0.9128891825675964
            ],
            [
              -0.9941765069961548,
              0.10529352724552155,
              -0.4264853000640869,
              -0.9462758302688599
            ],
            [
              -0.8697290420532227,
              -0.7178912162780762,
              0.7896777391433716,
              0.9142706394195557
            ],
            [
              0.6868665218353271,
              -0.18347501754760742,
              -0.7211143970489502,
              -0.801929235458374
            ],
            [
              -0.5010530948638916,
              -0.9059876203536987,
              -0.17414116859436035,
              0.3165284991264343
            ],
            [
              0.40932416915893555,
              -0.9187881946563721,
              0.9206021428108215,
              0.5903820991516113
            ]
          ],
          "column": 4,
          "row": 6
        },
        {
          "array": [
            [
              0.9731636047363281,
              0.9225610494613647,
              0.8628053665161133,
              0.11360979080200195,
              -0.7327533960342407,
              0.0012039594585075974
            ],
            [
              0.40641605854034424,
              -0.6012983322143555,
              0.08330881595611572,
              -0.08558535575866699,
              0.006012916564941406,
              0.032479580491781235
            ],
            [
              0.022320201620459557,
              0.33264899253845215,
              0.048439133912324905,
              0.695580005645752,
              0.3212447166442871,
              -0.9806281328201294
            ],
            [
              0.8540290594100952,
              0.05141264945268631,
              0.06516373157501221,
              9.297768701799214E-4,
              0.4894437789916992,
              0.285919189453125
            ],
            [
              0.4506590962409973,
              -0.9808677434921265,
              0.5417494773864746,
              0.33376598358154297,
              0.11623253673315048,
              -0.4871731996536255
            ],
            [
              -0.6474093198776245,
              -0.5114085674285889,
              0.22345781326293945,
              0.4680020809173584,
              0.5593030452728271,
              -0.6568359136581421
            ]
          ],
          "column": 6,
          "row": 6
        }
      ]
    },
    {
      "biases": [
        {
          "array": [
            [0.9778012633323669],
            [-0.5782440900802612],
            [0.5642160177230835],
            [0.9991390705108643],
            [-0.9247870445251465],
            [0.09578725695610046]
          ],
          "column": 1,
          "row": 6
        },
        {
          "array": [
            [0.7798947095870972],
            [0.91590416431427],
            [0.001755300210788846],
            [-0.6213611364364624],
            [-0.015660524368286133],
            [0.9538967609405518]
          ],
          "column": 1,
          "row": 6
        }
      ],
      "weights": [
        {
          "array": [
            [
              0.6936009526252747,
              0.5450043678283691,
              0.5408167839050293,
              0.9128891825675964
            ],
            [
              -0.9941765069961548,
              0.10529352724552155,
              -0.4264853000640869,
              -0.9462758302688599
            ],
            [
              -0.8697290420532227,
              -0.7178912162780762,
              0.8038334250450134,
              0.9142706394195557
            ],
            [
              0.6868665218353271,
              -0.18347501754760742,
              -0.7211143970489502,
              -0.801929235458374
            ],
            [
              -0.5010530948638916,
              -0.9059876203536987,
              -0.17414116859436035,
              0.3165284991264343
            ],
            [
              0.40932416915893555,
              -0.9187881946563721,
              0.9206021428108215,
              0.5903820991516113
            ]
          ],
          "column": 4,
          "row": 6
        },
        {
          "array": [
            [
              0.9731636047363281,
              0.364549458026886,
              0.8628053665161133,
              0.11360979080200195,
              -0.7327533960342407,
              0.49235033988952637
            ],
            [
              0.40641605854034424,
              -0.6012983322143555,
              0.08330881595611572,
              0.015283388085663319,
              0.006012916564941406,
              0.032479580491781235
            ],
            [
              0.022320201620459557,
              0.33264899253845215,
              0.048439133912324905,
              0.695580005645752,
              0.3212447166442871,
              -0.9806281328201294
            ],
            [
              0.8540290594100952,
              0.05141264945268631,
              0.06516373157501221,
              9.297768701799214E-4,
              0.4894437789916992,
              0.285919189453125
            ],
            [
              0.4506590962409973,
              -0.9808677434921265,
              0.5417494773864746,
              0.33376598358154297,
              0.11623253673315048,
              -0.4871731996536255
            ],
            [
              -0.6474093198776245,
              -0.5114085674285889,
              0.22345781326293945,
              0.4680020809173584,
              0.5593030452728271,
              -0.6568359136581421
            ]
          ],
          "column": 6,
          "row": 6
        }
      ]
    },
    {
      "biases": [
        {
          "array": [
            [0.9778012633323669],
            [-0.5782440900802612],
            [0.5642160177230835],
            [0.9991390705108643],
            [-0.9247870445251465],
            [0.09578725695610046]
          ],
          "column": 1,
          "row": 6
        },
        {
          "array": [
            [0.7798947095870972],
            [0.91590416431427],
            [0.7554820775985718],
            [-0.6213611364364624],
            [-0.015660524368286133],
            [0.9529407024383545]
          ],
          "column": 1,
          "row": 6
        }
      ],
      "weights": [
        {
          "array": [
            [
              0.6936009526252747,
              0.5450043678283691,
              0.5408167839050293,
              0.9128891825675964
            ],
            [
              -0.9941765069961548,
              0.10529352724552155,
              -0.4264853000640869,
              -0.9462758302688599
            ],
            [
              -0.8697290420532227,
              -0.7178912162780762,
              0.7896777391433716,
              0.9142706394195557
            ],
            [
              0.6868665218353271,
              -0.18347501754760742,
              -0.7211143970489502,
              -0.801929235458374
            ],
            [
              -0.5010530948638916,
              -0.9059876203536987,
