{
  "generation": 26,
  "brains": [
    {
      "biases": [
        {
          "array": [
            [-0.1135706901550293],
            [-0.6050782203674316],
            [-0.6382114887237549],
            [0.20415103435516357],
            [0.02435588836669922],
            [-0.007208108901977539],
            [0.0010448989924043417],
            [0.22502315044403076],
            [-0.8722116947174072],
            [-0.014399409294128418],
            [0.9870051145553589],
            [-0.41669678688049316],
            [0.08150263875722885],
            [0.286202073097229],
            [0.9256556034088135],
            [0.22498846054077148]
          ],
          "column": 1,
          "row": 16
        },
        {
          "array": [
            [-0.39243900775909424],
            [-0.49230432510375977],
            [0.1670076847076416],
            [-0.587316632270813],
            [-0.8826978206634521],
            [-0.016602516174316406],
            [-0.5987006425857544]
          ],
          "column": 1,
          "row": 7
        }
      ],
      "weights": [
        {
          "array": [
            [
              0.1124793291091919,
              0.2712632417678833,
              -0.049602627754211426,
              0.23079133033752441,
              -0.35892748832702637,
              0.641130805015564,
              0.15687549114227295,
              -0.9907970428466797,
              0.23851442337036133,
              -0.47473347187042236,
              0.9232902526855469
            ],
            [
              0.9920589923858643,
              -0.3965723514556885,
              -0.6584278345108032,
              -0.3807448148727417,
              0.0013823049375787377,
              -0.26779961585998535,
              0.002112503396347165,
              0.6061438322067261,
              -0.03083789348602295,
              -0.6280717849731445,
              0.3710390031337738
            ],
            [
              -0.7255228757858276,
              -0.016338348388671875,
              -0.6751033067703247,
              0.8873753547668457,
              -0.3704202175140381,
              0.39420461654663086,
              -0.42110979557037354,
              0.22128045558929443,
              0.886471152305603,
              -0.3879423141479492,
              0.7341952323913574
            ],
            [
              -0.30946218967437744,
              0.9464010000228882,
              -0.5062981843948364,
              0.7007424831390381,
              -0.9555090665817261,
              -0.020563840866088867,
              -0.30831658840179443,
              0.7118352651596069,
              -0.5506148338317871,
              0.8976360559463501,
              -0.0024013519287109375
            ],
            [
              0.4400562047958374,
              -0.9620660543441772,
              0.3204340934753418,
              -0.9739701747894287,
              -0.46682238578796387,
              0.9899494647979736,
              -0.9620312452316284,
              -0.6945496797561646,
              0.8714302778244019,
              0.9430055618286133,
              -0.9194091558456421
            ],
            [
              0.36852729320526123,
              -0.028241634368896484,
              0.6994551420211792,
              0.998350977897644,
              -0.439131498336792,
              0.45041680335998535,
              0.8833361864089966,
              -0.004723668098449707,
              -0.03862500190734863,
              -0.4456073045730591,
              -0.02930295467376709
            ],
            [
              0.20147573947906494,
              -0.36752796173095703,
              0.9398667812347412,
              0.16009259223937988,
              0.5799658298492432,
              -0.8456333875656128,
              -0.7932469844818115,
              0.9037826657295227,
              0.7235554456710815,
              0.9952977299690247,
              0.7778102159500122
            ],
            [
              -0.79119873046875,
              -0.742687463760376,
              0.005407202523201704,
              -0.7237019538879395,
              -0.974006175994873,
              0.7555515766143799,
              0.9538986682891846,
              0.6350852251052856,
              0.8255007266998291,
              -0.8877112865447998,
              -0.7924052476882935
            ],
            [
              -0.6411142349243164,
              0.8442586660385132,
              -0.5899503231048584,
              0.17373216152191162,
              -0.750159740447998,
              -0.27658259868621826,
              0.030785080045461655,
              0.9305596351623535,
              -0.6426494121551514,
              -0.5918772220611572,
              0.904677152633667
            ],
            [
              0.8722370862960815,
              -0.8010233640670776,
              0.5271263122558594,
              -0.9542397260665894,
              0.5824133157730103,
              -0.2352151870727539,
              -0.962876558303833,
              0.8807258605957031,
              -0.35208749771118164,
              -0.2694888114929199,
              0.1923353672027588
            ],
            [
              -0.024449825286865234,
              -0.3151918649673462,
              -0.7077875137329102,
              0.46611130237579346,
              -0.47147607803344727,
              -0.06449234485626221,
              0.2549368143081665,
              -0.8476216793060303,
              0.12689363956451416,
              0.8121753931045532,
              -0.3502018451690674
            ],
            [
              0.008098742924630642,
              0.8858292102813721,
              -0.14919209480285645,
              0.9383907318115234,
              0.5491441488265991,
              0.03828787803649902,
              -0.6802455186843872,
              0.5426892042160034,
              -0.9364231824874878,
              0.1305938959121704,
              -0.48922646045684814
            ],
            [
              0.29564225673675537,
              -0.7246882915496826,
              -0.9477685689926147,
              -0.07932424545288086,
              0.7570384740829468,
              0.044039130210876465,
              -0.7929706573486328,
              0.8659541606903076,
              -0.9733868837356567,
              0.236395001411438,
              -0.9845682382583618
            ],
            [
              -0.23512697219848633,
              -0.4112889766693115,
              -0.5722957849502563,
              -0.2960244417190552,
              -0.689375638961792,
              -0.7516549825668335,
              0.23525094985961914,
              0.8497576713562012,
              -0.8989396095275879,
              0.8066296577453613,
              -0.6371303796768188
            ],
            [
              0.5471628904342651,
              -0.6229047775268555,
              0.003948310390114784,
              0.08365088701248169,
              0.27524733543395996,
              -0.23468267917633057,
              0.844670295715332,
              0.5095767974853516,
              0.7720253467559814,
              0.6741763353347778,
              0.891973614692688
            ],
            [
              0.0021555423736572266,
              0.4528120756149292,
              0.7670693397521973,
              -0.019535541534423828,
              -0.44551587104797363,
              0.4113081693649292,
              0.0023682783357799053,
              0.5048682689666748,
              -0.6300656795501709,
              0.9414641261100769,
              -0.6537598371505737
            ]
          ],
          "column": 11,
          "row": 16
        },
        {
          "array": [
            [
              -0.06569206714630127,
              -0.19566643238067627,
              0.16797268390655518,
              0.550093948841095,
              0.44987690448760986,
              0.5017728805541992,
              0.6891732215881348,
              -0.3199930191040039,
              0.8869208097457886,
              0.16852033138275146,
              0.706912636756897,
              0.4677068591117859,
              0.8678067922592163,
              0.005958568304777145,
              0.972104549407959,
              0.1477367877960205
            ],
            [
              -0.9626336097717285,
              -0.777963399887085,
              0.6652841567993164,
              0.11981439590454102,
              0.3578833341598511,
              0.9115285873413086,
              0.7324985265731812,
              -0.19281506538391113,
              -0.5815731287002563,
              -0.6874402761459351,
              0.2733660936355591,
              -0.23636269569396973,
              0.7224372625350952,
              0.7040629386901855,
              0.10525143146514893,
              -0.3728775978088379
            ],
            [
              -0.09570634365081787,
              0.6922518014907837,
              0.4269423484802246,
              -0.7209540605545044,
              0.16214752197265625,
              -0.6547302007675171,
              -0.9782458543777466,
              0.8998956680297852,
              0.945050835609436,
              1.1599063873291016E-4,
              -0.6623086929321289,
              0.07772445678710938,
              0.6930278539657593,
              -0.13391852378845215,
              0.8552521467208862,
              0.05744314193725586
            ],
            [
              0.8262152671813965,
              -0.1777735948562622,
              0.4071826934814453,
              0.5434985160827637,
              0.37170422077178955,
              0.9270074367523193,
              0.1603391170501709,
              -0.17890691757202148,
              -0.20627355575561523,
              -0.2235713005065918,
              0.7003500461578369,
              0.6326462030410767,
              -0.5249595642089844,
              -0.48032331466674805,
              0.7488316297531128,
              0.68398118019104
            ],
            [
              0.6367326974868774,
              0.550988495349884,
              -0.554438591003418,
              0.9622546434402466,
              -0.43662941455841064,
              0.3126899003982544,
              0.580604076385498,
              -0.5153049230575562,
              -0.8650270700454712,
              0.9421002864837646,
              -0.3185335397720337,
              0.5797994136810303,
              0.7023036479949951,
              0.45654332637786865,
              -0.7532150745391846,
              0.40301668643951416
            ],
            [
              -0.8454940319061279,
              -0.4170815944671631,
              -0.24912488460540771,
              0.835639476776123,
              -0.9737348556518555,
              0.6565210819244385,
              0.18405091762542725,
              0.09340059757232666,
              0.11499309539794922,
              -0.6625621318817139,
              0.9703422784805298,
              0.8211336135864258,
              0.29764628410339355,
              0.629096508026123,
              -0.8174221515655518,
              0.8690900802612305
            ],
            [
              0.7982185482978821,
              0.4451022148132324,
              -0.3774939775466919,
              0.004812690895050764,
              -0.8513658046722412,
              -0.32347798347473145,
              -0.7634624242782593,
              -0.14046013355255127,
              -0.4242171049118042,
              -0.5923210382461548,
              0.789258599281311,
              0.8353784084320068,
              0.2884964942932129,
              -0.9540712833404541,
              -0.6651408672332764,
              -0.11391997337341309
            ]
          ],
          "column": 16,
          "row": 7
        }
      ]
    },
    {
      "biases": [
        {
          "array": [
            [-0.1135706901550293],
            [-0.6050782203674316],
            [-0.6382114887237549],
            [0.20415103435516357],
            [0.02435588836669922],
            [-0.007208108901977539],
            [-0.6506763696670532],
            [0.22502315044403076],
            [-0.8722116947174072],
            [0.03198865428566933],
            [0.9870051145553589],
            [-0.41669678688049316],
            [-0.833939790725708],
            [0.286202073097229],
            [0.9256556034088135],
            [0.22498846054077148]
          ],
          "column": 1,
          "row": 16
        },
        {
          "array": [
            [-0.39243900775909424],
            [-0.49230432510375977],
            [0.1670076847076416],
            [-0.587316632270813],
            [-0.8826978206634521],
            [-0.016602516174316406],
            [-0.5987006425857544]
          ],
          "column": 1,
          "row": 7
        }
      ],
      "weights": [
        {
          "array": [
            [
              0.1124793291091919,
              0.4734964966773987,
              -0.049602627754211426,
              0.23079133033752441,
              -0.35892748832702637,
              0.641130805015564,
              0.15687549114227295,
              -0.9907970428466797,
              0.23851442337036133,
              -0.47473347187042236,
              0.934806764125824
            ],
            [
              0.44751155376434326,
              0.005785046610981226,
              -0.6584278345108032,
              0.9624006152153015,
              -0.2801210880279541,
              -0.26779961585998535,
              0.5774520635604858,
              0.6061438322067261,
              -0.03083789348602295,
              -0.6280717849731445,
              0.7782605886459351
            ],
            [
              -0.7255228757858276,
              -0.016338348388671875,
              0.0020013893954455853,
              0.8873753547668457,
              -0.3704202175140381,
              0.39420461654663086,
              0.0026792497374117374,
              0.22128045558929443,
              0.886471152305603,
              -0.3879423141479492,
              0.7341952323913574
            ],
            [
              -0.30946218967437744,
              0.9464010000228882,
              0.005432008299976587,
              0.7007424831390381,
              -0.9555090665817261,
              0.34104782342910767,
              -0.30831658840179443,
              0.7118352651596069,
              -0.5506148338317871,
              0.8976360559463501,
              0.0046442169696092606
            ],
            [
              0.4400562047958374,
              -0.9620660543441772,
              0.3204340934753418,
              -0.9739701747894287,
              -0.46682238578796387,
              0.03110659122467041,
              -0.9620312452316284,
              -0.6945496797561646,
              0.8714302778244019,
              0.37419748306274414,
              -0.9194091558456421
            ],
            [
              0.9732567667961121,
              -0.028241634368896484,
              0.6994551420211792,
              0.6962014436721802,
              0.0010121018858626485,
              0.45041680335998535,
              0.8833361864089966,
              -0.004723668098449707,
              -0.03862500190734863,
              -0.4456073045730591,
              -0.02930295467376709
            ],
            [
              0.20147573947906494,
              -0.36752796173095703,
              0.2678704261779785,
              0.16009259223937988,
              0.5799658298492432,
              -0.8456333875656128,
              0.9906540513038635,
              0.6591916084289551,
              0.7235554456710815,
              -0.5398578643798828,
              0.7778102159500122
            ],
            [
              -0.79119873046875,
              -0.742687463760376,
              -0.04979109764099121,
              -0.7237019538879395,
              -0.974006175994873,
              0.7555515766143799,
              0.9538986682891846,
              0.6350852251052856,
              0.8255007266998291,
              -0.8877112865447998,
              -0.7924052476882935
            ],
            [
              -0.6411142349243164,
              0.8442586660385132,
              -0.5899503231048584,
              0.17373216152191162,
              -0.750159740447998,
              0.9836117625236511,
              0.9160817861557007,
              0.9305596351623535,
              -0.6426494121551514,
              -0.5918772220611572,
              0.904677152633667
            ],
            [
              0.8722370862960815,
              0.024331796914339066,
              0.5271263122558594,
              -0.9542397260665894,
              0.5824133157730103,
              -0.2352151870727539,
              -0.962876558303833,
              0.8807258605957031,
              -0.35208749771118164,
              -0.2694888114929199,
              0.1923353672027588
            ],
            [
              -0.024449825286865234,
              -0.3151918649673462,
              -0.7077875137329102,
              0.46611130237579346,
              -0.47147607803344727,
              -0.06449234485626221,
              0.2549368143081665,
              -0.8476216793060303,
              0.12689363956451416,
              -0.9027345180511475,
              -0.3502018451690674
            ],
            [
              -0.3390018939971924,
              0.8858292102813721,
              -0.14919209480285645,
              0.9383907318115234,
              0.5491441488265991,
              0.03828787803649902,
              -0.6802455186843872,
              0.5426892042160034,
              -0.9364231824874878,
              0.1305938959121704,
              -0.48922646045684814
            ],
            [
              0.29564225673675537,
              -0.7246882915496826,
              -0.9477685689926147,
              -0.07932424545288086,
              0.01349971815943718,
              0.044039130210876465,
              0.998293936252594,
              0.8659541606903076,
              -0.9733868837356567,
              0.997570812702179,
              -0.9845682382583618
            ],
            [
              -0.23512697219848633,
              -0.4112889766693115,
              -0.5722957849502563,
              -0.2960244417190552,
              -0.689375638961792,
              -0.7516549825668335,
              0.23525094985961914,
              0.8497576713562012,
              -0.8989396095275879,
              0.017483696341514587,
              -0.6371303796768188
            ],
            [
              0.5471628904342651,
              -0.6229047775268555,
              0.7450371980667114,
              0.18833816051483154,
              0.27524733543395996,
              -0.23468267917633057,
              0.844670295715332,
              0.5095767974853516,
              0.7720253467559814,
              0.6741763353347778,
              0.891973614692688
            ],
            [
              0.0021555423736572266,
              0.4528120756149292,
              0.7670693397521973,
              0.8946022391319275,
              -0.44551587104797363,
              0.4113081693649292,
              0.8957771062850952,
              0.5048682689666748,
              -0.6300656795501709,
              -0.13689911365509033,
              -0.6537598371505737
            ]
          ],
          "column": 11,
          "row": 16
        },
        {
          "array": [
            [
              -0.06569206714630127,
              -0.19566643238067627,
              0.9626668691635132,
              0.8615971803665161,
              0.44987690448760986,
              0.9985809326171875,
              0.6891732215881348,
              -0.3199930191040039,
              0.8869208097457886,
              0.5878056883811951,
              0.5314345359802246,
              0.018611431121826172,
              0.16549363732337952,
              0.3759654760360718,
              0.972104549407959,
              0.1477367877960205
            ],
            [
              -0.9626336097717285,
              -0.777963399887085,
              0.6652841567993164,
              0.11981439590454102,
              0.3578833341598511,
              0.9115285873413086,
              0.7324985265731812,
              -0.19281506538391113,
              0.008580348454415798,
              -0.6874402761459351,
              0.2733660936355591,
              -0.23636269569396973,
              0.7224372625350952,
              0.7040629386901855,
              0.10525143146514893,
              -0.3728775978088379
            ],
            [
              -0.09570634365081787,
              0.6922518014907837,
              0.4269423484802246,
              -0.7209540605545044,
              0.16214752197265625,
              -0.6547302007675171,
              -0.9782458543777466,
              0.8998956680297852,
              0.945050835609436,
              1.1599063873291016E-4,
              -0.6623086929321289,
              0.07772445678710938,
              0.6930278539657593,
              -0.13391852378845215,
              0.8552521467208862,
              0.05744314193725586
            ],
            [
              0.8262152671813965,
              -0.1777735948562622,
              0.4071826934814453,
              0.5434985160827637,
              0.37170422077178955,
              0.9270074367523193,
              0.1603391170501709,
              -0.17890691757202148,
              -0.20627355575561523,
              -0.2235713005065918,
              0.7003500461578369,
              0.6326462030410767,
              0.002310260897502303,
              -0.48032331466674805,
              0.7488316297531128,
              0.43888503313064575
            ],
            [
              0.6367326974868774,
              0.030993342399597168,
              -0.554438591003418,
              0.9622546434402466,
              -0.43662941455841064,
              0.3126899003982544,
              0.580604076385498,
              -0.5153049230575562,
              -0.8650270700454712,
              0.9421002864837646,
              -0.3185335397720337,
              0.5797994136810303,
              0.7023036479949951,
              0.45654332637786865,
              0.009472943842411041,
              0.40301668643951416
            ],
            [
              -0.8454940319061279,
              -0.4170815944671631,
              -0.24912488460540771,
              0.835639476776123,
              -0.9737348556518555,
              0.6565210819244385,
              0.18405091762542725,
              0.09340059757232666,
              0.11499309539794922,
              -0.6625621318817139,
              0.9845048189163208,
              0.8211336135864258,
              0.29764628410339355,
              0.629096508026123,
              -0.8174221515655518,
              0.8690900802612305
            ],
            [
              -0.9463063478469849,
              0.4451022148132324,
              8.144822786562145E-4,
              0.6886031627655029,
              -0.8513658046722412,
              -0.32347798347473145,
              -0.7634624242782593,
              -0.14046013355255127,
              -0.4242171049118042,
              0.007304105442017317,
              0.9896960258483887,
              0.8353784084320068,
              0.2884964942932129,
              -0.9540712833404541,
              -0.6651408672332764,
              -0.11391997337341309
            ]
          ],
          "column": 16,
          "row": 7
        }
      ]
    },
    {
      "biases": [
        {
          "array": [
            [-0.1135706901550293],
            [-0.6050782203674316],
            [-0.6382114887237549],
            [0.20415103435516357],
            [0.02435588836669922],
            [-0.007208108901977539],
            [0.0010448989924043417],
            [0.22502315044403076],
            [-0.8722116947174072],
            [-0.014399409294128418],
            [0.9870051145553589],
            [-0.41669678688049316],
            [0.08150263875722885],
            [0.0027673733420670033],
            [0.004961303435266018],
            [0.22498846054077148]
          ],
          "column": 1,
          "row": 16
        },
        {
          "array": [
            [-0.39243900775909424],
            [-0.49230432510375977],
            [0.1670076847076416],
            [-0.587316632270813],
            [-0.8826978206634521],
            [-0.016602516174316406],
            [-0.5987006425857544]
          ],
          "column": 1,
          "row": 7
        }
      ],
      "weights": [
        {
          "array": [
            [
              0.1124793291091919,
              0.2712632417678833,
              -0.049602627754211426,
              0.23079133033752441,
              -0.35892748832702637,
              0.641130805015564,
              0.15687549114227295,
              -0.9907970428466797,
              0.23851442337036133,
              -0.47473347187042236,
              0.9232902526855469
            ],
            [
              0.44751155376434326,
              -0.3965723514556885,
              0.9959410429000854,
              -0.3807448148727417,
              0.0013823049375787377,
              -0.26779961585998535,
              0.5774520635604858,
              0.6061438322067261,
              0.012290299870073795,
              -0.6280717849731445,
              0.3710390031337738
            ],
            [
              -0.7255228757858276,
              -0.016338348388671875,
              -0.6751033067703247,
              0.8873753547668457,
              -0.3704202175140381,
              0.39420461654663086,
              -0.42110979557037354,
              0.22128045558929443,
              0.886471152305603,
              -0.3879423141479492,
              0.8524715304374695
            ],
            [
              -0.30946218967437744,
              0.9464010000228882,
              -0.5062981843948364,
              0.7007424831390381,
              -0.9555090665817261,
              -0.020563840866088867,
              -0.30831658840179443,
              0.7118352651596069,
              -0.5506148338317871,
              0.8976360559463501,
              -0.0024013519287109375
            ],
            [
              0.4400562047958374,
              -0.9620660543441772,
              0.3204340934753418,
              -0.9739701747894287,
              -0.46682238578796387,
              0.9899494647979736,
              -0.9620312452316284,
              -0.6945496797561646,
              0.8714302778244019,
              0.9405115842819214,
              -0.9194091558456421
            ],
            [
              0.36852729320526123,
              -0.028241634368896484,
              0.6994551420211792,
              0.6962014436721802,
              -0.439131498336792,
              0.45041680335998535,
              0.8833361864089966,
              -0.004723668098449707,
              -0.03862500190734863,
              -0.4456073045730591,
              -0.02930295467376709
            ],
            [
              0.20147573947906494,
              -0.36752796173095703,
              0.2678704261779785,
              0.16009259223937988,
              0.5799658298492432,
              -0.8456333875656128,
              -0.7932469844818115,
              0.9037826657295227,
              0.7235554456710815,
              -0.5398578643798828,
              0.7778102159500122
            ],
            [
              -0.79119873046875,
              -0.742687463760376,
              0.005407202523201704,
              0.021865975111722946,
              -0.974006175994873,
              0.7555515766143799,
              0.9538986682891846,
              0.6350852251052856,
              0.8255007266998291,
              -0.8877112865447998,
              -0.7924052476882935
            ],
            [
              -0.6411142349243164,
              0.8442586660385132,
              -0.5899503231048584,
              0.17373216152191162,
              -0.750159740447998,
              -0.27658259868621826,
              0.9160817861557007,
              0.9305596351623535,
              -0.6426494121551514,
              -0.5918772220611572,
              0.904677152633667
            ],
            [
              0.8722370862960815,
              -0.8010233640670776,
              0.5271263122558594,
              -0.9542397260665894,
              0.5824133157730103,
              -0.2352151870727539,
              -0.962876558303833,
              0.8807258605957031,
              -0.35208749771118164,
              -0.2694888114929199,
              0.1923353672027588
            ],
            [
              -0.024449825286865234,
              -0.3151918649673462,
              -0.7077875137329102,
              0.9817286133766174,
              -0.47147607803344727,
              -0.06449234485626221,
              0.2549368143081665,
              -0.8476216793060303,
              0.12689363956451416,
              0.8121753931045532,
              -0.3502018451690674
            ],
            [
              -0.3390018939971924,
              0.8858292102813721,
              -0.14919209480285645,
              0.9383907318115234,
              0.5491441488265991,
              0.03828787803649902,
              -0.6802455186843872,
              0.5426892042160034,
              -0.9364231824874878,
              0.9955418705940247,
              -0.48922646045684814
            ],
            [
              0.29564225673675537,
              -0.7246882915496826,
              -0.9477685689926147,
              -0.07932424545288086,
              0.7570384740829468,
              0.9962217807769775,
              -0.7929706573486328,
              0.8659541606903076,
              -0.9733868837356567,
              0.236395001411438,
              -0.9845682382583618
            ],
            [
              -0.23512697219848633,
              -0.4112889766693115,
              -0.5722957849502563,
              -0.2960244417190552,
              -0.689375638961792,
              -0.7516549825668335,
              0.23525094985961914,
              0.8497576713562012,
              -0.8989396095275879,
              0.8066296577453613,
              -0.6371303796768188
            ],
            [
              0.5471628904342651,
              -0.6229047775268555,
              0.003948310390114784,
              0.08365088701248169,
              0.27524733543395996,
              -0.23468267917633057,
              0.844670295715332,
              0.5095767974853516,
              0.7720253467559814,
              0.6741763353347778,
              0.891973614692688
            ],
            [
              0.0021555423736572266,
              0.4528120756149292,
              0.7670693397521973,
              -0.019535541534423828,
              -0.44551587104797363,
              0.4113081693649292,
              0.8957771062850952,
              0.5048682689666748,
              -0.6300656795501709,
              0.8071376085281372,
              -0.6537598371505737
            ]
          ],
          "column": 11,
          "row": 16
        },
        {
          "array": [
            [
              -0.06569206714630127,
              -0.19566643238067627,
              0.99432772397995,
              0.550093948841095,
              0.44987690448760986,
              0.5017728805541992,
              0.6891732215881348,
              -0.3199930191040039,
              0.8869208097457886,
              0.16852033138275146,
              0.5314345359802246,
              0.4677068591117859,
              0.8678067922592163,
              0.005958568304777145,
              0.972104549407959,
              0.1477367877960205
            ],
            [
              -0.9626336097717285,
              -0.777963399887085,
              0.6652841567993164,
              0.11981439590454102,
              0.3578833341598511,
              0.9115285873413086,
              0.7324985265731812,
              -0.19281506538391113,
              0.0010043756337836385,
              -0.6874402761459351,
              0.2733660936355591,
              -0.23636269569396973,
              0.7224372625350952,
              0.7040629386901855,
              0.10525143146514893,
              0.9872556924819946
            ],
            [
              -0.09570634365081787,
              0.6922518014907837,
              0.4269423484802246,
              -0.7209540605545044,
              0.16214752197265625,
              -0.6547302007675171,
              -0.9782458543777466,
              0.8998956680297852,
              0.945050835609436,
              1.1599063873291016E-4,
              -0.6623086929321289,
              0.9981710910797119,
              0.6930278539657593,
              -0.13391852378845215,
              0.8552521467208862,
              0.05744314193725586
            ],
            [
              0.9936031699180603,
              -0.1777735948562622,
              0.4071826934814453,
              0.5434985160827637,
              0.37170422077178955,
              0.9270074367523193,
              0.1603391170501709,
              -0.17890691757202148,
              -0.20627355575561523,
              -0.2235713005065918,
              0.7003500461578369,
              0.9991280436515808,
              -0.5249595642089844,
              -0.48032331466674805,
              0.7488316297531128,
              0.68398118019104
            ],
            [
              0.6367326974868774,
              0.550988495349884,
              -0.554438591003418,
              0.9622546434402466,
              -0.43662941455841064,
              0.3126899003982544,
              0.580604076385498,
              -0.5153049230575562,
              -0.8650270700454712,
              0.9421002864837646,
              -0.3185335397720337,
              0.5797994136810303,
              0.7023036479949951,
              0.45654332637786865,
              -0.7532150745391846,
              0.40301668643951416
            ],
            [
              -0.8454940319061279,
              -0.4170815944671631,
              -0.24912488460540771,
              0.835639476776123,
              -0.9737348556518555,
              0.6565210819244385,
              0.18405091762542725,
              0.09340059757232666,
              0.11499309539794922,
              -0.6625621318817139,
              0.9845048189163208,
              0.8211336135864258,
              0.29764628410339355,
              0.629096508026123,
              0.625079870223999,
              0.8690900802612305
            ],
            [
              0.8885297179222107,
              0.4451022148132324,
              -0.3774939775466919,
              0.004812690895050764,
              -0.8513658046722412,
              -0.32347798347473145,
              0.9442633390426636,
              -0.14046013355255127,
              -0.4242171049118042,
              -0.5923210382461548,
              0.0038474658504128456,
              0.8353784084320068,
              0.2884964942932129,
              -0.9540712833404541,
              -0.6651408672332764,
              -0.11391997337341309
            ]
          ],
          "column": 16,
          "row": 7
        }
      ]
    },
    {
      "biases": [
        {
          "array": [
            [-0.1135706901550293],
            [-0.6050782203674316],
            [-0.6382114887237549],
            [0.20415103435516357],
            [0.02435588836669922],
            [-0.007208108901977539],
            [-0.6506763696670532],
            [0.019751960411667824],
            [-0.8722116947174072],
            [-0.014399409294128418],
            [0.9870051145553589],
            [-0.41669678688049316],
            [-0.833939790725708],
            [0.286202073097229],
            [0.9256556034088135],
            [0.22498846054077148]
          ],
          "column": 1,
          "row": 16
        },
        {
          "array": [
            [-0.39243900775909424],
            [-0.49230432510375977],
            [0.9935212731361389],
            [-0.587316632270813],
            [-0.8826978206634521],
            [-0.016602516174316406],
            [-0.5987006425857544]
          ],
          "column": 1,
          "row": 7
        }
      ],
      "weights": [
        {
          "array": [
            [
              0.1124793291091919,
              0.2712632417678833,
              -0.049602627754211426,
              0.23079133033752441,
              0.15364664793014526,
              0.641130805015564,
              0.15687549114227295,
              -0.9907970428466797,
              0.23851442337036133,
              -0.47473347187042236,
              0.9232902526855469
            ],
            [
              0.44751155376434326,
              0.9100998640060425,
              -0.6584278345108032,
              -0.3807448148727417,
              -0.2801210880279541,
              0.2287324219942093,
              0.5774520635604858,
              0.6061438322067261,
              -0.03083789348602295,
              -0.6280717849731445,
              0.7782605886459351
            ],
            [
              -0.7255228757858276,
              -0.016338348388671875,
              -0.6751033067703247,
              0.8873753547668457,
              -0.3704202175140381,
              0.39420461654663086,
              -0.42110979557037354,
              0.22128045558929443,
              0.886471152305603,
              -0.3879423141479492,
              0.7341952323913574
            ],
            [
              -0.30946218967437744,
              0.9464010000228882,
              -0.5062981843948364,
              0.7007424831390381,
              -0.9555090665817261,
              -0.020563840866088867,
              -0.30831658840179443,
              0.7118352651596069,
              -0.5506148338317871,
              0.8976360559463501,
              -0.0024013519287109375
            ],
            [
              0.4400562047958374,
              -0.9620660543441772,
              0.3204340934753418,
              0.007446384988725185,
              -0.46682238578796387,
              0.03110659122467041,
              -0.9620312452316284,
              -0.6945496797561646,
              0.8714302778244019,
              0.37419748306274414,
              -0.9194091558456421
            ],
            [
              0.36852729320526123,
              -0.028241634368896484,
              0.6994551420211792,
              0.6962014436721802,
              -0.439131498336792,
              0.45041680335998535,
              0.8833361864089966,
              -0.004723668098449707,
              -0.03862500190734863,
              -0.4456073045730591,
              -0.02930295467376709
            ],
            [
              0.20147573947906494,
              -0.36752796173095703,
              0.2678704261779785,
              0.16009259223937988,
              0.5799658298492432,
              -0.8456333875656128,
              -0.7932469844818115,
              0.6591916084289551,
              0.7235554456710815,
              -0.5398578643798828,
              0.7778102159500122
            ],
            [
              -0.79119873046875,
              -0.742687463760376,
              -0.04979109764099121,
              -0.7237019538879395,
              -0.974006175994873,
              0.7555515766143799,
              0.9538986682891846,
              0.4344750642776489,
              0.8255007266998291,
              -0.8877112865447998,
              -0.7924052476882935
            ],
            [
              -0.6411142349243164,
              0.8442586660385132,
              -0.5899503231048584,
              0.17373216152191162,
              -0.750159740447998,
              -0.27658259868621826,
              0.9160817861557007,
              0.9746561050415039,
              -0.6426494121551514,
              -0.5918772220611572,
              0.904677152633667
            ],
            [
              0.8722370862960815,
              -0.8010233640670776,
              0.5271263122558594,
              -0.9542397260665894,
              0.5824133157730103,
              -0.2352151870727539,
              5.584157770499587E-4,
              0.8807258605957031,
              -0.35208749771118164,
              -0.2694888114929199,
              0.1923353672027588
            ],
            [
              -0.024449825286865234,
              -0.3151918649673462,
              0.7372219562530518,
              0.46611130237579346,
              -0.47147607803344727,
              -0.06449234485626221,
              0.00638005742803216,
              -0.8476216793060303,
              0.12689363956451416,
              -0.9027345180511475,
              -0.3502018451690674
            ],
            [
              -0.3390018939971924,
              0.8858292102813721,
              -0.14919209480285645,
              0.9383907318115234,
              0.5491441488265991,
              0.005490568466484547,
              -0.6802455186843872,
              0.5426892042160034,
              6.23667030595243E-4,
              0.1305938959121704,
              -0.48922646045684814
            ],
            [
              0.29564225673675537,
              -0.7246882915496826,
              -0.9477685689926147,
              -0.07932424545288086,
              0.7570384740829468,
              0.044039130210876465,
              -0.7929706573486328,
              0.8659541606903076,
              -0.9733868837356567,
              0.236395001411438,
              -0.9845682382583618
            ],
            [
              -0.23512697219848633,
              7.156797219067812E-4,
              -0.5722957849502563,
              -0.2960244417190552,
              -0.689375638961792,
              -0.7516549825668335,
              0.23525094985961914,
              0.8497576713562012,
              -0.8989396095275879,
              0.8066296577453613,
              -0.6371303796768188
            ],
            [
              0.5471628904342651,
              0.9864480495452881,
              0.7450371980667114,
              0.18833816051483154,
              0.27524733543395996,
              -0.23468267917633057,
              0.844670295715332,
              0.98919278383255,
              0.7720253467559814,
              0.0019192439503967762,
              0.891973614692688
            ],
            [
              0.0021555423736572266,
              0.4528120756149292,
              0.7670693397521973,
              -0.019535541534423828,
              -0.44551587104797363,
              0.0033028521575033665,
              0.8957771062850952,
              0.5048682689666748,
              -0.6300656795501709,
              -0.13689911365509033,
              -0.6537598371505737
            ]
          ],
          "column": 11,
          "row": 16
        },
        {
          "array": [
            [
              -0.06569206714630127,
              -0.19566643238067627,
              0.16797268390655518,
              0.8615971803665161,
              0.44987690448760986,
              0.5017728805541992,
              0.6891732215881348,
              -0.3199930191040039,
              0.8869208097457886,
              0.16852033138275146,
              0.5314345359802246,
              0.018611431121826172,
              0.9938696622848511,
              0.3759654760360718,
              0.016887515783309937,
              0.1477367877960205
            ],
            [
              -0.9626336097717285,
              -0.777963399887085,
              0.6652841567993164,
              0.11981439590454102,
              0.3578833341598511,
              0.9115285873413086,
              0.7324985265731812,
              -0.19281506538391113,
              -0.5815731287002563,
              -0.6874402761459351,
              0.2733660936355591,
              -0.23636269569396973,
              0.7224372625350952,
              0.7040629386901855,
              0.10525143146514893,
              -0.3728775978088379
            ],
            [
              0.5825368762016296,
              0.6922518014907837,
              0.9917538166046143,
              -0.7209540605545044,
              0.16214752197265625,
              -0.6547302007675171,
              0.027216710150241852,
              0.8998956680297852,
              0.945050835609436,
              1.1599063873291016E-4,
              -0.6623086929321289,
              0.013228577561676502,
              0.6930278539657593,
              -0.13391852378845215,
              0.8552521467208862,
              0.05744314193725586
            ],
            [
              0.8262152671813965,
              -0.1777735948562622,
              0.4071826934814453,
              0.5434985160827637,
              0.37170422077178955,
              0.9270074367523193,
              0.1603391170501709,
              -0.17890691757202148,
              -0.20627355575561523,
              -0.2235713005065918,
              0.7003500461578369,
              0.07995859533548355,
              -0.5249595642089844,
              -0.48032331466674805,
              0.7488316297531128,
              0.68398118019104
            ],
            [
              0.6367326974868774,
              0.030993342399597168,
              -0.554438591003418,
              0.9622546434402466,
              -0.43662941455841064,
              0.3126899003982544,
              0.580604076385498,
              -0.5153049230575562,
              -0.8650270700454712,
              0.9421002864837646,
              -0.3185335397720337,
              0.5797994136810303,
              0.7023036479949951,
              0.45654332637786865,
              -0.7532150745391846,
              0.40301668643951416
            ],
            [
              -0.8454940319061279,
              -0.4170815944671631,
              -0.24912488460540771,
              0.835639476776123,
              -0.9737348556518555,
              0.6565210819244385,
              0.18405091762542725,
              0.09340059757232666,
              0.11499309539794922,
              -0.6625621318817139,
              0.9845048189163208,
              0.8211336135864258,
              0.29764628410339355,
              0.629096508026123,
              -0.8174221515655518,
              0.8690900802612305
            ],
            [
              -0.9463063478469849,
              0.4451022148132324,
              -0.3774939775466919,
              0.6886031627655029,
              -0.8513658046722412,
              -0.32347798347473145,
              -0.7634624242782593,
              -0.14046013355255127,
              -0.4242171049118042,
              -0.5923210382461548,
              0.789258599281311,
              0.8353784084320068,
              0.2884964942932129,
              -0.9540712833404541,
              -0.6651408672332764,
              -0.11391997337341309
            ]
          ],
          "column": 16,
          "row": 7
        }
      ]
    },
    {
      "biases": [
        {
          "array": [
            [-0.1135706901550293],
            [-0.6050782203674316],
            [-0.6382114887237549],
            [0.20415103435516357],
            [0.02435588836669922],
            [-0.007208108901977539],
            [-0.6506763696670532],
            [0.22502315044403076],
            [-0.8722116947174072],
            [-0.014399409294128418],
            [0.9870051145553589],
            [-0.41669678688049316],
            [-0.833939790725708],
            [0.286202073097229],
            [0.9256556034088135],
            [0.22498846054077148]
          ],
          "column": 1,
          "row": 16
        },
        {
          "array": [
            [-0.39243900775909424],
            [-0.49230432510375977],
            [0.1670076847076416],
            [-0.587316632270813],
            [-0.8826978206634521],
            [-0.016602516174316406],
            [-0.5987006425857544]
          ],
          "column": 1,
          "row": 7
        }
      ],
      "weights": [
        {
          "array": [
            [
              0.1124793291091919,
              0.2712632417678833,
              -0.049602627754211426,
              0.23079133033752441,
              0.15364664793014526,
              0.641130805015564,
              0.07970240712165833,
              -0.9907970428466797,
              0.23851442337036133,
              -0.47473347187042236,
              0.9232902526855469
            ],
            [
              0.44751155376434326,
              0.9100998640060425,
              -0.6584278345108032,
              -0.3807448148727417,
              -0.2801210880279541,
              0.2287324219942093,
              0.5774520635604858,
              0.6061438322067261,
              -0.03083789348602295,
              -0.6280717849731445,
              0.7782605886459351
            ],
            [
              -0.7255228757858276,
              -0.016338348388671875,
              -0.6751033067703247,
              0.8873753547668457,
              -0.3704202175140381,
              0.39420461654663086,
              -0.42110979557037354,
              0.22128045558929443,
              0.886471152305603,
              -0.3879423141479492,
              0.7341952323913574
            ],
            [
              -0.30946218967437744,
              0.9464010000228882,
              -0.5062981843948364,
              0.7007424831390381,
              -0.9555090665817261,
              -0.020563840866088867,
              -0.30831658840179443,
              0.7118352651596069,
              -0.5506148338317871,
              0.8976360559463501,
              -0.0024013519287109375
            ],
            [
              0.4400562047958374,
              -0.9620660543441772,
              0.3204340934753418,
              -0.9739701747894287,
              -0.46682238578796387,
              0.03110659122467041,
              -0.9620312452316284,
              0.29702985286712646,
              0.8714302778244019,
              0.37419748306274414,
              -0.9194091558456421
            ],
            [
              0.36852729320526123,
              0.013868850655853748,
              0.6994551420211792,
              0.6962014436721802,
              -0.439131498336792,
              0.45041680335998535,
              0.28939583897590637,
              -0.004723668098449707,
              -0.03862500190734863,
              -0.4456073045730591,
              -0.02930295467376709
            ],
            [
              0.20147573947906494,
              -0.36752796173095703,
              0.2678704261779785,
              0.997271716594696,
              0.5799658298492432,
              -0.8456333875656128,
              -0.7932469844818115,
              0.6591916084289551,
              0.7235554456710815,
              -0.5398578643798828,
              0.7778102159500122
            ],
            [
              -0.79119873046875,
              -0.742687463760376,
              -0.04979109764099121,
              -0.7237019538879395,
              -0.974006175994873,
              0.7555515766143799,
              0.9538986682891846,
              0.6350852251052856,
              0.8255007266998291,
              -0.8877112865447998,
              -0.7924052476882935
            ],
            [
              -0.6411142349243164,
              0.8442586660385132,
              -0.5899503231048584,
              0.17373216152191162,
              -0.750159740447998,
              -0.27658259868621826,
              0.9160817861557007,
              0.9305596351623535,
              -0.6426494121551514,
              -0.5918772220611572,
              0.904677152633667
            ],
            [
              0.8722370862960815,
              -0.8010233640670776,
              0.5271263122558594,
              -0.9542397260665894,
              0.5824133157730103,
              -0.2352151870727539,
              5.584157770499587E-4,
              0.8807258605957031,
              -0.35208749771118164,
              -0.2694888114929199,
              0.1923353672027588
            ],
            [
              -0.024449825286865234,
              -0.3151918649673462,
              0.7372219562530518,
              0.46611130237579346,
              -0.47147607803344727,
              -0.06449234485626221,
              0.2549368143081665,
              -0.8476216793060303,
              0.12689363956451416,
              -0.9027345180511475,
              -0.3502018451690674
            ],
            [
              -0.3390018939971924,
              0.027296239510178566,
              -0.14919209480285645,
              0.9383907318115234,
              0.5491441488265991,
              0.03828787803649902,
              -0.6802455186843872,
              0.5426892042160034,
              6.23667030595243E-4,
              0.1305938959121704,
              -0.48922646045684814
            ],
            [
              0.29564225673675537,
              -0.7246882915496826,
              -0.9477685689926147,
              -0.07932424545288086,
              0.7570384740829468,
              0.044039130210876465,
              -0.7929706573486328,
              0.8659541606903076,
              -0.9733868837356567,
              0.236395001411438,
              -0.9845682382583618
            ],
            [
              -0.23512697219848633,
              7.156797219067812E-4,
              -0.5722957849502563,
              -0.2960244417190552,
              -0.689375638961792,
              -0.7516549825668335,
              0.23525094985961914,
              0.8497576713562012,
              -0.8989396095275879,
              0.8066296577453613,
              -0.6371303796768188
            ],
            [
              0.5471628904342651,
              -0.6229047775268555,
              0.7450371980667114,
              0.18833816051483154,
              0.27524733543395996,
              -0.23468267917633057,
              0.844670295715332,
              0.5095767974853516,
              0.7720253467559814,
              0.6741763353347778,
              0.891973614692688
            ],
            [
              0.0021555423736572266,
              0.4528120756149292,
              0.7670693397521973,
              -0.019535541534423828,
              -0.44551587104797363,
              0.4113081693649292,
              0.8957771062850952,
              0.5048682689666748,
              -0.6300656795501709,
              -0.13689911365509033,
              -0.6537598371505737
            ]
          ],
          "column": 11,
          "row": 16
        },
        {
          "array": [
            [
              -0.06569206714630127,
              -0.19566643238067627,
              0.16797268390655518,
              0.8615971803665161,
              0.44987690448760986,
              0.5017728805541992,
              0.6891732215881348,
              -0.3199930191040039,
              0.8869208097457886,
              0.16852033138275146,
              0.5314345359802246,
              0.018611431121826172,
              0.9791573882102966,
              0.3759654760360718,
              0.972104549407959,
              0.1477367877960205
            ],
            [
              -0.9626336097717285,
              -0.777963399887085,
              0.6652841567993164,
              0.11981439590454102,
              0.3578833341598511,
              0.9115285873413086,
              0.7324985265731812,
              -0.19281506538391113,
              -0.5815731287002563,
              -0.6874402761459351,
              0.2733660936355591,
              -0.23636269569396973,
              0.7224372625350952,
              0.7040629386901855,
              0.10525143146514893,
              -0.3728775978088379
            ],
            [
              0.05499223992228508,
              0.6922518014907837,
              0.4269423484802246,
              -0.7209540605545044,
              0.16214752197265625,
              -0.6547302007675171,
              -0.9782458543777466,
              0.8998956680297852,
              0.945050835609436,
              1.1599063873291016E-4,
              -0.6623086929321289,
              0.07772445678710938,
              0.6930278539657593,
              -0.13391852378845215,
              0.8552521467208862,
              0.05744314193725586
            ],
            [
              0.9189568161964417,
              -0.1777735948562622,
              0.4071826934814453,
              0.5434985160827637,
              0.37170422077178955,
              0.9270074367523193,
              0.1603391170501709,
              -0.17890691757202148,
              0.005244540050625801,
              -0.2235713005065918,
              0.7003500461578369,
              0.6326462030410767,
              -0.5249595642089844,
              -0.48032331466674805,
              0.7488316297531128,
              0.68398118019104
            ],
            [
              0.6367326974868774,
              0.030993342399597168,
              -0.554438591003418,
              0.9622546434402466,
              -0.43662941455841064,
              0.3126899003982544,
              0.580604076385498,
              -0.5153049230575562,
              -0.8650270700454712,
              0.9421002864837646,
              -0.3185335397720337,
              0.5797994136810303,
              0.7023036479949951,
              0.45654332637786865,
              -0.7532150745391846,
              0.40301668643951416
            ],
            [
              -0.8454940319061279,
              -0.4170815944671631,
              -0.24912488460540771,
              0.835639476776123,
              -0.9737348556518555,
              0.6565210819244385,
              0.18405091762542725,
              0.09340059757232666,
              0.11499309539794922,
              -0.6625621318817139,
              0.9845048189163208,
              0.8211336135864258,
              0.29764628410339355,
              0.629096508026123,
              -0.8174221515655518,
              0.8690900802612305
            ],
            [
              -0.9463063478469849,
              0.4451022148132324,
              -0.3774939775466919,
              0.6886031627655029,
              -0.8513658046722412,
              -0.32347798347473145,
              -0.7634624242782593,
              -0.14046013355255127,
              -0.4242171049118042,
              -0.5923210382461548,
              0.789258599281311,
              0.9990527033805847,
              0.2884964942932129,
              -0.9540712833404541,
              -0.6651408672332764,
              -0.11391997337341309
            ]
          ],
          "column": 16,
          "row": 7
        }
      ]
    },
    {
      "biases": [
        {
          "array": [
            [-0.1135706901550293],
            [-0.6050782203674316],
            [-0.6382114887237549],
            [0.20415103435516357],
            [0.02435588836669922],
            [-0.007208108901977539],
            [-0.6506763696670532],
            [0.22502315044403076],
            [-0.8722116947174072],
            [-0.014399409294128418],
            [0.9870051145553589],
            [-0.41669678688049316],
            [-0.833939790725708],
            [0.286202073097229],
            [0.9256556034088135],
            [0.22498846054077148]
          ],
          "column": 1,
          "row": 16
        },
        {
          "array": [
            [-0.39243900775909424],
            [-0.49230432510375977],
            [0.9935212731361389],
            [-0.587316632270813],
            [-0.8826978206634521],
            [-0.016602516174316406],
            [-0.5987006425857544]
          ],
          "column": 1,
          "row": 7
        }
      ],
      "weights": [
        {
          "array": [
            [
              0.1124793291091919,
              0.2712632417678833,
              -0.049602627754211426,
              0.23079133033752441,
              0.15364664793014526,
              0.641130805015564,
              0.15687549114227295,
              -0.9907970428466797,
              0.23851442337036133,
              -0.47473347187042236,
              0.9232902526855469
            ],
            [
              0.44751155376434326,
              0.9100998640060425,
              -0.6584278345108032,
              -0.3807448148727417,
              -0.2801210880279541,
              0.2287324219942093,
              0.5774520635604858,
              0.6061438322067261,
              -0.03083789348602295,
              -0.6280717849731445,
              0.7782605886459351
            ],
            [
              -0.7255228757858276,
              -0.016338348388671875,
              -0.6751033067703247,
              0.8873753547668457,
              -0.3704202175140381,
              0.39420461654663086,
              -0.42110979557037354,
              0.22128045558929443,
              0.886471152305603,
              -0.3879423141479492,
              0.7341952323913574
            ],
            [
              -0.30946218967437744,
              0.9464010000228882,
              -0.5062981843948364,
              0.7007424831390381,
              -0.9555090665817261,
              -0.020563840866088867,
              -0.30831658840179443,
              0.7118352651596069,
              -0.5506148338317871,
              0.8976360559463501,
              -0.0024013519287109375
            ],
            [
              0.4400562047958374,
              -0.9620660543441772,
              0.3204340934753418,
              0.007446384988725185,
              -0.46682238578796387,
              0.03110659122467041,
              -0.9620312452316284,
              -0.6945496797561646,
              0.8714302778244019,
              0.37419748306274414,
              -0.9194091558456421
            ],
            [
              0.36852729320526123,
              -0.028241634368896484,
              0.6994551420211792,
              0.6962014436721802,
              -0.439131498336792,
              0.45041680335998535,
              0.8833361864089966,
              -0.004723668098449707,
              -0.03862500190734863,
              -0.4456073045730591,
              -0.02930295467376709
            ],
            [
              0.20147573947906494,
              -0.36752796173095703,
              0.2678704261779785,
              0.16009259223937988,
              0.5799658298492432,
              -0.8456333875656128,
              -0.7932469844818115,
              0.6591916084289551,
              0.7235554456710815,
              -0.5398578643798828,
              0.7778102159500122
            ],
            [
              -0.79119873046875,
              -0.742687463760376,
              -0.04979109764099121,
              -0.7237019538879395,
              -0.974006175994873,
              0.7555515766143799,
              0.9538986682891846,
              0.4344750642776489,
              0.8255007266998291,
              -0.8877112865447998,
              -0.7924052476882935
            ],
            [
              -0.6411142349243164,
              0.8442586660385132,
              -0.5899503231048584,
              0.17373216152191162,
              -0.750159740447998,
              -0.27658259868621826,
              0.9160817861557007,
              0.9746561050415039,
              -0.6426494121551514,
              -0.5918772220611572,
              0.904677152633667
            ],
            [
              0.8722370862960815,
              -0.8010233640670776,
              0.5271263122558594,
              -0.9542397260665894,
              0.5824133157730103,
              -0.2352151870727539,
              5.584157770499587E-4,
              0.8807258605957031,
              -0.35208749771118164,
              -0.2694888114929199,
              0.1923353672027588
            ],
            [
              -0.024449825286865234,
              -0.3151918649673462,
              0.7372219562530518,
              0.46611130237579346,
              -0.47147607803344727,
              -0.06449234485626221,
              0.00638005742803216,
              -0.8476216793060303,
              0.12689363956451416,
              -0.9027345180511475,
              -0.3502018451690674
            ],
            [
              -0.3390018939971924,
              0.8858292102813721,
              -0.14919209480285645,
              0.9383907318115234,
              0.5491441488265991,
              0.005490568466484547,
              -0.6802455186843872,
              0.5426892042160034,
              6.23667030595243E-4,
              0.1305938959121704,
              -0.48922646045684814
            ],
            [
              0.29564225673675537,
              -0.7246882915496826,
              -0.9477685689926147,
              -0.07932424545288086,
              0.7570384740829468,
              0.044039130210876465,
              -0.7929706573486328,
              0.8659541606903076,
              -0.9733868837356567,
              0.236395001411438,
              -0.9845682382583618
            ],
            [
              -0.23512697219848633,
              7.156797219067812E-4,
              -0.5722957849502563,
              -0.2960244417190552,
              -0.689375638961792,
              -0.7516549825668335,
              0.23525094985961914,
              0.8497576713562012,
              -0.8989396095275879,
              0.8066296577453613,
              -0.6371303796768188
            ],
            [
              0.5471628904342651,
              0.9864480495452881,
              0.7450371980667114,
              0.18833816051483154,
              0.27524733543395996,
              -0.23468267917633057,
              0.844670295715332,
              0.98919278383255,
              0.7720253467559814,
              0.0019192439503967762,
              0.891973614692688
            ],
            [
              0.0021555423736572266,
              0.4528120756149292,
              0.7670693397521973,
              -0.019535541534423828,
              -0.44551587104797363,
              0.4113081693649292,
              0.8957771062850952,
              0.5048682689666748,
              -0.6300656795501709,
              -0.13689911365509033,
              -0.6537598371505737
            ]
          ],
          "column": 11,
          "row": 16
        },
        {
          "array": [
            [
              -0.06569206714630127,
              -0.19566643238067627,
              0.16797268390655518,
              0.8615971803665161,
              0.44987690448760986,
              0.5017728805541992,
              0.6891732215881348,
              -0.3199930191040039,
              0.8869208097457886,
              0.16852033138275146,
              0.5314345359802246,
              0.018611431121826172,
              0.9938696622848511,
              0.3759654760360718,
              0.016887515783309937,
              0.1477367877960205
            ],
            [
              -0.9626336097717285,
              -0.777963399887085,
              0.6652841567993164,
              0.11981439590454102,
              0.3578833341598511,
              0.9115285873413086,
              0.7324985265731812,
              -0.19281506538391113,
              -0.5815731287002563,
              -0.6874402761459351,
              0.2733660936355591,
              -0.23636269569396973,
              0.7224372625350952,
              0.7040629386901855,
              0.10525143146514893,
              -0.3728775978088379
            ],
            [
              0.5825368762016296,
              0.6922518014907837,
              0.4269423484802246,
              -0.7209540605545044,
              0.16214752197265625,
              -0.6547302007675171,
              0.027216710150241852,
              0.8998956680297852,
              0.945050835609436,
              1.1599063873291016E-4,
              -0.6623086929321289,
              0.013228577561676502,
              0.6930278539657593,
              -0.13391852378845215,
              0.8552521467208862,
              0.05744314193725586
            ],
            [
              0.8262152671813965,
              -0.1777735948562622,
              0.4071826934814453,
              0.5434985160827637,
              0.37170422077178955,
              0.9270074367523193,
              0.1603391170501709,
              -0.17890691757202148,
              -0.20627355575561523,
              -0.2235713005065918,
              0.7003500461578369,
              0.07995859533548355,
              -0.5249595642089844,
              -0.48032331466674805,
              0.7488316297531128,
              0.68398118019104
            ],
            [
              0.6367326974868774,
              0.030993342399597168,
              -0.554438591003418,
              0.9622546434402466,
              -0.43662941455841064,
              0.3126899003982544,
              0.580604076385498,
              -0.5153049230575562,
              -0.8650270700454712,
              0.9421002864837646,
              -0.3185335397720337,
              0.5797994136810303,
              0.7023036479949951,
              0.45654332637786865,
              -0.7532150745391846,
              0.40301668643951416
            ],
            [
              -0.8454940319061279,
              -0.4170815944671631,
              -0.24912488460540771,
              0.9952889680862427,
              -0.9737348556518555,
              0.6565210819244385,
              0.18405091762542725,
              0.09340059757232666,
              0.11499309539794922,
              -0.6625621318817139,
              0.9845048189163208,
              0.8211336135864258,
              0.29764628410339355,
              0.629096508026123,
              -0.8174221515655518,
              0.8690900802612305
            ],
            [
              -0.9463063478469849,
              0.4451022148132324,
              -0.3774939775466919,
              0.6886031627655029,
              -0.8513658046722412,
              -0.32347798347473145,
              -0.7634624242782593,
              -0.14046013355255127,
              -0.4242171049118042,
              -0.5923210382461548,
              0.789258599281311,
              0.8353784084320068,
              0.2884964942932129,
              -0.9540712833404541,
              -0.6651408672332764,
              -0.11391997337341309
            ]
          ],
          "column": 16,
          "row": 7
        }
      ]
    },
    {
      "biases": [
        {
          "array": [
            [-0.1135706901550293],
            [-0.6050782203674316],
            [-0.6382114887237549],
            [0.20415103435516357],
            [0.02435588836669922],
            [-0.007208108901977539],
            [0.0010448989924043417],
            [0.22502315044403076],
            [-0.8722116947174072],
            [-0.014399409294128418],
            [0.9870051145553589],
            [-0.41669678688049316],
            [0.08150263875722885],
            [0.286202073097229],
            [0.9256556034088135],
            [0.22498846054077148]
          ],
          "column": 1,
          "row": 16
        },
        {
          "array": [
            [-0.39243900775909424],
            [-0.49230432510375977],
            [0.1670076847076416],
            [-0.587316632270813],
            [-0.8826978206634521],
            [-0.016602516174316406],
            [-0.5987006425857544]
          ],
          "column": 1,
          "row": 7
        }
      ],
      "weights": [
        {
          "array": [
            [
              0.1124793291091919,
              0.2712632417678833,
              -0.049602627754211426,
              0.23079133033752441,
              -0.35892748832702637,
              0.641130805015564,
              0.15687549114227295,
              -0.9907970428466797,
              0.23851442337036133,
              -0.47473347187042236,
              0.9232902526855469
            ],
            [
              0.9920589923858643,
              -0.3965723514556885,
              -0.6584278345108032,
              -0.3807448148727417,
              0.0013823049375787377,
              -0.26779961585998535,
              0.002112503396347165,
              0.6061438322067261,
              -0.03083789348602295,
              -0.6280717849731445,
              0.3710390031337738
            ],
            [
              -0.7255228757858276,
              -0.016338348388671875,
              -0.6751033067703247,
              0.8873753547668457,
              -0.3704202175140381,
              0.39420461654663086,
              -0.42110979557037354,
              0.22128045558929443,
              0.886471152305603,
              -0.3879423141479492,
              0.7341952323913574
            ],
            [
              -0.30946218967437744,
              0.9464010000228882,
              -0.5062981843948364,
              0.7007424831390381,
              -0.9555090665817261,
              -0.020563840866088867,
              -0.30831658840179443,
              0.7118352651596069,
              -0.5506148338317871,
              0.8976360559463501,
              -0.0024013519287109375
            ],
            [
              0.4400562047958374,
              -0.9620660543441772,
              0.3204340934753418,
              -0.9739701747894287,
              -0.46682238578796387,
              0.9899494647979736,
              -0.9620312452316284,
              -0.6945496797561646,
              0.8714302778244019,
              0.9430055618286133,
              -0.9194091558456421
            ],
            [
              0.36852729320526123,
              -0.028241634368896484,
              0.6994551420211792,
              0.998350977897644,
              -0.439131498336792,
              0.45041680335998535,
              0.8833361864089966,
              -0.004723668098449707,
              -0.03862500190734863,
              -0.4456073045730591,
              -0.02930295467376709
            ],
            [
              0.20147573947906494,
              -0.36752796173095703,
              0.2678704261779785,
              0.9965022802352905,
              0.5799658298492432,
              -0.8456333875656128,
              -0.7932469844818115,
              0.9037826657295227,
              0.7235554456710815,
              -0.5398578643798828,
              0.7778102159500122
            ],
            [
              -0.79119873046875,
              -0.742687463760376,
              0.005407202523201704,
              -0.7237019538879395,
              0.9706430435180664,
              0.7555515766143799,
              0.9538986682891846,
              0.6350852251052856,
              0.8255007266998291,
              -0.8877112865447998,
              -0.7924052476882935
            ],
            [
              -0.6411142349243164,
              0.8442586660385132,
              -0.5899503231048584,
              0.17373216152191162,
              -0.750159740447998,
              0.5549613833427429,
              0.030785080045461655,
              0.9305596351623535,
              -0.6426494121551514,
              -0.5918772220611572,
              0.904677152633667
            ],
            [
              0.8722370862960815,
              -0.8010233640670776,
              0.5271263122558594,
              -0.9542397260665894,
              0.5824133157730103,
              -0.2352151870727539,
              -0.962876558303833,
              0.8807258605957031,
              -0.35208749771118164,
              -0.2694888114929199,
              0.1923353672027588
            ],
            [
              0.9807224869728088,
              -0.3151918649673462,
              -0.7077875137329102,
              0.46611130237579346,
              -0.47147607803344727,
              -0.06449234485626221,
              0.2549368143081665,
              -0.8476216793060303,
              0.12689363956451416,
              0.8121753931045532,
              -0.3502018451690674
            ],
            [
              0.008098742924630642,
              0.8858292102813721,
              -0.14919209480285645,
              0.9383907318115234,
              0.5491441488265991,
              0.03828787803649902,
              -0.6802455186843872,
              0.5426892042160034,
              -0.9364231824874878,
              0.1305938959121704,
              -0.48922646045684814
            ],
            [
              0.29564225673675537,
              -0.7246882915496826,
              -0.9477685689926147,
              -0.07932424545288086,
              0.7570384740829468,
              0.044039130210876465,
              -0.7929706573486328,
              0.8659541606903076,
              -0.9733868837356567,
              0.236395001411438,
              -0.9845682382583618
            ],
            [
              -0.23512697219848633,
              -0.4112889766693115,
              -0.5722957849502563,
              -0.2960244417190552,
              -0.689375638961792,
              -0.7516549825668335,
              0.23525094985961914,
              0.8497576713562012,
              -0.8989396095275879,
              0.006055042147636414,
              -0.6371303796768188
            ],
            [
              0.5471628904342651,
              -0.6229047775268555,
              0.003948310390114784,
              0.08365088701248169,
              0.27524733543395996,
              -0.23468267917633057,
              0.844670295715332,
              0.5095767974853516,
              0.7720253467559814,
              0.6741763353347778,
              0.891973614692688
            ],
            [
              0.0021555423736572266,
              0.4528120756149292,
              0.7670693397521973,
              -0.019535541534423828,
              -0.44551587104797363,
              0.4113081693649292,
              0.0023682783357799053,
              0.5048682689666748,
              -0.6300656795501709,
              0.9414641261100769,
              -0.6537598371505737
            ]
          ],
          "column": 11,
          "row": 16
        },
        {
          "array": [
            [
              -0.06569206714630127,
              -0.19566643238067627,
              0.16797268390655518,
              0.550093948841095,
              0.44987690448760986,
              0.5017728805541992,
              0.6891732215881348,
              -0.3199930191040039,
              0.8869208097457886,
              0.16852033138275146,
              0.706912636756897,
              0.4677068591117859,
              0.8678067922592163,
              0.005958568304777145,
              0.972104549407959,
              0.1477367877960205
            ],
            [
              -0.9626336097717285,
              -0.777963399887085,
              0.6652841567993164,
              0.11981439590454102,
              0.3578833341598511,
              0.9115285873413086,
              0.7324985265731812,
              -0.19281506538391113,
              -0.5815731287002563,
              -0.6874402761459351,
              0.2733660936355591,
              -0.23636269569396973,
              0.7224372625350952,
              0.7040629386901855,
              0.10525143146514893,
              -0.3728775978088379
            ],
            [
              -0.09570634365081787,
              0.6922518014907837,
              0.4269423484802246,
              -0.7209540605545044,
              0.16214752197265625,
              -0.6547302007675171,
              -0.9782458543777466,
              0.8998956680297852,
              0.945050835609436,
              1.1599063873291016E-4,
              -0.6623086929321289,
              0.07772445678710938,
              0.6930278539657593,
              -0.13391852378845215,
              0.8552521467208862,
              0.05744314193725586
            ],
            [
              0.8262152671813965,
              -0.1777735948562622,
              0.4071826934814453,
              0.5434985160827637,
              0.37170422077178955,
              0.9270074367523193,
              0.1603391170501709,
              -0.17890691757202148,
              -0.20627355575561523,
              -0.2235713005065918,
              0.7003500461578369,
              0.6326462030410767,
              -0.5249595642089844,
              -0.48032331466674805,
              0.7488316297531128,
              0.68398118019104
            ],
            [
              0.6367326974868774,
              0.550988495349884,
              -0.554438591003418,
              0.9622546434402466,
              -0.43662941455841064,
              0.3126899003982544,
              0.580604076385498,
              -0.5153049230575562,
              -0.8650270700454712,
              0.9421002864837646,
              -0.3185335397720337,
              0.5797994136810303,
              0.7023036479949951,
              0.45654332637786865,
              -0.7532150745391846,
              0.40301668643951416
            ],
            [
              -0.8454940319061279,
              -0.4170815944671631,
              -0.24912488460540771,
              0.835639476776123,
              -0.9737348556518555,
              0.6565210819244385,
              0.18405091762542725,
              0.09340059757232666,
              0.11499309539794922,
              -0.6625621318817139,
              0.9703422784805298,
              0.8211336135864258,
              0.29764628410339355,
              0.629096508026123,
              -0.8174221515655518,
              0.8690900802612305
            ],
            [
              0.7982185482978821,
              0.4451022148132324,
              -0.3774939775466919,
              0.004812690895050764,
              -0.8513658046722412,
              -0.32347798347473145,
              -0.7634624242782593,
              -0.14046013355255127,
              -0.4242171049118042,
              -0.5923210382461548,
              0.789258599281311,
              0.8353784084320068,
              0.2884964942932129,
              -0.9540712833404541,
              -0.6651408672332764,
              -0.11391997337341309
            ]
          ],
          "column": 16,
          "row": 7
        }
      ]
    },
    {
      "biases": [
        {
          "array": [
            [-0.1135706901550293],
            [-0.6050782203674316],
            [-0.6382114887237549],
            [0.20415103435516357],
            [0.02435588836669922],
            [-0.007208108901977539],
            [0.0010448989924043417],
            [0.22502315044403076],
            [-0.8722116947174072],
            [-0.014399409294128418],
            [0.9870051145553589],
            [-0.41669678688049316],
            [0.08150263875722885],
            [0.286202073097229],
            [0.9256556034088135],
            [0.22498846054077148]
          ],
          "column": 1,
          "row": 16
        },
        {
          "array": [
            [-0.39243900775909424],
            [-0.49230432510375977],
            [0.1670076847076416],
            [-0.587316632270813],
            [-0.8826978206634521],
            [-0.016602516174316406],
            [-0.5987006425857544]
          ],
          "column": 1,
          "row": 7
        }
      ],
      "weights": [
        {
          "array": [
            [
              0.1124793291091919,
              0.2712632417678833,
              -0.049602627754211426,
              0.23079133033752441,
              -0.35892748832702637,
              0.641130805015564,
              0.15687549114227295,
              -0.9907970428466797,
              0.23851442337036133,
              -0.47473347187042236,
              0.9232902526855469
            ],
            [
              0.9920589923858643,
              -0.3965723514556885,
              -0.6584278345108032,
              -0.3807448148727417,
              0.0013823049375787377,
              -0.26779961585998535,
              0.002112503396347165,
              0.6061438322067261,
              -0.03083789348602295,
              -0.6280717849731445,
              0.3710390031337738
            ],
            [
              -0.7255228757858276,
              -0.016338348388671875,
              -0.6751033067703247,
              0.8873753547668457,
              -0.3704202175140381,
              0.39420461654663086,
              -0.42110979557037354,
              0.22128045558929443,
              0.886471152305603,
              -0.3879423141479492,
              0.7341952323913574
            ],
            [
              -0.30946218967437744,
              0.9464010000228882,
              -0.5062981843948364,
              0.008562956005334854,
              -0.9555090665817261,
              -0.020563840866088867,
              -0.30831658840179443,
              0.7118352651596069,
              -0.5506148338317871,
              0.8976360559463501,
              -0.0024013519287109375
            ],
            [
              0.4400562047958374,
              0.9946556091308594,
              0.3204340934753418,
              -0.9739701747894287,
              -0.46682238578796387,
              0.9899494647979736,
              -0.9620312452316284,
              -0.6945496797561646,
              0.8714302778244019,
              0.9430055618286133,
              -0.9194091558456421
            ],
            [
              0.36852729320526123,
              -0.028241634368896484,
              0.6994551420211792,
              0.998350977897644,
              -0.439131498336792,
              0.45041680335998535,
              0.8833361864089966,
              -0.004723668098449707,
              -0.03862500190734863,
              -0.4456073045730591,
              -0.02930295467376709
            ],
            [
              0.20147573947906494,
              -0.36752796173095703,
              0.9398667812347412,
              0.16009259223937988,
              0.5799658298492432,
              -0.8456333875656128,
              -0.7932469844818115,
              0.9037826657295227,
              0.7235554456710815,
              0.9952977299690247,
              0.7778102159500122
            ],
            [
              -0.79119873046875,
              -0.742687463760376,
              0.005407202523201704,
              -0.7237019538879395,
              -0.974006175994873,
              0.7555515766143799,
              0.9538986682891846,
              0.6350852251052856,
              0.8255007266998291,
              -0.8877112865447998,
              -0.7924052476882935
            ],
            [
              -0.6411142349243164,
              0.8442586660385132,
              -0.5899503231048584,
              0.17373216152191162,
              -0.750159740447998,
              -0.27658259868621826,
              0.030785080045461655,
              0.9305596351623535,
              -0.6426494121551514,
              -0.5918772220611572,
              0.904677152633667
            ],
            [
              0.8722370862960815,
              -0.8010233640670776,
              0.5271263122558594,
              -0.9542397260665894,
              0.5824133157730103,
              -0.2352151870727539,
              -0.962876558303833,
              0.8807258605957031,
              -0.35208749771118164,
              -0.2694888114929199,
              0.1923353672027588
            ],
            [
              -0.024449825286865234,
              -0.3151918649673462,
              -0.7077875137329102,
              0.46611130237579346,
              -0.47147607803344727,
              -0.06449234485626221,
              0.2549368143081665,
              -0.8476216793060303,
              0.12689363956451416,
              0.8121753931045532,
              -0.3502018451690674
            ],
            [
              0.008098742924630642,
              0.8858292102813721,
              -0.14919209480285645,
              0.9383907318115234,
              0.5491441488265991,
              0.03828787803649902,
              -0.6802455186843872,
              0.5426892042160034,
              -0.9364231824874878,
              0.1305938959121704,
              -0.48922646045684814
            ],
            [
              0.29564225673675537,
              -0.7246882915496826,
              -0.9477685689926147,
              -0.07932424545288086,
              0.7570384740829468,
              0.044039130210876465,
              -0.7929706573486328,
              0.8659541606903076,
              -0.9733868837356567,
              0.236395001411438,
              -0.9845682382583618
            ],
            [
              -0.23512697219848633,
              -0.4112889766693115,
              -0.5722957849502563,
              -0.2960244417190552,
              -0.689375638961792,
              -0.7516549825668335,
              0.23525094985961914,
              0.8497576713562012,
              -0.8989396095275879,
              0.8066296577453613,
              -0.6371303796768188
            ],
            [
              0.5471628904342651,
              -0.6229047775268555,
              0.003948310390114784,
              0.08365088701248169,
              0.27524733543395996,
              -0.23468267917633057,
              0.844670295715332,
              0.5095767974853516,
              0.7720253467559814,
              0.6741763353347778,
              0.891973614692688
            ],
            [
              0.0021555423736572266,
              0.4528120756149292,
              0.7670693397521973,
              -0.019535541534423828,
              0.7328185439109802,
              0.4113081693649292,
              0.0023682783357799053,
              0.5048682689666748,
              -0.6300656795501709,
              0.9414641261100769,
              -0.6537598371505737
            ]
          ],
          "column": 11,
          "row": 16
        },
        {
          "array": [
            [
              -0.06569206714630127,
              -0.19566643238067627,
              0.16797268390655518,
              0.550093948841095,
              0.44987690448760986,
              0.5017728805541992,
              0.6891732215881348,
              -0.3199930191040039,
              0.8869208097457886,
              0.16852033138275146,
              0.706912636756897,
              0.4677068591117859,
              0.8678067922592163,
              0.005958568304777145,
              0.972104549407959,
              0.1477367877960205
            ],
            [
              -0.9626336097717285,
              -0.777963399887085,
              0.6652841567993164,
              0.11981439590454102,
              0.3578833341598511,
              0.9115285873413086,
              0.7324985265731812,
              -0.19281506538391113,
              -0.5815731287002563,
              -0.6874402761459351,
              0.2733660936355591,
              -0.23636269569396973,
              0.7224372625350952,
              0.7040629386901855,
              0.10525143146514893,
              -0.3728775978088379
            ],
            [
              -0.09570634365081787,
              0.6922518014907837,
              0.4269423484802246,
              -0.7209540605545044,
              0.16214752197265625,
              -0.6547302007675171,
              -0.9782458543777466,
              0.8998956680297852,
              0.945050835609436,
              1.1599063873291016E-4,
              -0.6623086929321289,
              0.07772445678710938,
              0.6930278539657593,
              0.9920815229415894,
              0.8552521467208862,
              0.05744314193725586
            ],
            [
              0.8262152671813965,
              -0.1777735948562622,
              0.4071826934814453,
              0.5434985160827637,
              0.37170422077178955,
              0.9270074367523193,
              0.1603391170501709,
              0.949587345123291,
              -0.20627355575561523,
              -0.2235713005065918,
              0.7003500461578369,
              0.6326462030410767,
              -0.5249595642089844,
              -0.48032331466674805,
              0.7488316297531128,
              0.68398118019104
            ],
            [
              0.6367326974868774,
              0.550988495349884,
              -0.554438591003418,
              0.9622546434402466,
              -0.43662941455841064,
              0.3126899003982544,
              0.580604076385498,
              -0.5153049230575562,
              -0.8650270700454712,
              0.9421002864837646,
              -0.3185335397720337,
              0.5797994136810303,
              0.7023036479949951,
              0.45654332637786865,
              -0.7532150745391846,
              0.40301668643951416
            ],
            [
              -0.8454940319061279,
              -0.4170815944671631,
              -0.24912488460540771,
              0.835639476776123,
              -0.9737348556518555,
              0.6565210819244385,
              0.18405091762542725,
              0.09340059757232666,
              0.11499309539794922,
              -0.6625621318817139,
              0.9703422784805298,
              0.8211336135864258,
              0.29764628410339355,
              0.629096508026123,
              -0.8174221515655518,
              0.8690900802612305
            ],
            [
              0.7982185482978821,
              0.4451022148132324,
              -0.3774939775466919,
              0.004812690895050764,
              -0.8513658046722412,
              -0.32347798347473145,
              -0.7634624242782593,
              -0.14046013355255127,
              -0.4242171049118042,
              -0.5923210382461548,
              0.789258599281311,
              0.8353784084320068,
              0.2884964942932129,
              -0.9540712833404541,
              -0.6651408672332764,
              -0.11391997337341309
            ]
          ],
          "column": 16,
          "row": 7
        }
      ]
    },
    {
      "biases": [
        {
          "array": [
            [-0.1135706901550293],
            [-0.6050782203674316],
            [-0.6382114887237549],
            [0.20415103435516357],
            [0.02435588836669922],
            [-0.007208108901977539],
            [-0.6506763696670532],
            [0.22502315044403076],
            [-0.8722116947174072],
            [-0.014399409294128418],
            [0.9870051145553589],
            [-0.41669678688049316],
            [-0.833939790725708],
            [0.286202073097229],
            [0.9256556034088135],
            [0.22498846054077148]
          ],
          "column": 1,
          "row": 16
        },
        {
          "array": [
            [-0.39243900775909424],
            [-0.49230432510375977],
            [0.1670076847076416],
            [-0.587316632270813],
            [-0.8826978206634521],
            [-0.016602516174316406],
            [-0.5987006425857544]
          ],
          "column": 1,
          "row": 7
        }
      ],
      "weights": [
        {
          "array": [
            [
              0.1124793291091919,
              0.2712632417678833,
              -0.049602627754211426,
              0.08413167297840118,
              0.15364664793014526,
              0.641130805015564,
              0.15687549114227295,
              -0.9907970428466797,
              0.23851442337036133,
              -0.47473347187042236,
              0.9232902526855469
            ],
            [
              0.44751155376434326,
              0.9100998640060425,
              -0.6584278345108032,
              -0.3807448148727417,
              -0.2801210880279541,
              0.2287324219942093,
              0.5774520635604858,
              0.6061438322067261,
              -0.03083789348602295,
              -0.6280717849731445,
              0.7782605886459351
            ],
            [
              -0.7255228757858276,
              -0.016338348388671875,
              -0.6751033067703247,
              0.8873753547668457,
              -0.3704202175140381,
              0.39420461654663086,
              -0.42110979557037354,
              0.22128045558929443,
              0.886471152305603,
              -0.3879423141479492,
              0.7341952323913574
            ],
            [
              -0.30946218967437744,
              0.9464010000228882,
              -0.5062981843948364,
              0.7007424831390381,
              -0.9555090665817261,
              -0.020563840866088867,
              -0.30831658840179443,
              0.7118352651596069,
              -0.5506148338317871,
              0.8976360559463501,
              -0.0024013519287109375
            ],
            [
              0.4400562047958374,
              -0.9620660543441772,
              0.3204340934753418,
              0.007446384988725185,
              -0.46682238578796387,
              0.21841083467006683,
              -0.9620312452316284,
              -0.6945496797561646,
              0.8714302778244019,
              0.37419748306274414,
              -0.9194091558456421
            ],
            [
              0.36852729320526123,
              -0.028241634368896484,
              0.6994551420211792,
              0.6962014436721802,
              -0.439131498336792,
              0.45041680335998535,
              0.8833361864089966,
              -0.004723668098449707,
              -0.03862500190734863,
              -0.4456073045730591,
              -0.02930295467376709
            ],
            [
              0.9191734790802002,
              -0.36752796173095703,
              0.2678704261779785,
              0.16009259223937988,
              0.4832364618778229,
              -0.8456333875656128,
              -0.7932469844818115,
              0.6591916084289551,
              0.7235554456710815,
              0.33431440591812134,
              0.7778102159500122
            ],
            [
              -0.79119873046875,
              -0.742687463760376,
              -0.04979109764099121,
              -0.7237019538879395,
              -0.974006175994873,
              0.7555515766143799,
              0.9538986682891846,
              0.6350852251052856,
              0.8255007266998291,
              -0.8877112865447998,
              -0.7924052476882935
            ],
            [
              -0.6411142349243164,
              0.8442586660385132,
              -0.5899503231048584,
              0.004305015318095684,
              -0.750159740447998,
              -0.27658259868621826,
              0.9160817861557007,
