{
  "generation": 52,
  "brains": [
    {
      "biases": [
        {
          "array": [
            [-0.1135706901550293],
            [-0.6050782203674316],
            [-0.6382114887237549],
            [0.7488518953323364],
            [0.02435588836669922],
            [-0.007208108901977539],
            [0.0010448989924043417],
            [0.22502315044403076],
            [-0.8722116947174072],
            [0.004166056402027607],
            [0.9870051145553589],
            [-0.41669678688049316],
            [0.08150263875722885],
            [0.286202073097229],
            [0.9256556034088135],
            [0.9700882434844971]
          ],
          "column": 1,
          "row": 16
        },
        {
          "array": [
            [-0.39243900775909424],
            [-0.49230432510375977],
            [0.1670076847076416],
            [-0.587316632270813],
            [-0.8826978206634521],
            [0.020324157550930977],
            [0.9867421984672546]
          ],
          "column": 1,
          "row": 7
        }
      ],
      "weights": [
        {
          "array": [
            [
              0.1124793291091919,
              0.2712632417678833,
              -0.049602627754211426,
              0.23079133033752441,
              -0.35892748832702637,
              0.641130805015564,
              0.15687549114227295,
              -0.9907970428466797,
              0.23851442337036133,
              -0.47473347187042236,
              0.9232902526855469
            ],
            [
              0.9920589923858643,
              -0.3965723514556885,
              -0.6584278345108032,
              -0.3807448148727417,
              0.0013823049375787377,
              -0.26779961585998535,
              0.002112503396347165,
              0.6061438322067261,
              -0.03083789348602295,
              -0.6280717849731445,
              0.3710390031337738
            ],
            [
              0.0031151892617344856,
              -0.016338348388671875,
              -0.6751033067703247,
              0.8873753547668457,
              -0.3704202175140381,
              0.39420461654663086,
              -0.42110979557037354,
              0.22128045558929443,
              0.886471152305603,
              -0.3879423141479492,
              0.7341952323913574
            ],
            [
              -0.30946218967437744,
              0.9464010000228882,
              -0.5062981843948364,
              0.008562956005334854,
              -0.9555090665817261,
              -0.020563840866088867,
              -0.30831658840179443,
              0.7118352651596069,
              -0.5506148338317871,
              0.8976360559463501,
              -0.0024013519287109375
            ],
            [
              0.4400562047958374,
              0.9946556091308594,
              0.3204340934753418,
              -0.9739701747894287,
              -0.46682238578796387,
              0.9899494647979736,
              -0.9620312452316284,
              -0.6945496797561646,
              0.8714302778244019,
              0.9430055618286133,
              -0.9194091558456421
            ],
            [
              0.36852729320526123,
              -0.028241634368896484,
              0.6994551420211792,
              0.998350977897644,
              -0.439131498336792,
              0.45041680335998535,
              0.8833361864089966,
              -0.004723668098449707,
              -0.03862500190734863,
              0.0034098674077540636,
              0.048056893050670624
            ],
            [
              0.20147573947906494,
              -0.36752796173095703,
              0.9398667812347412,
              0.16009259223937988,
              0.5799658298492432,
              -0.8456333875656128,
              -0.7932469844818115,
              0.9095850586891174,
              0.7235554456710815,
              0.9952977299690247,
              0.7778102159500122
            ],
            [
              7.949364953674376E-4,
              -0.742687463760376,
              0.005407202523201704,
              -0.7237019538879395,
              -0.974006175994873,
              0.7555515766143799,
              0.9538986682891846,
              0.6350852251052856,
              0.8255007266998291,
              -0.8877112865447998,
              -0.7924052476882935
            ],
            [
              -0.6411142349243164,
              0.8442586660385132,
              -0.5899503231048584,
              0.17373216152191162,
              -0.750159740447998,
              -0.27658259868621826,
              0.030785080045461655,
              0.9305596351623535,
              -0.6426494121551514,
              -0.5918772220611572,
              0.904677152633667
            ],
            [
              0.8722370862960815,
              0.3178269565105438,
              0.5271263122558594,
              -0.9542397260665894,
              0.5824133157730103,
              -0.2352151870727539,
              0.9464449882507324,
              0.8807258605957031,
              -0.35208749771118164,
              -0.2694888114929199,
              0.1923353672027588
            ],
            [
              -0.024449825286865234,
              -0.3151918649673462,
              -0.7077875137329102,
              0.46611130237579346,
              -0.47147607803344727,
              -0.06449234485626221,
              0.2549368143081665,
              -0.8476216793060303,
              0.12689363956451416,
              0.8121753931045532,
              0.9984330534934998
            ],
            [
              0.008098742924630642,
              0.8858292102813721,
              -0.14919209480285645,
              0.9383907318115234,
              0.810519814491272,
              0.03828787803649902,
              -0.6802455186843872,
              0.5426892042160034,
              -0.9364231824874878,
              0.1305938959121704,
              -0.48922646045684814
            ],
            [
              0.29564225673675537,
              -0.7246882915496826,
              -0.9477685689926147,
              -0.07932424545288086,
              0.03287224471569061,
              0.044039130210876465,
              0.012719563208520412,
              0.8659541606903076,
              -0.9733868837356567,
              0.236395001411438,
              -0.9845682382583618
            ],
            [
              0.9971079230308533,
              -0.4112889766693115,
              -0.5722957849502563,
              -0.2960244417190552,
              -0.689375638961792,
              -0.7516549825668335,
              0.23525094985961914,
              0.8497576713562012,
              -0.8989396095275879,
              0.8066296577453613,
              -0.6371303796768188
            ],
            [
              0.5471628904342651,
              0.17756478488445282,
              0.003948310390114784,
              0.34615111351013184,
              0.27524733543395996,
              -0.23468267917633057,
              0.844670295715332,
              0.5095767974853516,
              0.7720253467559814,
              0.6741763353347778,
              0.891973614692688
            ],
            [
              0.0021555423736572266,
              0.4528120756149292,
              0.9803204536437988,
              -0.019535541534423828,
              0.0692407637834549,
              0.4113081693649292,
              0.0023682783357799053,
              0.5048682689666748,
              -0.6300656795501709,
              0.23316071927547455,
              -0.6537598371505737
            ]
          ],
          "column": 11,
          "row": 16
        },
        {
          "array": [
            [
              -0.06569206714630127,
              -0.19566643238067627,
              0.16797268390655518,
              0.9147013425827026,
              0.44987690448760986,
              0.5017728805541992,
              0.6891732215881348,
              -0.3199930191040039,
              0.8869208097457886,
              0.9969524145126343,
              0.706912636756897,
              0.4677068591117859,
              0.8678067922592163,
              0.005958568304777145,
              0.6558419466018677,
              0.0131785087287426
            ],
            [
              -0.9626336097717285,
              -0.777963399887085,
              0.6652841567993164,
              0.0024336976930499077,
              0.3578833341598511,
              0.9986143112182617,
              0.7324985265731812,
              -0.19281506538391113,
              -0.5815731287002563,
              -0.6874402761459351,
              0.2733660936355591,
              -0.23636269569396973,
              0.99642413854599,
              0.0031711736228317022,
              0.10525143146514893,
              -0.3728775978088379
            ],
            [
              -0.09570634365081787,
              0.6922518014907837,
              0.4269423484802246,
              -0.7209540605545044,
              0.16214752197265625,
              -0.6547302007675171,
              -0.9782458543777466,
              0.8998956680297852,
              0.945050835609436,
              1.1599063873291016E-4,
              -0.6623086929321289,
              0.07772445678710938,
              0.6930278539657593,
              0.9669498205184937,
              0.8552521467208862,
              0.05744314193725586
            ],
            [
              0.8262152671813965,
              -0.1777735948562622,
              0.4071826934814453,
              0.5434985160827637,
              0.37170422077178955,
              0.9714134931564331,
              0.1603391170501709,
              0.949587345123291,
              -0.20627355575561523,
              -0.2235713005065918,
              0.7003500461578369,
              0.6326462030410767,
              -0.5249595642089844,
              -0.48032331466674805,
              0.7488316297531128,
              0.68398118019104
            ],
            [
              0.6367326974868774,
              0.9492400288581848,
              -0.554438591003418,
              0.9622546434402466,
              -0.43662941455841064,
              0.3126899003982544,
              0.580604076385498,
              -0.5153049230575562,
              -0.8650270700454712,
              0.9421002864837646,
              -0.3185335397720337,
              0.5797994136810303,
              0.7023036479949951,
              0.45654332637786865,
              -0.7532150745391846,
              0.40301668643951416
            ],
            [
              -0.8454940319061279,
              -0.4170815944671631,
              -0.24912488460540771,
              0.835639476776123,
              -0.9737348556518555,
              0.6565210819244385,
              0.18405091762542725,
              0.09340059757232666,
              0.11499309539794922,
              -0.6625621318817139,
              0.9703422784805298,
              0.8211336135864258,
              0.05983589589595795,
              0.629096508026123,
              -0.8174221515655518,
              0.8690900802612305
            ],
            [
              0.7982185482978821,
              0.4451022148132324,
              -0.3774939775466919,
              0.004812690895050764,
              -0.8513658046722412,
              -0.32347798347473145,
              -0.7634624242782593,
              -0.14046013355255127,
              -0.4242171049118042,
              -0.5923210382461548,
              0.789258599281311,
              0.8353784084320068,
              0.2884964942932129,
              -0.9540712833404541,
              -0.6651408672332764,
              0.0012378118699416518
            ]
          ],
          "column": 16,
          "row": 7
        }
      ]
    },
    {
      "biases": [
        {
          "array": [
            [-0.1135706901550293],
            [-0.6050782203674316],
            [-0.6382114887237549],
            [0.7488518953323364],
            [0.02435588836669922],
            [-0.007208108901977539],
            [0.0010448989924043417],
            [0.22502315044403076],
            [-0.8722116947174072],
            [0.004166056402027607],
            [0.9672158360481262],
            [-0.41669678688049316],
            [0.08150263875722885],
            [0.286202073097229],
            [0.9256556034088135],
            [0.22498846054077148]
          ],
          "column": 1,
          "row": 16
        },
        {
          "array": [
            [-0.39243900775909424],
            [-0.49230432510375977],
            [0.1670076847076416],
            [0.15532377362251282],
            [-0.8826978206634521],
            [0.020324157550930977],
            [0.9867421984672546]
          ],
          "column": 1,
          "row": 7
        }
      ],
      "weights": [
        {
          "array": [
            [
              0.1124793291091919,
              0.2712632417678833,
              -0.049602627754211426,
              0.23079133033752441,
              -0.35892748832702637,
              0.641130805015564,
              0.15687549114227295,
              -0.9907970428466797,
              0.23851442337036133,
              -0.47473347187042236,
              0.9232902526855469
            ],
            [
              0.9920589923858643,
              -0.3965723514556885,
              0.0015028156340122223,
              -0.3807448148727417,
              0.0013823049375787377,
              -0.26779961585998535,
              0.002112503396347165,
              0.6061438322067261,
              -0.03083789348602295,
              -0.6280717849731445,
              0.3710390031337738
            ],
            [
              0.0031151892617344856,
              -0.016338348388671875,
              -0.6751033067703247,
              0.8873753547668457,
              -0.3704202175140381,
              0.39420461654663086,
              -0.42110979557037354,
              0.22128045558929443,
              0.886471152305603,
              -0.3879423141479492,
              0.7341952323913574
            ],
            [
              -0.30946218967437744,
              0.9464010000228882,
              -0.5062981843948364,
              0.008562956005334854,
              -0.9555090665817261,
              -0.020563840866088867,
              -0.30831658840179443,
              0.7118352651596069,
              -0.5506148338317871,
              0.8976360559463501,
              -0.0024013519287109375
            ],
            [
              0.4400562047958374,
              0.9946556091308594,
              0.3204340934753418,
              -0.9739701747894287,
              -0.46682238578796387,
              0.9899494647979736,
              -0.9620312452316284,
              -0.6945496797561646,
              0.8714302778244019,
              0.9430055618286133,
              -0.9194091558456421
            ],
            [
              0.36852729320526123,
              0.961441159248352,
              0.6994551420211792,
              0.998350977897644,
              -0.439131498336792,
              0.45041680335998535,
              0.8833361864089966,
              -0.004723668098449707,
              -0.03862500190734863,
              -0.4456073045730591,
              0.048056893050670624
            ],
            [
              0.20147573947906494,
              -0.36752796173095703,
              0.9398667812347412,
              0.16009259223937988,
              0.5799658298492432,
              -0.8456333875656128,
              -0.7932469844818115,
              0.9095850586891174,
              0.7235554456710815,
              0.9952977299690247,
              0.7778102159500122
            ],
            [
              7.949364953674376E-4,
              -0.742687463760376,
              0.005407202523201704,
              -0.7237019538879395,
              -0.974006175994873,
              0.7555515766143799,
              0.9538986682891846,
              0.6350852251052856,
              0.8255007266998291,
              -0.8877112865447998,
              -0.7924052476882935
            ],
            [
              -0.6411142349243164,
              0.8442586660385132,
              -0.5899503231048584,
              0.15894030034542084,
              -0.750159740447998,
              -0.27658259868621826,
              0.030785080045461655,
              0.9305596351623535,
              -0.6426494121551514,
              -0.5918772220611572,
              0.904677152633667
            ],
            [
              0.8722370862960815,
              0.3178269565105438,
              0.5271263122558594,
              -0.9542397260665894,
              0.5824133157730103,
              -0.2352151870727539,
              -0.962876558303833,
              0.8807258605957031,
              -0.35208749771118164,
              -0.2694888114929199,
              0.1923353672027588
            ],
            [
              -0.024449825286865234,
              -0.3151918649673462,
              -0.7077875137329102,
              0.46611130237579346,
              -0.47147607803344727,
              -0.06449234485626221,
              0.2549368143081665,
              -0.8476216793060303,
              0.12689363956451416,
              0.8121753931045532,
              0.9984330534934998
            ],
            [
              0.998664140701294,
              0.8858292102813721,
              -0.14919209480285645,
              0.9383907318115234,
              0.810519814491272,
              0.03828787803649902,
              -0.6802455186843872,
              0.5426892042160034,
              -0.9364231824874878,
              0.1305938959121704,
              -0.48922646045684814
            ],
            [
              0.29564225673675537,
              -0.7246882915496826,
              -0.9477685689926147,
              -0.07932424545288086,
              0.03287224471569061,
              0.044039130210876465,
              0.012719563208520412,
              0.8659541606903076,
              -0.9733868837356567,
              0.236395001411438,
              -0.9845682382583618
            ],
            [
              0.9971079230308533,
              -0.4112889766693115,
              -0.5722957849502563,
              -0.2960244417190552,
              -0.689375638961792,
              -0.7516549825668335,
              0.23525094985961914,
              0.8497576713562012,
              -0.8989396095275879,
              0.8066296577453613,
              -0.6371303796768188
            ],
            [
              0.5471628904342651,
              0.17756478488445282,
              0.003948310390114784,
              0.34615111351013184,
              0.27524733543395996,
              -0.23468267917633057,
              0.844670295715332,
              0.9991598129272461,
              0.7720253467559814,
              0.6741763353347778,
              0.891973614692688
            ],
            [
              0.0021555423736572266,
              0.4528120756149292,
              0.8435736894607544,
              -0.019535541534423828,
              0.0692407637834549,
              0.4113081693649292,
              0.0023682783357799053,
              0.5048682689666748,
              -0.6300656795501709,
              0.23316071927547455,
              -0.6537598371505737
            ]
          ],
          "column": 11,
          "row": 16
        },
        {
          "array": [
            [
              -0.06569206714630127,
              -0.19566643238067627,
              0.16797268390655518,
              0.550093948841095,
              0.44987690448760986,
              0.5017728805541992,
              0.7266737222671509,
              -0.3199930191040039,
              0.8869208097457886,
              0.16852033138275146,
              0.706912636756897,
              0.4677068591117859,
              0.8678067922592163,
              0.005958568304777145,
              0.972104549407959,
              0.0131785087287426
            ],
            [
              -0.9626336097717285,
              -0.777963399887085,
              0.6652841567993164,
              0.0024336976930499077,
              0.3578833341598511,
              0.9986143112182617,
              0.7324985265731812,
              -0.19281506538391113,
              -0.5815731287002563,
              -0.6874402761459351,
              0.2733660936355591,
              -0.23636269569396973,
              0.7224372625350952,
              0.7040629386901855,
              0.10525143146514893,
              -0.3728775978088379
            ],
            [
              -0.09570634365081787,
              0.6922518014907837,
              0.4269423484802246,
              -0.7209540605545044,
              0.16214752197265625,
              -0.6547302007675171,
              -0.9782458543777466,
              0.8998956680297852,
              0.945050835609436,
              1.1599063873291016E-4,
              -0.6623086929321289,
              0.07772445678710938,
              0.6930278539657593,
              0.9669498205184937,
              0.8552521467208862,
              0.05744314193725586
            ],
            [
              0.8262152671813965,
              -0.1777735948562622,
              0.4071826934814453,
              0.5434985160827637,
              0.37170422077178955,
              0.9714134931564331,
              0.1603391170501709,
              0.949587345123291,
              -0.20627355575561523,
              0.001400638953782618,
              0.7003500461578369,
              0.6326462030410767,
              -0.5249595642089844,
              -0.48032331466674805,
              0.7488316297531128,
              0.68398118019104
            ],
            [
              0.6367326974868774,
              0.550988495349884,
              -0.554438591003418,
              0.9622546434402466,
              -0.43662941455841064,
              0.3126899003982544,
              0.580604076385498,
              -0.5153049230575562,
              -0.8650270700454712,
              0.9421002864837646,
              -0.3185335397720337,
              0.5797994136810303,
              0.7023036479949951,
              0.45654332637786865,
              -0.7532150745391846,
              0.40301668643951416
            ],
            [
              -0.8454940319061279,
              -0.4170815944671631,
              -0.24912488460540771,
              0.835639476776123,
              -0.9737348556518555,
              0.6565210819244385,
              0.18405091762542725,
              0.09340059757232666,
              0.11499309539794922,
              -0.6625621318817139,
              0.9703422784805298,
              0.8211336135864258,
              0.05983589589595795,
              0.629096508026123,
              -0.8174221515655518,
              0.8690900802612305
            ],
            [
              0.7982185482978821,
              0.4433632791042328,
              -0.3774939775466919,
              0.004812690895050764,
              -0.8513658046722412,
              -0.32347798347473145,
              -0.7634624242782593,
              -0.14046013355255127,
              -0.4242171049118042,
              -0.5923210382461548,
              0.789258599281311,
              0.8353784084320068,
              0.2884964942932129,
              -0.9540712833404541,
              -0.6651408672332764,
              0.0012378118699416518
            ]
          ],
          "column": 16,
          "row": 7
        }
      ]
    },
    {
      "biases": [
        {
          "array": [
            [-0.1135706901550293],
            [-0.6050782203674316],
            [-0.6382114887237549],
            [0.7488518953323364],
            [0.02435588836669922],
            [-0.007208108901977539],
            [0.0010448989924043417],
            [0.22502315044403076],
            [-0.8722116947174072],
            [0.004166056402027607],
            [0.9870051145553589],
            [-0.41669678688049316],
            [0.08150263875722885],
            [0.286202073097229],
            [0.9256556034088135],
            [0.22498846054077148]
          ],
          "column": 1,
          "row": 16
        },
        {
          "array": [
            [-0.39243900775909424],
            [-0.49230432510375977],
            [0.1670076847076416],
            [0.003105062060058117],
            [-0.8826978206634521],
            [0.020324157550930977],
            [0.9867421984672546]
          ],
          "column": 1,
          "row": 7
        }
      ],
      "weights": [
        {
          "array": [
            [
              0.1124793291091919,
              0.2712632417678833,
              -0.049602627754211426,
              0.23079133033752441,
              -0.35892748832702637,
              0.641130805015564,
              0.15687549114227295,
              -0.9907970428466797,
              0.23851442337036133,
              -0.47473347187042236,
              0.9232902526855469
            ],
            [
              0.9920589923858643,
              -0.3965723514556885,
              -0.6584278345108032,
              0.03943551331758499,
              0.0013823049375787377,
              -0.26779961585998535,
              0.002112503396347165,
              0.6061438322067261,
              -0.03083789348602295,
              -0.6280717849731445,
              0.3710390031337738
            ],
            [
              0.0031151892617344856,
              -0.016338348388671875,
              -0.6751033067703247,
              0.8873753547668457,
              -0.3704202175140381,
              0.39420461654663086,
              -0.42110979557037354,
              0.22128045558929443,
              0.886471152305603,
              -0.3879423141479492,
              0.7341952323913574
            ],
            [
              -0.30946218967437744,
              0.9464010000228882,
              -0.5062981843948364,
              0.008562956005334854,
              -0.9555090665817261,
              -0.020563840866088867,
              -0.30831658840179443,
              0.7118352651596069,
              -0.5506148338317871,
              0.8976360559463501,
              -0.0024013519287109375
            ],
            [
              0.4400562047958374,
              0.9946556091308594,
              0.3204340934753418,
              -0.9739701747894287,
              -0.46682238578796387,
              0.9899494647979736,
              -0.9620312452316284,
              -0.6945496797561646,
              0.8714302778244019,
              0.9430055618286133,
              -0.9194091558456421
            ],
            [
              0.36852729320526123,
              -0.028241634368896484,
              0.6994551420211792,
              0.998350977897644,
              -0.439131498336792,
              0.45041680335998535,
              0.8833361864089966,
              -0.004723668098449707,
              -0.03862500190734863,
              -0.4456073045730591,
              0.048056893050670624
            ],
            [
              0.20147573947906494,
              -0.36752796173095703,
              0.9398667812347412,
              0.16009259223937988,
              0.5799658298492432,
              0.0020118514075875282,
              -0.7932469844818115,
              0.9095850586891174,
              0.7235554456710815,
              0.9952977299690247,
              0.7778102159500122
            ],
            [
              7.949364953674376E-4,
              -0.742687463760376,
              0.005407202523201704,
              -0.7237019538879395,
              -0.974006175994873,
              0.7555515766143799,
              0.9538986682891846,
              0.6350852251052856,
              0.8255007266998291,
              -0.8877112865447998,
              -0.7924052476882935
            ],
            [
              -0.6411142349243164,
              0.8442586660385132,
              -0.5899503231048584,
              0.17373216152191162,
              -0.750159740447998,
              -0.27658259868621826,
              0.030785080045461655,
              0.9305596351623535,
              -0.6426494121551514,
              -0.5918772220611572,
              0.904677152633667
            ],
            [
              0.8722370862960815,
              0.3178269565105438,
              0.5271263122558594,
              -0.9542397260665894,
              0.5824133157730103,
              -0.2352151870727539,
              -0.962876558303833,
              0.8807258605957031,
              -0.35208749771118164,
              -0.2694888114929199,
              0.1923353672027588
            ],
            [
              -0.024449825286865234,
              -0.3151918649673462,
              -0.7077875137329102,
              0.46611130237579346,
              -0.47147607803344727,
              -0.06449234485626221,
              0.2549368143081665,
              -0.8476216793060303,
              0.12689363956451416,
              0.8121753931045532,
              0.9984330534934998
            ],
            [
              0.008098742924630642,
              0.8858292102813721,
              -0.14919209480285645,
              0.9383907318115234,
              0.810519814491272,
              0.03828787803649902,
              -0.6802455186843872,
              0.5426892042160034,
              -0.9364231824874878,
              0.1305938959121704,
              -0.48922646045684814
            ],
            [
              0.29564225673675537,
              -0.7246882915496826,
              -0.9477685689926147,
              -0.07932424545288086,
              0.03287224471569061,
              0.044039130210876465,
              0.012719563208520412,
              0.8659541606903076,
              -0.9733868837356567,
              0.236395001411438,
              -0.9845682382583618
            ],
            [
              0.9971079230308533,
              -0.4112889766693115,
              -0.5722957849502563,
              -0.2960244417190552,
              -0.689375638961792,
              -0.7516549825668335,
              0.23525094985961914,
              0.8497576713562012,
              -0.8989396095275879,
              0.8066296577453613,
              -0.6371303796768188
            ],
            [
              0.5471628904342651,
              0.9991946816444397,
              0.003948310390114784,
              0.34615111351013184,
              0.27524733543395996,
              -0.23468267917633057,
              0.844670295715332,
              0.5095767974853516,
              0.7720253467559814,
              0.6741763353347778,
              0.891973614692688
            ],
            [
              0.0021555423736572266,
              0.4528120756149292,
              0.9803204536437988,
              -0.019535541534423828,
              0.0692407637834549,
              0.4113081693649292,
              0.0023682783357799053,
              0.5048682689666748,
              -0.6300656795501709,
              0.23316071927547455,
              -0.6537598371505737
            ]
          ],
          "column": 11,
          "row": 16
        },
        {
          "array": [
            [
              -0.06569206714630127,
              -0.19566643238067627,
              0.16797268390655518,
              0.550093948841095,
              0.44987690448760986,
              0.5017728805541992,
              0.6891732215881348,
              -0.3199930191040039,
              0.8869208097457886,
              0.16852033138275146,
              0.706912636756897,
              0.4677068591117859,
              0.8678067922592163,
              0.005958568304777145,
              0.972104549407959,
              0.0131785087287426
            ],
            [
              -0.9626336097717285,
              0.2527918815612793,
              0.6652841567993164,
              0.0024336976930499077,
              0.3578833341598511,
              0.9986143112182617,
              0.7324985265731812,
              -0.19281506538391113,
              0.674604058265686,
              -0.6874402761459351,
              0.2191983312368393,
              -0.23636269569396973,
              0.7224372625350952,
              0.7040629386901855,
              0.10525143146514893,
              -0.3728775978088379
            ],
            [
              -0.09570634365081787,
              0.6922518014907837,
              0.4269423484802246,
              -0.7209540605545044,
              0.16214752197265625,
              -0.6547302007675171,
              -0.9782458543777466,
              0.8998956680297852,
              0.945050835609436,
              1.1599063873291016E-4,
              -0.6623086929321289,
              0.07772445678710938,
              0.6930278539657593,
              0.9669498205184937,
              0.8552521467208862,
              0.003674600040540099
            ],
            [
              0.8262152671813965,
              -0.1777735948562622,
              0.4071826934814453,
              0.5434985160827637,
              0.37170422077178955,
              0.9794788956642151,
              0.1603391170501709,
              0.949587345123291,
              -0.20627355575561523,
              -0.2235713005065918,
              0.7003500461578369,
              0.6326462030410767,
              -0.5249595642089844,
              -0.48032331466674805,
              0.7488316297531128,
              0.68398118019104
            ],
            [
              0.6367326974868774,
              0.550988495349884,
              -0.554438591003418,
              0.9622546434402466,
              -0.43662941455841064,
              0.3126899003982544,
              0.580604076385498,
              -0.5153049230575562,
              -0.8650270700454712,
              0.9421002864837646,
              -0.3185335397720337,
              0.5797994136810303,
              0.7023036479949951,
              0.45654332637786865,
              -0.7532150745391846,
              0.40301668643951416
            ],
            [
              -0.8454940319061279,
              -0.4170815944671631,
              -0.24912488460540771,
              0.835639476776123,
              -0.9737348556518555,
              0.6565210819244385,
              0.18405091762542725,
              0.09340059757232666,
              0.11499309539794922,
              -0.6625621318817139,
              0.9703422784805298,
              0.8211336135864258,
              0.05983589589595795,
              0.629096508026123,
              -0.8174221515655518,
              0.8690900802612305
            ],
            [
              0.7982185482978821,
              0.4451022148132324,
              -0.3774939775466919,
              0.004812690895050764,
              -0.8513658046722412,
              -0.32347798347473145,
              -0.7634624242782593,
              -0.14046013355255127,
              -0.4242171049118042,
              -0.5923210382461548,
              0.789258599281311,
              0.8353784084320068,
              0.2884964942932129,
              -0.9540712833404541,
              -0.6651408672332764,
              0.0012378118699416518
            ]
          ],
          "column": 16,
          "row": 7
        }
      ]
    },
    {
      "biases": [
        {
          "array": [
            [-0.1135706901550293],
            [-0.6050782203674316],
            [-0.6382114887237549],
            [0.7488518953323364],
            [0.02435588836669922],
            [-0.007208108901977539],
            [0.011373193003237247],
            [0.22502315044403076],
            [-0.8722116947174072],
            [0.004166056402027607],
            [0.9870051145553589],
            [-0.41669678688049316],
            [0.08150263875722885],
            [0.286202073097229],
            [0.9256556034088135],
            [0.22498846054077148]
          ],
          "column": 1,
          "row": 16
        },
        {
          "array": [
            [-0.39243900775909424],
            [-0.49230432510375977],
            [0.1670076847076416],
            [-0.587316632270813],
            [-0.8826978206634521],
            [0.020324157550930977],
            [0.9867421984672546]
          ],
          "column": 1,
          "row": 7
        }
      ],
      "weights": [
        {
          "array": [
            [
              0.1124793291091919,
              0.2712632417678833,
              -0.049602627754211426,
              0.23079133033752441,
              -0.35892748832702637,
              0.641130805015564,
              0.15687549114227295,
              -0.9907970428466797,
              0.23851442337036133,
              -0.47473347187042236,
              0.9232902526855469
            ],
            [
              0.9920589923858643,
              -0.3965723514556885,
              -0.6584278345108032,
              -0.3807448148727417,
              0.0013823049375787377,
              -0.26779961585998535,
              0.002112503396347165,
              0.6061438322067261,
              -0.03083789348602295,
              -0.6280717849731445,
              0.3710390031337738
            ],
            [
              0.0031151892617344856,
              -0.016338348388671875,
              -0.6751033067703247,
              0.8873753547668457,
              -0.3704202175140381,
              0.39420461654663086,
              -0.42110979557037354,
              0.22128045558929443,
              0.886471152305603,
              -0.3879423141479492,
              0.7341952323913574
            ],
            [
              -0.30946218967437744,
              0.9464010000228882,
              -0.5062981843948364,
              0.008562956005334854,
              -0.9555090665817261,
              -0.020563840866088867,
              0.030836069956421852,
              0.7118352651596069,
              -0.5506148338317871,
              0.8976360559463501,
              -0.0024013519287109375
            ],
            [
              0.4400562047958374,
              0.9946556091308594,
              0.3204340934753418,
              -0.9739701747894287,
              -0.46682238578796387,
              0.9899494647979736,
              -0.9620312452316284,
              -0.6945496797561646,
              0.8714302778244019,
              0.9430055618286133,
              -0.9194091558456421
            ],
            [
              0.36852729320526123,
              -0.028241634368896484,
              0.6994551420211792,
              0.998350977897644,
              -0.439131498336792,
              0.45041680335998535,
              0.8833361864089966,
              -0.004723668098449707,
              -0.03862500190734863,
              -0.4456073045730591,
              0.048056893050670624
            ],
            [
              0.20147573947906494,
              -0.36752796173095703,
              0.9398667812347412,
              0.16009259223937988,
              0.5799658298492432,
              -0.8456333875656128,
              -0.7932469844818115,
              0.9095850586891174,
              0.7235554456710815,
              0.9952977299690247,
              0.7778102159500122
            ],
            [
              7.949364953674376E-4,
              -0.742687463760376,
              0.005407202523201704,
              -0.7237019538879395,
              -0.974006175994873,
              0.7555515766143799,
              0.9538986682891846,
              0.6350852251052856,
              0.8255007266998291,
              -0.8877112865447998,
              -0.7924052476882935
            ],
            [
              -0.6411142349243164,
              0.8442586660385132,
              -0.5899503231048584,
              0.17373216152191162,
              -0.750159740447998,
              -0.27658259868621826,
              0.030785080045461655,
              0.9305596351623535,
              -0.6426494121551514,
              -0.5918772220611572,
              0.904677152633667
            ],
            [
              0.8722370862960815,
              0.3178269565105438,
              0.5271263122558594,
              -0.9542397260665894,
              0.5824133157730103,
              -0.2352151870727539,
              0.9464449882507324,
              0.8807258605957031,
              -0.35208749771118164,
              -0.2694888114929199,
              0.1923353672027588
            ],
            [
              -0.024449825286865234,
              -0.3151918649673462,
              -0.7077875137329102,
              0.46611130237579346,
              -0.47147607803344727,
              -0.06449234485626221,
              0.2549368143081665,
              -0.8476216793060303,
              0.12689363956451416,
              0.8121753931045532,
              0.9984330534934998
            ],
            [
              0.008098742924630642,
              0.8858292102813721,
              -0.14919209480285645,
              0.9383907318115234,
              0.810519814491272,
              0.03828787803649902,
              -0.6802455186843872,
              0.5426892042160034,
              -0.9364231824874878,
              0.1305938959121704,
              -0.48922646045684814
            ],
            [
              0.29564225673675537,
              0.018752574920654297,
              -0.9477685689926147,
              -0.07932424545288086,
              0.03287224471569061,
              0.044039130210876465,
              0.012719563208520412,
              0.8659541606903076,
              -0.9733868837356567,
              0.236395001411438,
              -0.9845682382583618
            ],
            [
              0.9971079230308533,
              -0.4112889766693115,
              -0.5722957849502563,
              -0.2960244417190552,
              -0.689375638961792,
              -0.7516549825668335,
              0.23525094985961914,
              0.8497576713562012,
              -0.8989396095275879,
              0.8066296577453613,
              -0.6371303796768188
            ],
            [
              0.5471628904342651,
              0.17756478488445282,
              0.003948310390114784,
              0.34615111351013184,
              0.27524733543395996,
              -0.23468267917633057,
              0.844670295715332,
              0.5095767974853516,
              0.7720253467559814,
              0.6741763353347778,
              0.891973614692688
            ],
            [
              0.0021555423736572266,
              0.4528120756149292,
              0.9803204536437988,
              -0.019535541534423828,
              0.0692407637834549,
              0.4113081693649292,
              0.0023682783357799053,
              0.5048682689666748,
              -0.6300656795501709,
              0.23316071927547455,
              -0.6537598371505737
            ]
          ],
          "column": 11,
          "row": 16
        },
        {
          "array": [
            [
              -0.06569206714630127,
              -0.19566643238067627,
              0.16797268390655518,
              0.9147013425827026,
              0.44987690448760986,
              0.5017728805541992,
              0.6891732215881348,
              -0.3199930191040039,
              0.8869208097457886,
              0.16852033138275146,
              0.706912636756897,
              0.4677068591117859,
              0.8678067922592163,
              0.005958568304777145,
              0.972104549407959,
              0.0131785087287426
            ],
            [
              -0.9626336097717285,
              -0.777963399887085,
              0.6652841567993164,
              0.0024336976930499077,
              0.3578833341598511,
              0.7657642960548401,
              0.7324985265731812,
              -0.19281506538391113,
              -0.5815731287002563,
              -0.6874402761459351,
              0.2733660936355591,
              -0.23636269569396973,
              0.99642413854599,
              0.0031711736228317022,
              0.10525143146514893,
              -0.3728775978088379
            ],
            [
              -0.09570634365081787,
              0.6922518014907837,
              0.4269423484802246,
              -0.7209540605545044,
              0.16214752197265625,
              -0.6547302007675171,
              -0.9782458543777466,
              0.8998956680297852,
              0.945050835609436,
              1.1599063873291016E-4,
              -0.6623086929321289,
              0.07772445678710938,
              0.6930278539657593,
              0.9669498205184937,
              0.8552521467208862,
              0.05744314193725586
            ],
            [
              0.8262152671813965,
              -0.1777735948562622,
              0.4071826934814453,
              0.5434985160827637,
              0.37170422077178955,
              0.9714134931564331,
              0.1603391170501709,
              0.949587345123291,
              -0.20627355575561523,
              -0.2235713005065918,
              0.7003500461578369,
              0.6326462030410767,
              -0.5249595642089844,
              -0.48032331466674805,
              0.7488316297531128,
              0.68398118019104
            ],
            [
              0.6367326974868774,
              0.550988495349884,
              -0.554438591003418,
              0.9622546434402466,
              -0.43662941455841064,
              0.3126899003982544,
              0.6316316723823547,
              -0.5153049230575562,
              -0.8650270700454712,
              0.9421002864837646,
              -0.3185335397720337,
              0.5797994136810303,
              0.7023036479949951,
              0.45654332637786865,
              -0.7532150745391846,
              0.40301668643951416
            ],
            [
              -0.8454940319061279,
              -0.4170815944671631,
              -0.24912488460540771,
              0.835639476776123,
              -0.9737348556518555,
              0.6565210819244385,
              0.18405091762542725,
              0.09340059757232666,
              0.11499309539794922,
              -0.6625621318817139,
              0.9703422784805298,
              0.8211336135864258,
              0.05983589589595795,
              0.629096508026123,
              -0.8174221515655518,
              0.8690900802612305
            ],
            [
              0.7982185482978821,
              0.4451022148132324,
              -0.3774939775466919,
              0.004812690895050764,
              0.013616646640002728,
              -0.32347798347473145,
              -0.7634624242782593,
              -0.14046013355255127,
              -0.4242171049118042,
              -0.5923210382461548,
              0.789258599281311,
              0.8353784084320068,
              0.2884964942932129,
              -0.9540712833404541,
              -0.6651408672332764,
              0.0012378118699416518
            ]
          ],
          "column": 16,
          "row": 7
        }
      ]
    },
    {
      "biases": [
        {
          "array": [
            [-0.1135706901550293],
            [-0.6050782203674316],
            [-0.6382114887237549],
            [0.7488518953323364],
            [0.02435588836669922],
            [-0.007208108901977539],
            [0.0010448989924043417],
            [0.22502315044403076],
            [-0.8722116947174072],
            [0.004166056402027607],
            [0.9870051145553589],
            [-0.41669678688049316],
            [0.08150263875722885],
            [0.286202073097229],
            [0.9256556034088135],
            [0.22498846054077148]
          ],
          "column": 1,
          "row": 16
        },
        {
          "array": [
            [-0.39243900775909424],
            [-0.49230432510375977],
            [0.1670076847076416],
            [-0.587316632270813],
            [-0.8826978206634521],
            [0.020324157550930977],
            [0.9867421984672546]
          ],
          "column": 1,
          "row": 7
        }
      ],
      "weights": [
        {
          "array": [
            [
              0.1124793291091919,
              0.2712632417678833,
              -0.049602627754211426,
              0.23079133033752441,
              -0.35892748832702637,
              0.641130805015564,
              0.15687549114227295,
              -0.9907970428466797,
              0.23851442337036133,
              -0.47473347187042236,
              0.9232902526855469
            ],
            [
              0.9920589923858643,
              -0.3965723514556885,
              -0.6584278345108032,
              -0.3807448148727417,
              0.0013823049375787377,
              -0.26779961585998535,
              0.002112503396347165,
              0.6061438322067261,
              -0.03083789348602295,
              -0.6280717849731445,
              0.3710390031337738
            ],
            [
              0.0031151892617344856,
              -0.016338348388671875,
              -0.6751033067703247,
              0.8873753547668457,
              -0.3704202175140381,
              0.9541535377502441,
              -0.42110979557037354,
              0.22128045558929443,
              0.886471152305603,
              -0.3879423141479492,
              0.7341952323913574
            ],
            [
              -0.30946218967437744,
              0.9464010000228882,
              -0.5062981843948364,
              0.008562956005334854,
              0.5043843984603882,
              -0.020563840866088867,
              0.14743672311306,
              0.7118352651596069,
              6.881721201352775E-4,
              0.8976360559463501,
              -0.0024013519287109375
            ],
            [
              0.4400562047958374,
              0.9946556091308594,
              0.3204340934753418,
              -0.9739701747894287,
              -0.46682238578796387,
              0.9899494647979736,
              -0.9620312452316284,
              -0.6945496797561646,
              0.8714302778244019,
              0.9430055618286133,
              -0.9194091558456421
            ],
            [
              0.36852729320526123,
              -0.028241634368896484,
              0.6994551420211792,
              0.998350977897644,
              -0.439131498336792,
              0.45041680335998535,
              0.8833361864089966,
              -0.004723668098449707,
              -0.03862500190734863,
              -0.4456073045730591,
              0.048056893050670624
            ],
            [
              0.20147573947906494,
              -0.36752796173095703,
              0.9398667812347412,
              0.16009259223937988,
              0.5799658298492432,
              -0.8456333875656128,
              -0.7932469844818115,
              0.9095850586891174,
              0.7235554456710815,
              0.9952977299690247,
              0.7778102159500122
            ],
            [
              7.949364953674376E-4,
              -0.742687463760376,
              0.005407202523201704,
              -0.7237019538879395,
              -0.974006175994873,
              0.7555515766143799,
              0.9538986682891846,
              0.6350852251052856,
              0.8255007266998291,
              -0.8877112865447998,
              0.005590046755969524
            ],
            [
              -0.6411142349243164,
              0.8442586660385132,
              -0.5899503231048584,
              0.17373216152191162,
              -0.750159740447998,
              -0.27658259868621826,
              0.030785080045461655,
              0.9305596351623535,
              -0.6426494121551514,
              -0.5918772220611572,
              0.904677152633667
            ],
            [
              0.8722370862960815,
              0.3178269565105438,
              0.5271263122558594,
              -0.9542397260665894,
              0.5824133157730103,
              -0.2352151870727539,
              -0.962876558303833,
              0.8807258605957031,
              -0.35208749771118164,
              -0.2694888114929199,
              0.1923353672027588
            ],
            [
              -0.024449825286865234,
              -0.3151918649673462,
              -0.7077875137329102,
              0.46611130237579346,
              -0.47147607803344727,
              -0.06449234485626221,
              0.2549368143081665,
              -0.8476216793060303,
              0.12689363956451416,
              0.8121753931045532,
              0.9984330534934998
            ],
            [
              0.008098742924630642,
              0.8858292102813721,
              -0.14919209480285645,
              0.9383907318115234,
              0.810519814491272,
              0.03828787803649902,
              -0.6802455186843872,
              0.5426892042160034,
              -0.9364231824874878,
              0.1305938959121704,
              -0.48922646045684814
            ],
            [
              0.29564225673675537,
              -0.7246882915496826,
              -0.9477685689926147,
              -0.07932424545288086,
              0.03287224471569061,
              0.044039130210876465,
              0.012719563208520412,
              0.8659541606903076,
              -0.9733868837356567,
              0.236395001411438,
              -0.9845682382583618
            ],
            [
              0.9971079230308533,
              -0.4112889766693115,
              -0.5722957849502563,
              -0.2960244417190552,
              -0.689375638961792,
              -0.7516549825668335,
              0.23525094985961914,
              0.8497576713562012,
              -0.8989396095275879,
              0.8066296577453613,
              -0.6371303796768188
            ],
            [
              0.5471628904342651,
              0.17756478488445282,
              0.56260746717453,
              0.9123948216438293,
              0.27524733543395996,
              -0.23468267917633057,
              0.844670295715332,
              0.5095767974853516,
              0.7720253467559814,
              0.6741763353347778,
              0.891973614692688
            ],
            [
              0.0021555423736572266,
              0.4528120756149292,
              0.9803204536437988,
              -0.019535541534423828,
              0.0692407637834549,
              0.4113081693649292,
              0.0023682783357799053,
              0.5048682689666748,
              -0.6300656795501709,
              0.23316071927547455,
              -0.6537598371505737
            ]
          ],
          "column": 11,
          "row": 16
        },
        {
          "array": [
            [
              -0.06569206714630127,
              -0.19566643238067627,
              0.16797268390655518,
              0.550093948841095,
              0.44987690448760986,
              0.5017728805541992,
              0.6891732215881348,
              -0.3199930191040039,
              0.8869208097457886,
              0.16852033138275146,
              0.706912636756897,
              0.4677068591117859,
              0.8678067922592163,
              0.005958568304777145,
              0.972104549407959,
              0.0131785087287426
            ],
            [
              -0.9626336097717285,
              -0.777963399887085,
              0.6652841567993164,
              0.0024336976930499077,
              0.3578833341598511,
              0.9986143112182617,
              0.7324985265731812,
              -0.19281506538391113,
              -0.5815731287002563,
              -0.6874402761459351,
              0.2733660936355591,
              -0.23636269569396973,
              0.7224372625350952,
              0.7040629386901855,
              0.10525143146514893,
              -0.3728775978088379
            ],
            [
              -0.09570634365081787,
              0.6922518014907837,
              0.4269423484802246,
              -0.7209540605545044,
              0.16214752197265625,
              -0.6547302007675171,
              -0.9782458543777466,
              0.8998956680297852,
              0.945050835609436,
              0.01914539933204651,
              -0.6623086929321289,
              0.07772445678710938,
              0.6930278539657593,
              0.9669498205184937,
              0.8552521467208862,
              0.05744314193725586
            ],
            [
              0.8262152671813965,
              -0.1777735948562622,
              0.4071826934814453,
              0.5434985160827637,
              0.37170422077178955,
              0.9714134931564331,
              0.1603391170501709,
              0.949587345123291,
              0.00504307122901082,
              -0.2235713005065918,
              0.7003500461578369,
              0.6326462030410767,
              -0.5249595642089844,
              -0.48032331466674805,
              0.9773081541061401,
              0.68398118019104
            ],
            [
              0.6367326974868774,
              0.550988495349884,
              -0.554438591003418,
              0.9622546434402466,
              -0.43662941455841064,
              0.3126899003982544,
              0.580604076385498,
              -0.5153049230575562,
              -0.8650270700454712,
              0.9421002864837646,
              -0.3185335397720337,
              0.5797994136810303,
              0.7023036479949951,
              0.45654332637786865,
              -0.7532150745391846,
              0.40301668643951416
            ],
            [
              -0.8454940319061279,
              -0.4170815944671631,
              -0.24912488460540771,
              0.835639476776123,
              -0.9737348556518555,
              0.6565210819244385,
              0.18405091762542725,
              0.09340059757232666,
              0.11499309539794922,
              -0.6625621318817139,
              0.9703422784805298,
              0.8211336135864258,
              0.05983589589595795,
              0.629096508026123,
              -0.8174221515655518,
              0.8690900802612305
            ],
            [
              0.7982185482978821,
              0.4451022148132324,
              -0.3774939775466919,
              0.004812690895050764,
              -0.8513658046722412,
              -0.32347798347473145,
              -0.7634624242782593,
              -0.14046013355255127,
              -0.4242171049118042,
              -0.5923210382461548,
              0.789258599281311,
              0.8353784084320068,
              0.2884964942932129,
              -0.9540712833404541,
              -0.6651408672332764,
              0.0012378118699416518
            ]
          ],
          "column": 16,
          "row": 7
        }
      ]
    },
    {
      "biases": [
        {
          "array": [
            [-0.1135706901550293],
            [-0.6050782203674316],
            [-0.6382114887237549],
            [0.7488518953323364],
            [0.02435588836669922],
            [-0.007208108901977539],
            [0.0010448989924043417],
            [0.22502315044403076],
            [-0.8722116947174072],
            [0.004166056402027607],
            [0.9870051145553589],
            [-0.41669678688049316],
            [0.08150263875722885],
            [0.286202073097229],
            [0.9256556034088135],
            [0.22498846054077148]
          ],
          "column": 1,
          "row": 16
        },
        {
          "array": [
            [-0.39243900775909424],
            [-0.49230432510375977],
            [0.1670076847076416],
            [-0.587316632270813],
            [-0.8826978206634521],
            [0.020324157550930977],
            [0.9867421984672546]
          ],
          "column": 1,
          "row": 7
        }
      ],
      "weights": [
        {
          "array": [
            [
              0.1124793291091919,
              0.2712632417678833,
              -0.049602627754211426,
              0.23079133033752441,
              -0.35892748832702637,
              0.641130805015564,
              0.15687549114227295,
              -0.9907970428466797,
              0.23851442337036133,
              -0.47473347187042236,
              0.9232902526855469
            ],
            [
              0.9920589923858643,
              -0.3965723514556885,
              -0.6584278345108032,
              -0.3807448148727417,
              0.0013823049375787377,
              -0.26779961585998535,
              0.002112503396347165,
              0.6061438322067261,
              -0.03083789348602295,
              -0.6280717849731445,
              0.3710390031337738
            ],
            [
              0.0031151892617344856,
              -0.016338348388671875,
              -0.6751033067703247,
              0.8873753547668457,
              -0.3704202175140381,
              0.39420461654663086,
              -0.42110979557037354,
              0.22128045558929443,
              0.886471152305603,
              -0.3879423141479492,
              0.7341952323913574
            ],
            [
              -0.30946218967437744,
              0.9464010000228882,
              -0.5062981843948364,
              0.008562956005334854,
              -0.9555090665817261,
              -0.020563840866088867,
              -0.30831658840179443,
              0.7118352651596069,
              -0.5506148338317871,
              0.8976360559463501,
              -0.0024013519287109375
            ],
            [
              0.4400562047958374,
              0.9946556091308594,
              0.3204340934753418,
              -0.9739701747894287,
              -0.46682238578796387,
              0.9899494647979736,
              -0.9620312452316284,
              -0.6945496797561646,
              0.8714302778244019,
              0.9430055618286133,
              -0.9194091558456421
            ],
            [
              0.36852729320526123,
              -0.028241634368896484,
              0.6994551420211792,
              0.998350977897644,
              -0.439131498336792,
              0.45041680335998535,
              0.8833361864089966,
              -0.004723668098449707,
              -0.03862500190734863,
              -0.4456073045730591,
              0.048056893050670624
            ],
            [
              0.20147573947906494,
              -0.36752796173095703,
              0.9398667812347412,
              0.16009259223937988,
              0.5799658298492432,
              -0.8456333875656128,
              -0.7932469844818115,
              0.9095850586891174,
              0.7235554456710815,
              0.9952977299690247,
              0.7778102159500122
            ],
            [
              7.949364953674376E-4,
              -0.742687463760376,
              0.005407202523201704,
              -0.7237019538879395,
              -0.974006175994873,
              0.7555515766143799,
              0.9538986682891846,
              0.6350852251052856,
              0.8255007266998291,
              -0.8877112865447998,
              -0.7924052476882935
            ],
            [
              -0.6411142349243164,
              0.8442586660385132,
              -0.5899503231048584,
              0.17373216152191162,
              -0.750159740447998,
              -0.27658259868621826,
              0.030785080045461655,
              0.9305596351623535,
              -0.6426494121551514,
              -0.5918772220611572,
              0.904677152633667
            ],
            [
              0.8722370862960815,
              0.3178269565105438,
              0.5271263122558594,
              -0.9542397260665894,
              0.5824133157730103,
              -0.2352151870727539,
              0.9464449882507324,
              0.8807258605957031,
              -0.35208749771118164,
              -0.2694888114929199,
              0.1923353672027588
            ],
            [
              -0.024449825286865234,
              -0.3151918649673462,
              -0.7077875137329102,
              0.46611130237579346,
              -0.47147607803344727,
              -0.06449234485626221,
              0.2549368143081665,
              -0.8476216793060303,
              0.12689363956451416,
              0.8121753931045532,
              0.9984330534934998
            ],
            [
              0.008098742924630642,
              0.8858292102813721,
              -0.14919209480285645,
              0.9383907318115234,
              0.810519814491272,
              0.03828787803649902,
              -0.6802455186843872,
              0.5426892042160034,
              -0.9364231824874878,
              0.1305938959121704,
              -0.48922646045684814
            ],
            [
              0.29564225673675537,
              -0.7246882915496826,
              -0.9477685689926147,
              -0.07932424545288086,
              0.03287224471569061,
              0.044039130210876465,
              0.012719563208520412,
              0.8659541606903076,
              -0.9733868837356567,
              0.236395001411438,
              -0.9845682382583618
            ],
            [
              0.9971079230308533,
              -0.4112889766693115,
              -0.5722957849502563,
              -0.2960244417190552,
              -0.689375638961792,
              -0.7516549825668335,
              0.23525094985961914,
              0.8497576713562012,
              -0.8989396095275879,
              0.8066296577453613,
              -0.6371303796768188
            ],
            [
              0.5471628904342651,
              0.17756478488445282,
              0.003948310390114784,
              0.34615111351013184,
              0.27524733543395996,
              -0.23468267917633057,
              0.844670295715332,
              0.5095767974853516,
              0.7720253467559814,
              0.6741763353347778,
              0.891973614692688
            ],
            [
              0.0021555423736572266,
              0.4528120756149292,
              0.9803204536437988,
              -0.019535541534423828,
              0.0692407637834549,
              0.4113081693649292,
              0.0023682783357799053,
              0.5048682689666748,
              -0.6300656795501709,
              0.23316071927547455,
              -0.6537598371505737
            ]
          ],
          "column": 11,
          "row": 16
        },
        {
          "array": [
            [
              -0.06569206714630127,
              -0.19566643238067627,
              0.16797268390655518,
              0.9147013425827026,
              0.44987690448760986,
              0.5017728805541992,
              0.6891732215881348,
              -0.3199930191040039,
              0.8869208097457886,
              0.9969524145126343,
              0.706912636756897,
              0.4677068591117859,
              0.8678067922592163,
              0.005958568304777145,
              0.972104549407959,
              0.0131785087287426
            ],
            [
              -0.9626336097717285,
              -0.777963399887085,
              0.6652841567993164,
              0.0024336976930499077,
              0.3578833341598511,
              0.9986143112182617,
              0.7324985265731812,
              -0.19281506538391113,
              -0.5815731287002563,
              -0.6874402761459351,
              0.2733660936355591,
              -0.23636269569396973,
              0.99642413854599,
              0.0031711736228317022,
              0.10525143146514893,
              -0.3728775978088379
            ],
            [
              -0.09570634365081787,
              0.6922518014907837,
              0.4269423484802246,
              -0.7209540605545044,
              0.16214752197265625,
              -0.6547302007675171,
              -0.9782458543777466,
              0.8998956680297852,
              0.945050835609436,
              1.1599063873291016E-4,
              -0.6623086929321289,
              0.07772445678710938,
              0.6930278539657593,
              0.9669498205184937,
              0.8552521467208862,
              0.05744314193725586
            ],
            [
              0.8262152671813965,
              -0.1777735948562622,
              0.4071826934814453,
              0.5434985160827637,
              0.37170422077178955,
              0.9714134931564331,
              0.1603391170501709,
              0.949587345123291,
              -0.20627355575561523,
              -0.2235713005065918,
              0.7003500461578369,
              0.6326462030410767,
              -0.5249595642089844,
              -0.48032331466674805,
              0.7488316297531128,
              0.68398118019104
            ],
            [
              0.6367326974868774,
              0.550988495349884,
              -0.554438591003418,
              0.9622546434402466,
              -0.43662941455841064,
              0.3126899003982544,
              0.580604076385498,
              -0.5153049230575562,
              -0.8650270700454712,
              0.9421002864837646,
              -0.3185335397720337,
              0.5797994136810303,
              0.7023036479949951,
              0.45654332637786865,
              -0.7532150745391846,
              0.40301668643951416
            ],
            [
              -0.8454940319061279,
              -0.4170815944671631,
              -0.24912488460540771,
              0.835639476776123,
              -0.9737348556518555,
              0.6565210819244385,
              0.18405091762542725,
              0.09340059757232666,
              0.11499309539794922,
              -0.6625621318817139,
              0.9703422784805298,
              0.8211336135864258,
              0.05983589589595795,
              0.629096508026123,
              -0.8174221515655518,
              0.8690900802612305
            ],
            [
              0.7982185482978821,
              0.4451022148132324,
              -0.3774939775466919,
              0.004812690895050764,
              -0.8513658046722412,
              -0.32347798347473145,
              -0.7634624242782593,
              -0.14046013355255127,
              -0.4242171049118042,
              -0.5923210382461548,
              0.789258599281311,
              0.8353784084320068,
              0.2884964942932129,
              -0.9540712833404541,
              -0.6651408672332764,
              0.0012378118699416518
            ]
          ],
          "column": 16,
          "row": 7
        }
      ]
    },
    {
      "biases": [
        {
          "array": [
            [-0.1135706901550293],
            [-0.6050782203674316],
            [-0.6382114887237549],
            [0.7488518953323364],
            [0.02435588836669922],
            [-0.007208108901977539],
            [0.0010448989924043417],
            [0.22502315044403076],
            [-0.8722116947174072],
            [0.004166056402027607],
            [0.9870051145553589],
            [-0.41669678688049316],
            [0.08150263875722885],
            [0.286202073097229],
            [0.9256556034088135],
            [0.22498846054077148]
          ],
          "column": 1,
          "row": 16
        },
        {
          "array": [
            [-0.39243900775909424],
            [-0.49230432510375977],
            [0.1670076847076416],
            [-0.587316632270813],
            [-0.8826978206634521],
            [0.020324157550930977],
            [0.9867421984672546]
          ],
          "column": 1,
          "row": 7
        }
      ],
      "weights": [
        {
          "array": [
            [
              0.1124793291091919,
              0.2712632417678833,
              -0.049602627754211426,
              0.23079133033752441,
              -0.35892748832702637,
              0.641130805015564,
              0.15687549114227295,
              -0.9907970428466797,
              0.23851442337036133,
              -0.47473347187042236,
              0.9232902526855469
            ],
            [
              0.9920589923858643,
              -0.3965723514556885,
              -0.6584278345108032,
              -0.3807448148727417,
              0.0013823049375787377,
              -0.26779961585998535,
              0.002112503396347165,
              0.6061438322067261,
              -0.03083789348602295,
              -0.6280717849731445,
              0.3710390031337738
            ],
            [
              0.0031151892617344856,
              -0.016338348388671875,
              -0.6751033067703247,
              0.8873753547668457,
              -0.3704202175140381,
              0.39420461654663086,
              -0.42110979557037354,
              0.22128045558929443,
              0.886471152305603,
              -0.3879423141479492,
              0.7341952323913574
            ],
            [
              -0.30946218967437744,
              0.9464010000228882,
              -0.5062981843948364,
              0.008562956005334854,
              -0.9555090665817261,
              -0.020563840866088867,
              -0.30831658840179443,
              0.7118352651596069,
              -0.5506148338317871,
              0.8976360559463501,
              -0.0024013519287109375
            ],
            [
              0.4400562047958374,
              0.9946556091308594,
              0.3204340934753418,
              -0.9739701747894287,
              0.07353051006793976,
              0.9899494647979736,
              0.23087650537490845,
              -0.6945496797561646,
              0.8714302778244019,
              0.9430055618286133,
              -0.9194091558456421
            ],
            [
              0.36852729320526123,
              -0.028241634368896484,
              0.6994551420211792,
              0.998350977897644,
              -0.439131498336792,
              0.45041680335998535,
              0.8833361864089966,
              -0.004723668098449707,
              -0.03862500190734863,
              -0.4456073045730591,
              0.048056893050670624
            ],
            [
              0.20147573947906494,
              -0.36752796173095703,
              0.9398667812347412,
              0.16009259223937988,
              0.5799658298492432,
              -0.8456333875656128,
              -0.7932469844818115,
              0.9095850586891174,
              0.7235554456710815,
              0.9952977299690247,
              0.7778102159500122
            ],
            [
              7.949364953674376E-4,
              -0.742687463760376,
              0.005407202523201704,
              -0.7237019538879395,
              -0.974006175994873,
              0.7555515766143799,
              0.9538986682891846,
              0.6350852251052856,
              0.8255007266998291,
              -0.8877112865447998,
              -0.7924052476882935
            ],
            [
              -0.6411142349243164,
              0.8442586660385132,
              -0.5899503231048584,
              0.17373216152191162,
              -0.750159740447998,
              -0.27658259868621826,
              0.030785080045461655,
              0.9305596351623535,
              -0.6426494121551514,
              -0.5918772220611572,
              0.9991657733917236
            ],
            [
              0.8722370862960815,
              0.3178269565105438,
              0.5271263122558594,
              -0.9542397260665894,
              0.5824133157730103,
              -0.2352151870727539,
              -0.962876558303833,
              0.8807258605957031,
              -0.35208749771118164,
              -0.2694888114929199,
              0.1923353672027588
            ],
            [
              -0.024449825286865234,
              -0.3151918649673462,
              -0.7077875137329102,
              0.46611130237579346,
              -0.47147607803344727,
              -0.06449234485626221,
              0.2549368143081665,
              -0.8476216793060303,
              0.12689363956451416,
              0.8121753931045532,
              0.9984330534934998
            ],
            [
              0.008098742924630642,
              0.8858292102813721,
              -0.14919209480285645,
              0.9383907318115234,
              0.810519814491272,
              0.03828787803649902,
              -0.6802455186843872,
              0.5426892042160034,
              -0.9364231824874878,
              0.1305938959121704,
              -0.48922646045684814
            ],
            [
              0.29564225673675537,
              -0.7246882915496826,
              -0.9477685689926147,
              -0.07932424545288086,
              0.03287224471569061,
              0.044039130210876465,
              0.012719563208520412,
              0.8659541606903076,
              -0.9733868837356567,
              0.236395001411438,
              -0.9845682382583618
            ],
            [
              0.9971079230308533,
              -0.4112889766693115,
              -0.5722957849502563,
              -0.2960244417190552,
              -0.689375638961792,
              -0.7516549825668335,
              0.23525094985961914,
              0.8497576713562012,
              -0.8989396095275879,
              0.8066296577453613,
              -0.6371303796768188
            ],
            [
              0.5471628904342651,
              0.17756478488445282,
              0.003948310390114784,
              0.34615111351013184,
              0.27524733543395996,
              -0.23468267917633057,
              0.844670295715332,
              0.5095767974853516,
              0.7720253467559814,
              0.6741763353347778,
              0.891973614692688
            ],
            [
              0.0021555423736572266,
              0.4528120756149292,
              0.9803204536437988,
              -0.019535541534423828,
              0.0692407637834549,
              0.4113081693649292,
              0.0023682783357799053,
              0.5048682689666748,
              -0.6300656795501709,
              0.23316071927547455,
              -0.6537598371505737
            ]
          ],
          "column": 11,
          "row": 16
        },
        {
          "array": [
            [
              -0.06569206714630127,
              -0.19566643238067627,
              0.16797268390655518,
              0.15674106776714325,
              0.44987690448760986,
              0.5017728805541992,
              0.6891732215881348,
              -0.3199930191040039,
              0.8869208097457886,
              0.16852033138275146,
              0.706912636756897,
              0.4677068591117859,
              0.8678067922592163,
              0.005958568304777145,
              0.972104549407959,
              0.0131785087287426
            ],
            [
              -0.9626336097717285,
              -0.777963399887085,
              0.6652841567993164,
              0.0024336976930499077,
              0.3578833341598511,
              0.9986143112182617,
              0.7324985265731812,
              -0.19281506538391113,
              -0.5815731287002563,
              -0.6874402761459351,
              0.2733660936355591,
              -0.23636269569396973,
              0.7224372625350952,
              0.7040629386901855,
              0.10525143146514893,
              -0.3728775978088379
            ],
            [
              -0.09570634365081787,
              0.6922518014907837,
              0.4269423484802246,
              -0.7209540605545044,
              0.16214752197265625,
              -0.6547302007675171,
              -0.9782458543777466,
              0.8998956680297852,
              0.945050835609436,
              1.1599063873291016E-4,
              -0.6623086929321289,
              0.07772445678710938,
              0.6930278539657593,
              0.9669498205184937,
              0.8552521467208862,
              0.05744314193725586
            ],
            [
              0.8262152671813965,
              -0.1777735948562622,
              0.4071826934814453,
              0.5434985160827637,
              0.37170422077178955,
              0.057137250900268555,
              0.1603391170501709,
              0.949587345123291,
              -0.20627355575561523,
              -0.2235713005065918,
              0.7003500461578369,
              0.6326462030410767,
              -0.5249595642089844,
              -0.48032331466674805,
              0.7488316297531128,
              0.68398118019104
            ],
            [
              0.6367326974868774,
              0.550988495349884,
              -0.554438591003418,
              0.9622546434402466,
              -0.43662941455841064,
              0.3126899003982544,
              0.580604076385498,
              -0.5153049230575562,
              -0.8650270700454712,
              0.9421002864837646,
              -0.3185335397720337,
              0.5797994136810303,
              0.7023036479949951,
              0.5341680645942688,
              -0.7532150745391846,
              0.40301668643951416
            ],
            [
              -0.8454940319061279,
              -0.4170815944671631,
              -0.24912488460540771,
              0.835639476776123,
              -0.9737348556518555,
              0.6565210819244385,
              0.18405091762542725,
              0.09340059757232666,
              0.11499309539794922,
              -0.6625621318817139,
              0.9703422784805298,
              0.8211336135864258,
              0.05983589589595795,
              0.629096508026123,
              -0.8174221515655518,
              0.8690900802612305
            ],
            [
              0.7982185482978821,
              0.4451022148132324,
              -0.3774939775466919,
              0.004812690895050764,
              -0.8513658046722412,
              -0.32347798347473145,
              -0.7634624242782593,
              -0.14046013355255127,
              -0.4242171049118042,
              -0.5923210382461548,
              0.789258599281311,
              0.8353784084320068,
              0.2884964942932129,
              -0.9540712833404541,
              -0.6651408672332764,
              0.0012378118699416518
            ]
          ],
          "column": 16,
          "row": 7
        }
      ]
    },
    {
      "biases": [
        {
          "array": [
            [-0.1135706901550293],
            [-0.6050782203674316],
            [-0.6382114887237549],
            [0.7488518953323364],
            [0.02435588836669922],
            [-0.007208108901977539],
            [0.0010448989924043417],
            [0.22502315044403076],
            [-0.8722116947174072],
            [0.004166056402027607],
            [0.9870051145553589],
            [-0.41669678688049316],
            [0.08150263875722885],
            [0.286202073097229],
            [0.9256556034088135],
            [0.22498846054077148]
          ],
          "column": 1,
          "row": 16
        },
        {
          "array": [
            [-0.39243900775909424],
            [-0.49230432510375977],
            [0.1670076847076416],
            [-0.587316632270813],
            [-0.8826978206634521],
            [0.020324157550930977],
            [0.9867421984672546]
          ],
          "column": 1,
          "row": 7
        }
      ],
      "weights": [
        {
          "array": [
            [
              0.1124793291091919,
              0.2712632417678833,
              -0.049602627754211426,
              0.23079133033752441,
              -0.35892748832702637,
              0.641130805015564,
              0.15687549114227295,
              -0.9907970428466797,
              0.23851442337036133,
              -0.47473347187042236,
              0.9232902526855469
            ],
            [
              0.9920589923858643,
              -0.3965723514556885,
              -0.6584278345108032,
              -0.3807448148727417,
              0.0013823049375787377,
              -0.26779961585998535,
              0.002112503396347165,
              0.6061438322067261,
              -0.03083789348602295,
              -0.6280717849731445,
              0.3710390031337738
            ],
            [
              0.0031151892617344856,
              -0.016338348388671875,
              -0.6751033067703247,
              0.8873753547668457,
              -0.3704202175140381,
              0.39420461654663086,
              -0.42110979557037354,
              0.22128045558929443,
              0.886471152305603,
              -0.3879423141479492,
              0.7341952323913574
            ],
            [
              -0.30946218967437744,
              0.9464010000228882,
              -0.5062981843948364,
              0.008562956005334854,
              -0.9555090665817261,
              0.99813312292099,
              -0.30831658840179443,
              0.7118352651596069,
              -0.5506148338317871,
              0.8976360559463501,
              -0.0024013519287109375
            ],
            [
              0.4400562047958374,
              0.9946556091308594,
              0.3204340934753418,
              -0.9739701747894287,
              -0.46682238578796387,
              0.9899494647979736,
              -0.9620312452316284,
              -0.6945496797561646,
              0.8714302778244019,
              0.9430055618286133,
              -0.9194091558456421
            ],
            [
              0.36852729320526123,
              -0.028241634368896484,
              0.6994551420211792,
              0.998350977897644,
              -0.439131498336792,
              0.45041680335998535,
              0.8833361864089966,
              -0.004723668098449707,
              -0.03862500190734863,
              -0.4456073045730591,
              0.11277329176664352
            ],
            [
              0.20147573947906494,
              -0.36752796173095703,
              0.9398667812347412,
              0.16009259223937988,
              0.5799658298492432,
              -0.8456333875656128,
              -0.7932469844818115,
              0.9095850586891174,
              0.7235554456710815,
              0.9952977299690247,
              0.7778102159500122
            ],
            [
              7.949364953674376E-4,
              -0.742687463760376,
              0.005407202523201704,
              -0.7237019538879395,
              -0.974006175994873,
              0.7555515766143799,
              0.9538986682891846,
              0.6350852251052856,
              0.8255007266998291,
              -0.8877112865447998,
              -0.7924052476882935
            ],
            [
              -0.6411142349243164,
              0.8442586660385132,
              -0.5899503231048584,
              0.17373216152191162,
              -0.750159740447998,
              -0.27658259868621826,
              0.030785080045461655,
              0.9305596351623535,
              -0.6426494121551514,
              -0.5918772220611572,
              0.904677152633667
            ],
            [
              0.8722370862960815,
              0.3178269565105438,
              0.8547062873840332,
              -0.9542397260665894,
              0.5824133157730103,
              -0.2352151870727539,
              -0.962876558303833,
              0.8807258605957031,
              -0.35208749771118164,
              -0.2694888114929199,
              0.1923353672027588
            ],
            [
              -0.024449825286865234,
              0.0058587417006492615,
              -0.7077875137329102,
              0.46611130237579346,
              -0.47147607803344727,
              -0.06449234485626221,
              0.2549368143081665,
              -0.8476216793060303,
              0.17209766805171967,
              0.8121753931045532,
              0.9984330534934998
            ],
            [
              0.008098742924630642,
              0.8858292102813721,
              -0.14919209480285645,
              0.9383907318115234,
              0.810519814491272,
              0.00722972396761179,
              -0.6802455186843872,
              0.5426892042160034,
              -0.9364231824874878,
              0.1305938959121704,
              -0.48922646045684814
            ],
            [
              0.29564225673675537,
              -0.7246882915496826,
              -0.9477685689926147,
              -0.07932424545288086,
              0.03287224471569061,
              0.044039130210876465,
              0.012719563208520412,
              0.8659541606903076,
              -0.9733868837356567,
              0.236395001411438,
              -0.9845682382583618
            ],
            [
              0.9971079230308533,
              -0.4112889766693115,
              0.8702712655067444,
              -0.2960244417190552,
              -0.689375638961792,
              -0.7516549825668335,
              0.23525094985961914,
              0.8497576713562012,
              -0.8989396095275879,
              0.8066296577453613,
              -0.6371303796768188
            ],
            [
              0.5471628904342651,
              0.17756478488445282,
              0.003948310390114784,
              0.34615111351013184,
              0.27524733543395996,
              -0.23468267917633057,
              0.844670295715332,
              0.5095767974853516,
              0.7720253467559814,
              0.6741763353347778,
              0.891973614692688
            ],
            [
              0.0021555423736572266,
              0.4528120756149292,
              0.8500089049339294,
              -0.019535541534423828,
              0.0692407637834549,
              0.4113081693649292,
              0.0023682783357799053,
              0.5048682689666748,
              -0.6300656795501709,
              0.23316071927547455,
              -0.6537598371505737
            ]
          ],
          "column": 11,
          "row": 16
        },
        {
          "array": [
            [
              -0.06569206714630127,
              -0.19566643238067627,
              0.16797268390655518,
              0.550093948841095,
              0.44987690448760986,
              0.5017728805541992,
              0.6891732215881348,
              -0.3199930191040039,
              0.8869208097457886,
              0.16852033138275146,
              0.706912636756897,
              0.4677068591117859,
              0.8678067922592163,
              0.005958568304777145,
              0.972104549407959,
              0.0131785087287426
            ],
            [
              -0.9626336097717285,
              -0.777963399887085,
              0.6652841567993164,
              0.0024336976930499077,
              0.3578833341598511,
              0.9986143112182617,
              0.7163748741149902,
              -0.19281506538391113,
              -0.5815731287002563,
              -0.6874402761459351,
              0.2733660936355591,
              -0.23636269569396973,
              0.7224372625350952,
              0.7040629386901855,
              0.10525143146514893,
              -0.3728775978088379
            ],
            [
              -0.09570634365081787,
              0.6922518014907837,
              0.4269423484802246,
              -0.7209540605545044,
              0.16214752197265625,
              -0.6547302007675171,
              -0.9782458543777466,
              0.8998956680297852,
              0.945050835609436,
              1.1599063873291016E-4,
              -0.6623086929321289,
              0.07772445678710938,
              0.6930278539657593,
              0.9669498205184937,
              0.8552521467208862,
              0.05744314193725586
            ],
            [
              0.8262152671813965,
              -0.1777735948562622,
              0.4071826934814453,
              0.9958141446113586,
              0.37170422077178955,
              0.9590951800346375,
              0.1603391170501709,
              0.949587345123291,
              -0.20627355575561523,
              -0.2235713005065918,
              0.7003500461578369,
              0.6326462030410767,
              -0.5249595642089844,
              -0.48032331466674805,
              0.7488316297531128,
              0.68398118019104
            ],
            [
              0.6367326974868774,
              0.550988495349884,
              -0.554438591003418,
              0.9622546434402466,
              -0.43662941455841064,
              0.3126899003982544,
              0.580604076385498,
              -0.5153049230575562,
              -0.8650270700454712,
              0.9421002864837646,
              -0.3185335397720337,
              0.5797994136810303,
              0.7023036479949951,
              0.45654332637786865,
              -0.7532150745391846,
              0.40301668643951416
            ],
            [
              -0.8454940319061279,
              -0.4170815944671631,
              -0.24912488460540771,
              0.835639476776123,
              -0.9737348556518555,
              0.6565210819244385,
              0.18405091762542725,
              0.09340059757232666,
              0.11499309539794922,
              -0.6625621318817139,
              0.9703422784805298,
              0.8211336135864258,
              0.0067542060278356075,
              0.629096508026123,
              -0.8174221515655518,
              0.8690900802612305
            ],
            [
              0.7982185482978821,
              0.4451022148132324,
              -0.3774939775466919,
              0.004812690895050764,
              0.9536662101745605,
              -0.32347798347473145,
              -0.7634624242782593,
              -0.14046013355255127,
              -0.4242171049118042,
              -0.5923210382461548,
              0.789258599281311,
              0.8353784084320068,
              0.2884964942932129,
              -0.9540712833404541,
              -0.6651408672332764,
              0.0012378118699416518
            ]
          ],
          "column": 16,
          "row": 7
        }
      ]
    },
    {
      "biases": [
        {
          "array": [
            [-0.1135706901550293],
            [0.9832941293716431],
            [-0.6382114887237549],
            [0.7488518953323364],
            [0.02435588836669922],
            [-0.007208108901977539],
            [0.0010448989924043417],
            [0.22502315044403076],
            [-0.8722116947174072],
            [0.004166056402027607],
            [0.9870051145553589],
            [-0.41669678688049316],
            [0.08150263875722885],
            [0.286202073097229],
            [0.9256556034088135],
            [0.9700882434844971]
          ],
          "column": 1,
          "row": 16
        },
        {
          "array": [
            [-0.39243900775909424],
            [-0.49230432510375977],
            [0.1670076847076416],
            [-0.587316632270813],
            [-0.8826978206634521],
            [0.020324157550930977],
            [0.9867421984672546]
          ],
          "column": 1,
          "row": 7
        }
      ],
      "weights": [
        {
          "array": [
            [
              0.1124793291091919,
              0.2712632417678833,
              -0.049602627754211426,
              0.23079133033752441,
              -0.35892748832702637,
              0.641130805015564,
              0.15687549114227295,
              -0.9907970428466797,
              0.23851442337036133,
              -0.47473347187042236,
              0.9232902526855469
            ],
            [
              0.9920589923858643,
              -0.3965723514556885,
              -0.6584278345108032,
              -0.3807448148727417,
              0.0013823049375787377,
              -0.26779961585998535,
              0.002112503396347165,
              0.6061438322067261,
              -0.03083789348602295,
              -0.6280717849731445,
              0.3710390031337738
            ],
            [
              0.0031151892617344856,
              -0.016338348388671875,
              -0.6751033067703247,
              0.8873753547668457,
              -0.3704202175140381,
              0.39420461654663086,
              -0.42110979557037354,
              0.22128045558929443,
              0.886471152305603,
              -0.3879423141479492,
              0.7341952323913574
            ],
            [
              -0.30946218967437744,
              0.9464010000228882,
              -0.5062981843948364,
              0.008562956005334854,
              -0.9555090665817261,
              -0.020563840866088867,
              -0.30831658840179443,
              0.7118352651596069,
              -0.5506148338317871,
              0.8976360559463501,
              -0.0024013519287109375
            ],
            [
              0.4400562047958374,
              0.9946556091308594,
              0.3204340934753418,
              -0.9739701747894287,
              -0.46682238578796387,
              0.9899494647979736,
              -0.9620312452316284,
              -0.6945496797561646,
              0.8714302778244019,
              0.9430055618286133,
              -0.9194091558456421
            ],
            [
              0.36852729320526123,
              -0.028241634368896484,
              0.6994551420211792,
              0.998350977897644,
              -0.439131498336792,
              0.45041680335998535,
              0.8833361864089966,
              -0.004723668098449707,
              -0.03862500190734863,
              0.0034098674077540636,
              0.048056893050670624
            ],
            [
              0.20147573947906494,
              -0.36752796173095703,
              0.9398667812347412,
              0.16009259223937988,
              0.5799658298492432,
              -0.8456333875656128,
              -0.7932469844818115,
              0.9095850586891174,
              0.7235554456710815,
              0.9952977299690247,
              0.7778102159500122
            ],
            [
              7.949364953674376E-4,
              -0.742687463760376,
              0.005407202523201704,
              -0.7237019538879395,
              -0.974006175994873,
              0.7555515766143799,
              0.9538986682891846,
              0.6350852251052856,
              0.8255007266998291,
              -0.8877112865447998,
              -0.7924052476882935
            ],
            [
              -0.6411142349243164,
              0.8442586660385132,
              -0.5899503231048584,
              0.18231087923049927,
              -0.750159740447998,
              -0.27658259868621826,
              0.030785080045461655,
              0.9305596351623535,
